-0.220126
0.711491
-0.845155
-0.428885
-0.0101186
0.697694
-0.496816
0.299313
-0.079725
-0.180138
0.676753
0.565982
0.223669
-0.799479
0.871886
-0.669307
-0.580915
-0.613451
-0.388173
-0.948571
0.155305
0.751078
0.489913
0.580029
0.229414
-0.00375414
0.626591
0.318502
0.974753
0.0588874
-0.123867
-0.844894
0.208293
0.833248
0.467317
-0.34719
-0.67283
-0.944632
-0.0329393
0.925905
0.104625
0.270979
0.795067
-0.0825795
-0.565849
0.688226
-0.744561
-0.789575
0.0297594
0.60704
0.168065
-0.0938337
-0.247179
0.762343
0.221869
-0.885352
0.60215
0.984952
0.277619
0.0374556
-0.224699
0.1947
-0.303386
0.429205
0.849303
0.829091
-0.900155
-0.0622942
-0.761928
0.587443
0.403908
0.0666162
0.771057
0.228884
0.981719
0.59166
0.376159
-0.542076
0.18866
0.959322
0.828067
-0.266144
-0.366247
0.347984
-0.149668
-0.597503
-0.585324
0.427866
0.891713
-0.0182157
-0.0680219
-0.759971
0.652629
-0.272316
0.927065
0.526536
-0.580613
-0.490001
-0.572968
0.974828
-0.336243
-0.420141
0.332504
0.29981
0.333733
0.151096
0.321465
0.921262
-0.0921434
0.585643
-0.963883
-0.74689
-0.577268
0.328643
0.25665
-0.11177
0.201699
-0.0356663
0.870082
0.533543
0.694467
0.51349
0.543766
0.550158
0.517299
0.593549
0.160724
0.413828
0.685148
0.602815
0.234662
0.405699
0.134082
-0.930663
-0.332163
-0.917447
-0.893793
0.39778
0.249872
-0.412603
-0.867674
-0.93491
-0.371304
-0.573222
0.503327
-0.785774
-0.611165
-0.544735
-0.433477
0.618559
-0.361673
0.892239
-0.997698
0.799742
-0.598367
0.712938
-0.390409
0.757274
-0.950965
0.593805
-0.763585
-0.477064
0.232469
0.963361
-0.355472
0.120301
0.340809
-0.675872
0.871456
-0.721248
0.528723
-0.385836
-0.699755
-0.922736
-0.41895
0.74667
-0.514757
-0.140085
0.866277
-0.926291
-0.966949
0.657457
-0.000300765
-0.890654
0.953674
0.102629
-0.0387628
-0.719921
-0.029503
0.289949
-0.484177
0.426732
-0.291106
-0.832795
0.436776
0.766474
-0.219343
-0.684836
-0.997081
-0.569509
-0.483294
-0.132662
0.888331
0.97228
0.194508
-0.540993
-0.180316
-0.650241
-0.91324
-0.0790743
-0.518248
-0.718422
-0.131112
0.128586
-0.0789242
0.879315
0.859635
-0.0295024
-0.876414
0.100142
-0.591794
0.341486
-0.65293
-0.375438
-0.943587
-0.341484
0.59319
0.672882
-0.679233
0.798429
0.91556
0.0995822
-0.399042
0.0262029
0.593972
-0.514022
0.270589
0.568943
0.603907
-0.291168
0.384688
0.709222
0.265419
0.965868
0.305487
0.433563
0.196732
-0.395299
0.239604
-0.313355
-0.611007
0.456865
0.165674
0.133446
-0.169173
-0.518437
0.449757
-0.904087
0.190939
-0.175608
-0.998271
-0.35854
0.29128
0.0518497
0.100993
-0.856864
0.165263
0.176727
0.260022
0.602484
-0.303986
0.451882
0.867942
-0.186189
-0.409405
-0.15288
-0.876494
-0.611766
-0.824284
0.0739231
-0.677281
-0.530424
-0.591046
-0.0337949
0.269601
-0.1287
-0.35321
0.607479
-0.882452
-0.0429392
-0.892485
0.264811
0.0594395
-0.311669
-0.214231
-0.0966744
0.590699
0.231885
0.470155
0.978438
0.500426
-0.708254
0.737823
-0.966569
0.384693
-0.757788
-0.0830262
-0.832962
0.076527
0.324422
0.77647
-0.570723
-0.735879
0.553611
-0.440793
-0.707113
0.259351
0.933875
0.787027
-0.453648
-0.63125
0.774526
0.564957
-0.95722
0.811227
-0.62108
0.885491
-0.925695
0.723502
-0.964086
0.984632
-0.166681
-0.639415
0.768018
-0.201558
-0.834352
0.260211
0.120253
0.552059
0.075587
-0.346683
0.464319
0.203766
-0.534338
0.145187
-0.57532
-0.94715
-0.366633
0.800537
-0.332742
0.172477
-0.373296
-0.943876
-0.803501
-0.345952
0.128725
0.744043
-0.266463
-0.727761
0.405853
-0.797545
0.477587
-0.435055
-0.688489
-0.0621282
0.723657
0.291174
-0.186547
-0.647986
-0.0831965
0.622664
0.681971
-0.0829762
-0.0942686
-0.94896
0.673269
-0.230339
-0.540415
0.68304
-0.207774
-0.31787
0.300458
-0.238468
0.330836
-0.149317
-0.945835
0.432177
-0.877654
-0.462478
-0.142065
0.0566065
-0.0130715
0.202647
-0.342987
0.427516
0.434605
-0.287355
-0.360788
-0.785254
0.03186
-0.64251
-0.704253
-0.622437
0.905077
0.543065
-0.136968
0.382175
0.82551
-0.917593
0.0650187
-0.679616
-0.896419
-0.326125
-0.803327
-0.417146
-0.739677
0.455893
0.378753
0.331563
-0.81683
-0.764547
0.661895
0.312194
-0.154734
0.688415
0.257174
-0.605636
-0.999327
-0.521324
-0.310956
0.923306
-0.478241
0.580248
0.0909624
0.23624
0.730458
0.419608
-0.161109
0.468033
0.929819
0.236321
-0.903402
0.493536
-0.50045
-0.384068
0.687965
-0.496576
-0.0519528
0.976064
0.956367
0.483649
-0.637355
-0.582917
-0.279223
-0.437497
0.0307539
-0.779709
-0.925176
0.634705
-0.606902
-0.813812
-0.0550984
-0.992249
0.187258
0.0706019
0.253167
-0.759117
-0.271793
0.543096
0.872501
0.35335
0.279206
-0.185821
-0.812857
0.312943
0.813681
0.227567
0.262705
0.839724
0.880617
0.959751
-0.604612
-0.372061
-0.905117
-0.388602
-0.935834
-0.453069
0.742449
-0.524886
-0.203646
0.400259
-0.929702
0.0507185
0.956651
-0.946307
0.68144
0.053888
0.397917
-0.196577
-0.800923
0.130832
-0.224884
-0.504531
0.265996
0.763909
0.361259
0.123052
0.601533
0.0434266
0.12547
0.647729
-0.189695
-0.753448
-0.340725
-0.635443
-0.249498
-0.974544
0.522948
0.974173
0.230284
-0.106739
0.954929
0.37064
-0.647895
0.207286
-0.600496
0.294771
0.347073
0.777608
0.38955
-0.494797
0.77001
-0.971324
-0.215021
0.00837994
0.916441
0.0333533
-0.615744
0.712957
0.460856
-0.411739
-0.502722
0.857102
-0.907268
0.600046
0.914653
0.114989
0.713538
0.31657
0.271214
0.874503
0.74947
-0.683214
0.826684
-0.131331
-0.854193
0.391367
-0.889592
-0.772507
-0.764901
0.297144
0.980896
-0.816515
-0.533669
-0.102024
-0.0925376
-0.110863
0.147251
-0.446771
-0.171767
-0.311604
0.389939
-0.779624
0.0974489
-0.544662
-0.231682
0.327966
0.9765
0.573416
-0.212904
-0.483971
0.217104
-0.347379
0.327268
0.273131
-0.68258
0.518119
-0.84487
0.0358407
-0.746546
0.815891
-0.147228
-0.292814
-0.743251
-0.915076
0.526386
-0.455867
0.339058
-0.578007
-0.622021
0.360605
0.349986
-0.19827
-0.79138
0.339403
-0.64178
-0.894231
0.430853
-0.127429
0.630767
0.898678
-0.939764
0.534848
-0.418564
-0.286641
-0.836496
0.865176
-0.256309
-0.16972
0.674972
0.516509
-0.1095
-0.746056
0.560982
0.220565
0.600347
-0.691503
-0.0858185
-0.790004
-0.756746
-0.777953
0.80012
0.820895
0.7227
-0.122985
-0.899933
0.76165
-0.014576
0.362406
-0.873831
-0.104542
-0.13352
-0.857649
-0.274827
-0.299794
-0.364396
-0.269689
0.905229
0.444372
0.954346
-0.312393
-0.917038
-0.798151
0.620699
-0.936082
0.2805
-0.423943
0.315338
0.157417
0.58459
0.484689
-0.328151
0.612544
-0.267599
-0.285167
-0.651637
0.809619
0.502863
0.391299
0.61448
0.0212759
-0.987569
-0.242243
-0.516315
0.207523
-0.848999
-0.861966
-0.331885
-0.109335
0.247826
-0.13136
-0.236452
0.368082
-0.229492
0.817561
-0.965358
0.746364
-0.662979
0.436112
0.0134356
0.87678
0.0208578
0.258957
-0.35252
-0.67542
-0.19326
-0.78063
0.999408
0.705395
0.886286
0.712657
-0.869235
0.890604
-0.806941
0.804719
-0.794576
-0.121567
-0.909902
0.66862
0.257829
-0.26324
-0.37665
0.366624
-0.130967
-0.913815
0.220434
-0.0542947
0.557347
-0.0591015
-0.594086
0.977142
0.745653
0.861493
-0.799526
0.576493
-0.463539
-0.946632
0.713374
0.522137
0.109456
0.680016
0.390908
-0.755276
-0.972222
-0.629696
-0.60553
-0.771539
0.424895
-0.47269
-0.901208
-0.534327
0.130118
-0.645412
0.994209
-0.566607
-0.887542
0.786868
0.394879
-0.458279
-0.71462
0.400017
0.0693486
-0.126798
-0.0623407
0.919223
0.172333
-0.385115
-0.472953
-0.528335
-0.91105
-0.355594
0.512725
-0.518498
-0.242275
0.576108
0.17747
0.482
-0.141475
-0.492636
0.226255
0.169591
-0.363652
0.567998
0.495381
-0.422619
-0.902155
-0.176482
0.347319
0.931927
0.147042
-0.671396
0.0917878
0.816869
-0.614236
0.453177
-0.668357
0.542462
-0.838714
-0.494215
-0.84782
-0.507531
-0.197862
-0.552412
0.649075
0.828152
0.980528
0.771418
-0.484748
-0.206131
0.128675
-0.455075
-0.0388393
-0.729786
0.929879
0.621937
0.615062
0.100933
-0.789362
-0.25945
0.932949
-0.989248
-0.978262
0.378942
-0.926965
-0.913274
0.274638
-0.0209861
0.926185
-0.165888
0.551499
0.585462
0.205662
0.27153
-0.310609
-0.709381
-0.379146
0.807975
-0.213861
0.971637
0.131226
-0.986501
0.873116
-0.817619
-0.997208
0.461998
0.515124
-0.923884
0.581196
0.983197
-0.723307
-0.681141
0.936703
-0.102561
-0.240492
-0.776741
-0.25538
0.204208
-0.113759
-0.75699
0.352742
-0.298961
0.912013
-0.920403
0.808494
-0.520479
-0.305563
-0.110281
0.0552197
0.618662
0.0169897
-0.35121
0.709029
0.214693
0.737666
0.408854
-0.227394
0.158401
-0.442027
-0.075348
0.832034
-0.937384
0.99738
-0.165216
-0.422054
0.653633
-0.573276
0.242844
0.120384
-0.947309
0.274801
-0.100292
0.781247
0.0420114
0.66966
-0.287415
0.484888
-0.743116
0.690634
0.845559
0.649581
-0.473905
-0.990749
0.831908
-0.86379
0.948371
-0.625149
0.62855
0.90016
-0.263696
-0.416169
0.755713
0.51655
-0.390562
-0.339804
0.0626659
-0.134047
-0.393546
-0.976595
-0.127961
0.263828
-0.326148
0.59938
-0.723653
0.964939
0.0648221
0.850534
-0.312054
0.334155
-0.400829
0.309808
-0.826598
-0.183432
-0.412462
0.504165
-0.883601
-0.0727984
0.34919
-0.997038
-0.999428
0.840201
0.245085
-0.833478
-0.45445
-0.427463
0.286619
-0.469419
0.537216
-0.233834
-0.736947
-0.603101
-0.637292
-0.339467
0.496611
-0.745091
0.267792
0.388457
0.255658
-0.797463
0.464687
0.565937
-0.567788
0.158511
-0.978922
0.49308
-0.755428
-0.664755
0.0188708
0.775689
0.991427
-0.431282
-0.507282
-0.376392
-0.404772
-0.0455972
-0.305625
-0.0569686
-0.660564
0.622034
0.034405
0.831004
-0.85182
0.848718
0.262001
0.431331
-0.0439494
0.675217
-0.114449
-0.785822
-0.564986
-0.594736
0.334598
-0.675007
-0.542465
0.0147622
-0.921746
0.638643
-0.152328
0.287794
0.583709
0.323379
0.129767
-0.0312411
-0.0680666
0.275893
-0.216353
0.838677
0.856854
-0.13494
0.232357
0.134515
-0.0881199
-0.918883
0.563907
0.844173
-0.207692
-0.296842
-0.0568119
-0.597662
0.444399
0.230898
-0.152932
-0.00476003
-0.674979
-0.791762
0.533738
-0.78274
0.258479
0.395202
0.28134
0.576537
0.337664
0.0814008
0.32331
-0.349297
0.767563
-0.351602
-0.0788383
-0.757966
0.313885
0.952801
-0.651504
-0.839962
-0.720708
-0.67282
-0.756882
0.819046
0.258363
0.804474
-0.129012
0.42715
-0.551315
0.359465
-0.881218
-0.949493
-0.50885
0.330042
0.868315
-0.225855
-0.0289478
0.85367
-0.514861
-0.287822
-0.266229
-0.899787
-0.0119818
0.512812
-0.00931871
-0.710418
0.214295
0.955062
-0.75371
-0.0782256
-0.0959735
-0.456102
0.885848
0.941082
-0.460602
0.722982
0.206706
-0.519728
-0.247634
0.792306
-0.886388
0.183345
-0.584827
0.493279
-0.35684
-0.131225
-0.501915
-0.624768
0.973873
-0.408317
-0.574677
-0.832255
0.0223482
-0.383076
0.190894
0.584142
0.691748
0.223273
-0.250967
-0.140267
0.813968
0.935024
0.360375
-0.464907
0.584343
0.446088
0.896872
0.273691
0.211615
0.267553
0.772114
0.483329
-0.437895
0.249659
0.324165
-0.640524
0.313463
0.792614
-0.995577
0.881363
0.951973
-0.553133
0.786164
-0.804384
-0.788596
0.139424
-0.917453
-0.116634
0.11217
-0.649684
0.448063
0.0875022
0.466406
-0.800466
0.0141858
-0.972144
-0.606019
-0.473183
-0.763136
0.412386
-0.433477
0.425223
0.660951
0.180501
-0.576208
-0.865837
0.836304
-0.664619
0.00326502
-0.702916
-0.491825
-0.504785
-0.688879
-0.840056
0.707487
0.814101
-0.258932
0.676223
0.760252
0.311397
-0.539566
-0.438239
0.541263
0.239682
-0.91534
-0.61318
0.599763
-0.158153
-0.275118
-0.311084
0.388758
-0.94482
0.169012
0.540388
0.875775
-0.52367
-0.732041
-0.536402
-0.925568
0.345777
-0.0567983
-0.110475
-0.0673702
-0.79025
0.911374
0.554943
0.113967
0.0958275
-0.996705
0.617402
0.80739
0.487588
0.717504
0.627028
-0.113409
-0.623767
-0.150907
0.929026
-0.57419
0.383756
-0.829402
-0.329297
0.696444
-0.545303
0.274047
-0.892066
-0.51983
-0.102899
0.829847
-0.907775
0.813994
0.647937
0.93885
-0.633095
0.405496
-0.213078
0.655016
-0.889011
-0.781919
-0.786023
0.541504
0.263699
0.656116
0.807247
0.272806
-0.304307
-0.796364
-0.384028
0.361977
-0.543187
-0.565438
0.124056
0.304486
-0.774063
0.302249
0.795906
0.573093
0.993654
-0.820144
0.227843
0.0534515
0.487957
-0.422962
0.1159
0.890794
0.693624
0.173908
-0.557113
0.805759
0.435057
-0.167614
0.0159831
-0.765146
-0.0944539
0.556947
-0.66072
0.107871
0.71111
-0.332988
-0.498188
0.470769
0.701074
-0.313867
0.333624
-0.999376
-0.752344
-0.949089
0.224233
-0.417063
-0.921612
-0.731332
0.375883
-0.023465
0.359143
0.382145
0.842888
-0.867466
0.390909
-0.21241
0.169914
-0.689721
-0.448972
0.529
-0.207535
0.485381
-0.255101
0.626925
0.0959597
-0.18952
-0.405435
-0.490439
0.782608
-0.558841
-0.681094
-0.869407
0.474597
0.732236
0.361802
-0.962374
-0.604874
-0.92922
-0.869021
0.229452
0.36702
0.777029
0.58354
-0.958292
0.889648
0.406987
-0.813858
0.784549
0.421243
0.29738
-0.698452
-0.130464
0.760401
-0.977865
0.701034
-0.469032
-0.167161
-0.158398
0.532829
0.587483
-0.91796
-0.070392
-0.141242
-0.928955
-0.48406
-0.148014
0.276433
-0.942022
0.519655
0.0636125
-0.716467
0.551454
-0.520746
0.118662
0.161397
0.959203
0.18565
0.46739
-0.185339
-0.0476433
0.780454
0.412908
-0.756352
-0.596665
-0.0669783
-0.380606
0.375603
-0.0862688
0.730271
0.706912
-0.897379
-0.0749475
0.921306
-0.411427
-0.45907
0.1949
0.698645
-0.463026
-0.531812
0.469254
-0.537615
0.899382
0.533799
0.829848
-0.108544
0.128983
-0.365768
-0.551896
-0.482846
0.82074
0.831955
0.792823
-0.597758
-0.038041
-0.467513
-0.297822
0.597941
-0.917217
-0.835091
-0.613298
0.0555311
0.656342
-0.49924
-0.195317
0.270582
-0.0470634
-0.215483
0.126833
-0.572227
0.164399
0.10569
0.258511
0.588943
0.757223
0.559406
0.182981
-0.406025
-0.771004
-0.968047
-0.675635
-0.816194
0.786416
-0.640298
-0.272566
0.314149
0.837646
-0.962074
-0.548007
0.626686
0.00936103
0.847593
-0.0340551
-0.29599
-0.191853
-0.815411
-0.499952
-0.0256373
0.286193
-0.672139
0.190626
0.214191
0.357293
0.174653
0.62502
0.889766
0.265057
0.592582
-0.846091
0.0595074
-0.525746
0.205196
-0.384973
-0.944412
0.318776
-0.601075
-0.768645
-0.795447
-0.698459
-0.539251
0.716142
0.511525
-0.0766702
0.964253
-0.927484
-0.791647
0.272895
0.0392855
-0.953334
0.89588
0.909763
0.20861
-0.674842
-0.283449
-0.586008
0.663037
-0.428409
-0.812313
-0.94928
0.356237
0.384672
-0.25323
-0.451159
0.0710123
0.545771
0.75172
0.169577
0.108952
-0.741171
0.79799
-0.519294
0.0646964
-0.340979
-0.652637
-0.697929
0.306188
0.315528
-0.0908643
0.798157
0.992368
0.730879
0.666327
0.39201
0.715631
-0.139389
-0.850738
0.137811
0.260715
0.499673
-0.922903
-0.484027
-0.577477
0.901565
0.234849
-0.0386401
-0.353551
0.30218
-0.135967
0.80121
0.555076
0.135543
-0.972069
0.736739
-0.71287
-0.809581
-0.768857
0.10052
0.146811
0.236297
-0.934401
0.691173
-0.431937
-0.732887
-0.225576
-0.721861
0.550905
0.839265
-0.405187
-0.796709
-0.980174
-0.947224
0.922427
0.882803
0.497689
0.318535
0.633674
0.443312
-0.963857
0.808832
0.888378
0.343745
0.0325716
-0.579714
-0.710705
-0.155133
0.847226
-0.0421293
-0.7093
-0.341249
-0.724429
0.821397
-0.878479
0.670524
0.502018
0.153075
-0.196225
-0.717488
-0.703025
-0.927733
-0.543111
0.0070318
0.384265
-0.717491
-0.836254
-0.462974
0.539743
0.323896
-0.15752
-0.882476
-0.433998
-0.760036
-0.116894
0.141621
-0.0971529
-0.610888
-0.331929
-0.240013
-0.180967
0.861803
0.681774
0.837427
-0.911026
-0.928424
-0.769345
0.931828
-0.0705104
0.930729
0.77758
0.76338
0.851638
0.803861
-0.696066
-0.0656159
-0.00865948
0.49325
0.849195
0.111034
0.217898
0.352675
0.088701
0.213739
0.491048
0.676675
-0.204372
0.144116
0.429719
0.416729
-0.725737
-0.458072
0.717857
-0.818408
-0.938973
0.761009
0.741483
-0.877598
-0.537921
-0.51523
-0.42095
-0.607996
0.981288
0.862629
-0.497824
-0.325334
-0.15204
0.681872
0.880884
-0.901926
-0.00334549
-0.0433284
0.876213
0.23394
0.608121
-0.5607
-0.222806
0.533795
-0.824561
0.416921
0.385803
0.629581
0.748333
-0.124203
-0.741784
0.267753
0.249927
0.234852
-0.645456
0.105902
-0.872616
0.195726
0.589946
-0.956899
0.300992
0.398991
0.518745
-0.346281
0.933915
-0.228495
0.487758
-0.589115
0.618682
-0.944213
-0.945673
0.779312
0.911329
0.202887
0.858875
0.538733
-0.294612
-0.811381
0.302889
0.2096
-0.857828
-0.181203
-0.396549
0.863486
0.325984
-0.339528
-0.442944
0.715742
0.412762
-0.491907
-0.150139
-0.663766
-0.33197
-0.310897
-0.463423
-0.605232
-0.998681
0.566495
-0.535371
0.21142
0.233308
0.211659
-0.382577
0.164569
-0.357493
0.331253
-0.839745
0.777273
0.816486
-0.160731
0.835891
0.471869
0.0877982
0.85956
0.216236
-0.751957
-0.911084
-0.0630074
0.640526
-0.266454
-0.938819
-0.781676
0.310492
-0.850309
0.447032
-0.245919
0.636498
-0.303605
-0.444483
0.857064
0.333664
-0.252644
-0.476842
0.0448767
-0.823761
-0.199418
0.211188
-0.665234
-0.987169
0.162569
-0.501124
0.957144
-0.912314
-0.0544275
0.757237
-0.771434
-0.294426
-0.409127
-0.297824
-0.44663
0.110948
0.208535
-0.395491
0.278047
-0.528787
-0.710209
0.0926367
0.68787
0.140512
-0.610147
0.22115
0.473605
-0.950697
0.456969
0.990669
0.983679
0.903422
-0.446209
0.39761
-0.909361
0.384743
0.889601
-0.118501
0.815811
0.842779
-0.235177
-0.0240115
-0.365526
-0.736199
-0.988302
-0.313709
0.422126
-0.905009
-0.906824
0.373436
0.537252
0.699762
0.957409
-0.152537
0.0702355
0.0548699
-0.101761
-0.308885
-0.731756
0.898524
-0.38361
-0.155733
-0.110661
0.91775
0.493889
-0.415637
0.82125
-0.984549
-0.807529
-0.366347
0.731872
0.643201
-0.193221
-0.927718
-0.306278
0.648084
-0.981254
-0.297954
-0.327053
0.00781453
0.0591729
-0.415249
0.764653
-0.71436
0.377026
0.203944
-0.21861
0.34822
-0.814714
-0.776548
-0.439745
-0.0982435
-0.473769
-0.0182312
0.944976
0.67261
0.00220096
-0.904429
-0.443927
0.980132
-0.516954
0.474469
0.15598
-0.0213647
-0.340494
-0.860688
0.611064
-0.615991
0.27801
0.914105
0.462694
0.931946
0.0391057
0.744157
-0.848716
0.37368
0.770629
-0.349063
0.410958
0.573235
-0.485382
0.622643
0.0882585
0.618971
0.852437
-0.315588
-0.158318
0.523042
0.584916
0.31084
0.849076
-0.924441
-0.626164
-0.605166
-0.458125
-0.892878
0.195109
0.710629
-0.729252
0.690019
-0.0405333
0.239962
0.675068
-0.880808
0.176357
0.256594
0.439458
-0.554532
-0.521066
-0.331007
0.619626
-0.361886
0.526685
0.556846
0.41846
0.426098
-0.88502
-0.920465
-0.308835
-0.203561
-0.232059
0.214961
-0.615482
-0.353626
0.971242
-0.299263
0.50444
-0.348442
0.287107
-0.737503
0.88039
-0.784114
-0.545297
-0.331218
-0.189504
0.402236
-0.651439
0.979883
0.919464
0.713972
0.216753
0.121351
0.068837
0.869951
-0.0112803
0.00369442
0.443474
0.761177
0.148982
-0.931869
0.862868
-0.197589
-0.936503
0.976482
-0.00170982
0.110746
0.706809
-0.571098
-0.923709
0.592629
-0.769989
0.917637
-0.104064
0.00581861
0.180877
0.147869
-0.0589879
-0.984963
0.577778
0.731239
0.0722858
0.555116
0.3851
-0.225892
-0.319996
-0.426289
-0.806183
-0.578952
0.761173
-0.815572
-0.154115
-0.223283
-0.384648
-0.898887
-0.191624
-0.175758
-0.505738
0.168415
-0.0613008
-0.730871
-0.993623
0.556
-0.811217
-0.448215
0.386982
0.68241
-0.650591
0.889078
0.540214
-0.448658
0.645795
0.301178
0.139596
-0.246861
-0.471599
0.339082
0.753959
-0.0830388
-0.805587
0.932371
-0.186453
-0.749648
-0.190209
-0.969645
0.393634
0.166427
-0.466706
-0.857253
-0.41199
0.197275
-0.604928
-0.974553
0.703321
0.782112
0.169188
0.984131
-0.53034
0.939007
-0.4173
-0.675838
-0.515422
-0.137288
-0.0717056
-0.546753
0.972253
-0.950649
0.970233
0.699203
0.920147
0.389909
0.457729
-0.389138
-0.204832
-0.663892
0.356426
0.326176
-0.164193
0.644818
0.543699
0.164058
0.810439
0.82271
0.569786
-0.321365
0.915642
0.494727
0.620484
-0.593546
-0.672454
0.968211
-0.318119
-0.885348
0.222725
0.597999
-0.385017
0.673946
0.0485566
-0.0463005
0.293428
-0.123924
-0.945698
-0.128652
0.44538
-0.487192
-0.942557
0.388685
0.720607
0.393397
0.0405947
0.629756
0.427045
-0.984864
0.901049
0.0431579
0.482344
-0.435163
-0.481962
0.940502
0.608807
-0.164348
-0.790343
0.0589964
-0.323227
0.959922
-0.244976
0.704244
-0.986695
0.59445
-0.543015
-0.396374
0.382264
-0.917935
-0.262281
0.680237
-0.401225
-0.843828
-0.265909
-0.0560175
-0.156322
0.494917
-0.792897
0.926807
-0.605889
-0.203593
-0.90919
-0.905424
-0.334648
-0.469677
0.4467
-0.00432837
0.701391
-0.481602
-0.293077
0.21466
-0.80794
0.882866
0.388375
0.88706
-0.350959
-0.885942
0.580255
-0.92124
-0.698475
-0.84613
0.397542
0.817662
0.355021
0.633275
-0.11337
-0.945667
-0.876626
0.026713
0.981123
-0.36079
0.867109
-0.771948
0.0626036
0.215281
0.31799
0.301787
0.26818
-0.0234892
0.38574
-0.50545
0.579223
0.726599
-0.582463
-0.852062
-0.490139
0.482616
0.359213
0.299651
0.210091
0.399505
-0.953576
0.158932
0.942325
0.267013
0.764237
-0.65112
-0.00389457
-0.00660563
-0.0653108
-0.408259
-0.533587
-0.163718
-0.733286
0.910972
-0.777259
-0.40567
-0.483935
-0.998868
-0.681083
-0.700299
-0.268839
0.464587
0.173741
-0.0909178
-0.276854
0.0708919
-0.991101
-0.35176
-0.10567
-0.267902
-0.354202
0.259759
-0.573299
0.937303
0.524389
0.485663
0.296879
0.999954
-0.627286
-0.417145
-0.179412
-0.940997
0.283844
0.240281
-0.806519
-0.80663
0.50974
-0.0382059
0.115311
-0.79194
-0.397307
-0.122834
0.815275
-0.836351
-0.939441
-0.150803
0.340286
0.7365
-0.769978
-0.854123
-0.984456
-0.673615
0.616271
0.041836
-0.703576
0.916441
0.417731
-0.177513
0.593797
0.625967
-0.930817
-0.571447
-0.851279
0.375574
0.460043
0.104029
0.903196
0.112506
-0.46497
-0.158005
0.756128
0.907287
0.556556
-0.233276
0.56083
-0.746758
0.51744
0.20505
-0.347054
-0.841332
0.527149
0.305501
-0.51964
-0.635866
-0.231702
0.968619
0.420217
-0.863167
0.493848
0.706433
0.830039
0.801554
-0.49219
0.591878
0.426353
0.830355
0.151453
0.395667
-0.825077
-0.00195634
0.143958
-0.0745666
-0.34754
0.734986
0.931575
-0.383375
0.977208
0.0869517
-0.405568
-0.113125
0.494439
-0.00804865
0.442916
0.314055
0.986056
-0.718315
0.600673
-0.194722
-0.886591
0.977753
-0.80642
-0.885204
0.232879
0.813183
0.148551
0.0064137
0.653103
-0.501197
0.976075
-0.349856
-0.999934
-0.475454
-0.65181
0.598317
0.193365
0.704556
0.0634581
-0.879948
0.684454
0.923654
-0.105878
-0.463802
0.392594
0.275341
0.731753
-0.527978
-0.676304
-0.950141
-0.44627
-0.256113
-0.018098
0.67962
0.813913
-0.175714
-0.765627
0.135359
0.440988
0.339659
-0.651537
-0.366517
0.190936
-0.32341
0.754377
0.373209
-0.77348
-0.402204
-0.246271
-0.408493
-0.399017
0.967028
-0.448802
0.532276
0.737479
0.46482
-0.740548
0.742069
-0.934404
-0.847514
0.11629
0.98764
-0.867484
-0.110682
0.794207
0.995725
-0.867059
0.180604
-0.718413
0.26663
-0.792876
-0.864931
-0.19673
-0.437529
-0.410813
0.88731
-0.104637
0.934067
-0.732713
-0.510091
-0.38674
0.675851
0.615595
0.323906
-0.0375488
0.863739
0.798567
0.63966
-0.430539
-0.79512
0.091056
-0.759554
0.10399
0.0400017
-0.693315
0.527707
0.285305
0.331048
-0.463347
-0.426421
-0.556214
0.48326
-0.793814
-0.544189
-0.614621
0.998513
-0.863125
-0.969299
0.56957
0.609301
-0.188366
-0.334227
0.0745263
-0.48977
0.310261
-0.5667
0.982362
0.332836
-0.73473
-0.40265
-0.669451
0.675869
0.605264
-0.924084
-0.294229
0.363965
0.475874
0.892005
0.923512
0.572207
0.705971
-0.517876
-0.977383
-0.783482
-0.142666
-0.518059
-0.546054
0.840369
0.642456
0.0903612
0.520343
-0.451643
0.684744
0.0784963
-0.86336
-0.342204
0.408031
0.192898
0.857917
0.599224
0.934242
-0.614127
0.436283
-0.959474
0.826043
0.756521
0.428531
-0.339051
0.94726
-0.554967
0.246709
0.871903
-0.68929
-0.830327
-0.067657
0.0246699
0.49944
0.546497
-0.585499
0.69089
-0.280316
0.284649
-0.172986
-0.652303
-0.961456
-0.271189
-0.821446
-0.66105
-0.00679064
0.514867
0.81085
-0.542519
-0.268542
-0.348502
0.292542
0.70138
-0.332294
0.796809
0.903371
0.22137
0.982719
0.744339
0.296886
-0.503341
-0.403415
-0.994771
0.598429
-0.460105
-0.981385
0.674608
-0.687331
0.429136
0.335225
0.794633
-0.138411
-0.756596
0.500947
0.0155112
-0.873345
0.520145
0.46479
-0.803143
0.156206
-0.374204
0.826343
-0.187894
-0.319545
0.938563
-0.925442
-0.403103
0.0283929
-0.200272
0.134809
-0.829141
0.82381
0.210787
-0.158938
0.459529
-0.420961
-0.3611
-0.0842594
0.345739
0.115621
-0.163154
-0.50541
0.219444
-0.225085
0.0832943
-0.799913
0.618423
-0.654597
-0.0932209
0.604984
0.429451
-0.33101
0.675563
0.854707
-0.0273087
0.295055
-0.0577285
-0.964261
0.390477
-0.644722
-0.892824
0.195241
0.0829357
-0.750751
-0.51365
0.937912
0.697401
0.136805
0.635316
0.674189
-0.187531
0.0543764
0.319479
-0.421292
0.905631
-0.699395
-0.442531
0.744317
0.510493
0.331523
0.362307
-0.530571
-0.0409747
-0.913948
-0.781395
0.790108
-0.0223655
-0.310856
-0.351523
0.304272
-0.194464
0.708372
-0.566903
0.725365
-0.24636
-0.987844
0.0902592
0.724112
0.315587
-0.68228
0.813798
0.399065
-0.271665
-0.769561
0.16865
-0.879333
-0.320762
-0.59373
-0.158189
-0.854969
-0.386431
-0.543736
0.884525
0.701626
-0.405934
0.404717
-0.166169
-0.185509
0.87015
0.711273
0.407545
-0.241634
-0.390787
-0.777461
-0.428529
-0.789742
-0.475373
-0.720772
-0.108363
-0.283261
0.746466
0.459481
0.18031
0.077299
0.99809
0.966403
0.124202
0.832317
-0.38504
-0.748371
-0.134538
-0.976695
-0.86787
-0.957253
0.730097
0.53318
0.0953768
-0.946836
-0.568304
0.935382
-0.67156
0.775626
0.195963
0.203241
0.848526
0.239325
0.950563
-0.107703
-0.655241
0.168441
-0.31014
0.974969
0.844673
-0.222252
-0.866132
0.81726
-0.263881
0.209896
-0.74025
0.512504
0.912951
0.400659
-0.266695
-0.692062
-0.185686
-0.641003
-0.481295
0.793246
0.475351
-0.670386
0.0176338
-0.815774
-0.215236
0.889484
-0.321044
-0.889197
-0.613584
0.409478
0.301183
0.17123
0.784303
-0.903117
0.584065
0.16065
-0.553858
-0.695698
0.503468
-0.412231
-0.652539
-0.267863
-0.624339
0.0715779
0.61924
-0.0102298
-0.857618
0.21312
-0.0716237
0.0634739
-0.930326
-0.907014
-0.728129
-0.664166
0.63535
0.439773
-0.00214386
-0.919719
0.0590906
-0.940891
-0.45969
0.683813
-0.854102
-0.499143
-0.247311
-0.342655
0.80583
0.60116
-0.293325
-0.82103
-0.685576
0.63035
0.721702
0.734707
-0.392228
-0.171363
0.128486
0.0361952
0.17933
0.192457
-0.429402
0.0152259
-0.361473
0.241089
0.936611
-0.595751
-0.662228
-0.150781
-0.963575
0.767926
0.590645
0.152555
-0.96408
-0.791641
-0.188062
-0.435389
0.0861404
0.178274
-0.363161
-0.690841
0.311029
-0.614002
0.883367
0.135726
0.806155
-0.677593
0.369226
0.543062
-0.29399
0.663535
0.278092
0.148323
0.331341
0.591718
-0.788722
-0.203388
-0.326221
0.13571
-0.44916
-0.301606
0.672874
0.568448
-0.657108
-0.013746
-0.0868976
-0.872734
-0.876709
-0.911593
-0.750513
-0.736269
-0.930457
0.000240803
0.392041
0.336625
-0.362474
-0.724383
-0.741352
0.42441
-0.99679
0.346078
0.201495
0.470029
0.162279
-0.630852
0.878392
-0.440614
-0.569504
0.821203
0.935238
-0.768712
0.697015
0.9187
-0.258099
-0.721941
-0.178596
-0.295303
-0.0394808
-0.0175471
0.301048
-0.252301
-0.637579
-0.455874
0.837662
-0.859209
-0.0665096
0.0117168
0.0144081
0.15435
0.650108
0.121436
0.872581
-0.348763
0.367042
-0.436718
0.512698
0.0254842
0.819236
-0.951033
0.495221
-0.243967
-0.974711
0.55209
0.418566
-0.763637
-0.607817
-0.22077
0.0657668
-0.153842
0.77299
-0.319819
0.330776
0.622231
0.730689
0.383863
0.794268
-0.923526
0.0839573
-0.156733
0.130787
-0.433355
-0.727071
0.183531
0.972799
-0.630313
0.981635
-0.637533
0.490167
-0.104886
0.680091
0.686592
-0.401151
0.976445
0.0439625
-0.620569
-0.203046
0.18488
0.961632
0.134807
-0.646457
0.806048
0.461763
0.232031
-0.767201
0.938037
0.653201
0.0862515
0.414573
-0.27687
-0.898237
0.434969
0.330542
-0.328715
-0.731683
0.792263
0.171099
0.518107
0.300037
-0.288259
-0.784741
-0.711785
0.538617
0.818707
0.839943
0.548991
0.524474
-0.699997
-0.377459
0.0202352
-0.118634
-0.737858
-0.861057
-0.377186
-0.760329
0.457672
0.560637
-0.686883
0.425337
0.200382
0.801322
-0.011559
-0.183044
0.41232
-0.815705
-0.29719
0.351612
-0.869376
0.663484
-0.676743
-0.374987
0.967576
0.0541476
-0.877158
-0.436462
0.627482
0.322661
0.178885
0.949598
-0.654965
-0.262735
0.299302
0.249098
-0.580138
0.379717
-0.110342
-0.209155
0.401227
-0.612028
-0.522242
-0.20577
0.806993
0.96505
0.742024
0.0976762
0.536144
0.97933
-0.384488
-0.578906
-0.662562
-0.743979
-0.811079
-0.639959
0.800271
-0.491132
0.860379
-0.426098
-0.636515
0.541382
-0.343979
-0.228656
-0.0578928
-0.878431
0.303184
-0.884932
-0.0217578
-0.559999
0.874492
0.203808
0.827424
-0.436538
0.702092
0.635312
-0.723018
-0.141199
0.740403
0.709992
-0.996736
0.265113
0.236226
-0.30211
-0.719734
-0.249709
-0.988005
-0.448104
-0.808842
0.661732
-0.822862
0.745377
0.0285746
-0.112746
0.558612
-0.413821
-0.432343
-0.400202
0.971234
0.994478
-0.0801867
-0.307214
0.781591
0.993208
0.0555345
-0.366718
-0.920166
-0.546589
-0.586528
0.514534
-0.713557
0.244019
0.257789
-0.227926
-0.840303
0.392515
0.0654335
-0.794713
-0.684305
-0.217775
-0.827202
-0.60692
-0.0117066
-0.459571
-0.118204
-0.727384
0.618093
0.740787
-0.629614
0.371385
0.0318977
-0.0997757
-0.0722083
-0.98536
0.413998
-0.372935
-0.634355
-0.342648
0.263542
-0.87186
-0.886688
-0.317405
0.518634
-0.303833
0.0805153
0.412937
-0.605831
0.821003
0.137167
0.183049
0.0191424
0.930158
0.414574
0.269423
-0.0181627
0.825924
0.902926
-0.996023
0.600674
-0.71657
-0.826346
0.684769
0.992537
0.116398
-0.0246032
-0.839274
0.132264
-0.769256
0.221959
-0.99931
0.638678
0.777324
0.337901
0.39881
0.0725386
0.265473
-0.974396
0.449676
-0.757564
0.7433
-0.592996
0.478227
0.917706
0.495337
-0.218485
0.568471
-0.660634
-0.21778
0.0977684
0.855396
0.331929
0.738646
-0.172704
-0.0429707
0.187473
-0.587673
-0.570332
0.447855
-0.171085
0.926885
-0.892618
0.306687
-0.988578
0.683835
-0.0325229
-0.226643
0.0785972
0.465165
0.653158
-0.398697
-0.316041
-0.542048
0.00797856
0.33356
-0.255875
-0.166123
0.666229
0.87139
0.918795
0.557931
0.0474989
-0.590681
-0.192916
0.0284697
0.887143
0.215091
0.224755
-0.670635
0.908917
-0.577585
-0.403708
-0.644674
-0.955315
0.556083
0.860961
-0.22823
0.971571
0.646019
-0.255053
0.073176
0.509965
0.192879
-0.413543
0.597712
-0.261848
-0.593478
0.553469
-0.0109508
0.989733
0.713382
-0.710258
-0.557935
0.262672
0.056289
0.283438
-0.307606
-0.657394
-0.0348235
-0.743259
-0.677664
-0.730657
-0.905501
-0.0127136
0.320006
0.724348
-0.440655
0.251182
-0.134757
0.826506
0.493008
0.37744
-0.29208
0.55193
0.580807
0.725168
0.903341
0.627367
-0.239627
0.372282
0.228486
-0.27343
0.159042
0.452685
0.25581
-0.124953
0.17736
0.754874
0.362833
0.554789
-0.210286
0.418956
0.0543057
0.121394
-0.589238
0.545904
-0.123395
-0.928701
0.822263
0.371887
-0.410404
0.684786
-0.383889
-0.0712323
0.80493
-0.786275
0.493811
0.117562
0.0559211
0.180958
-0.0958276
0.772889
0.0700889
-0.984034
0.973889
-0.0850205
0.882861
-0.97263
0.324989
-0.384078
-0.653759
-0.0598545
0.214226
-0.1709
0.745293
-0.447933
0.195745
-0.0841081
0.621836
-0.960225
0.0167352
-0.846635
0.917218
-0.286208
0.342747
0.00434589
-0.65726
0.506464
-0.748248
-0.185545
0.707898
-0.761744
0.383269
0.398147
-0.199041
0.53697
-0.744453
-0.760887
0.113609
0.660125
0.330155
-0.53504
0.89455
-0.969241
-0.4258
0.0353781
-0.429842
0.910486
0.987353
0.755903
-0.43954
0.846167
0.492494
0.830145
-0.432837
-0.494288
-0.848687
-0.466812
-0.753581
0.0534558
-0.513064
0.760523
-0.105191
0.487326
0.832457
0.191621
0.171662
0.851112
0.793859
0.659562
-0.569112
-0.0716188
0.811462
0.57499
-0.991313
0.735434
0.320471
-0.453875
-0.243124
-0.892424
-0.876444
0.202489
0.448903
0.44334
0.775108
0.742075
-0.92731
0.245835
-0.68002
-0.665382
-0.688975
0.761818
-0.606186
-0.408842
-0.349911
-0.991933
-0.408646
-0.304038
-0.253554
0.373616
-0.0745479
0.870125
-0.816831
0.390301
-0.644736
0.0585672
0.683568
-0.164321
-0.527107
0.0287502
0.355739
-0.266884
-0.425134
-0.306225
-0.164202
0.435705
0.976875
-0.823253
0.613139
0.790119
-0.652252
0.268173
0.00550175
0.0539808
0.422289
-0.455449
0.172905
0.686154
0.888347
0.543512
-0.442697
-0.301344
0.291912
-0.910678
-0.048184
-0.419854
0.963227
-0.509191
0.353365
0.470597
0.0136461
0.211378
-0.294047
0.236434
-0.563241
0.119918
-0.816572
0.614846
-0.795413
0.303367
-0.186959
-0.10411
-0.876768
0.157609
0.797865
0.213559
0.863949
-0.675233
-0.385824
-0.145997
0.0802697
0.756688
0.505314
-0.397751
-0.41292
0.151266
-0.35011
-0.311656
0.814851
0.581834
0.930884
-0.677113
0.991441
-0.549775
-0.422113
0.711194
0.456046
0.440484
0.547946
-0.849599
0.714114
0.338409
0.952189
-0.592896
0.510926
0.285574
0.261862
0.0326862
0.649421
0.734076
-0.0241864
-0.698523
-0.113613
0.340256
0.887722
0.473996
0.0818117
-0.749365
0.18976
-0.290093
0.312575
-0.85951
0.756787
-0.751832
-0.884145
-0.894041
-0.900764
-0.756636
-0.454738
-0.662937
-0.732056
0.99973
-0.951351
0.262741
-0.469243
0.180132
0.5593
0.99784
-0.515151
-0.617607
-0.0188465
0.717643
-0.956287
-0.946887
-0.503273
-0.455413
-0.177468
-0.924808
-0.299965
-0.185269
-0.515095
0.464904
0.843796
-0.195155
0.439996
0.775667
0.238264
0.858003
-0.209132
0.972357
-0.820694
0.515865
0.300365
-0.753999
0.157567
0.656396
-0.410551
0.637983
-0.1674
0.286319
-0.113698
0.422525
0.761235
0.0949125
0.038081
-0.41394
0.0306243
0.645465
0.599744
0.177729
0.614119
-0.569379
0.763642
0.420525
-0.297325
0.305001
0.0445412
-0.53412
-0.601568
-0.805026
0.368692
0.471198
-0.750299
-0.676289
-0.595631
-0.776315
0.115703
0.247508
-0.809048
-0.127168
0.390528
0.994566
0.575029
0.21434
0.605894
0.213049
0.54236
-0.681472
0.72931
0.176909
0.0182035
-0.564628
-0.70244
0.94945
0.66665
-0.0222656
-0.15586
0.290988
0.572783
0.25929
-0.119765
0.677283
-0.792159
0.986431
-0.296507
0.0527486
0.459175
-0.449007
0.299071
-0.00842357
0.856544
0.796534
0.449644
-0.515925
-0.374817
-0.0678868
-0.98184
-0.0394725
0.775288
0.0824081
0.0235367
-0.175135
-0.544114
0.0289725
-0.292301
-0.809218
-0.215631
-0.110926
0.320543
0.834995
0.414862
0.995
0.295165
0.56605
-0.252782
0.271428
-0.294091
-0.348594
0.906204
-0.943692
0.699302
0.467795
0.73447
0.195252
-0.691308
-0.221303
0.79378
-0.956323
-0.238799
-0.912447
0.718346
-0.268934
0.961272
-0.014258
-0.696132
-0.402932
0.517974
0.875144
0.851409
0.611207
-0.617844
0.342327
0.584685
0.711654
0.54417
0.700862
0.45455
-0.392928
0.55152
0.681437
0.086097
0.5773
0.72871
-0.94294
-0.495527
-0.586125
-0.578276
-0.554266
0.443122
-0.430274
0.630736
0.963066
-0.279937
-0.458716
0.518707
-0.0230967
0.33632
-0.219707
0.0532881
0.311261
0.144765
0.553516
-0.182591
-0.761573
0.500411
0.576181
0.98072
0.959789
0.694562
-0.673306
0.317504
0.22139
-0.19614
-0.168557
-0.252014
0.0558039
-0.000848293
-0.813059
-0.305862
-0.198401
0.634782
-0.216537
-0.294567
0.25796
-0.92133
-0.188416
0.0514017
-0.984641
-0.265448
-0.508745
0.420653
0.330041
0.777255
0.786126
0.848691
-0.9165
0.0682986
0.561183
0.841878
-0.619032
-0.148157
0.255763
0.977253
0.472508
0.145067
0.932246
-0.283768
0.0140911
0.498552
-0.831999
-0.630622
0.413279
0.983817
0.442018
-0.665752
0.0458152
0.730884
0.0199262
-0.480336
0.986925
-0.212533
0.841491
-0.113264
0.103064
-0.229763
-0.802596
0.186506
-0.483736
0.641807
-0.790153
0.598478
0.787731
-0.116962
-0.798223
0.545181
-0.626332
-0.669098
0.906001
-0.600121
0.941451
-0.265164
-0.0434606
0.670831
-0.234595
-0.259861
-0.803392
-0.504658
0.244312
-0.189872
-0.454644
0.896894
0.55426
-0.253599
-0.46014
-0.207931
0.331583
0.263155
-0.964819
-0.785274
-0.694149
-0.180381
0.457345
-0.366927
-0.256048
0.264486
-0.859146
-0.966839
0.979547
0.569085
0.120322
0.936386
-0.938195
0.696149
0.879554
0.613316
0.666448
0.985468
-0.181033
-0.056885
0.405604
-0.690874
-0.258414
0.803844
-0.337555
-0.430398
0.145287
0.544092
-0.844745
-0.683757
0.533503
0.0879606
-0.451242
-0.327814
-0.98717
0.566998
0.870027
0.731889
-0.0316093
-0.621046
0.24868
0.927302
-0.568472
-0.526734
0.600529
0.288716
0.63917
0.590385
-0.0787719
0.757413
-0.851516
-0.374403
-0.181164
0.283937
-0.404269
0.960327
0.360754
-0.241848
0.108763
-0.0781802
-0.357244
-0.807671
-0.18785
0.25969
-0.977244
-0.791703
-0.996955
-0.683967
-0.181272
0.594219
0.0262578
0.484784
-0.977295
-0.275838
-0.875198
0.0957159
0.563768
0.867107
0.593539
0.320479
-0.105294
-0.199507
0.547363
-0.204218
0.808616
-0.916327
-0.0352345
0.458998
-0.306605
-0.558712
-0.730854
-0.755326
0.250241
0.819957
0.450448
-0.0393846
-0.220915
-0.550649
0.0303578
-0.0554045
-0.929139
0.356967
-0.223507
0.394205
0.3272
-0.929385
-0.786784
0.408462
0.561164
0.191817
-0.275978
-0.846189
0.242758
0.230629
0.810221
0.87973
0.955766
-0.352121
-0.207691
0.701342
-0.784865
-0.0923146
0.146634
-0.62516
0.5731
-0.516617
0.451766
0.848845
0.00917184
-0.927471
-0.355023
-0.455161
0.957982
-0.724671
-0.260593
-0.146294
-0.663332
0.786291
0.43618
0.0415274
0.357879
-0.595338
0.54061
-0.128755
-0.170765
-0.347472
0.369217
-0.845772
0.763285
-0.756892
0.911237
0.240042
0.344099
0.217892
-0.150815
0.409747
-0.0179151
-0.374827
0.179266
-0.554812
-0.0352967
-0.795623
-0.216465
0.708841
-0.0522003
-0.221328
0.302214
-0.227962
0.844773
0.482987
0.68593
-0.0790483
0.311648
-0.340326
-0.883406
0.932789
-0.806402
-0.989458
-0.0681721
-0.567845
-0.829149
-0.0272623
-0.474919
0.558327
-0.0469784
-0.902111
-0.476352
-0.0242057
-0.942313
0.606108
-0.040969
0.34479
-0.566897
0.929415
0.851112
-0.166791
0.111246
0.485622
-0.406639
0.235371
0.180909
0.127827
-0.528845
0.425013
0.99565
0.181213
0.971991
0.561806
-0.56289
0.866939
0.814735
-0.520522
0.271492
-0.178711
-0.987144
-0.980386
-0.841468
-0.747316
0.943954
0.406657
-0.689355
-0.925096
-0.69494
0.42313
0.85916
0.807674
0.361462
0.90667
-0.790184
-0.403348
0.623977
-0.771524
0.167447
0.686636
-0.33979
0.228771
0.0897304
0.299101
0.20336
-0.277264
-0.638736
-0.712372
0.598095
0.762658
-0.375402
-0.412167
-0.994297
-0.242967
-0.485128
-0.224986
0.968142
0.970103
-0.635692
-0.574169
-0.906673
0.221645
0.407702
-0.877893
-0.93197
-0.0208647
-0.379555
0.222118
0.812238
0.115839
-0.37216
0.226207
0.321751
-0.382414
0.321355
-0.725507
-0.907458
-0.575345
-0.407641
-0.234458
0.654085
-0.171619
-0.861342
0.00954306
0.868507
0.492024
0.872064
0.982587
0.869695
0.153953
0.176495
0.160273
0.658655
0.144369
0.0884349
0.484659
-0.666393
-0.395713
-0.733753
-0.0844043
-0.469925
-0.428235
-0.128404
0.285906
0.353365
0.238733
0.820345
-0.680083
0.127551
0.250286
0.444968
-0.376447
0.703254
-0.161501
-0.483855
-0.0899259
0.22321
0.206074
0.852675
-0.854853
-0.708001
-0.679407
-0.673253
-0.281089
-0.57862
-0.913132
-0.572735
-0.436532
0.981371
0.981395
0.535626
0.147279
0.146075
0.218859
0.948767
-0.255212
-0.669371
-0.124502
0.0583282
-0.172526
0.951644
0.449193
0.566285
0.0204902
0.291805
-0.050177
0.900449
0.563659
-0.613998
-0.90432
-0.465409
0.157923
-0.886047
-0.868086
-0.0903729
0.865447
-0.408411
-0.724235
-0.194136
0.524904
0.182779
0.626436
0.0652788
-0.682863
0.927425
0.529823
0.502015
0.00393724
-0.0139459
-0.065407
0.957813
0.00793552
0.809985
0.762473
0.0891715
-0.681149
-0.444302
0.11752
0.928726
0.523058
0.132409
0.416618
-0.438411
0.594094
-0.879909
-0.468258
-0.594255
-0.697925
0.451005
0.74251
-0.737486
0.769954
0.782273
0.870874
0.67883
-0.805639
0.25762
-0.433564
0.898034
0.0245442
-0.872602
0.860468
0.698047
0.877855
0.0876782
-0.643489
0.658471
0.675491
0.319894
-0.407021
0.736886
-0.116082
0.311047
-0.442892
-0.674692
-0.914534
0.986916
0.601663
-0.418106
-0.052915
0.713372
-0.728101
-0.551635
0.19452
-0.782658
0.201055
-0.156836
0.996964
0.0653448
-0.4512
-0.185858
-0.72131
0.361216
0.124971
-0.848203
0.256381
-0.923121
-0.335739
0.206032
-0.626613
-0.949313
0.850247
0.266043
-0.268417
0.509665
-0.801283
-0.32265
-0.990527
0.623591
-0.987599
0.338929
0.771145
-0.73735
-0.5066
0.861827
0.636848
0.32497
0.862759
0.593812
0.919432
-0.535361
-0.370418
0.156484
0.0609236
-0.522086
0.101322
-0.0472032
-0.960814
0.414421
0.00543547
0.227282
-0.410722
0.821799
-0.764286
-0.34507
0.565872
0.147213
-0.574573
-0.0387486
-0.995881
0.347253
0.620304
0.451186
-0.3234
0.428939
0.0530127
0.859895
-0.527611
0.288145
0.590686
-0.24422
0.560749
-0.0267032
-0.679667
0.187022
0.0409763
0.421556
0.247849
0.83434
-0.6393
0.726421
-0.733823
-0.393529
0.276319
-0.944989
0.520886
0.684626
0.932538
-0.58288
-0.199107
-0.640173
0.266193
-0.545334
-0.204419
0.680914
-0.912978
-0.697711
-0.658744
0.0500265
-0.845999
0.15387
0.436591
-0.30303
-0.367695
-0.863391
0.164699
-0.864272
-0.853111
-0.0977397
0.208302
-0.317963
0.077711
0.25333
-0.903595
-0.546882
0.131987
-0.306387
0.233003
0.736797
0.0907454
0.152385
-0.149349
0.6962
0.142325
0.0962813
-0.288392
0.149791
-0.0160865
0.0426621
-0.867767
-0.971879
-0.739154
-0.182172
0.427562
-0.0119261
-0.0946059
-0.565266
0.101224
-0.550895
-0.103964
-0.487068
0.684388
-0.82567
0.549691
0.973493
-0.255756
0.439991
0.0455844
0.704447
-0.871843
0.254404
-0.507518
-0.143312
0.748021
0.319575
0.708891
0.216302
0.509131
-0.752455
0.0236064
0.13145
0.0452546
0.47172
-0.567478
0.551783
0.0821664
-0.28863
-0.345163
0.475607
0.759749
-0.520039
0.0684726
0.25561
0.650883
-0.440446
0.957163
0.515804
0.735945
0.106817
0.13
-0.560834
-0.851866
0.901345
0.0999229
0.425522
0.473058
-0.50305
0.602473
0.13912
-0.0221553
-0.479629
0.372892
0.978859
0.192892
-0.453856
0.637328
-0.443445
0.834635
-0.366837
0.131904
0.595408
0.839347
0.436949
0.601126
-0.670379
0.0434945
-0.40412
-0.704735
0.467193
-0.435342
0.466332
-0.340284
-0.28455
0.570398
-0.916146
0.129673
0.231183
-0.838502
0.0200781
0.0623552
0.160187
-0.0550973
0.708291
-0.678904
0.462276
-0.95728
-0.535015
-0.588405
0.434712
0.473937
0.198812
0.598315
0.832344
0.816155
0.276373
0.259799
0.643726
0.774395
0.731925
-0.137179
-0.45753
0.968699
0.0832705
-0.457698
0.989931
0.921169
-0.92461
0.656892
-0.160089
-0.653064
-0.599794
-0.898219
0.897431
0.729773
-0.796385
0.679512
0.93764
0.304586
-0.682269
-0.899851
0.789113
-0.789962
0.228655
-0.735697
0.224583
-0.583438
-0.42731
0.533231
0.355654
0.45329
0.665786
0.13494
0.958961
0.546097
0.373574
-0.419834
-0.90822
-0.558755
0.975764
-0.571023
-0.290287
-0.76992
-0.111287
0.651896
0.346786
0.361599
0.99472
0.0146888
0.730944
0.35978
-0.510067
-0.466597
0.793447
0.771975
-0.388189
-0.712446
0.961374
0.449134
0.456951
-0.115223
-0.905457
-0.281674
-0.745783
0.325474
0.572014
-0.601519
0.317576
0.852715
-0.0435468
0.2671
0.214821
-0.711892
-0.656155
-0.086979
0.3053
0.595066
0.308671
-0.49366
-0.844395
-0.547214
0.71414
-0.496818
0.82214
-0.313405
-0.666479
0.110314
-0.669127
0.992875
-0.920106
0.126194
-0.0384274
0.988642
-0.0255291
-0.983817
0.463881
0.170869
0.269317
0.148773
-0.234149
-0.262851
-0.0967817
0.019711
-0.90779
-0.79091
-0.289754
-0.618853
0.0212859
-0.698551
-0.84468
0.970676
-0.443925
-0.983314
-0.97995
0.180732
-0.675368
0.172691
0.868427
0.96603
-0.743932
-0.508088
0.933826
-0.555065
-0.417253
0.458574
-0.959731
-0.0671693
0.346021
-0.733195
-0.316273
-0.709235
0.483034
0.949048
0.680055
-0.83107
-0.0929635
0.763253
0.69144
-0.131183
0.362544
-0.486596
-0.298093
0.0928371
0.0246588
0.628454
-0.640524
-0.70874
-0.145572
0.589527
-0.570909
0.0873719
-0.49458
-0.224725
-0.721868
-0.0536211
-0.318376
-0.117443
0.888283
-0.813278
-0.598086
-0.465955
-0.306787
-0.32489
-0.564205
0.872131
0.385305
0.0192295
0.69933
0.132004
-0.747204
-0.348341
-0.829589
-0.247876
0.928069
-0.770916
-0.0866861
-0.0275404
0.486217
-0.121404
0.378064
0.748573
-0.736111
0.529238
0.330867
-0.696662
-0.44071
0.662877
0.682487
0.266126
-0.376106
-0.718827
-0.151857
0.777497
-0.903806
0.188492
-0.462028
0.539187
-0.73122
-0.843226
-0.0380971
-0.810266
-0.00509751
-0.834215
0.082479
0.0285583
0.279878
-0.170237
0.911148
0.457279
0.476825
-0.163109
0.140532
-0.739838
0.212887
0.415712
0.249366
0.604116
-0.646096
0.647943
0.406233
0.182592
0.689936
0.792231
-0.313715
0.629336
-0.560284
-0.337864
-0.218663
-0.979778
0.95691
0.386701
-0.435806
0.97081
-0.249878
0.299636
0.555335
-0.877449
0.152552
-0.456695
-0.0733477
0.298865
0.0225415
0.409639
0.938741
-0.540701
0.157869
-0.387439
-0.258351
0.221196
-0.172145
0.957697
-0.676807
0.230538
-0.626296
-0.968201
-0.351769
0.588054
0.263703
0.259469
-0.652192
0.475014
0.872366
-0.27873
-0.814817
-0.761707
0.00652385
-0.66386
0.639665
0.468112
0.383568
0.199686
-0.613338
-0.475117
-0.264429
-0.600689
-0.278214
0.817982
-0.0102087
0.32933
0.978429
-0.685436
-0.620564
0.106191
0.939977
0.753108
-0.247646
-0.337895
0.449287
-0.493541
-0.0186059
0.834786
0.892258
0.733073
0.89353
-0.656548
0.732654
0.851241
0.491992
0.555124
0.573396
-0.898484
-0.469031
-0.317816
0.303126
-0.348949
0.825226
0.166443
0.70092
0.472821
0.34922
0.855723
0.5614
-0.521376
0.80341
-0.530428
-0.484875
0.494026
0.977561
0.733354
-0.800323
-0.323504
-0.857277
0.923567
0.587537
-0.522496
0.256906
0.134865
-0.260035
0.898975
0.384107
0.660088
-0.306552
0.0529535
-0.901534
0.415741
-0.0359571
-0.855238
0.0142626
0.126252
-0.970785
0.694141
-0.816422
0.15699
-0.888748
0.864892
-0.0971645
0.952625
0.818406
-0.460237
0.822036
0.219646
-0.853199
0.815693
-0.516593
-0.475159
-0.316639
-0.269947
0.242556
-0.65033
-0.200866
0.0019474
-0.771765
-0.683415
-0.249351
0.874559
-0.826019
0.753914
0.41043
-0.500205
-0.709872
-0.723589
0.448935
-0.941842
-0.735605
0.985598
-0.626201
-0.0451859
0.733073
-0.688475
-0.477247
0.122467
0.786026
0.909823
-0.913354
0.740006
-0.356997
0.649933
-0.307508
0.998232
0.871439
0.364581
-0.848705
0.814124
0.207299
0.905284
-0.064656
-0.232193
0.206702
-0.584416
0.673934
0.267632
-0.104634
0.397781
-0.423378
0.201777
0.225806
0.910403
0.634102
-0.547163
0.23236
-0.282429
0.085288
0.341024
-0.572346
-0.23146
-0.154899
0.81611
-0.429648
0.526654
-0.731773
0.921759
-0.564205
-0.259747
0.130469
0.99351
-0.0736336
0.936964
0.197985
-0.831069
0.578657
-0.230359
0.00960994
-0.357574
-0.642622
0.517617
0.98736
0.168725
0.669762
-0.553113
0.394937
-0.46423
0.409767
0.877493
-0.891637
-0.437845
-0.204379
-0.693226
0.0937998
0.245388
0.0665197
-0.350637
0.506258
-0.552815
0.522288
-0.0660822
0.252273
-0.280782
0.240188
0.43716
0.206678
-0.860271
-0.718622
-0.692283
-0.920826
-0.00913239
-0.14473
0.11865
-0.924411
0.726041
0.671374
-0.712518
-0.351889
0.781111
-0.017406
0.477334
-0.647869
-0.569517
0.0872561
0.813894
0.220764
-0.715402
-0.184612
0.959973
-0.714125
0.888185
-0.784373
0.255332
-0.688411
-0.120999
-0.834339
0.835622
0.706495
0.62459
-0.286158
0.836735
-0.839683
-0.847026
0.342623
0.655763
0.655876
-0.246638
0.63821
0.394677
-0.710497
-0.525838
0.994828
0.95254
0.917566
0.785721
-0.45347
0.649319
0.107625
0.355266
-0.366248
-0.358007
0.65421
0.771966
-0.715963
0.594911
-0.941486
-0.148906
-0.900964
-0.956451
-0.331578
-0.523741
0.594086
0.956461
-0.37817
0.774729
-0.994426
0.385453
0.928929
0.57538
0.556615
0.850062
-0.559732
0.270311
-0.0261993
-0.0208005
-0.278872
-0.297099
0.390932
-0.291678
0.0129856
-0.581324
-0.710081
-0.615989
0.90214
0.422256
0.883773
-0.0571333
-0.681414
0.303779
-0.498176
0.56562
-0.712852
-0.832141
0.98956
0.37109
-0.184518
-0.86007
-0.123493
0.313704
-0.176267
-0.971329
0.656007
-0.236334
0.145453
0.6566
-0.893027
0.881861
0.114219
0.93464
0.959409
0.2688
0.48384
-0.352376
-0.857846
-0.811979
-0.745833
-0.610558
0.800768
-0.728014
0.806019
-0.846366
-0.818014
0.283368
0.248956
0.598235
0.459869
0.407526
-0.134643
-0.225412
-0.449794
-0.724192
-0.824615
-0.464903
-0.828717
0.79922
0.0223278
-0.0498592
0.893477
0.239808
0.916134
-0.290225
0.501538
0.517236
0.774825
-0.10779
0.64728
-0.168011
0.603033
-0.382501
-0.939323
0.488821
0.387834
0.349661
0.258123
-0.943385
0.87334
-0.240277
-0.310111
-0.210135
-0.302552
0.466568
-0.613719
-0.605139
-0.613845
0.588572
-0.255854
-0.880204
0.00540435
0.624918
0.751972
0.305372
0.857606
-0.495956
-0.54416
-0.356165
0.649101
-0.683549
-0.776671
0.588502
0.315112
-0.758732
0.148671
-0.269333
0.675113
-0.378907
-0.499838
-0.543857
-0.4194
-0.246775
0.072242
0.741481
-0.840139
0.0599256
0.608666
0.888949
-0.48761
0.623151
0.643363
0.345138
-0.509432
0.0214505
-0.773002
0.446157
-0.231155
0.323397
-0.992487
0.881794
-0.653917
0.38163
-0.234102
-0.176836
0.719922
0.703233
-0.653798
-0.494965
0.818853
-0.128651
0.0209647
0.698904
-0.57921
0.882599
-0.901886
0.901387
-0.637533
0.417348
0.440961
0.629315
-0.4978
-0.860584
-0.294434
0.902182
-0.322737
0.0713528
-0.81412
-0.129877
0.785955
0.720581
-0.473876
-0.969727
0.816067
0.36773
-0.420974
-0.121554
-0.587333
-0.327835
-0.0111839
-0.87682
0.504588
0.513563
0.649093
0.641946
0.085274
-0.908
-0.818488
0.137858
0.626423
0.472174
0.480389
0.447294
0.671696
0.508584
-0.71554
-0.577177
0.370155
0.585876
-0.56925
0.770247
0.30425
0.62134
0.0270464
-0.679088
0.281047
-0.581462
0.65602
0.780503
0.236749
-0.640589
-0.995686
0.197274
0.162091
0.586691
-0.307923
0.161581
0.535223
-0.526197
0.394941
0.177164
0.778651
0.320332
-0.720574
-0.660479
0.0121721
0.571747
-0.439887
-0.0973948
0.280463
0.720971
-0.816422
0.113207
0.955652
0.122869
-0.00505662
0.167554
-0.797626
-0.234389
-0.109341
-0.446027
0.0730586
-0.939702
0.00261438
0.347259
0.556002
0.0359477
0.807476
-0.74197
0.729123
-0.173496
0.508189
0.050566
0.23579
0.326035
-0.375035
0.815556
-0.0308585
-0.288567
0.670631
-0.604914
-0.876697
-0.700757
0.131612
0.279446
-0.547055
-0.61888
-0.321388
0.183029
-0.712531
0.722857
-0.245052
0.716346
0.219136
-0.585241
0.890584
-0.108155
0.578575
0.120965
0.370333
-0.0233763
-0.667017
-0.818028
-0.237585
0.652231
0.194355
0.659492
-0.272747
0.748113
0.979903
-0.149021
0.949164
-0.821989
-0.488778
-0.378387
-0.332577
-0.62695
-0.293821
-0.0871449
-0.0650046
0.45531
-0.722547
0.206927
0.261394
-0.548125
0.8874
0.576079
-0.466527
-0.336512
-0.996
0.941262
0.559415
0.16896
-0.959717
-0.23318
0.0866617
-0.313776
-0.607591
0.990019
-0.966426
-0.320182
-0.604384
0.971527
0.104326
-0.132304
0.0799634
0.351306
-0.547392
-0.152627
-0.382828
-0.12523
0.90494
-0.892536
-0.595602
0.419727
-0.798383
0.253326
0.033882
0.35234
0.445681
0.866881
0.934804
-0.697613
-0.0283463
0.109931
-0.672449
-0.111329
-0.182508
-0.0438377
0.756482
0.436761
-0.714733
-0.204962
-0.823632
-0.443897
-0.91146
0.0334824
0.215431
-0.918232
0.620888
0.981274
0.49176
0.0421921
0.948243
-0.938347
-0.406945
0.204069
0.315516
0.614348
0.0376292
-0.921744
0.537925
0.10251
-0.22891
-0.646426
-0.16308
0.283523
0.104401
-0.715122
-0.546665
0.883419
-0.137285
-0.378426
-0.469767
-0.0946562
-0.35591
0.48548
-0.917773
0.385192
0.45172
0.658968
-0.0179008
0.814581
-0.296581
-0.905992
0.289022
-0.0955989
-0.443111
0.405262
0.872874
-0.992597
-0.264125
0.641955
-0.0441862
-0.931928
-0.833454
-0.871291
0.00487459
0.147367
0.420336
-0.921924
0.483574
-0.901306
-0.395313
-0.826367
-0.387919
0.748865
-0.225513
0.427169
-0.874784
-0.790273
0.0562266
-0.27396
0.994163
-0.416032
-0.783291
0.43122
-0.24166
0.335928
0.517516
-0.695143
-0.00349343
0.182909
-0.367663
0.39516
-0.396686
-0.510809
0.501717
-0.181186
0.110474
0.227488
0.709112
-0.985375
-0.592377
0.769205
0.798193
0.11252
-0.598945
-0.930469
0.485046
0.522888
0.82205
-0.256879
0.417327
-0.800641
0.140198
0.704501
-0.905916
0.18292
-0.649899
0.17517
0.388531
0.0475851
0.875587
0.497661
0.766427
-0.490395
-0.220469
0.984871
-0.00977206
0.0778619
-0.505085
0.259977
0.917052
-0.0282506
0.671392
-0.443715
0.137286
-0.615975
0.614262
-0.57911
0.211246
-0.945856
0.649679
0.141293
-0.0585823
-0.970936
0.0125308
-0.786114
0.784502
0.909726
-0.252843
0.509359
-0.178078
0.437009
-0.539548
0.453563
0.431505
-0.802586
0.888858
0.635921
0.12147
0.978158
0.981116
-0.613702
0.231877
0.605907
-0.0564103
0.54854
-0.723802
-0.964144
-0.00192297
0.221546
-0.952332
0.75166
-0.0556231
-0.714332
-0.511345
-0.535631
0.524103
-0.491294
-0.36817
-0.760211
-0.708815
-0.976517
-0.593484
0.642647
0.0333875
0.889041
0.753235
0.0115095
0.223407
0.117525
0.828598
0.735474
0.163597
0.194379
-0.339852
0.508221
-0.44469
-0.146256
-0.251585
-0.261706
-0.818116
-0.0558746
0.0789214
-0.180385
-0.0709323
0.935671
-0.358921
0.0833319
-0.106407
-0.929733
-0.459625
0.426182
0.611129
0.782101
-0.341469
0.888045
-0.246145
-0.732816
0.449773
-0.220568
0.433315
0.86876
-0.76267
-0.429464
0.481658
0.0689867
0.818473
-0.18942
-0.0878148
0.992957
0.277837
-0.168313
-0.881972
-0.150598
0.574996
0.0816673
0.266288
-0.583898
0.845134
-0.429175
0.828607
-0.442655
0.491019
0.432399
-0.275989
0.342827
0.621673
0.0273873
-0.28097
0.877456
-0.721774
0.81787
-0.564762
0.334426
0.475496
-0.843012
0.696737
-0.523985
-0.00694406
0.78264
0.847287
0.345582
-0.748017
-0.369962
0.00932407
-0.913565
0.0139065
-0.148275
-0.0738355
0.351616
0.675398
0.326677
0.718909
-0.147599
0.604576
-0.992363
-0.784941
0.691583
0.784159
-0.157032
0.735955
-0.661404
0.743263
-0.753303
-0.166706
-0.732862
-0.535943
-0.0987021
-0.771502
0.161326
-0.606187
-0.636403
0.117513
-0.35766
-0.0756193
-0.965461
0.859287
-0.244727
0.328144
-0.0820105
-0.142618
0.396876
-0.794765
-0.792067
0.916029
0.121168
-0.271244
-0.532971
-0.637472
-0.771356
-0.973193
-0.687146
0.23457
0.960446
0.370894
-0.531574
0.801202
-0.355729
-0.739952
0.247401
0.576891
-0.215156
0.760773
-0.236979
-0.0636988
-0.767544
-0.0685668
-0.583728
-0.843426
-0.665864
-0.682624
0.507388
0.831011
0.811065
-0.829041
-0.950408
-0.386304
-0.780794
-0.401763
-0.92118
-0.660288
-0.672868
-0.806814
0.653464
-0.457045
-0.139894
0.019716
0.831112
-0.57447
0.0850801
0.5238
0.821802
-0.00421309
0.440792
0.611432
-0.560128
0.717286
0.711632
-0.891067
-0.566329
-0.313645
-0.833498
0.840834
-0.471413
0.740484
-0.905403
-0.793632
-0.617938
0.142681
-0.21494
0.538949
0.663371
0.531204
-0.192575
-0.594058
-0.26155
-0.323152
-0.0528084
0.505066
0.668626
-0.555059
0.601877
-0.00877666
-0.45525
-0.524622
-0.742209
-0.151587
0.235094
0.490554
0.711778
0.834679
-0.754917
-0.689617
-0.186897
-0.0599384
-0.462271
0.436432
0.23189
0.613146
0.359085
-0.606454
-0.141238
0.250761
-0.483876
0.581003
0.544169
-0.509585
0.285095
0.759901
0.981856
0.215395
-0.53617
-0.537956
-0.66892
0.799492
-0.255185
-0.606365
0.594383
0.737516
0.387343
0.49837
0.910289
0.64242
0.535702
-0.549418
-0.370703
0.0155433
-0.230968
-0.385267
-0.892426
-0.237306
-0.0948377
-0.695585
-0.290745
-0.012776
-0.223307
-0.822386
0.720813
0.144198
0.0822246
-0.27303
-0.819709
-0.588562
0.13875
-0.569914
-0.0855182
-0.646613
-0.172419
-0.715597
-0.345654
-0.140129
-0.471239
-0.148728
-0.958821
0.121923
-0.643804
-0.749969
-0.220988
-0.269884
0.485514
0.149794
-0.283887
-0.117791
-0.800046
-0.901845
-0.0938294
0.999188
-0.421911
0.918878
0.0759104
-0.753538
0.933899
0.774011
0.955731
-0.885892
-0.382089
-0.221961
-0.0518403
0.705226
-0.873983
-0.269489
-0.566073
0.310183
0.419534
-0.498229
-0.679619
-0.451215
-0.199111
-0.730879
0.686519
0.683616
-0.13216
-0.769033
0.800902
-0.685004
0.212246
-0.30857
0.427133
0.811171
-0.37884
0.839887
0.588675
0.140901
-0.801234
-0.0150406
0.0651659
0.750518
-0.321123
-0.281134
-0.767894
0.4124
-0.0835469
0.257628
0.879334
0.581754
0.967465
-0.563502
-0.595786
0.768904
0.518997
0.635534
-0.468411
0.153645
0.687058
0.0556014
0.11486
0.188497
-0.0922618
0.589435
0.929484
-0.780884
-0.0333806
0.603318
-0.320347
0.206259
0.0345182
0.645507
0.680886
-0.753306
-0.122686
0.0842289
0.729082
0.416384
-0.224485
0.727951
-0.367812
0.795499
-0.289376
0.873543
0.406477
-0.32195
0.789641
0.524505
-0.0552073
0.869388
0.470972
-0.134706
0.80116
-0.924683
0.445526
0.676141
-0.866413
0.00815928
-0.261549
0.961313
0.480001
-0.0211365
-0.489474
0.368577
0.0160137
0.410886
0.731304
-0.195893
0.265465
-0.440296
-0.63035
0.404793
-0.251524
0.568766
0.265241
0.51718
0.0542948
-0.526965
-0.774046
0.895006
0.225157
0.492602
-0.0798303
-0.683138
0.766872
0.793381
0.972852
0.636088
-0.923914
0.339404
-0.16138
-0.662883
-0.799626
0.712584
-0.517205
-0.96011
0.578379
-0.716618
-0.621726
0.597392
-0.543882
0.497517
-0.858377
-0.538583
-0.144122
-0.502232
-0.661318
-0.527714
0.967875
-0.519664
0.364015
-0.356386
-0.266831
0.532193
0.83301
0.779923
0.13054
0.342663
0.797541
0.201724
-0.895492
-0.956683
-0.832428
0.883706
0.909229
0.389658
-0.178213
-0.495636
-0.822337
-0.311061
0.636925
-0.525699
-0.239091
0.979064
-0.32623
-0.701917
0.137084
0.572585
0.6095
0.00511801
-0.763625
-0.0321798
-0.0295433
0.865473
0.508433
-0.663478
0.422351
0.0884674
0.61022
0.824291
-0.621652
0.093897
-0.944914
0.216822
0.0865231
-0.299705
-0.255743
0.878635
0.647346
0.30037
0.529335
-0.0901018
-0.733041
0.116001
0.800483
-0.504375
0.320325
0.472288
0.372951
0.435124
-0.832525
-0.968506
0.833986
-0.182072
0.551796
0.21512
-0.964894
-0.340907
-0.470108
0.0804601
0.274115
-0.103607
0.644353
-0.00803745
0.131626
0.200717
-0.529575
0.747309
-0.900808
0.922851
-0.0070703
-0.819098
0.981267
-0.249903
0.25366
0.189214
-0.648072
0.911524
-0.132693
0.192687
0.3274
-0.835044
0.330017
0.992468
0.587996
-0.565612
-0.904264
-0.445954
0.341649
-0.315137
-0.366862
-0.728475
0.576318
-0.741976
-0.0419792
0.263332
0.0623561
0.343039
-0.425453
-0.0103593
-0.109615
0.759794
0.455735
-0.635627
0.0340574
-0.365706
0.679087
0.928879
-0.910864
0.129904
-0.129679
0.842412
0.382516
-0.671812
-0.318297
0.274686
-0.360262
-0.76927
0.626816
0.899366
-0.311435
0.884066
0.260948
-0.60328
0.850065
-0.621019
-0.737762
-0.243634
0.45195
0.73367
0.364276
-0.145105
-0.979404
0.411311
-0.64224
-0.6599
0.819931
0.910565
-0.216353
-0.777691
-0.795094
0.550724
0.223249
0.726882
-0.651244
-0.62272
-0.932128
0.627996
-0.609014
0.707466
-0.400846
0.464568
-0.792251
-0.516123
-0.279611
-0.761698
0.387427
0.72549
0.435136
0.0787528
-0.927024
0.938915
0.122065
0.071587
0.612197
0.31548
-0.758417
0.23754
-0.683378
0.997218
-0.541264
-0.442146
-0.359451
-0.376103
0.311181
-0.929754
0.79055
0.556167
0.633286
-0.863094
0.861261
0.425758
-0.323492
-0.483966
-0.596905
0.0361993
0.75479
-0.914037
-0.929867
0.458863
0.297462
-0.412043
0.85799
0.596246
0.397015
0.56237
0.0966239
0.30875
-0.142219
-0.597154
0.966143
0.899307
-0.0866133
-0.69002
-0.518285
-0.37105
0.27021
0.126087
-0.196708
0.308515
-0.413447
0.764506
0.817363
0.153314
0.573709
-0.359919
-0.180908
0.516542
-0.443522
0.965812
-0.0253778
0.458829
0.0833912
0.886542
0.275572
0.29462
-0.167066
0.253159
0.113707
0.770908
0.170054
-0.71262
-0.410496
-0.00812376
-0.538579
0.525765
0.770725
-0.31831
0.67717
-0.225198
0.497577
0.297656
-0.46365
0.605642
0.0205954
-0.548587
0.902534
0.550624
0.816937
0.11138
-0.704572
-0.878098
-0.797109
-0.728484
0.13363
-0.176811
0.833424
-0.341815
-0.121228
0.316649
0.797958
0.843112
-0.786812
0.25588
0.599707
0.316061
0.519342
-0.0574901
-0.21169
0.0367341
-0.168731
-0.0708826
0.610468
0.585455
-0.043625
-0.0276239
-0.582889
-0.46647
-0.647165
-0.321692
-0.555687
-0.653611
0.477754
0.0327628
0.515398
-0.809289
-0.79638
0.954914
-0.144501
-0.485687
-0.318418
-0.96656
-0.660887
-0.895239
-0.619997
-0.545941
0.262604
0.707018
-0.77234
-0.151693
0.312577
-0.308203
0.424123
0.883666
-0.507205
0.835924
-0.315523
0.36379
0.209593
0.602288
0.545479
0.51501
-0.8283
-0.161062
-0.439378
-0.0873605
0.98309
-0.0939305
-0.18833
0.240794
0.418488
-0.243394
-0.639593
-0.145275
0.938701
0.0239769
-0.629305
-0.756174
0.925159
0.706974
0.979003
0.434532
0.824921
-0.730235
0.122262
-0.70325
-0.842518
0.954933
-0.30754
-0.869334
-0.782854
0.228567
0.910078
-0.263142
0.451155
0.981627
0.890811
0.914271
-0.847877
0.0589503
-0.574737
-0.895371
0.982703
0.110723
-0.0847814
-0.234198
0.642581
0.630998
0.912594
0.719809
0.0946887
0.923983
0.550975
0.158686
-0.105824
-0.260216
0.830683
0.132474
0.521022
0.919825
0.970165
0.400473
0.215889
0.567097
0.623109
0.257301
0.0839789
0.291069
0.47054
0.44289
-0.825286
-0.139565
0.285593
-0.852465
-0.892189
0.468594
0.461775
0.533203
-0.427987
0.608203
0.705405
-0.328223
-0.867327
0.845753
0.886823
-0.373057
0.346723
0.86255
-0.880716
-0.267422
0.488396
0.693933
-0.15911
-0.0607183
0.704702
-0.204134
-0.770924
-0.192699
-0.558119
-0.319362
0.830982
-0.420408
0.288963
0.0139112
0.416881
-0.746894
-0.914861
-0.644251
0.186091
0.202317
-0.415104
0.5864
0.0636467
-0.524477
-0.151487
0.989068
0.864638
0.892331
0.707734
0.874424
0.160985
0.290785
0.98849
-0.932676
-0.968515
-0.311751
-0.117302
0.90948
-0.100963
-0.744063
0.0642549
-0.716417
-0.456693
-0.771888
0.840702
0.110287
0.950518
0.89665
-0.207088
0.484531
-0.851985
-0.997206
-0.176999
0.715735
-0.500985
-0.974841
-0.267134
0.852513
-0.821252
0.499727
-0.369087
0.180911
0.695505
-0.128862
0.425906
-0.889038
-0.288424
-0.845447
0.235152
-0.44178
0.91848
-0.242574
0.530137
0.430333
0.135923
0.612181
0.138919
0.955037
-0.74376
0.353757
0.557872
-0.402517
0.764194
-0.974598
0.698333
0.607797
0.273134
-0.245566
-0.31664
0.367271
-0.972098
0.44766
-0.494547
-0.766325
-0.288361
0.828216
-0.29186
-0.229528
-0.976982
-0.8207
0.902552
0.680273
0.850587
-0.0901492
-0.570132
0.585472
0.380027
0.0417401
-0.326666
-0.494606
0.397265
-0.32505
-0.657918
-0.124653
0.192502
0.134338
0.85448
-0.484757
0.625539
-0.514121
0.978177
0.610783
0.217044
0.53292
-0.549128
-0.601591
0.474683
0.128178
0.151742
-0.630195
-0.376862
-0.0430778
0.970609
0.463351
-0.897907
0.702639
0.753309
-0.804388
-0.557873
0.902868
-0.748721
0.0273936
-0.251947
-0.309263
0.676498
0.955651
-0.0396763
0.801365
-0.221693
-0.690266
0.045513
0.536989
-0.540327
-0.814227
0.380029
-0.134814
-0.977438
0.496978
0.96375
-0.541319
0.407704
0.0792997
0.927373
0.397469
-0.385545
-0.137913
-0.75676
0.826856
0.102899
0.576248
0.947147
-0.71899
0.860676
0.786818
0.337441
0.225403
0.812974
-0.0686467
0.500484
0.850044
-0.106859
-0.85051
-0.250915
-0.330863
0.798591
0.796791
0.893922
-0.248637
0.857075
0.659826
-0.210653
-0.275462
0.65525
-0.830911
0.324173
0.774422
0.153002
-0.287917
0.937245
-0.318426
0.642329
0.096422
0.776018
0.737575
-0.782978
-0.263594
-0.341135
0.926688
0.966866
-0.496615
-0.938933
0.318674
-0.446858
0.496076
0.865527
-0.0465652
0.108521
0.674858
-0.712944
-0.514148
0.15576
0.816146
0.609456
0.329758
0.0368435
0.0989163
-0.336565
0.480818
0.361256
0.455263
-0.432644
0.27007
-0.460678
0.00998938
-0.874721
0.623463
0.777022
0.72649
0.328802
0.642514
0.268168
-0.680861
-0.407401
0.906274
0.943667
-0.63995
-0.577805
-0.18068
-0.617484
-0.75666
0.197219
-0.11941
0.151681
0.354465
0.899705
-0.80238
0.439616
0.176473
-0.521707
-0.377589
0.852744
-0.817172
0.722608
-0.992539
0.815456
-0.466075
-0.191846
0.317219
-0.219781
0.732774
0.636314
0.67478
0.0329212
-0.0545082
0.138163
-0.966612
0.297169
-0.774663
-0.0710324
-0.96898
0.697213
-0.895479
-0.0425749
0.574102
-0.258267
0.7095
-0.369738
-0.177683
-0.982573
0.275083
0.0277917
0.260017
0.252941
-0.169303
0.480329
0.74898
0.0658762
-0.914649
0.0857248
-0.463092
-0.45386
-0.133834
-0.468351
-0.279905
0.0237724
0.471954
-0.0614735
0.876399
-0.779592
0.104716
0.36272
0.947269
0.631967
0.71022
-0.425455
-0.392413
-0.401549
0.0767212
-0.755453
0.568974
-0.862642
0.641752
0.409971
0.419308
-0.797788
-0.241412
-0.248081
-0.735759
0.149039
0.414011
0.0128081
0.0989978
-0.65205
0.947302
-0.22166
0.590513
-0.337216
0.874962
-0.138204
-0.823145
0.553202
0.930365
0.894912
0.832876
-0.720872
0.307299
0.276739
-0.461618
0.515733
-0.94252
0.434948
-0.563842
0.0208974
-0.4063
-0.66459
0.589341
-0.722834
0.583059
0.753813
-0.325715
0.234727
-0.222191
-0.4637
0.885279
-0.708393
-0.419271
-0.209291
0.604081
-0.110381
-0.087116
-0.644906
-0.548023
-0.66067
0.0361102
-0.451089
-0.926023
-0.0535523
-0.414435
-0.817388
0.130751
-0.56846
-0.964204
-0.198327
0.621913
-0.438833
-0.998576
0.333538
0.672808
0.556327
-0.514722
0.824115
-0.132093
-0.115988
0.500061
-0.838851
0.763678
0.595443
-0.484018
0.507819
0.310412
0.0443963
-0.414015
-0.694373
0.966019
0.104092
-0.24052
-0.84721
-0.405583
0.279444
0.616975
-0.0432595
0.438769
-0.899737
-0.806613
0.548203
0.481284
0.642045
-0.913096
0.266842
-0.00722468
-0.0991703
0.162842
-0.227221
0.0105289
-0.643962
0.86928
0.961446
0.772516
-0.310203
0.785816
0.949215
-0.433022
-0.110463
0.42812
0.1391
-0.591018
-0.278957
0.0230042
-0.280461
0.466873
-0.903144
0.180705
-0.644104
-0.0985228
-0.483854
0.411266
0.275273
-0.588535
-0.0145159
-0.684586
-0.958661
-0.992091
0.504048
0.494386
-0.758286
-0.526592
-0.24237
-0.13374
-0.34591
0.124865
0.00722611
0.116827
0.496168
-0.0797113
-0.910983
0.469404
0.357396
-0.0934278
-0.37582
0.707647
-0.855268
0.143989
0.310712
-0.36402
-0.590123
0.218709
0.00956166
-0.802855
-0.142353
-0.159176
-0.639696
-0.341432
0.844866
0.683654
0.141415
0.686341
0.36426
-0.671894
-0.347787
0.644313
-0.117692
-0.816925
0.556699
0.362975
0.380441
-0.911259
-0.620987
-0.830846
-0.630925
-0.966152
0.110903
0.522889
-0.194184
-0.61834
0.068405
0.928161
0.98968
-0.323629
-0.245437
-0.275339
0.667623
-0.675384
0.461009
-0.964721
-0.70014
-0.351983
0.500747
-0.431061
0.708226
0.396265
-0.674383
-0.354603
-0.992356
-0.710386
0.378545
-0.753987
0.579324
-0.366525
0.833268
0.0486364
0.129146
0.66352
-0.00188959
0.23957
0.814678
0.844915
-0.328897
-0.156791
0.48384
-0.925187
-0.213307
0.509538
0.792023
0.519841
0.877306
-0.290276
-0.227937
0.316113
0.402904
-0.925584
-0.765902
-0.740113
0.437736
-0.137775
0.00934553
-0.0533997
0.567516
0.360456
0.0265706
0.96749
0.698884
0.602104
0.532124
-0.707231
0.861549
-0.817295
-0.686578
-0.891604
-0.83577
0.094399
-0.66423
0.849873
-0.472271
-0.691583
0.349071
0.531203
0.965498
0.306456
0.377111
-0.318537
0.734887
0.205059
-0.00728309
-0.922849
0.226892
0.979432
-0.721268
-0.0931178
-0.14893
-0.166347
0.697597
-0.292648
-0.830069
0.0623461
0.765447
-0.187616
0.312042
-0.691715
0.584873
0.786557
-0.178443
0.356401
0.0512997
-0.839099
-0.274401
0.852298
0.813848
-0.0987461
0.199789
-0.661068
0.681008
-0.00460064
0.30082
-0.921593
0.067644
-0.917415
0.643141
-0.909799
-0.149139
-0.928848
-0.58563
0.54867
-0.442947
0.831765
-0.419978
-0.553339
-0.755563
-0.0510489
-0.907953
-0.162781
0.377992
-0.786846
0.0142404
0.270828
0.893705
0.0862522
-0.915013
0.785899
-0.289805
0.739734
-0.323581
-0.405952
-0.177297
-0.868234
-0.612893
0.534102
-0.764316
0.56805
-0.820475
0.57864
-0.553275
-0.52974
-0.471342
-0.991795
-0.0646896
-0.412659
0.192275
0.760363
0.86636
0.642545
0.621531
-0.587346
-0.286071
-0.937949
0.853975
-0.72316
-0.666803
-0.8818
-0.274652
-0.086907
0.580359
-0.340837
0.4808
0.934235
-0.846321
-0.0372753
0.468553
-0.218254
0.243858
-0.256526
-0.955255
0.162047
-0.830676
0.206919
0.156701
-0.924368
-0.191858
-0.0833082
0.433699
-0.257165
-0.882771
-0.166025
0.197529
-0.87732
-0.0141311
-0.796948
0.517718
-0.894109
0.540407
-0.461742
0.388169
-0.511004
0.530739
0.474225
-0.665007
0.143427
-0.888261
-0.979231
0.620336
-0.351518
0.376797
-0.111362
0.879822
0.241434
0.698983
0.690556
-0.146646
-0.528998
-0.14782
0.834817
-0.851791
0.824277
-0.761497
0.463137
-0.797421
0.533445
-0.128863
0.256277
-0.508135
0.929047
0.968593
-0.213282
0.468104
0.142851
0.961993
0.652264
0.504333
-0.923603
-0.225835
-0.222722
0.380966
-0.741594
0.815627
0.0464883
0.0548272
0.0790408
-0.116731
0.579865
-0.125513
0.19522
-0.914372
0.835304
0.923747
0.17452
-0.604245
-0.0933486
0.611821
-0.270097
0.410209
0.405166
-0.64096
-0.748711
0.274453
0.343265
-0.85335
0.562161
-0.513969
-0.258896
0.692616
-0.981066
-0.830373
-0.327868
0.30569
-0.476327
0.299811
0.653868
-0.862978
-0.824641
-0.588482
-0.96401
0.988803
-0.593811
0.392293
-0.600864
-0.295998
-0.855337
0.8593
0.393635
0.253378
0.231722
-0.232844
0.878843
-0.3177
-0.880751
-0.258717
0.0242603
0.623446
0.102949
0.183132
-0.0791048
0.777289
0.0509081
0.783214
-0.493964
-0.12193
-0.378274
0.177153
-0.045748
0.115006
-0.672222
0.617161
0.297
-0.565176
-0.45203
0.294635
-0.38372
0.274338
-0.267995
0.259327
-0.242908
-0.70573
0.893954
-0.474861
-0.0491699
-0.956531
0.328623
0.536334
0.275496
0.976141
0.108866
-0.598168
0.930444
-0.014932
-0.724575
0.0541714
0.398702
-0.646676
-0.994894
0.288921
-0.0482546
-0.1957
-0.632925
0.432182
-0.743642
0.562377
-0.107998
-0.285324
-0.630976
0.391725
-0.815543
-0.443675
0.0278705
-0.512252
0.103789
0.0547093
-0.768499
-0.421563
-0.581784
0.00966275
0.444266
-0.424819
0.0784916
-0.0905607
0.314059
0.172188
0.905203
-0.718559
0.335616
-0.775028
0.780224
0.331971
-0.335328
-0.448405
0.837725
0.933746
-0.0588553
0.621366
0.962963
-0.652751
0.150062
-0.795316
-0.921067
0.491632
0.891986
0.689415
-0.558135
0.0434718
-0.831194
-0.489471
0.437513
-0.835598
0.403623
0.443831
0.710489
-0.227517
-0.245219
-0.436464
-0.981091
-0.744842
-0.581175
-0.00568235
-0.256921
-0.792488
0.0946373
-0.978511
0.653753
-0.825415
0.154687
0.711525
-0.0742253
0.357719
-0.164885
-0.86868
0.38612
-0.622995
-0.548816
-0.0679616
0.209816
-0.981126
0.963264
0.892375
0.0442108
0.117919
-0.651032
-0.924333
-0.949708
-0.584106
0.251051
0.550829
-0.432564
-0.437374
-0.0562586
0.201414
-0.419692
-0.832246
0.504911
0.737769
0.511435
0.340225
-0.475342
-0.639016
-0.125837
0.673808
-0.684926
-0.146918
0.950421
-0.5513
0.352914
0.643996
-0.220775
0.216386
0.25989
-0.717375
-0.0401115
-0.572148
0.814186
-0.925443
-0.156662
-0.539183
-0.458197
-0.937349
-0.362056
0.581154
-0.773252
0.18442
-0.381871
-0.213216
-0.393073
-0.190837
-0.725347
-0.926257
-0.318828
-0.467292
0.610267
0.566123
-0.311045
-0.0430208
-0.465406
0.848041
0.404291
-0.308955
-0.743035
0.236324
-0.866169
0.87123
0.676942
0.482696
0.969977
0.0776111
-0.349027
-0.905184
-0.286217
0.446715
0.854358
0.909472
-0.375818
0.0738939
0.177454
-0.237303
0.816441
-0.423705
-0.706898
0.374864
0.573415
0.771049
0.668157
-0.88947
0.217028
0.885692
-0.179687
0.663988
0.721514
0.434079
0.999665
-0.460222
-0.175297
-0.234125
-0.753643
0.807374
-0.197232
-0.73377
-0.574727
0.271086
-0.11494
-0.128212
0.72689
-0.57926
-0.539125
0.890211
-0.606809
-0.523327
0.841183
-0.644312
-0.973645
-0.234966
-0.740331
0.851699
-0.0124586
-0.411162
0.25436
0.64531
-0.0406243
0.45123
-0.130732
0.64102
-0.0432968
-0.690477
0.417035
0.477221
0.31534
-0.342569
0.424495
0.158068
-0.442363
0.198934
-0.102572
0.343778
-0.0341898
0.261827
-0.112965
0.198448
-0.0281286
-0.16087
0.898036
-0.703735
0.632987
0.804666
0.107388
0.77423
0.285013
-0.970644
-0.384987
-0.483109
0.658844
0.519692
0.643046
0.631345
0.423429
0.793042
-0.710926
-0.0819525
-0.0886766
0.544193
0.485692
0.496862
0.342537
0.351174
0.784045
0.320891
0.658795
-0.32329
-0.454084
-0.553211
0.372228
-0.441294
0.776919
-0.552081
0.550432
0.502275
-0.552176
-0.70329
-0.177715
0.843419
0.975225
-0.234118
0.857733
-0.757353
-0.127805
0.616351
0.796261
-0.832726
-0.135963
0.36658
0.194037
0.320857
0.408885
-0.711822
0.935619
0.0250524
0.979145
-0.264748
0.142064
0.761678
-0.256246
0.425111
0.827199
0.00196373
-0.413508
-0.831267
-0.828937
-0.719678
-0.122086
-0.669026
0.285331
0.651561
0.346898
0.2175
-0.532339
-0.20615
-0.296663
-0.152687
0.728413
-0.9316
-0.372679
0.0282605
-0.765537
-0.058617
-0.795929
-0.753553
0.0445865
0.122396
-0.658258
-0.606436
0.0593482
-0.635071
0.0390766
0.627159
0.729226
0.0990969
0.428849
0.369221
0.488288
0.931932
-0.805591
-0.79731
0.056582
-0.032251
0.289417
-0.253432
-0.249764
-0.737658
-0.757396
-0.865371
-0.071965
0.500269
0.700461
-0.718263
0.590751
0.807845
-0.242556
0.522212
0.151287
0.247583
0.064599
0.430175
-0.234435
-0.70437
0.745622
0.100505
0.762518
-0.188688
0.61226
-0.985968
-0.462495
-0.566023
0.654248
-0.861202
-0.94272
-0.588037
-0.92431
0.215328
0.0852886
-0.540948
-0.848413
-0.791529
-0.726933
-0.249304
0.199857
-0.283478
0.36576
-0.862311
0.756387
-0.264635
-0.563478
0.773883
0.310544
-0.0553694
0.570546
-0.321246
-0.818774
-0.148457
0.719758
0.138353
-0.867423
0.86404
-0.16692
0.643823
-0.51268
0.759712
0.821394
-0.719282
-0.683052
0.504796
-0.602602
-0.0845013
0.975625
0.165644
0.413047
0.740923
0.366243
0.804621
0.784237
0.600813
0.73196
-0.266509
0.56967
-0.0906391
0.203439
0.55471
-0.405722
0.977765
-0.955643
0.499458
-0.518789
-0.918002
-0.56697
0.675778
-0.557798
-0.0626234
0.808972
-0.582257
-0.408332
0.814451
0.302426
-0.803125
0.572767
-0.555872
-0.756867
0.450414
0.422043
0.109328
0.621356
0.402708
-0.288803
0.556687
0.58902
0.656944
-0.193786
0.0393893
-0.235887
0.285583
-0.520664
-0.407958
-0.423085
0.365612
-0.505058
0.512794
-0.230554
-0.408626
-0.0521166
-0.734531
-0.290124
-0.592354
-0.0174981
-0.566139
0.100049
-0.147087
0.961146
0.465453
-0.0878664
-0.831182
-0.366006
0.510991
0.35909
0.651865
-0.265849
0.40606
0.862639
-0.54524
0.60124
-0.0381646
0.0779712
-0.826205
0.694159
0.650878
0.954383
0.31672
0.61329
-0.269856
0.724449
0.427104
-0.44591
0.758353
0.721462
-0.382394
-0.775549
0.345927
0.210549
-0.310437
-0.0366172
-0.946712
-0.620176
-0.490518
0.968635
0.997564
0.675719
0.281244
0.410903
-0.0471283
-0.414695
0.503793
0.836461
-0.597776
-0.117725
0.745685
0.49793
0.424165
0.556079
-0.536668
-0.108374
-0.794936
-0.0422939
-0.0794095
0.769077
-0.406741
0.721465
-0.886943
0.775671
0.466111
-0.83409
0.1609
-0.096525
0.0514523
-0.609772
0.541903
0.553999
-0.0664326
0.600218
-0.160632
0.0931824
0.125518
-0.924348
-0.431605
-0.349654
0.92769
0.835207
0.865103
-0.402797
-0.993695
-0.251894
-0.77895
0.700062
0.0792794
0.177348
-0.114942
-0.644871
-0.93938
-0.336246
0.77016
0.956639
-0.492215
0.906563
-0.427029
-0.956381
0.20066
-0.589568
0.254685
0.71729
-0.254801
0.852806
-0.680988
0.47262
0.650487
0.190231
0.948434
-0.899067
-0.85364
-0.866166
0.0881186
0.268162
0.261274
-0.529816
0.50305
0.0606002
0.491482
-0.670024
0.722474
0.247609
-0.840461
0.129752
0.451164
-0.783782
-0.87203
-0.626858
0.76772
0.6142
0.86453
-0.928819
0.760162
0.804635
0.354904
0.510281
-0.523857
-0.270636
-0.698255
0.0381655
0.525905
-0.991846
-0.394169
-0.922889
-0.109189
-0.854217
0.668758
0.32133
-0.765037
-0.109908
0.392322
0.152366
-0.8479
-0.283904
0.655482
-0.874335
-0.67583
-0.689311
0.493995
0.399466
0.0108066
0.16162
-0.357731
0.028945
0.449853
-0.336489
-0.180618
-0.776177
-0.363909
0.372394
-0.261903
-0.907099
-0.205276
0.170899
0.140712
-0.978727
0.575235
-0.576484
-0.410264
0.565565
-0.969939
-0.135681
-0.846584
0.464864
-0.35568
-0.851499
0.00208104
-0.0544981
-0.521737
0.316704
-0.891993
0.272722
-0.651713
0.691316
0.288404
0.405661
0.52619
-0.532729
-0.52096
0.0347098
0.646345
-0.226282
-0.931707
-0.280867
-0.157346
-0.37273
0.9387
-0.463775
0.439625
-0.995151
0.83969
-0.470517
0.543433
0.202532
-0.485169
0.0839669
-0.464932
0.469736
0.247701
-0.342846
-0.242295
0.0317397
-0.532489
0.325639
-0.00673068
-0.58567
0.645838
-0.67648
0.724862
-0.217524
-0.840798
-0.756796
0.367269
0.36899
-0.320889
0.981636
-0.368149
0.364733
0.881306
-0.245361
-0.425053
-0.806754
0.151366
-0.396035
-0.870327
-0.562789
-0.924127
0.545467
-0.943446
0.369688
-0.0472083
0.89988
0.529604
-0.955293
0.588848
0.807656
0.650937
0.243418
-0.224835
0.790621
-0.188789
-0.68248
0.275593
0.572693
0.0155752
-0.759564
0.97883
-0.863943
0.547856
-0.243841
0.480842
-0.433885
-0.801467
-0.601394
0.930828
0.214308
0.220605
-0.815626
0.642676
0.204581
0.348994
0.204891
0.237325
0.33691
0.113517
0.677029
0.237363
-0.139174
0.447415
-0.372432
0.454831
-0.0902374
-0.765503
-0.349407
-0.471772
0.850885
0.469339
-0.227019
-0.894625
-0.163409
0.331036
0.960105
0.411093
-0.832413
0.795895
-0.401826
-0.994064
-0.22588
0.481104
0.462835
0.829041
0.175848
0.944984
-0.0555118
-0.839855
0.943192
0.931886
0.384259
0.20499
-0.0127456
-0.375601
-0.574998
-0.104747
0.765467
-0.398877
-0.304782
0.227057
-0.324842
-0.949553
0.973069
0.9133
0.559006
0.722819
-0.403047
-0.898708
0.781618
-0.0743009
0.969748
0.176649
-0.851452
-0.540656
-0.71167
0.777928
0.310131
-0.993248
0.285084
-0.0586406
0.0212647
-0.654104
-0.494581
-0.432659
-0.523786
-0.344781
-0.869881
0.29899
-0.605338
0.44374
0.617857
-0.217569
0.860578
-0.29117
0.381634
-0.421776
0.330489
0.677438
0.149067
-0.96045
0.619059
0.982326
0.640063
0.179737
-0.480701
-0.65974
0.0259526
0.572821
0.0229051
-0.885307
0.680892
0.254125
-0.969549
0.171254
-0.612671
-0.106929
-0.21931
-0.238094
0.473552
0.0523431
-0.247094
-0.00306928
-0.714996
-0.332323
-0.427315
0.0190876
-0.531737
-0.560465
0.0837377
-0.069757
0.661321
-0.851176
-0.434549
0.058512
0.872675
0.434448
0.597563
0.114892
0.408614
-0.210127
-0.660052
0.152015
0.430822
-0.842246
0.851134
-0.478725
0.063511
-0.225703
0.0359858
0.18168
0.65916
0.0781547
-0.695891
0.42782
-0.342922
0.516358
-0.70459
-0.410694
0.564392
0.882805
-0.599247
0.945701
0.170244
-0.494224
-0.425623
0.350828
0.457502
-0.388323
-0.68042
0.263585
0.354671
-0.574953
0.907562
-0.519904
-0.834529
0.148186
0.396265
0.136426
0.45635
-0.406753
0.90553
0.0344611
0.765115
-0.209687
0.59882
-0.680284
0.475242
0.877788
-0.389073
0.669672
-0.294409
-0.325921
-0.0749499
-0.410258
-0.514571
0.504092
-0.215485
0.696166
0.704314
0.904593
0.835894
-0.493866
0.505792
-0.0820283
0.160191
0.272506
-0.271825
-0.50616
-0.857515
-0.563282
0.194184
0.713355
0.653327
0.364267
0.572903
-0.0147715
0.951985
-0.0780064
0.227687
-0.145432
-0.37942
-0.874682
0.927466
-0.0042063
-0.708835
0.413022
0.23866
0.165363
0.812087
0.0723333
0.695248
0.482204
0.971318
-0.800295
-0.803497
0.42829
-0.33403
-0.193103
-0.714259
-0.231904
-0.768475
0.557091
-0.0337633
0.361557
-0.824589
-0.630454
0.47672
-0.230646
0.323129
-0.868836
-0.952301
0.864259
0.0605675
0.342325
0.11815
-0.752479
0.53411
0.834773
-0.957771
0.893459
-0.445283
-0.896743
-0.697444
0.465095
0.926329
-0.0255756
-0.915764
0.847582
-0.88344
-0.291862
-0.906707
-0.334703
0.12682
-0.171615
-0.264542
1.93119e-05
-0.580989
0.135361
-0.517696
0.250256
0.00442553
-0.535718
-0.342099
0.218097
0.80288
0.145356
-0.383894
0.2558
0.462226
-0.540208
0.313993
-0.358375
-0.105884
0.962812
0.130734
0.228076
-0.424762
0.467926
0.0314437
-0.164982
-0.175431
-0.273627
-0.516285
0.203253
0.290202
0.70718
0.638308
-0.803135
0.555258
0.847214
0.623671
0.54814
0.369928
-0.324231
-0.0397638
-0.79726
0.045687
0.131311
0.412311
0.91518
-0.00300813
0.188601
-0.00660801
0.669204
-0.85245
-0.604048
0.610913
0.984098
0.83883
0.6726
-0.095629
-0.768055
0.602404
0.245995
0.0205865
0.182019
0.315403
0.181672
0.680683
0.915753
-0.511224
-0.8924
0.629731
-0.284509
-0.963887
-0.566335
-0.90566
-0.536744
0.440451
-0.61707
-0.122518
-0.582607
-0.658159
-0.276355
-0.425637
-0.680542
-0.738116
0.315276
-0.977514
-0.234193
-0.658006
-0.851348
-0.644231
0.306606
0.676547
-0.896952
0.66561
0.326288
0.653151
0.0714288
-0.973385
0.435936
-0.328862
-0.411536
-0.800252
0.755207
0.993428
-0.937881
0.128165
-0.871037
-0.94412
-0.516827
-0.859125
0.405388
0.953986
0.90739
0.349231
-0.0285079
0.553084
-0.595608
-0.0153745
0.695927
-0.646869
0.186035
0.554538
-0.518964
0.718781
-0.933822
0.0995386
-0.999331
-0.423085
0.54771
-0.160154
-0.620263
0.299934
0.192138
-0.889827
0.963192
0.671591
-0.63141
-0.846548
-0.736978
-0.635458
0.133626
0.992794
0.889715
0.851315
-0.964261
0.917698
0.740387
0.594715
-0.290706
-0.607391
0.0572529
-0.713731
-0.92543
-0.83032
0.653557
0.473463
0.384005
-0.563828
0.691156
-0.171472
0.592388
0.0510345
0.916132
0.385767
0.629482
-0.0545129
-0.0894041
0.0290849
-0.814607
0.0143682
-0.443199
-0.597491
0.96278
0.878243
0.283016
-0.684411
-0.650318
-0.979812
0.0713021
-0.346761
-0.0429004
0.441296
-0.575638
-0.679148
0.493986
-0.239952
0.830186
-0.784598
0.364352
0.243567
0.579346
-0.511091
0.870195
0.553079
-0.652077
-0.167459
0.5189
-0.0707343
-0.518853
0.371976
0.390135
0.23143
0.538903
0.476713
-0.242009
-0.230563
0.550394
0.279526
0.662055
-0.708907
0.270044
0.527073
0.31054
-0.647771
-0.135721
-0.0927925
0.388237
0.824086
0.380563
0.29849
-0.15946
-0.711629
-0.373134
-0.403461
0.721717
-0.487142
0.500762
-0.468943
0.464674
0.718889
0.778877
-0.974775
0.633056
-0.457476
0.338963
0.48964
0.863731
-0.651828
0.9847
0.993676
-0.298665
0.115351
0.0199463
-0.0896767
-0.468659
-0.113736
-0.873609
0.567821
-0.779056
-0.50929
-0.359245
0.901754
-0.184954
0.403241
-0.0405583
-0.801595
-0.189701
0.0305904
0.319073
-0.481501
0.149734
0.57732
-0.439348
-0.492204
0.864074
-0.275438
0.687067
0.376772
0.28556
-0.910769
0.822618
0.619741
-0.531135
-0.969337
-0.514077
-0.00882947
0.697137
0.82108
-0.0638031
-0.899669
0.19545
-0.238106
0.469649
-0.595999
-0.877555
0.60306
0.579185
0.344312
-0.43729
0.236145
0.947523
-0.328879
-0.069695
-0.614731
-0.900597
-0.207733
0.302446
-0.273706
0.661263
-0.113612
-0.197586
0.640011
-0.923557
0.643247
-0.220555
-0.543318
-0.853565
0.332756
0.623848
0.576504
0.66445
-0.98589
0.334775
-0.21522
0.38528
-0.939303
0.698659
0.0424578
-0.829668
0.678529
0.600198
0.141679
0.0873939
-0.274092
-0.67981
0.967145
0.925173
0.902287
0.28889
-0.0420666
-0.603694
-0.578468
0.080133
-0.486581
-0.667321
-0.834102
0.876299
-0.0271865
0.546585
0.537248
0.165649
0.333402
0.0929438
-0.135892
0.107529
0.839985
-0.182531
0.0844355
0.239071
-0.96095
0.389094
-0.109359
0.90574
-0.489586
0.224015
-0.316645
-0.911234
0.0166794
0.291935
0.43104
0.779011
0.271123
0.860754
-0.874214
0.169637
-0.554127
0.0872579
-0.147445
0.56444
0.645645
0.0066123
-0.462499
0.39982
0.998969
-0.129955
-0.410828
0.136455
0.655705
-0.312602
-0.308864
0.594711
-0.451065
0.261937
0.891267
-0.139956
-0.944055
0.228606
-0.0953763
-0.546581
0.0769019
0.610198
0.684451
-0.751603
0.939277
-0.330883
0.374771
-0.156035
0.190558
0.308742
0.319703
0.918745
0.380731
-0.301587
0.277392
-0.413953
-0.817341
0.576215
-0.103861
0.44673
-0.0528932
-0.189696
-0.903868
-0.890425
-0.516895
0.336598
-0.464339
-0.986735
0.190707
-0.748371
0.244782
-0.683317
-0.685197
-0.777036
-0.478435
0.701335
-0.827816
-0.949139
0.190904
-0.177132
-0.617267
0.0193758
-0.891915
-0.855024
0.561074
-0.0909343
-0.943882
-0.321955
-0.13393
0.254663
0.0105953
-0.325757
-0.810521
0.286796
0.894436
0.431674
-0.58169
-0.296839
-0.667387
-0.645622
-0.734296
-0.200486
-0.535081
-0.883628
0.531301
0.863573
0.164442
0.1267
-0.416927
-0.344275
0.989519
-0.44526
0.30303
-0.499294
0.701478
-0.79076
0.954285
0.416104
-0.0805542
0.484257
-0.232353
0.449211
-0.12307
-0.0439092
-0.418372
-0.393545
0.652169
0.353868
0.100653
-0.146638
0.723992
0.952197
0.274129
-0.722304
0.341059
-0.977728
0.932109
-0.898971
-0.571904
-0.058367
-0.442356
-0.76917
-0.0534589
-0.220609
-0.944613
-0.714445
-0.876053
-0.724633
0.201773
0.85263
-0.797113
0.188997
-0.133078
-0.43555
0.699908
-0.619782
0.884506
-0.115614
-0.438129
-0.644686
0.271236
-0.451102
0.112623
-0.452439
-0.404283
-0.951554
0.637363
0.853162
-0.00750244
0.246839
0.169584
-0.26534
-0.149045
-0.245917
-0.364513
-0.361753
0.496841
0.792525
0.741299
0.112448
0.257861
-0.681885
-0.0958757
0.578468
-0.237404
0.759903
0.476386
0.166693
-0.348422
0.813269
0.221458
0.287847
0.469561
-0.682349
0.730439
0.55243
0.133272
-0.693009
-0.160305
0.571907
-0.187671
0.956632
0.297098
-0.0481335
-0.582676
0.189451
-0.345622
0.904212
0.281103
-0.562783
-0.382895
-0.0207378
0.0193557
0.811223
0.799275
0.234599
0.0567065
0.0501765
0.0865437
-0.379248
0.529201
-0.905117
-0.359201
0.211214
-0.313203
0.482187
0.865396
-0.286926
-0.902486
0.0482055
-0.650378
-0.0740604
-0.699031
-0.99552
-0.382189
-0.940717
0.860187
-0.232836
-0.393921
0.349307
0.735941
0.0463934
-0.893629
0.228276
0.864619
-0.477199
0.575293
-0.394149
0.287385
0.328453
0.245816
-0.172975
-0.336851
-0.0212002
-0.783358
-0.300894
-0.78035
-0.227743
0.315477
-0.719002
0.520918
-0.331778
-0.858604
-0.287057
0.187875
0.650509
0.894383
-0.843968
0.260078
-0.694586
0.501054
-0.935996
-0.488053
-0.627589
-0.0109087
0.431468
-0.801291
0.703515
0.429877
-0.328487
-0.135728
-0.596276
-0.704528
0.711382
-0.0892553
0.948736
0.716025
0.710026
-0.453529
-0.990387
0.0840963
-0.539215
0.943757
0.616554
0.0767763
-0.192195
-0.278829
0.0873226
-0.707449
0.965158
-0.974848
-0.743314
0.602399
-0.320933
-0.0312526
-0.889114
0.335853
-0.330053
0.0359253
-0.0483125
-0.942635
0.103089
-0.558696
0.8878
0.279096
-0.437062
0.507234
-0.779051
-0.840017
0.0808451
0.0509421
-0.343725
-0.144557
-0.605412
0.674035
0.366911
-0.525627
-0.74283
0.413452
-0.51006
-0.3584
0.328513
-0.928533
0.758774
0.241485
-0.855517
0.655807
-0.431124
0.809029
-0.294804
0.556759
-0.102312
0.354582
0.481848
0.44391
-0.319839
-0.520852
-0.664462
0.504411
0.676112
-0.706624
-0.920649
-0.486345
0.287529
0.153352
0.807323
0.263106
0.780994
-0.930751
0.0235498
-0.991763
-0.741688
-0.935764
0.518782
-0.819844
0.813191
0.396992
0.673367
0.0531971
0.808503
-0.297039
0.881883
0.16094
-0.628282
0.723719
-0.113609
0.969803
0.838576
-0.176221
0.68899
0.499997
0.975016
-0.769932
0.868027
0.98425
-0.879773
0.0749152
-0.807562
0.0715016
0.705079
-0.0341722
-0.246113
0.902069
-0.55135
-0.80234
-0.936674
-0.769692
0.953049
-0.218371
0.346752
0.0404012
-0.645289
0.187479
-0.687433
-0.0886557
-0.907045
-0.666839
0.177181
-0.700364
0.557331
-0.966264
-0.966833
-0.174759
0.0582392
0.0228237
0.753329
-0.220398
0.226321
0.651484
-0.95384
-0.29328
-0.269058
-0.00275671
-0.736991
-0.162263
-0.594582
-0.282243
-0.222234
0.165896
0.489511
0.767361
-0.813064
0.543679
0.135279
-0.310695
-0.393788
0.35247
-0.656348
0.706498
0.73113
-0.891522
0.897583
-0.902892
-0.0144945
0.766634
0.260943
-0.208911
-0.714098
0.910219
0.641669
-0.758972
0.198387
-0.333552
-0.168255
-0.433125
0.353363
-0.431594
0.50073
-0.289914
0.00835121
-0.368719
0.391175
-0.971815
0.815786
-0.0702149
0.303135
0.554274
0.588107
0.553418
0.347061
0.441702
0.175789
-0.215489
0.128157
0.901479
0.136798
-0.77411
0.9412
-0.594484
0.570196
0.345097
-0.162329
0.647681
-0.0399191
-0.525139
0.871272
0.695106
0.776361
0.386462
0.686086
0.656229
-0.207961
-0.132979
0.695152
-0.0453125
0.601984
-0.0379602
-0.184187
0.400753
0.156667
-0.919406
-0.201168
-0.0192631
-0.481435
0.344507
-0.605885
-0.803891
0.809693
-0.895621
-0.108496
-0.197939
-0.049463
0.976735
-0.198812
-0.433367
0.314282
-0.490021
-0.835089
0.449132
0.0147431
0.180487
-0.830655
-0.927549
0.107075
-0.00624442
-0.442639
0.463766
-0.648304
-0.0314131
0.504942
-0.327038
-0.347207
-0.391443
0.466426
-0.431067
0.720969
0.997926
-0.09059
0.778726
-0.360394
-0.969111
0.736026
-0.772585
-0.390366
0.871657
0.0971302
-0.920977
-0.329328
0.410487
-0.259388
-0.237016
0.206041
-0.198403
0.142817
0.345721
0.186572
-0.199694
0.759693
0.757498
0.655157
-0.301195
0.740949
-0.0621452
0.23747
0.283991
-0.651044
-0.462748
0.266761
0.620547
0.530264
-0.978954
-0.783592
-0.0594276
0.974563
0.288801
0.427041
-0.530794
0.615892
-0.483351
0.122961
0.655411
-0.739208
0.0718794
-0.31604
0.47841
-0.169679
0.608152
0.148553
-0.0948141
-0.239764
-0.827347
0.892353
0.645185
-0.608434
-0.143479
-0.496814
-0.785354
0.501358
0.424326
-0.495013
0.638955
-0.398219
-0.560091
0.379773
-0.823759
0.997979
0.973047
-0.927378
-0.774303
0.818927
0.854651
0.479909
0.343897
-0.579818
-0.872141
-0.778024
0.92684
-0.62931
0.160322
0.67411
0.379742
-0.79219
0.567641
0.676406
0.623395
0.980955
-0.0157735
0.862547
-0.324578
-0.906093
0.0026406
-0.872777
-0.631497
0.254869
-0.652465
-0.531711
0.769136
0.794047
0.771254
0.194128
0.181297
-0.1018
-0.0286552
0.441979
-0.439744
-0.943301
0.282327
0.0186343
0.818627
0.369482
0.377242
0.735166
-0.722972
-0.819686
-0.964724
-0.0847657
0.964931
0.894477
0.0603952
0.586055
0.213396
-0.0059669
-0.874171
0.585285
0.724098
-0.595838
0.832778
0.311988
0.476356
-0.686983
-0.787682
0.25429
0.756406
-0.721897
-0.436893
-0.0507383
0.782143
0.476945
0.218219
0.385664
-0.651633
0.0428398
-0.957813
0.294337
-0.483825
-0.605012
-0.329472
-0.0587428
0.39465
0.595893
0.264753
0.483521
-0.722714
-0.755801
-0.943464
0.524136
0.791101
0.644463
-0.625294
-0.053453
-0.301191
-0.994292
-0.0636516
-0.0597957
0.605005
-0.652889
-0.929781
0.772089
-0.384697
0.239851
0.755193
0.118979
0.728221
-0.360087
-0.236085
0.766598
0.386909
0.153304
0.633113
-0.651793
0.532318
0.37209
-0.434891
0.770119
0.715747
-0.16774
0.0541587
-0.281179
-0.284385
0.451917
-0.812786
-0.41559
0.212741
0.23964
0.531045
0.0290552
-0.0821033
-0.809438
-0.559
-0.792793
0.444184
0.967618
-0.964629
0.529928
0.108112
0.718037
-0.231286
-0.821404
-0.691297
-0.432954
-0.487142
0.861229
-0.230469
-0.774891
-0.830242
0.277857
0.281366
-0.0459538
0.647262
0.41277
0.658321
-0.91746
-0.921209
-0.848045
0.910518
-0.772476
-0.730877
-0.579864
-0.485926
-0.90979
0.105188
0.0237236
-0.140271
0.826788
0.217378
-0.505367
-0.0542076
-0.50835
-0.811967
-0.12637
-0.333298
-0.762812
-0.134835
-0.0853224
0.158606
0.0539027
-0.573497
-0.71721
-0.512434
-0.158254
0.150565
-0.79416
-0.625514
0.94719
-0.868315
0.802419
-0.839686
0.501145
-0.220515
-0.920184
-0.703428
-0.970409
0.0541805
0.0551114
-0.214901
-0.0232655
-0.709848
0.441577
0.0382316
0.506266
0.168885
0.835787
0.953865
0.813303
0.995808
0.216235
0.481584
-0.866802
-0.0445417
0.723355
-0.932842
0.228677
-0.598267
-0.0673672
0.143255
-0.211707
-0.246194
-0.97021
0.978855
0.889022
0.951541
-0.196751
-0.902423
-0.0289702
0.855978
-0.605531
0.918027
-0.0535055
0.34174
-0.574985
0.412647
0.33771
-0.56035
-0.156337
0.0843353
-0.289921
-0.521689
-0.0101672
-0.0332259
0.962077
0.652802
-0.0778598
0.477786
0.808158
0.0679306
-0.506291
0.802949
0.201476
-0.829675
-0.239847
-0.880808
0.144336
-0.391992
0.705812
0.906249
-0.58932
-0.481171
-0.211603
0.857035
-0.159808
0.658128
0.435319
-0.90986
-0.280503
0.591389
-0.863836
0.534978
-0.201596
0.560873
-0.251377
-0.352483
-0.538911
0.963919
-0.881171
-0.123049
0.758919
0.528727
-0.0371715
-0.953428
0.997363
-0.0942991
0.88923
-0.527179
-0.391676
0.561093
0.359965
0.69556
0.302989
-0.561887
-0.413253
0.125581
0.337147
-0.175637
0.9905
-0.536451
-0.9929
0.341363
-0.58488
-0.730165
-0.421373
-0.508691
-0.460722
-0.0589339
-0.0512613
0.320376
0.75179
-0.156415
-0.300802
-0.969663
0.356384
0.347753
-0.750488
0.730596
0.423929
-0.397801
-0.912253
0.518469
-0.0856824
0.871542
-0.811707
-0.267124
0.976521
-0.515745
0.90397
0.138358
-0.475356
0.43722
0.348027
0.688272
0.219926
0.75331
-0.314819
0.281689
0.332535
-0.948139
-0.91444
-0.788052
-0.769981
-0.130132
-0.705641
-0.108489
0.159218
-0.409069
0.6962
0.526948
0.864056
0.872492
-0.531442
0.258964
0.562162
-0.94865
0.1073
0.953637
0.0176529
-0.949304
0.159108
-0.385658
-0.679852
0.276974
0.905141
0.897799
-0.612977
-0.0269337
0.176724
-0.268858
-0.156163
-0.0864482
-0.182794
-0.649655
-0.107976
0.521085
0.887954
-0.197904
-0.0853384
0.918855
0.59131
-0.976225
0.872122
0.384215
-0.0871145
0.709868
-0.897362
0.419397
-0.937943
-0.501873
-0.703383
0.281538
-0.815559
0.300125
-0.223471
-0.755386
0.130404
0.94788
0.350887
0.329836
-0.374053
-0.136422
0.723037
0.343601
-0.896449
0.302778
-0.201931
-0.435315
0.0206672
-0.385315
-0.536391
0.811014
0.379807
0.895022
0.342295
-0.0963619
0.412355
0.929235
0.381578
0.74831
0.675182
-0.701699
0.0546849
-0.40058
-0.415108
0.263637
0.16267
0.209758
0.155116
-0.459729
-0.271239
0.922426
-0.0858551
0.218878
0.438417
-0.742496
0.0538895
0.91135
-0.320192
0.441434
0.260662
0.654601
-0.679557
0.791072
0.936638
-0.137892
-0.469451
-0.221589
-0.880402
-0.00583816
0.0242215
0.0608159
-0.204488
-0.762975
0.173713
0.427244
-0.168774
0.280651
-0.941759
-0.822754
0.264268
-0.706463
-0.910229
-0.957789
-0.0254004
0.14224
-0.170818
0.577214
0.0717375
0.340244
0.468571
-0.175344
0.646527
-0.356375
0.380132
0.273077
-0.274422
0.361927
-0.583801
0.758623
-0.265553
0.590101
0.671777
-0.0494089
0.48174
0.623177
0.657043
-0.368698
-0.740921
-0.544016
0.135805
-0.193576
-0.0919992
0.289869
-0.631025
-0.358654
0.388494
-0.793044
-0.112648
0.110561
0.396839
-0.210843
0.593655
0.245013
0.299512
0.0963868
0.515726
0.434686
-0.762817
-0.0938325
0.777048
-0.515988
-0.62302
-0.364944
-0.945778
0.138083
0.0179949
0.640743
-0.704969
0.631726
-0.408037
-0.260486
0.319938
-0.0401751
-0.97779
-0.185152
-0.206613
-0.149419
0.361077
-0.00280774
-0.420989
-0.445617
-0.88601
0.806511
-0.32193
0.722411
-0.747858
0.83924
0.400056
-0.828924
-0.840008
0.321796
0.658786
0.712467
-0.343345
0.106538
-0.392997
0.793183
0.162283
-0.0907202
0.560051
0.245391
-0.803808
-0.724362
-0.386453
0.57779
0.450093
0.721761
0.6577
0.740713
0.929608
-0.456687
-0.729781
0.523785
0.458846
-0.346482
0.673097
0.323644
0.479403
0.778961
-0.391767
0.298171
0.877668
-0.708119
0.607416
-0.213111
0.942641
0.425956
0.582543
-0.975309
-0.694656
0.74003
-0.236933
0.742198
-0.178775
-0.682796
-0.683516
-0.1258
0.469631
0.965702
-0.685643
0.0536544
0.263093
-0.700686
0.462313
-0.399802
0.440412
0.324318
0.150856
-0.132387
0.0238425
0.873375
-0.246922
-0.714908
-0.928792
-0.198522
0.402936
-0.821444
-0.683367
0.404527
0.411241
-0.550093
0.175483
0.0410287
-0.568174
-0.895087
0.29767
-0.682253
0.896658
-0.282741
0.749279
0.426875
-0.20261
-0.518209
-0.93505
0.455466
-0.255274
0.272899
-0.191638
-0.457558
0.347594
-0.651608
-0.641341
0.142502
-0.624656
-0.369891
-0.0212854
-0.126376
-0.0455029
-0.975564
-0.624701
-0.430348
0.369543
-0.139123
-0.581915
0.109156
0.256947
0.826111
0.568869
-0.790997
-0.686074
-0.35745
-0.709122
-0.982083
0.585664
0.141715
0.893088
-0.342845
-0.553101
0.19196
-0.0827161
0.319132
0.474448
-0.000458837
-0.479447
0.239763
0.208394
0.922698
0.689391
0.263071
-0.0674255
-0.0965759
0.0690653
-0.613291
0.380736
0.417307
-0.818135
-0.947579
-0.385767
0.0780907
-0.737146
0.0729866
-0.511578
0.16155
0.889437
-0.548399
0.539646
0.987679
0.0575948
-0.628842
-0.975936
-0.813075
0.249033
-0.300199
-0.427601
0.595928
0.659196
-0.0138702
0.215088
-0.573673
-0.85364
-0.112126
0.347457
0.442297
0.505211
0.0665133
0.358898
-0.612844
0.216583
0.868211
-0.999718
0.488108
-0.31936
-0.97811
-0.534081
-0.142038
-0.251999
0.451051
0.683249
-0.209187
-0.845374
0.300034
-0.519703
-0.483053
0.346482
-0.997556
-0.248891
-0.21844
0.496657
-0.403013
0.662214
0.97499
0.732127
-0.97898
-0.396146
-0.277344
-0.961054
0.369079
-0.14326
0.872151
-0.14782
0.994946
0.535972
-0.40464
-0.255243
0.285779
-0.499157
-0.184601
0.615115
0.327487
-0.687236
-0.105048
-0.559519
-0.450258
-0.463692
0.77386
-0.184672
0.364538
0.459366
0.783685
-0.542777
0.631581
0.228928
0.401506
-0.413404
0.565348
-0.522895
-0.0896215
0.509418
-0.383498
0.0753336
-0.558144
-0.350683
-0.927545
-0.0289005
-0.0510055
0.24502
-0.984883
-0.667384
0.185949
-0.347014
-0.375117
-0.54389
0.226089
-0.102032
-0.415634
0.392919
-0.663474
0.537446
0.892887
-0.0492945
0.211623
-0.836489
0.49644
0.808841
0.892167
0.651292
-0.0486379
-0.349901
0.0764083
-0.612356
-0.666159
0.410347
-0.53905
0.857998
-0.780184
-0.78351
-0.968703
0.92233
0.442367
-0.186715
-0.820173
-0.64105
-0.561533
-0.883143
-0.536057
0.02973
0.749727
0.644966
0.862119
-0.255904
0.0673742
-0.886956
0.964246
0.739439
-0.786814
-0.565793
0.558249
0.921196
0.340243
0.280982
0.213672
-0.107136
0.149718
-0.915954
0.301107
-0.236335
-0.421361
0.696075
0.987561
0.68512
-0.241251
-0.0798155
-0.735103
0.752025
0.157037
-0.0854144
-0.781627
-0.933462
0.621021
0.151738
-0.773855
0.378022
0.547023
0.918287
0.632223
-0.953429
0.974536
0.399302
-0.470462
-0.822828
0.0996649
0.0739645
0.462117
0.860092
0.354384
-0.786363
0.428042
-0.0669111
-0.269825
0.509032
0.947889
-0.403454
0.55478
-0.0750175
-0.776368
0.970956
-0.53312
-0.130493
0.117458
0.965339
-0.423936
0.669909
0.884217
-0.585202
0.758123
-0.132974
0.713936
0.372709
-0.0955682
-0.411031
-0.866804
-0.476942
0.128522
-0.438055
0.925118
-0.154853
-0.359317
-0.628606
0.0282227
-0.508509
-0.203684
-0.630753
-0.975778
-0.0873827
0.0248908
0.946444
-0.844138
0.194499
0.722831
0.113831
0.255036
-0.289903
-0.212256
-0.162544
0.0538257
0.872199
-0.305111
0.480222
-0.228124
0.927575
0.22807
0.282484
-0.66041
-0.79992
0.0460944
-0.198302
-0.0847021
-0.313369
-0.903139
0.55581
-0.451734
-0.640249
-0.450037
-0.164005
-0.445521
0.653636
-0.816515
-0.371579
0.336693
0.217397
0.233346
0.0544263
0.764695
-0.838757
0.784612
-0.836254
0.516812
0.681817
0.247136
-0.660625
-0.0786901
0.402288
0.554023
0.213203
0.447539
-0.089776
0.378365
0.745239
-0.948134
0.452976
-0.271958
0.659564
0.559737
0.836853
0.860111
0.767233
0.463026
-0.806048
0.469781
-0.185393
-0.78238
0.734414
-0.839114
-0.110975
0.99915
0.608342
-0.344551
-0.692757
-0.40738
-0.443916
-0.0749222
-0.450402
0.121785
-0.894447
-0.479986
0.364065
-0.395995
-0.253574
0.558939
0.512807
0.13493
-0.591815
-0.357086
-0.0780119
0.875278
-0.306865
0.815454
0.50384
0.926416
0.231165
-0.18386
0.502858
0.993935
-0.93682
0.150328
-0.837175
0.0341277
0.144431
0.291483
0.134299
-0.833056
-0.62651
0.81585
-0.793043
0.947877
-0.794988
-0.615316
-0.182423
-0.238537
-0.331611
-0.416453
0.898133
0.464069
0.305514
0.849726
-0.80642
-0.21416
0.320157
-0.275103
0.272308
0.753601
-0.0901417
0.968807
0.365227
-0.376289
0.630257
-0.636397
-0.163067
-0.665553
-0.405333
0.700205
0.83314
-0.703639
0.974691
-0.725138
0.901809
0.881801
0.0417
-0.238288
-0.980156
-0.977702
0.667363
-0.305034
0.368745
-0.31287
-0.04649
-0.921376
-0.0431815
0.958223
-0.989603
0.306531
-0.473723
-0.289869
0.922474
0.905039
-0.350396
0.240105
0.660044
0.269483
-0.517877
-0.27178
-0.384919
-0.979592
0.0418652
-0.73125
0.28109
-0.726273
-0.0399033
0.567453
-0.602522
-0.762204
-0.543963
-0.294941
0.00375974
-0.396993
0.100411
-0.549866
0.908765
-0.329296
0.325483
0.00439012
0.310544
0.297305
-0.430597
-0.590893
-0.991925
-0.921302
0.0808741
-0.398736
-0.0306326
0.876981
0.673629
0.486469
-0.870635
0.0170887
0.517739
-0.265839
0.447212
0.969604
0.326002
-0.771576
0.119645
-0.525247
-0.550132
-0.0998663
-0.353083
-0.304105
0.382455
-0.884292
0.0871472
-0.0848233
0.898377
-0.61384
-0.241779
0.314479
0.121247
-0.679378
-0.615762
0.505613
-0.0471607
-0.148067
0.541839
-0.798717
0.984214
0.397169
-0.88569
-0.897438
0.865049
0.528581
0.35197
0.0202857
0.295101
-0.690415
-0.205261
-0.86469
-0.0276952
0.641827
-0.0855366
0.145159
0.532925
-0.581508
0.411609
-0.0864284
0.148735
-0.666236
0.178525
0.320887
-0.834761
0.409663
-0.983371
0.442244
0.421178
0.276865
-0.748662
-0.569818
-0.450476
-0.84894
0.346253
-0.0851514
-0.791107
-0.545088
-0.824702
-0.463346
-0.00363445
-0.633184
0.205995
-0.81365
-0.718902
0.134787
0.583973
0.719455
-0.993741
-0.189914
-0.611969
-0.804199
0.612821
0.740432
-0.889612
0.303988
-0.396152
0.265547
0.765202
-0.451021
-0.840741
-0.57526
0.958216
0.297413
0.589184
0.553178
-0.981824
0.338661
0.841767
0.27271
0.659961
0.980738
-0.391785
-0.917716
-0.607531
0.567299
-0.11718
-0.596895
0.19573
-0.568716
-0.441999
-0.509046
0.627215
0.8587
0.952873
-0.389066
0.929716
0.0541672
0.15672
0.339095
0.380684
-0.438313
0.956042
-0.0658685
-0.109638
0.570466
0.734554
0.268866
0.114432
-0.617911
-0.111056
0.0951873
-0.847012
-0.674943
0.252816
-0.833868
-0.644757
0.995893
0.769936
-0.875594
0.934221
0.0818377
-0.889243
0.813971
-0.986944
-0.657964
-0.412498
0.537537
-0.39572
0.884768
0.746647
0.311007
0.48512
0.762999
-0.81238
-0.48955
-0.340555
-0.423344
0.597611
0.498931
0.0245854
-0.0258176
0.436397
-0.152993
0.910979
0.0329244
0.287549
0.471473
0.694248
-0.287085
-0.170861
-0.110714
0.912977
-0.398916
0.011748
0.778712
0.776059
0.0389717
-0.66966
0.54594
0.765734
0.858104
-0.372639
-0.0337964
0.45723
-0.807343
-0.91702
0.0015105
0.446028
-0.0166334
0.225965
0.200408
0.278023
0.0581884
-0.450427
-0.428287
0.646986
-0.820982
-0.893957
-0.885077
0.239877
0.421925
0.105549
-0.65012
0.217945
0.630628
-0.650608
-0.41607
-0.739804
0.404143
-0.160845
-0.907742
-0.582411
-0.108214
-0.24518
0.0927594
0.616403
0.362773
-0.221226
0.0663401
0.629558
0.25514
-0.392105
0.457799
0.863287
0.613691
-0.622111
-0.909335
-0.282613
-0.143029
-0.794947
-0.600477
0.740531
-0.299695
0.422373
-0.886403
0.126795
-0.326348
0.34561
-0.0683684
-0.710534
0.792978
0.300956
-0.0395907
0.628839
-0.454647
0.281249
-0.911768
0.689675
-0.814563
0.650367
-0.304275
0.579015
0.826943
-0.187089
0.500213
-0.337437
0.496232
-0.679114
0.327308
-0.683519
0.380873
-0.952844
0.0561788
0.698092
-0.180726
0.772679
0.926191
-0.403794
-0.848438
-0.0723234
-0.10114
-0.800854
0.387474
0.902743
-0.732598
0.763498
0.984455
0.426692
0.130687
-0.727377
-0.267048
0.447482
0.316622
0.512267
-0.38577
0.896598
0.224077
-0.200938
-0.694449
-0.421261
-0.336659
0.606265
0.410841
-0.5399
0.0798612
0.855054
0.0255442
0.0874978
0.971955
0.504045
0.460446
0.0834117
-0.247391
0.252334
0.0593003
-0.133225
0.10697
-0.00773597
-0.404099
0.053627
-0.896884
-0.708187
0.356655
-0.402951
0.517634
0.363156
-0.925679
-0.809068
-0.859374
0.938314
-0.356417
0.529208
-0.197197
-0.856458
-0.304741
0.259655
-0.825067
-0.0774128
-0.0321686
-0.433421
0.77647
-0.884886
0.829893
0.441705
-0.867276
0.0333529
0.923649
-0.704132
-0.235248
-0.0352743
-0.897031
0.0130743
-0.546556
-0.913938
0.905431
-0.236313
0.146976
-0.413424
-0.408447
-0.45515
-0.431459
-0.178368
0.147155
-0.718447
-0.66744
0.759399
-0.18312
0.329227
0.567793
0.626971
0.360466
-0.947145
0.0546931
0.696867
0.646159
0.976766
0.527801
-0.930691
-0.295478
-0.912964
0.142224
0.785369
0.695839
0.631141
-0.705934
-0.39208
-0.901684
0.553678
0.678141
-0.363148
0.386302
0.475096
0.0875785
-0.599893
0.2394
-0.463252
-0.015227
-0.188071
0.0129114
0.957452
0.0775363
-0.723621
0.941889
-0.981713
-0.548303
-0.378625
0.697593
0.270196
-0.839927
-0.0511637
0.583569
0.277014
0.926143
-0.410862
-0.185908
0.586814
-0.693042
-0.491685
0.246496
-0.0574814
0.122491
-0.238766
0.74358
0.475566
-0.380752
0.418439
-0.464808
-0.574835
0.12292
-0.411298
0.644097
-0.173572
-0.467957
-0.952748
0.120912
-0.467317
-0.775025
-0.669153
-0.211748
-0.976357
-0.302936
-0.733835
-0.0778679
0.763677
-0.358383
0.349524
-0.382082
0.996896
-0.453712
-0.977451
-0.971784
0.761582
-0.95937
0.626289
0.110348
0.467556
0.329258
0.985841
-0.135399
-0.912921
0.761373
0.882289
0.127374
0.383147
-0.904766
-0.0015403
0.724729
0.681002
-0.243955
0.651893
-0.563264
-0.782488
