0.166795
-0.507096
-0.781372
-0.327915
-0.963279
0.674295
-0.790994
-0.73794
0.303791
0.393869
0.440271
-0.183053
0.3306
-0.19382
0.816654
-0.268589
0.980396
-0.735053
0.136814
-0.861501
0.692732
0.29384
-0.858702
0.109083
-0.937818
0.671128
0.480489
-0.719684
-0.131942
0.729917
-0.74831
0.1066
0.621299
0.350808
0.285001
-0.649865
0.814197
-0.518992
-0.869917
0.237353
-0.692958
-0.320806
0.459941
-0.461058
0.401759
0.331466
-0.818878
0.673171
0.536551
-0.377921
0.463275
-0.422014
0.484154
-0.855111
-0.992561
-0.364979
-0.769215
0.266775
0.301133
-0.400896
0.719319
-0.318245
-0.247168
0.353778
0.263882
0.352041
-0.129136
-0.992928
0.179258
-0.131191
0.927994
-0.261163
0.209256
0.659054
-0.946526
-0.0101221
-0.270233
0.689635
-0.412134
0.845517
-0.912453
-0.13768
-0.880181
0.513376
-0.76228
-0.669022
-0.36886
0.0919089
-0.433289
0.893692
0.8341
0.737159
-0.0384376
-0.449307
0.127487
-0.692919
-0.417519
0.0972138
-0.895682
-0.670581
0.994633
0.174069
-0.649367
-0.644098
0.89425
0.897782
0.826538
0.449863
0.920751
0.953774
-0.857716
0.809086
0.357205
-0.432884
0.0504435
0.806751
-0.809913
-0.615702
-0.259098
0.812789
-0.580052
-0.598029
0.559566
-0.439177
0.851555
-0.922563
-0.702259
-0.853172
0.767259
0.263643
0.128688
0.293892
-0.651231
0.15897
0.829395
-0.0578527
-0.328538
0.392033
0.415248
-0.815685
-0.505969
-0.852901
-0.586217
-0.759131
0.0703324
0.7835
-0.135002
-0.504462
0.109385
-0.731596
0.8575
0.0641203
0.336547
-0.424787
0.562594
-0.216231
0.395533
0.268295
-0.385327
-0.475076
-0.0261928
0.541561
-0.467588
-0.303427
-0.733078
-0.763548
0.779387
0.562503
0.521188
-0.917536
-0.709898
0.444175
-0.73466
0.956826
-0.925349
0.214859
0.0557324
0.913733
0.184792
-0.28789
0.920139
0.782083
-0.374638
0.120127
0.405232
0.995514
0.624573
-0.572747
0.68704
-0.487436
-0.308784
-0.592254
0.0740924
-0.505011
-0.222822
-0.269349
0.0928148
-0.0584644
-0.92831
0.757541
-0.200912
-0.812686
0.261438
0.957686
0.684479
0.376154
-0.800444
0.41267
-0.404556
0.761194
0.460198
0.911822
-0.787533
-0.267359
-0.0821137
0.364926
-0.0621095
-0.981617
0.859668
-0.143788
0.974205
0.260211
0.356848
0.853089
0.727632
-0.582296
-0.34139
-0.477597
-0.0654087
-0.364533
0.390067
0.824236
0.490516
-0.294741
0.669289
0.813424
0.4764
0.754946
0.310366
-0.545598
-0.0681995
1.00423
-0.0681975
-0.655287
-0.244494
0.286752
0.437188
-0.378161
-0.626471
-0.737398
0.525191
-0.436148
-0.796763
0.0407893
-0.104998
0.155331
-0.331864
-0.576437
0.555054
0.828218
-0.868763
0.607692
-0.0253304
0.649087
-0.335795
0.61589
-0.352705
-0.0488356
-0.442314
0.947235
0.280189
0.159865
-0.78738
-0.801478
-0.954418
0.259267
0.470736
-0.0133793
0.752658
0.0484423
-0.0598367
0.172923
0.131412
0.283627
-0.807788
0.168796
-0.156594
0.00277853
-0.625682
-0.868287
-0.916924
-0.0530189
0.502064
0.266129
-0.121767
-0.854274
0.047752
0.441852
-0.379795
-0.539876
0.604814
0.0884937
0.121894
-0.0283948
0.271325
-0.449245
0.0700638
-0.870797
-0.743044
-0.991
-0.0170921
0.340664
-0.00193388
0.161605
-0.526118
-0.0991847
0.944222
-0.57349
0.563947
0.484608
-0.55526
-0.666874
-0.970003
0.418454
0.880855
-0.746247
-0.114914
-0.951188
-0.279485
0.615802
-0.0680448
-0.111589
0.0321059
-0.380228
-0.182216
0.933718
-0.929714
-0.372861
0.816079
-0.348953
0.714257
-0.119878
0.310319
-0.741019
0.27713
0.502271
0.934622
-0.58059
-0.330536
0.851916
0.386238
0.728497
-0.474714
-0.562652
0.722033
-0.359764
0.742623
-0.449502
0.983743
0.338802
0.945928
0.803043
0.58869
0.798489
0.359672
0.735177
0.674905
0.851949
-0.288154
-0.93493
0.581783
-0.833221
0.619346
0.98886
-0.0370975
-0.901584
0.650287
0.277301
-0.505476
-0.916077
0.624707
-0.47773
0.417426
0.607641
-0.261472
-0.566576
0.365765
0.950563
-0.219857
-0.530943
0.5025
-0.790634
0.556104
-0.085704
-0.568582
0.59937
0.9009
0.868713
-0.498507
0.760434
-0.600673
0.844614
0.231417
-0.621426
0.57881
0.936411
-0.111391
0.9907
0.125244
-0.014431
-0.967737
0.958605
-0.113519
0.133466
-0.747894
0.643421
0.269006
-0.762819
-0.509249
0.549156
0.955851
-0.210632
0.593623
0.0740023
0.845457
0.636082
0.352672
0.615116
0.375396
-0.103159
-0.53633
-0.204932
0.422815
0.0529718
-0.145774
-0.200825
0.712914
0.139351
-0.484565
-0.277479
0.0283876
0.280993
0.869867
-0.524038
-0.118437
0.700025
-0.706356
-0.075068
0.163597
-0.263579
-0.0675289
0.617167
0.941798
-0.205735
-0.964415
-0.122571
-0.80874
0.0580406
0.95539
0.969404
-0.198782
-0.966496
0.610793
-0.972062
-0.78095
-0.599518
0.429771
-0.628076
0.792986
-0.500836
-0.480368
-0.243716
0.353643
-0.917866
0.432387
0.5162
0.347215
0.962504
0.926973
0.0339099
-0.766078
0.190539
0.173781
-0.944521
-0.825877
-0.0715545
0.494624
0.589591
-0.721033
0.995008
0.956579
-0.33645
-0.800663
-0.963301
-0.410596
-0.703425
0.325775
0.595728
0.522105
-0.0522942
-0.761223
-0.00990828
0.098205
-0.623638
0.399673
0.445194
0.776055
0.56894
-0.436425
0.459352
-0.585646
0.513852
0.138861
-0.401636
-0.673894
0.029947
-0.495795
0.0183397
0.788364
-0.0102279
0.0267046
-0.827968
-0.0364625
0.468717
0.607614
0.306278
-0.309003
0.884636
0.919054
0.267016
-0.975829
0.550152
-0.805316
-0.659757
0.0282398
0.832827
-0.892153
0.821733
-0.146746
-0.82234
0.695345
-0.871875
-0.390752
-0.449574
-0.395226
-0.215885
0.701457
-0.265005
0.922017
0.03714
0.484266
0.0549522
0.137358
-0.570017
0.14733
0.950354
0.258528
0.688738
-0.24921
-0.666428
-0.715998
-0.621701
-0.442052
-0.475924
-0.690209
-0.133502
0.455872
0.172548
-0.666756
0.232992
-0.525244
0.466133
0.438882
-0.798202
0.656267
-0.038646
-0.603883
0.822393
-0.1939
0.348625
0.359015
-0.643853
-0.660373
0.568614
-0.0195533
0.798255
-0.497306
0.511759
-0.662645
-0.00469482
-0.65506
0.525493
-0.96853
0.019481
0.273995
0.956212
0.24815
0.484893
-0.425793
0.87678
-0.849763
0.374779
-0.0252492
0.258249
0.960575
-0.186949
0.132879
-0.789255
-0.809384
0.30632
-0.842165
0.328629
0.00933784
-0.525611
-0.355481
-0.15126
-0.853026
0.579839
0.400802
0.122733
0.645995
0.174503
-0.923625
-0.781379
0.635026
0.52074
-0.796208
-0.486907
-0.582516
0.91749
-0.343808
0.363191
0.516847
0.560501
0.159897
-0.492751
-0.186439
0.447442
-0.280139
0.169874
-0.870638
-0.771485
0.155043
0.609301
-0.92264
-0.0306633
-0.243766
0.497823
-0.879409
-0.175281
-0.668925
-0.597058
0.11018
-0.0503236
0.846384
0.227048
0.754538
0.791887
0.837269
0.204252
0.569415
-0.546788
-0.103922
-0.916997
0.552781
0.551521
-0.415979
-0.404302
0.173405
0.465297
0.389005
-0.190256
0.995407
0.296028
-0.874491
0.235051
0.76645
0.307774
0.43086
-0.325847
0.239179
-0.305117
0.448962
0.743441
0.404005
0.92753
0.30792
-0.117158
0.499513
0.00640833
0.933741
-0.127315
-0.820749
0.906416
0.374432
0.969406
-0.58519
0.206769
-0.33427
-0.821274
-0.897985
0.352225
-0.448794
0.0338169
-0.132825
-0.631827
-0.66118
0.25925
0.604925
-0.704223
-0.0263473
-0.323343
-0.223101
-0.714335
0.530839
-0.667202
0.186248
-0.52097
-0.889168
0.366752
-0.494346
0.766168
-0.511269
-0.0162463
-0.406745
0.935227
-0.582385
-0.537837
0.437556
-0.774731
0.0949818
0.515681
0.73486
-0.802831
0.784808
-0.103517
0.0846919
0.171111
-0.215795
-0.489648
0.364132
-0.542185
-0.565477
-0.810874
0.463939
-0.607098
-0.331358
-0.242435
0.579592
-0.735778
-0.785016
-0.259098
0.246533
-0.582741
-0.31557
0.797318
0.00358105
-0.981368
-0.192435
-0.699135
-0.236326
0.736718
-0.852546
-0.192224
0.0869695
-0.338681
0.952598
-0.609715
-0.0825473
-0.232061
-0.417236
0.443938
0.0341044
-0.99338
-0.186919
0.229815
-0.179212
-0.17179
-0.883513
0.513451
0.951126
0.717467
-0.788075
0.843009
-0.371539
0.705779
-0.082756
-0.439478
-0.303828
-0.637038
0.84083
0.821732
0.960354
0.151253
0.864929
0.0569487
0.477503
-0.964218
-0.214614
0.575584
0.890543
-0.198961
0.117137
0.329079
-0.268103
0.0491445
-0.389404
0.175447
0.603694
-0.743631
-0.877596
-0.530951
-0.882909
0.671388
0.208604
-0.421955
0.182894
0.87833
0.373906
-0.961717
0.792256
-0.990124
-0.605052
-0.456317
0.95991
0.422337
0.0817831
-0.78036
0.830692
-0.940405
0.81744
0.751064
0.044988
-0.941825
-0.37938
-0.110485
-0.821917
0.570817
-0.94123
0.822897
0.529994
-0.750503
-0.78861
0.550583
-0.0358696
-0.0336494
-0.0874858
0.000744509
0.00327399
-0.805525
0.665441
0.82608
0.649247
0.124654
0.200503
-0.634851
-0.607705
0.825949
0.163689
0.80254
0.831941
0.217118
-0.727316
0.298883
0.74822
0.771141
0.620945
0.849626
0.0124952
0.564656
-0.283917
-0.0158249
0.897097
-0.953879
-0.0698848
-0.318022
0.694484
0.334461
-0.527694
-0.946872
0.0283901
-0.586399
0.491845
-0.608555
0.898682
0.52211
0.494636
-0.140198
-0.619874
-0.436621
0.750527
0.664746
0.417657
-0.267499
-0.41721
0.116719
-0.745739
-0.452085
-0.39567
0.261328
0.371392
-0.228904
-0.327093
0.517373
0.0932827
-0.0334454
-0.506988
-0.477949
0.829972
-0.349632
-0.752581
0.543491
0.358704
-0.563461
0.654276
-0.132345
-0.620117
0.140071
-0.163376
0.416368
-0.502616
-0.636288
0.654484
-0.574282
0.920517
0.113224
-0.252132
0.438964
-0.233702
-0.269786
0.0277269
0.563186
0.353102
0.308429
0.141282
0.701199
-0.957524
-0.0229518
0.755887
-0.34951
0.0996802
0.361423
0.971758
-0.365977
-0.815442
-0.306177
0.237681
-0.764297
0.331711
-0.368598
0.333166
0.748292
0.240167
0.72956
0.433712
0.947537
0.559698
0.169916
-0.350046
0.116021
-0.785198
-0.757507
-0.277039
0.671667
-0.0333112
0.886609
0.58338
-0.596309
-0.478021
-0.50631
-0.482221
-0.0254126
0.0396668
0.328462
-0.724459
0.851716
0.638496
0.10791
0.399502
-0.349173
0.983466
-0.886962
0.119386
0.841479
0.61444
0.720525
-0.505942
0.511979
0.795411
-0.973574
0.42026
0.431837
0.580895
-0.588137
-0.882619
0.156728
0.328343
0.423628
0.756681
-0.604028
-0.105469
-0.876333
0.77626
-0.700622
-0.804011
-0.135532
-0.388862
0.436059
0.108455
-0.306059
-0.241228
-0.125677
-0.348318
0.895822
-0.898865
-0.861446
0.600771
-0.601919
0.297585
-0.0537488
0.979616
-0.028228
-0.402455
0.0770651
-0.182995
-0.622981
0.241695
0.476167
0.928115
-0.861294
-0.266567
-0.299101
0.681034
0.698984
0.37399
-0.420507
0.0866832
0.993133
0.18082
-0.943729
-0.445081
0.657229
-0.464108
-0.196839
0.208492
0.946892
-0.33077
-0.700186
0.0771831
-0.777348
0.950304
-0.139895
-0.673377
-0.662023
-0.208878
0.0992065
-0.959424
-0.384003
-0.40612
0.586896
0.503021
-0.115273
-0.256479
-0.259304
0.963024
-0.432944
-0.244773
0.347488
0.320184
0.0835505
0.321007
0.262228
0.643328
-0.551175
-0.944454
0.312392
0.527912
-0.648672
0.175678
0.854512
0.131285
-0.048166
-0.66395
-0.407027
-0.337524
0.282423
-0.718383
-0.07681
0.967467
0.79861
-0.552175
0.819349
0.881742
-0.649874
0.347708
0.282704
0.00577478
-0.00454233
-0.789288
0.855803
0.648393
0.817283
0.881754
0.00492402
-0.512388
-0.323823
0.82522
0.154125
0.910177
-0.783031
-0.0837916
0.486436
-0.329291
0.196638
0.962637
-0.625178
0.412653
-0.121362
0.847757
-0.498443
0.790433
-0.512586
0.973056
0.310218
-0.303007
-0.885662
-0.917683
0.212506
-5.54601e-05
0.37365
-0.739753
-0.256596
-0.129484
0.723544
0.858142
-0.639398
-0.0530285
-0.776114
0.849573
0.538708
-0.540742
-0.497823
0.849572
-0.375736
0.979611
-0.680569
-0.857867
-0.188794
-0.316311
0.249415
0.968066
-0.488727
0.595628
0.95544
-0.592216
0.148849
0.163946
-0.0197025
0.290159
-0.320902
0.723479
0.732759
-0.484851
-0.571901
-0.23287
0.75734
-0.00873933
-0.124818
0.0405506
-0.967518
0.813942
-0.47044
0.566565
-0.573598
-0.648244
0.825291
-0.139684
-0.0494996
-0.58745
-0.626335
-0.949879
-0.319437
0.0128668
-0.798201
0.478296
-0.407041
0.307207
-0.127121
-0.75923
0.222973
0.771315
0.961465
0.0171357
0.240601
-0.475373
0.846712
-0.552204
0.408121
0.297114
0.769443
0.155318
-0.951626
-0.056313
-0.617413
0.592659
0.558752
-0.370523
0.282116
-0.900065
-0.0773896
-0.659702
-0.842517
-0.713981
0.945219
0.0757723
0.161563
0.343177
-0.404729
0.348404
0.683764
-0.712253
-0.837941
0.938672
1.00666
0.988215
0.726805
0.403235
-0.631094
0.876644
-0.410693
-0.94362
-0.87908
0.123946
-0.425158
-0.571543
-0.388783
-0.259196
0.0962948
-0.0358652
0.38961
-0.914824
0.354983
-0.824517
-0.820875
0.669514
-0.98008
0.518092
-0.286693
0.0271215
0.470524
-0.975901
-0.938227
-0.405233
0.0646769
-0.18507
-0.661648
0.781987
-0.781134
-0.540432
-0.658773
-0.948919
-0.602676
-0.575148
0.12388
0.0547302
0.461944
-0.970232
-0.0372106
-0.973247
-0.192929
0.124901
0.236314
-0.522947
0.887057
0.231317
0.415912
-0.0567082
-0.277785
0.778149
-0.738196
0.958967
-0.860395
-0.890928
-0.499812
0.0473061
-0.203011
-0.997221
-0.847905
-0.843183
0.197634
-0.0398691
-0.554285
0.401413
0.411509
0.918576
-0.664711
-0.883168
0.884695
-0.601912
0.946103
-0.962131
-0.603613
0.675132
-0.380205
0.749447
0.0964267
-0.172283
-0.244805
-0.363643
0.217634
0.497822
-0.176005
0.125736
-0.424582
0.0367654
0.673847
-0.843878
0.712779
0.105886
0.686698
0.300119
0.336804
0.622561
-0.0170601
0.11838
-0.591533
-0.716382
-0.299008
0.715107
-0.227745
-0.562696
0.888683
0.422731
-0.219204
0.408876
-0.375534
-0.180294
0.50035
0.667143
0.173925
0.370505
0.822405
0.693814
0.0814823
-0.545022
-0.706296
-0.622707
0.974257
-0.387354
-0.583921
-0.211771
-0.327954
0.352645
0.217314
-0.468634
-0.261205
-0.977208
-0.450293
-0.435695
-0.681802
0.168797
0.920768
0.462861
-0.135949
-0.932726
0.00776056
-0.559523
-0.111587
-0.808494
0.682552
-0.873688
-0.680461
0.96307
-0.906925
-0.228753
-0.641739
0.540942
0.773695
-0.988933
0.297535
0.182842
0.0454851
-0.695175
0.124365
0.887507
0.102636
0.656322
-0.227268
0.389845
0.402243
-0.501458
0.121009
-0.659649
-0.738785
-0.368083
-0.351917
-0.613966
-0.738659
-0.670253
-0.789888
-0.121927
0.0552976
0.771689
-0.297946
0.254926
-0.945117
0.0987252
-0.944426
0.836454
-0.656033
-0.929508
-0.678886
0.280671
-0.217749
0.97929
-0.289106
0.44516
0.0819319
0.825403
0.322355
-0.474646
-0.273345
0.302368
-0.772758
-0.240626
0.0375907
-0.474446
0.630917
0.279305
-0.216271
-0.903219
0.449582
0.321476
0.616403
-0.639048
0.69709
0.909384
0.620001
-0.558617
0.798549
0.148339
0.753617
0.463995
0.117493
0.263218
0.088842
-0.629481
0.279679
-0.73386
0.782069
-0.231431
0.121067
0.216165
0.906908
0.440416
0.431503
-0.0750731
-0.47223
0.323703
-0.343511
0.784309
0.434834
0.813133
0.309491
-0.210858
-0.146614
0.739049
-0.684902
0.606703
-0.966094
0.998086
-0.965351
-0.285595
0.373167
0.829606
-0.144366
0.133135
0.448366
-0.725237
-0.977651
0.145107
-0.193102
-0.85574
-0.819495
-0.825854
0.157895
0.14744
0.974263
0.154699
-0.577094
-0.0308068
-0.510954
-0.0671045
-0.367168
-0.526826
0.195095
-0.124539
0.409887
-0.589443
-0.587135
0.767051
-0.226842
-0.986057
0.759776
0.246495
-0.435751
0.396432
0.279439
0.157445
0.374005
-0.474912
0.855924
0.353968
0.703899
-0.0989976
0.765724
-0.480743
-0.628783
-0.205074
0.534433
0.0711504
0.546571
-0.784673
-0.682741
-0.940377
-0.833199
-0.293
0.930364
0.97448
-0.421135
-0.649072
-0.494682
-0.783555
-0.848336
0.308909
-0.141882
-0.948262
-0.459265
-0.646453
0.487062
0.474734
0.493668
-0.736127
0.818042
0.502534
0.424713
0.742305
-0.575925
-0.796718
-0.135273
-0.105115
0.939685
0.178333
-0.746718
0.612076
-0.178676
0.976597
-0.409521
0.519581
-0.317244
0.786894
0.189133
0.484426
-0.875321
0.663627
0.450225
0.0994462
0.362217
0.997218
0.6347
0.0601578
0.976388
-0.907028
0.627842
0.112022
0.610695
-0.119763
-0.173011
-0.596643
-0.408852
-0.755061
0.996884
-0.804281
-0.951611
-0.0147393
0.150388
-0.0136851
-0.501267
-0.0107713
-0.738418
0.45834
-0.268181
0.391135
0.122885
0.310094
-0.706325
0.317373
0.540708
-0.145296
0.335666
-0.541492
0.175362
0.229118
-0.717177
-0.22331
0.61714
-0.956565
0.355043
0.0233476
0.227453
-0.141303
-0.376182
-0.973363
0.795589
0.895687
-0.621487
0.41884
0.992373
-0.415396
-0.535003
0.87903
-0.776906
0.0444349
0.403552
-0.303269
-0.660129
-0.525075
0.772065
0.733032
0.95313
-0.630082
0.62704
0.517511
0.561142
-0.717575
0.616947
0.610266
0.484049
0.916208
-0.0689088
-0.688814
-0.554847
0.0238214
0.00951162
0.0416249
-0.348774
0.144235
-0.610887
-0.390075
-0.258107
0.143433
-0.483191
0.515632
-0.562944
-0.281821
-0.596669
0.624242
0.472502
0.522126
-0.306887
0.0335506
-0.900218
0.353365
0.682883
-0.0188255
-0.966086
-0.665295
-0.513762
0.445388
0.16231
0.137191
-0.521187
-0.356625
-0.67725
-0.0114864
0.511594
-0.593746
-0.478886
-0.440043
-0.432067
-0.493825
-0.094516
0.0682826
0.842527
-0.83417
-0.313125
0.71234
-0.1348
0.409831
-0.690752
-0.480832
0.668172
-0.486669
0.288132
-0.839635
-0.87153
0.258464
-0.790057
0.132043
0.973734
0.560566
-0.177326
0.783939
0.501517
0.100754
-0.601432
0.998335
0.360916
0.230174
0.289768
-0.8856
0.853356
0.758031
-0.44967
-0.921775
-0.579817
0.752816
0.624105
0.273882
0.1102
0.281549
-0.403765
0.30477
-0.283742
-0.0407586
0.0509419
-0.352209
0.06635
-0.222993
-0.88378
0.763018
-0.498125
0.0360481
0.600528
0.697937
0.957616
0.190359
-0.86118
0.706045
0.858221
-0.846451
0.840243
-0.153885
-0.0483132
-0.344225
0.567456
-0.4982
-0.444425
0.222727
0.8949
0.519473
0.632394
-0.0251058
0.538852
-0.124339
-0.0714872
0.188994
0.295561
-0.394812
-0.0667632
-0.923544
0.643951
-0.752731
0.983668
0.591998
0.602078
0.157662
-0.473579
-0.827843
-0.128127
0.47617
-0.101085
-0.12549
0.300919
-0.0856473
0.711439
0.534088
-0.937625
-0.105661
-0.541087
-0.310192
0.346411
-0.317243
-0.602454
0.600249
0.141494
0.65492
0.218214
0.672403
0.587936
-0.850192
0.817284
-0.0333773
0.0828485
0.299642
-0.886115
-0.33784
0.153695
-0.519861
-0.130484
-0.564259
0.191426
-0.123767
0.583104
0.0835483
-0.839352
-0.928473
-0.323207
1.01815
0.396188
-0.415143
0.212158
0.698151
-0.208343
0.37758
-0.821737
-0.776986
-0.467582
-0.452064
-0.865543
0.0413333
-0.684189
0.75447
-0.800719
0.993112
0.796589
-0.294288
-0.780458
-0.631791
0.464159
-0.122081
-0.470388
0.0293971
0.959462
-0.779538
0.267281
0.655511
-0.173943
-0.0698474
-0.139614
0.288243
-0.233585
0.959788
-0.752266
0.997753
0.600876
-0.758222
-0.582589
-0.95491
0.690171
-0.350446
-0.867628
-0.846987
-0.901443
0.424434
0.0577107
-1.01778
-0.730913
-0.862145
-0.632686
0.895388
0.375673
0.19433
-0.0915156
0.160867
-0.886595
-0.604591
0.932927
0.449215
-0.249141
-0.848472
-0.399218
-0.0034508
-0.775302
-0.1965
-0.554735
-0.388864
0.864415
0.872513
0.219748
0.858561
-0.532227
0.640882
-0.41602
0.239348
-0.760096
-0.368386
-1.01776
0.687098
-0.481866
0.863328
0.25884
0.622657
-0.371522
-0.202361
0.657825
-0.676477
-0.0313021
0.39573
-0.412441
-0.386732
0.786511
0.0375082
0.481547
0.0771822
0.927696
0.12134
0.926236
0.784809
0.638091
-0.158172
0.32881
-0.593284
0.848952
0.361063
-0.662043
-0.116374
0.13045
-0.529013
-0.203583
0.993407
0.438599
-0.436114
0.93865
0.49089
-0.227532
0.461625
-0.0309186
0.286311
-0.496512
0.236923
-0.819029
0.9235
0.455677
-0.500639
-0.379863
0.688061
0.957076
-0.199593
0.310549
0.00644266
0.841236
-0.351383
0.187499
0.861809
0.941575
0.696847
-0.936253
-0.203476
-0.543953
0.452987
0.588545
0.380123
0.212554
0.941807
-0.37764
-0.772064
-0.12391
-0.832249
-0.430292
0.615693
-0.0329854
0.372942
-0.452653
0.734392
-0.390316
-0.494245
0.288241
-0.390262
-0.294341
-0.186595
-0.678022
-0.920952
-0.163585
0.438712
-0.590185
0.496195
-0.270941
-0.658572
-0.416501
-0.110778
-0.660884
0.837498
0.715737
-0.812322
-0.151882
0.989827
-0.560069
0.932229
0.768996
0.433788
-0.62637
0.0149084
-0.346345
0.933435
0.708317
0.710025
-0.49784
-0.811006
0.849655
0.134211
0.306182
0.970318
0.169889
0.72013
-0.610038
-0.888631
-0.311306
0.170779
0.280258
-0.623297
0.749321
-0.495731
0.0742037
-0.39489
0.6814
0.591214
-0.937469
-0.717047
-0.554392
-0.0274147
0.219228
-0.967061
-0.343973
-0.990186
-0.693121
-0.142124
0.897348
0.467194
0.79087
-0.661346
0.0701125
-0.471459
0.53367
-0.882664
0.0474659
-0.969192
-0.457953
-0.657323
-0.341655
0.0104102
-0.157692
0.147037
0.824445
0.67596
0.235532
0.80299
0.727787
0.316694
-0.458984
-0.478868
-0.447391
0.233014
-0.162397
-0.513924
-0.278665
0.0156677
-0.24384
0.755059
0.994621
-0.965824
0.506252
0.679979
-0.643901
-0.326386
0.936878
0.294687
-0.853371
-0.220311
0.389095
-0.965611
0.415189
0.969421
-0.532716
-0.61152
-0.0861684
-0.853043
0.146214
0.712411
-0.724688
0.853456
-0.844757
0.64913
-0.48773
0.0517157
0.448613
-0.328946
-0.620063
-0.608152
0.113988
0.121801
-1.00003
0.106519
0.483625
0.550021
0.761715
-0.525085
0.275456
0.0663813
-0.0843468
-0.369292
-0.458381
0.2822
0.736222
-0.818037
-0.366176
0.671479
0.826661
-0.900699
-0.560222
-0.303107
0.70035
-0.485153
-0.692719
-0.239737
0.197447
0.413818
0.793807
0.278136
0.617262
-0.383815
0.0675158
-0.0112107
-0.231535
-0.825236
0.500382
0.0290649
0.642079
-0.844656
0.595238
-0.594513
-0.58359
-0.62619
0.149571
-0.353505
-0.488088
-0.589369
-0.597192
-0.629284
-0.761329
0.0545753
-0.471839
0.635845
0.4649
-0.58675
0.549338
-0.202258
-0.235935
0.162982
-0.396941
-0.376873
-0.373235
0.270753
0.274764
-0.784566
-0.789863
-0.571857
-0.271681
0.503232
-0.165856
0.565875
-0.367476
-0.667723
-0.0656218
-0.547404
0.0999349
-0.69714
-0.873113
0.426746
0.868219
-0.849364
0.145
-1.01419
-0.256113
-0.946467
0.778981
0.411467
0.58795
-0.338563
0.015454
-0.0342395
-0.521214
0.940568
-0.766542
0.969245
-0.0419949
-0.792764
-0.534545
0.910687
0.544232
0.318462
-0.312521
-0.29879
1.00638
-0.140183
0.796376
-0.554298
-0.899762
-0.712924
-0.0816883
0.868256
-0.786346
-1.00536
-0.967848
0.0123528
0.38659
-0.646097
-0.638707
-0.842829
-0.922315
-0.64952
0.0198812
-0.192128
0.823415
0.0520796
0.0876271
0.699328
-0.399648
-0.153104
0.785918
0.827352
-0.785726
0.0583245
-0.292006
0.965251
-0.422692
-0.344877
0.624242
-0.876281
0.370265
0.641036
0.306685
-0.545576
0.392252
-0.025348
0.592708
0.650019
0.483875
0.601555
-0.334444
0.972335
0.804141
0.267695
-0.360019
-0.058391
0.518705
0.207213
0.725853
0.5788
0.889178
-0.015069
-0.695064
0.450038
-0.748929
-0.132688
-0.374845
0.799772
0.599705
0.546585
-0.245023
0.370421
0.345298
0.0492003
0.637012
0.435598
0.197512
-0.577468
-0.0737035
-0.514344
0.53218
-0.353551
0.0455346
-0.64746
0.0984731
0.134418
-0.918042
-0.131562
-0.60388
-0.370742
0.477704
-0.590556
-0.0575205
-0.49068
0.750225
-0.240262
-0.607998
0.153418
0.640096
-0.74441
0.682982
-0.561025
-0.180766
0.351193
0.091549
-0.97464
-0.878957
0.0323701
0.75264
-0.429873
-0.866299
0.372332
0.150913
-0.271129
0.822551
-0.173556
0.0942968
0.275892
0.0128077
0.5586
0.52605
0.482344
-0.951344
-0.213512
0.346418
-0.286903
0.815666
0.735235
-0.676225
-0.832819
0.0435528
0.766905
0.334536
-0.0715746
-0.824134
0.974975
0.809513
0.564226
-0.864857
-0.212789
-0.179994
0.79412
-0.710815
-0.930034
0.562232
0.542651
0.178369
0.79049
-0.315742
0.0267184
-0.770448
-0.809514
0.173212
0.0590498
0.545691
0.690711
-0.611345
0.483205
0.636651
0.105392
0.494823
-0.251111
0.60382
-0.95841
-0.380085
0.432727
0.263651
-0.271538
0.892799
-0.215139
-0.27412
0.56175
0.742469
-0.854307
-0.980079
0.646301
-0.889676
-0.133211
0.938893
-0.733824
-0.902469
0.239666
0.0781457
-0.990427
-0.609396
0.434741
-0.145314
-0.13626
-0.20761
0.886523
0.192906
0.747669
0.499365
-0.663675
0.407029
0.95849
-0.265764
0.916354
0.73337
-0.650486
0.0659996
0.2413
-0.230616
-0.867795
-0.531728
-0.0885441
0.986835
0.919263
-0.35018
0.176565
0.863805
-0.179165
0.705179
-0.616825
-0.520583
-0.663995
-0.911301
0.781872
0.698448
-0.322955
-0.272129
0.05735
0.837659
-0.762754
0.355003
0.76237
0.310231
0.810186
-0.622374
-0.240677
0.832509
0.426088
-0.126217
-0.973637
-0.301818
-0.272352
0.5208
-0.428968
0.793623
0.711209
-0.143224
0.272743
-0.198663
-0.732732
-0.550902
-0.0205457
-0.758905
-0.743424
-0.932375
-0.49077
0.983368
-0.69922
0.543024
-0.352204
-0.405354
0.549069
0.183594
0.0626539
-0.149261
-0.587846
0.690785
-0.148102
-0.774848
-0.967127
-0.646762
0.0615148
0.974605
-0.831176
-0.950705
-0.138781
0.0143255
-0.474103
-0.595397
0.378743
0.0830756
-0.048774
0.250237
0.992939
0.763367
0.23574
-0.690328
-0.315586
-0.158333
0.80362
0.195626
0.969004
-0.136458
-0.0804019
-0.964941
-0.195306
-0.611576
0.66096
-0.42753
0.743821
0.392164
0.603845
0.337882
-0.767985
0.627033
-0.635099
-0.351161
0.508042
-0.0413963
0.85357
0.557426
-0.877866
-0.393219
0.597977
0.911877
0.155817
-0.0338613
-0.584109
0.174628
-0.940119
0.868653
-0.790027
-0.45497
-0.361777
0.538248
0.025663
0.132797
0.220219
0.574479
-0.555049
0.245514
0.470117
-0.021948
0.281249
-0.693382
0.423887
-0.97071
-0.264606
0.262959
-0.86385
-0.217963
-0.0886315
-0.300366
0.639775
-0.584999
0.857805
-0.198008
0.322099
-0.624072
-0.936807
0.264033
0.258436
0.527815
0.488569
-0.875659
0.543971
0.49919
-0.712205
0.358169
-0.0439604
-0.718208
-0.876836
-0.520022
-0.147772
0.84597
0.987699
0.885804
0.783501
-0.0297752
-0.133874
0.454433
-0.482016
-0.493521
0.200715
0.608443
0.349431
0.027886
-0.543746
0.642947
-0.315713
-0.315511
-0.5557
-0.450191
0.817652
0.81581
-0.88056
-0.870861
-0.14547
-0.741126
0.26563
-0.0230851
0.852193
-0.105795
-0.559631
-0.609827
0.957778
-0.734563
-0.0254286
0.136855
0.417428
0.498785
0.0187009
-0.715217
0.592981
-0.0116133
-0.967555
-0.409033
-0.525345
-0.178228
-0.712152
-0.676069
0.509987
-0.12657
-0.411152
0.919409
-0.807449
-0.571318
0.352791
-0.103961
0.594651
-0.243142
0.0533205
-0.554895
0.455212
-0.414711
0.472591
0.628176
0.195504
0.428728
0.283032
-0.805969
-0.949292
0.184358
-0.303034
-0.329019
-0.801966
0.472322
-0.030532
-0.799137
-0.448887
-0.386344
0.760641
0.471396
-0.0850786
-0.37659
0.731508
0.125728
0.877985
0.677653
0.91701
-0.661721
-0.742023
-0.165796
-0.727461
0.710239
0.0552382
-0.604289
-0.176474
0.86986
-0.28794
1.02003
0.44299
0.772207
0.868583
0.129848
-0.819103
-0.114292
0.486167
-0.254922
-0.177002
-0.193898
-0.968255
0.204514
0.0216588
0.0101776
-0.894979
0.648165
0.296939
-0.178872
0.500565
0.158432
-0.848304
-0.769434
-0.528473
-0.00773617
0.918882
0.504957
0.189252
0.760357
-0.849774
-0.475792
0.404808
-0.030732
0.439248
-0.195187
0.246586
-0.315935
0.359229
0.876651
0.93547
-0.307594
-0.633627
0.883831
-0.01913
0.431804
-0.629424
0.249987
-0.188885
0.761977
-0.173087
-0.419059
-0.0989345
0.918494
-0.10106
0.419637
0.816067
0.933799
-0.399788
0.601492
0.633594
0.389413
0.392536
0.631348
-0.172147
-0.672508
0.244392
-0.417035
0.918541
0.293963
-0.10961
0.440044
-0.412412
-0.127725
0.42171
0.0657621
0.822202
-0.879107
0.182518
-0.230223
-0.613086
0.0545937
0.808649
0.906315
0.993133
0.0245618
0.8527
0.401831
0.28599
0.415956
0.728921
0.90016
-0.771237
0.816
-0.947619
0.000971862
-0.42989
-0.837914
-0.809951
0.433968
-0.187367
-0.798265
0.481516
-0.440619
0.0301257
0.993701
0.256442
-0.802185
0.932591
0.464496
-0.578257
-0.0129683
-0.342976
-0.90039
-0.859676
-0.310828
0.56473
-0.0576528
-0.888351
0.495647
-0.855264
-0.220802
-0.924833
0.0120724
0.393694
-0.324848
0.0385839
-0.674576
0.924557
0.155677
0.36697
-0.513992
0.25946
0.653682
0.886744
-0.688112
0.75336
0.253928
0.374152
0.608556
0.4969
-0.352603
-0.814375
0.440033
0.15196
-0.396962
-0.361626
0.391189
-0.969893
-0.0764825
0.974926
-0.0582452
-0.397024
0.319734
-0.886684
-0.494724
-0.244364
-0.953798
-0.0549418
0.211704
0.161832
-0.229895
-0.988665
-0.580124
-0.91182
-0.0109714
0.468335
-0.28269
-0.00351017
0.0876657
-0.378242
-0.570602
0.160142
-0.575551
-0.0779679
0.314838
0.891694
-0.031781
0.668477
0.757437
-0.748485
0.84657
-0.996368
-0.653074
0.273095
0.17686
0.673991
0.642236
0.193887
0.213865
0.882595
-0.199476
0.518994
-0.584826
0.704184
1.02003
-0.305465
0.0137736
-0.191486
-0.408
-0.764459
-0.048791
-0.0827764
-0.976524
-0.573342
0.0503628
0.0103173
-0.767378
0.497857
0.66105
-0.92034
-0.472309
0.610224
0.0163686
0.981867
0.348412
-0.298816
-0.737009
-0.916916
-0.383167
0.25985
-0.243178
0.359747
0.955105
-0.957174
0.853121
-0.227886
-0.0921227
0.748622
-0.54181
-0.460247
0.938884
-0.152458
0.296455
-0.997614
-0.354064
-0.080081
-0.76449
0.157955
-0.739891
0.271131
0.993668
0.0317876
-0.792209
0.538838
-0.624378
0.876219
-0.0216453
-0.574773
0.831454
0.182538
0.465315
0.930925
0.469556
-0.532975
-0.100278
-0.572681
-0.734949
0.090653
-0.760543
0.363193
-0.778629
0.434912
0.208536
0.700002
0.820069
0.905466
-0.436174
-0.098145
-0.688665
0.772039
-0.610857
0.503655
-0.874092
0.257497
-0.406806
-0.361629
0.637442
-0.374412
-0.246056
-0.678774
-0.585008
-0.240196
0.831271
0.952399
0.679371
-0.104287
-0.25477
-0.194813
0.462082
-0.97928
-0.0733417
-0.53877
-0.503751
0.741136
-0.467749
0.738317
-0.765642
0.0773463
-0.169213
0.216158
0.843796
0.911236
-0.228337
-0.434986
0.850577
0.917471
-0.126946
-0.61101
0.217697
0.298952
-0.926586
0.70416
-0.749001
0.211284
-0.267563
0.166303
-0.520527
0.0641752
-0.404711
-0.685998
-0.153327
0.198163
-0.455397
-0.892345
0.975736
-0.563837
-0.971997
-0.895085
-0.545763
0.379536
-0.4422
0.587926
0.79936
0.206681
-0.364148
-0.239057
-0.210026
0.678522
-0.146512
0.181417
0.0916794
-0.263967
0.219998
0.281996
0.754281
-0.794323
0.266378
0.292472
0.726427
0.200189
-0.506129
0.64856
-0.421784
-0.391077
-0.896374
-0.40499
0.124318
-0.0678374
-0.522536
0.65318
-0.98782
-0.921983
0.118354
-0.298362
-0.727998
-0.612089
0.0438203
0.343382
-0.824358
0.0704324
-0.958837
-0.626509
0.915992
0.689983
-0.378913
-0.458126
0.230706
0.718093
0.625116
-0.201027
-0.570196
-0.795087
-0.521372
0.521842
0.54409
-0.161963
0.847668
0.229821
0.46052
0.848715
0.350078
-0.774919
-0.370741
-0.166589
-0.231527
0.823724
0.122713
-0.356982
0.342047
0.958828
0.594119
0.769664
-0.485513
-0.987567
0.235729
0.311115
-0.821115
0.490046
0.822323
-0.282046
-0.71646
0.101358
-0.293472
0.821062
0.424081
-0.0361953
-0.811573
-0.298935
-0.781682
-0.0426617
0.96273
0.218776
-0.543139
0.251177
-0.361492
-0.275934
0.440943
0.519763
-0.844882
0.211492
0.0976647
-0.526537
0.0143136
-0.0375058
0.710835
0.110787
-0.326303
0.286465
-0.451853
-0.662022
-0.706246
0.80049
-0.0345079
-0.102947
-0.831762
0.170384
0.084114
0.64315
-0.284431
-0.130311
0.367385
-0.611249
-0.547626
-0.428249
0.975658
0.823501
-0.767641
0.920069
0.95785
0.957533
-0.825334
-0.360907
0.819947
-0.505141
0.201403
-0.763979
-0.381977
-0.396438
0.666607
0.208179
0.272516
0.405169
0.742244
-0.713346
-0.0650969
-0.0363184
0.982372
0.593607
-0.137208
-0.636578
-0.180485
0.704994
0.925106
0.158223
-0.132358
-0.440165
0.696068
0.0337617
0.651333
0.329197
-0.871573
-0.343763
-0.655245
0.410765
-0.436549
-0.0498102
-0.155682
0.521107
0.0835321
0.991042
0.534143
0.879822
0.852465
-0.0791581
0.882654
0.0126698
-0.412483
-0.404884
-0.580207
-0.683247
-0.209105
-0.838182
0.220878
0.35929
-0.983079
0.316527
-0.28894
-0.0559038
0.819818
-0.825173
0.344953
-0.52308
-0.386409
0.432168
0.981901
0.813255
-0.551869
-0.16105
-0.674234
0.123422
0.101651
-0.0239483
0.194931
-0.351636
0.353291
0.575393
-0.0560832
0.29081
0.0131874
-0.10959
-0.629281
-0.605972
0.363129
0.950579
0.311588
0.23763
0.263258
0.950153
0.24335
-0.968543
0.103823
-0.50332
-0.0902855
-0.652349
-0.317302
0.296986
0.437125
0.695143
-0.321703
0.241351
0.804046
-0.284493
0.176156
-0.929806
0.102515
0.457063
-0.687588
0.392848
0.781164
-0.889939
0.00273643
0.286316
0.067611
0.59905
-0.809741
0.763907
-0.415137
-0.0492363
-0.404738
0.69814
-0.698035
0.649436
-0.28068
0.736776
-0.52439
0.190995
-0.603581
-0.589038
-0.101878
-0.107641
0.966956
-0.561303
0.292601
0.349232
0.744921
0.845908
-0.330501
0.585096
0.140194
-0.433435
0.944999
-0.235086
0.771988
-0.132053
0.993767
-0.801479
0.501644
-0.419584
0.423568
-0.841952
-0.127188
0.00902582
0.274939
-0.102028
-0.685248
0.451505
0.0427995
-0.621656
0.057656
0.415999
-0.92686
-0.935724
-0.401798
-0.504505
-0.0597803
0.902664
-0.49548
-0.270119
0.471195
0.231708
-0.243274
0.516499
0.147598
0.35938
0.997468
-0.915285
0.0664364
0.447281
-0.300225
-0.249958
-0.149365
-0.324116
0.216786
0.0344878
-0.163694
-0.828461
-0.936958
-0.389601
-0.223141
-0.946394
-0.407796
0.18535
0.355495
-0.596812
-0.104826
-0.902727
-0.613699
-0.804047
0.95099
0.914791
0.0551655
-0.407083
0.161786
-0.540926
-0.566757
-0.378295
-0.113058
0.077451
0.569464
0.715507
-0.300692
0.362015
-0.78519
-0.0367171
-0.09143
0.228452
-0.928851
0.739248
-0.719998
-0.815942
-0.144125
-0.573099
-0.165591
-0.0771976
-0.896968
-0.538009
0.0546637
-0.205977
0.315481
0.715763
-0.330985
0.316971
-0.503458
0.984082
0.0362328
-0.718681
0.683526
0.921697
0.0155408
0.575363
-0.560703
-0.78411
0.297641
0.64492
-0.142444
-0.821987
0.108285
-0.78391
-0.909415
-0.87628
-0.629344
0.883663
0.0168704
-0.71895
-0.445985
0.991767
0.678254
-0.378567
-0.271308
-0.287387
0.453941
-0.443169
-0.176774
0.58668
0.855579
-0.46866
-0.594308
0.827347
-0.55206
-0.166028
0.621342
-0.655516
0.588372
-0.345026
-0.483373
-0.789254
0.672557
0.792376
-0.715509
-0.633114
-0.855947
0.831697
0.531514
0.926862
0.895716
-0.274503
0.310342
-0.351206
-0.600428
-0.00483376
-0.523943
-0.112258
0.812071
0.616632
-0.0942786
0.627513
0.164595
0.829218
-0.869248
-0.294757
-0.59882
0.552304
0.740276
-0.280938
-0.274836
-0.241916
0.122982
0.78152
-0.816531
0.0173883
0.468766
-0.808521
0.61265
-0.00490197
0.0158473
0.43569
0.0351272
0.846106
0.920548
-0.0741661
-0.974139
-0.926137
0.0688911
0.374851
0.0646561
-0.521802
0.580085
0.97867
0.340646
-0.207737
-0.984862
0.586876
0.74673
-0.418673
0.279283
-0.0440045
0.0137538
-0.972112
0.0138354
-0.704363
0.14246
0.529367
0.533949
0.73125
-0.824633
-0.624635
-0.481807
-0.306006
-0.765744
-0.380289
-0.308023
-0.329546
0.550402
0.695038
-0.451124
0.541653
0.531334
-0.604653
0.742604
-0.0876932
0.867303
-0.0518237
0.319473
0.0990717
-0.747427
-0.722686
0.253348
-0.493118
-0.421946
-0.490213
-0.863039
-0.471793
0.675538
-0.0385697
0.675281
-0.209947
-0.718137
-0.111172
-0.0512909
-0.650611
0.560309
-0.865518
0.750641
-0.509641
-0.054477
-0.239778
0.899397
-0.688445
-0.141062
0.694605
-0.525059
0.966607
-0.4904
0.508217
-0.17544
0.348136
0.469897
-0.633719
0.172454
0.943082
-0.858423
0.751625
0.861152
0.709545
0.880733
-0.703113
0.310296
-0.15007
0.968286
-0.909802
0.234269
-0.317174
-0.344669
-0.611432
-0.436116
-0.438274
-0.152062
0.495164
0.668637
-0.0949036
-0.392891
-0.888738
0.46275
0.983346
-0.581722
0.247672
-0.328703
0.712005
0.931036
0.191098
-0.965654
0.0499295
-0.135939
0.597791
0.363163
-0.348305
-0.518181
0.717949
-0.575317
0.27765
0.377074
0.835195
0.80506
-0.307719
-0.669861
0.313752
-0.240211
0.471408
0.142578
0.54535
0.454677
0.849179
0.749684
-0.458659
-0.912938
-0.556562
-0.931413
-0.105811
0.406413
-0.397769
0.951327
0.538121
-0.285111
0.302065
-0.876147
0.568555
0.393812
-0.302628
-0.160952
0.711096
-0.586382
0.341827
-0.839224
0.678408
-0.859886
-0.832564
0.819984
0.77596
-0.122761
0.0939679
-0.756082
-0.675354
0.302277
-0.875617
0.895238
-0.827951
-0.089576
0.238259
0.0616906
-0.113621
0.489639
-0.9404
-0.999492
0.186087
-0.310325
-0.676627
0.189515
-0.879338
0.774982
-1.00386
0.139068
-0.44846
0.771002
0.708414
-0.447285
-0.874012
0.56047
-0.848629
-0.912206
-0.0633631
-0.361267
0.881468
-0.00543708
0.415008
-0.793975
0.0828494
0.75556
-0.322852
0.713198
-0.0861791
-0.312986
-0.67732
0.211688
0.614024
0.619653
0.573021
-0.11612
-0.0250211
-0.611702
0.478891
-0.376229
-0.443129
0.481462
-0.519023
-0.886432
-0.858926
-0.363696
-0.55768
-0.00347146
0.0519395
-0.701221
0.0318137
0.685037
-0.760068
-0.658375
-0.596123
0.963234
0.658335
0.502407
0.823721
0.678032
-0.702218
0.777772
0.0838692
-0.47599
0.412526
-0.466354
-0.154239
0.523066
0.352555
-0.755724
-0.724056
-0.00896425
0.505348
-0.00220357
-0.789461
-0.379825
0.0369673
0.325267
0.945785
-0.668758
0.34981
0.368896
0.961172
0.568771
-0.900936
-0.459418
0.608712
-0.443737
-0.876681
-0.758329
0.169974
-0.286405
-0.0510748
0.628782
-0.750298
-0.76828
0.731914
0.0202959
0.149265
0.214691
0.513653
-0.87606
-0.72499
-0.79233
0.960852
-0.71178
0.140545
0.304712
0.596851
-0.761432
0.206083
-0.873818
-0.879707
-0.111976
0.932053
0.71329
0.676526
0.49335
0.306829
-0.603988
0.84826
0.0728789
-0.686804
-0.0129619
-0.386034
0.115596
-0.543746
-0.819536
-0.122904
-0.679279
-0.946698
-0.82426
-0.451172
-0.951441
0.673205
0.0665213
0.266195
-0.558072
0.031536
0.727466
0.941903
-0.699017
-0.802045
-0.568494
-0.696603
-0.595037
-0.256699
0.540269
0.816081
-0.760123
0.109567
-0.619053
-0.618357
-0.9383
0.708617
0.276386
-0.943531
-0.999744
0.416474
-0.888671
0.696617
-0.724692
0.972889
-0.320456
0.0699144
-0.660209
-0.836538
0.870178
-0.256175
0.0675674
-0.249797
-0.123695
-0.0265455
0.457141
-0.778712
-0.899403
0.0850502
0.648415
0.273831
0.907354
-0.191959
-0.0192861
-0.703924
-0.0220633
-0.819421
0.132021
0.575762
0.260089
0.119986
-0.572895
0.188462
-0.539189
-0.145894
0.797709
-0.537115
-0.833801
0.639125
0.745429
-0.116859
0.924991
0.204252
0.390433
-0.032639
-0.0209681
0.704953
0.70753
0.140852
-0.366495
0.0693103
0.881713
0.160933
-0.931505
0.364754
0.427702
-0.622377
0.200226
0.632647
0.922404
-0.922157
0.933931
-0.188788
0.710878
0.468287
0.109062
-0.946081
0.192287
0.866169
-0.189643
-0.999317
0.194563
-0.877988
0.907861
-0.376699
-0.431523
-0.739226
-0.914762
-0.311644
0.649536
-0.893229
0.464797
-0.668243
-0.174595
-0.237304
0.320689
0.127975
-0.877702
-0.202254
0.0422221
0.335453
-0.235137
-0.675122
0.156309
0.087051
0.439481
0.633502
-0.982351
-0.192662
-0.601173
-0.936848
-0.617704
-0.850249
0.0779185
0.0122914
-0.928746
0.506266
-0.370285
-0.850132
0.900796
-0.433682
0.225271
-0.634576
0.527428
-0.570904
0.0443249
0.964632
-0.720649
-0.863367
-0.806399
-0.893956
0.445653
0.0191384
-0.431912
-0.442579
-0.597423
0.992444
-0.268809
-0.457458
0.123325
0.328295
-0.656176
-0.984816
0.706456
-0.930068
0.18498
0.0424261
0.0389918
-0.0124599
-0.079936
-0.218025
-0.755341
-0.171944
-0.0424027
0.501055
0.456497
-0.110582
0.617129
-0.0313759
-0.946953
-0.335586
-0.555486
-0.0487433
-0.24469
0.863776
-0.930614
0.724232
-0.316819
0.253399
0.583349
-0.256155
-0.906917
0.530775
0.776505
0.759526
0.469522
0.804286
-0.527864
0.836061
-0.964737
0.209902
-0.706434
-0.73981
-0.769981
0.800423
0.945428
0.200098
-0.24219
0.253603
0.39971
0.560851
-0.216993
-0.229422
-0.625031
0.485116
-0.24297
-0.687863
-0.210265
-0.938993
-0.438218
0.113123
-0.0435866
-0.0629139
-0.515246
-0.626856
-0.074705
0.565818
-0.322773
-0.561289
0.942833
-0.529339
0.577698
-0.667859
-0.809251
-0.643985
-0.429358
-0.73559
0.776241
0.31802
0.109007
-0.302494
-0.840995
0.0205884
0.98109
-0.721543
0.342133
0.69421
-0.999776
-0.541334
-0.208136
0.184061
0.829842
0.0651658
0.805968
-0.758887
0.271443
0.852148
0.0603379
-0.697942
0.392271
-0.790334
0.296775
-0.307026
0.594277
-0.55848
-0.471929
-0.837072
-0.708917
0.446648
-0.0461893
-0.619396
-0.316274
0.334131
0.370575
0.0298575
-0.217632
0.429095
-0.402606
0.500269
0.8651
0.984521
0.415011
-0.294809
-0.656734
0.122745
0.9854
0.845657
0.597822
-0.13467
-0.130485
0.263338
-0.955738
0.530702
0.534984
-0.577203
-0.629504
-0.0945778
0.384741
-0.269804
-0.984775
-0.0929378
-0.130811
0.634747
-0.536514
0.302531
-0.67245
-0.955246
0.47659
-0.767721
0.223972
-0.822564
0.560926
0.402398
0.251598
-0.626514
0.639651
0.279935
0.888662
0.687596
0.289984
-0.420535
0.476306
0.889532
-0.722726
1.00154
0.586665
-0.116158
0.484322
-0.404471
-0.270429
-0.344122
0.225781
-0.986549
-0.490151
0.542356
-0.798513
0.119882
-0.553718
-0.778119
-0.238913
0.841598
-0.150512
-0.740368
0.708559
0.125759
0.829575
0.94566
0.389024
0.0970432
-0.904916
0.295417
-0.537864
0.293031
-0.179511
0.863105
0.835038
0.467667
0.750117
0.858671
-0.597865
0.00710075
-0.372785
0.557114
0.609792
-0.227012
0.576738
-0.689278
0.171013
0.751424
0.240697
0.267444
-0.679184
-0.248871
0.357225
-0.879858
-0.453479
-0.895801
-0.839192
0.659718
-0.74285
0.511183
-0.683604
-0.0577641
-0.846685
-0.992488
0.97786
-0.295485
0.269763
0.878442
0.690089
0.404728
-0.307477
-0.0565639
0.58418
0.123243
-0.406892
-0.0459487
0.340823
-0.546728
-0.732955
-0.761827
0.914392
-0.885912
-0.195563
-0.331718
-0.131629
0.661604
0.542669
-0.828755
-0.710939
-0.44147
-0.975644
0.913243
-0.566325
0.739387
-0.87192
0.0264832
-0.665109
0.955571
0.0909986
0.0592781
0.460424
0.677245
0.85919
-0.823475
0.877292
0.626248
-0.542803
-0.634587
0.694999
-0.562557
0.707942
0.609584
0.361597
0.805065
0.889249
-0.5637
-0.133863
-0.53147
0.159361
0.859619
-0.235545
0.751261
0.878823
0.156324
0.992629
0.396749
-0.763258
-0.318067
0.954202
0.283807
0.968315
-0.416585
0.373892
-0.805035
0.865288
0.81997
0.837784
0.937688
-0.962934
0.0853141
-0.575094
0.949918
0.49678
-0.478325
0.196297
0.69833
0.183529
-0.0170118
0.582074
0.317377
0.0706261
-0.0969537
-0.854462
0.788687
-0.03544
-0.666745
0.94219
-0.0810378
-0.984524
-0.0354574
-0.886954
0.656352
-0.443571
-0.233756
-0.739929
0.493391
0.811237
-0.873905
0.420668
0.914512
-0.879036
0.8047
0.960537
-0.946928
-0.00419019
-0.267831
-0.431766
-0.16424
-0.921268
-0.44738
0.40382
-0.531642
-0.29735
-0.185959
0.550039
0.237318
-0.090362
-0.365028
0.591192
0.91235
0.736384
-0.559817
-0.333322
-0.0510033
-0.31325
0.778225
0.471901
0.9362
0.520652
0.232316
-0.764037
0.777501
0.985639
-0.968255
1.00023
-0.257892
0.769021
0.0741162
0.149957
0.468135
0.115051
0.200362
-0.530236
-0.62908
-0.463526
0.607683
-0.278029
0.607511
0.371528
0.823897
0.819087
0.0419374
-0.711492
0.621342
0.509322
0.159002
-0.119913
0.870031
0.251603
-0.98661
0.976032
-0.280437
0.490952
-0.739655
-0.0438838
-0.129421
-0.810051
-0.651483
-0.0960764
0.56221
-0.213015
-0.679144
0.629932
-0.870455
0.833094
0.473864
-0.372185
-0.0658353
-0.335603
0.318169
-0.540111
-0.369144
0.223446
-0.690926
-0.759457
0.119253
-0.406278
-0.538
-0.574773
0.689605
-0.462269
-0.0525223
-0.866347
0.173652
0.352733
0.463877
-0.0530405
0.194669
0.683335
0.141904
-0.316759
-0.414696
0.744245
-0.590554
-0.542456
0.69738
-0.310724
-0.76332
-0.226226
-0.014514
0.778479
0.331559
-0.4787
-0.567396
-0.557385
1.01543
0.535455
-0.817349
-0.416946
-0.782797
-0.237275
-0.487436
-0.45774
0.125937
-0.10402
0.553375
0.0090754
0.451215
-0.761347
0.0709677
0.410414
-0.461843
0.315901
0.311573
0.87401
-0.833494
0.676531
-0.0360164
0.902462
0.466782
0.684216
-0.106762
-0.508882
0.487828
-0.103521
0.0252576
0.657964
0.748556
0.275515
0.178429
0.568966
0.159009
-0.666852
0.893758
-0.390106
0.11287
-0.637377
-0.691457
-0.69667
0.377612
0.560723
-0.223463
-0.98969
0.835186
0.416536
0.759957
-0.461281
0.956905
-0.979208
-0.162383
-0.832593
-0.173607
0.104135
0.456374
0.0605635
-0.810431
-0.385283
-0.228488
-0.271267
-0.804915
0.607267
-0.842492
-0.123588
-0.440169
-0.363976
0.726316
0.44346
-0.154737
0.963587
0.578208
-0.0513377
-0.143806
0.946213
0.368512
0.150999
-0.495481
0.276029
0.929891
0.815025
0.251273
-0.682872
0.0565188
-0.327362
-0.405222
0.294385
-0.461612
0.14584
0.238647
0.932494
-0.166098
-0.726943
-0.86325
-0.305769
-0.301281
0.477438
0.0352272
0.214677
0.485774
-0.245212
0.226418
-0.584816
0.282474
-0.544484
-0.51852
0.868548
-0.235759
-0.400021
0.825278
0.640369
0.225872
0.811434
0.131602
-0.311095
-0.895487
0.944679
0.675091
-0.253118
0.830006
0.418913
-0.961711
-0.636093
0.560139
0.898414
0.403134
-0.887848
0.156171
0.0577116
0.985734
-0.470363
0.860316
-0.223862
0.134168
-0.901742
-0.32832
-0.664181
-0.486295
-0.714867
-0.918499
0.221832
0.712924
0.585653
0.874127
-0.997322
-0.331999
-0.214783
-0.901041
0.659446
-0.583542
-0.846509
-0.130178
-0.408843
0.675906
-0.729703
0.0995409
0.891982
0.0288814
0.510755
-0.793515
0.659609
-0.179588
-0.82686
-0.0158971
0.928123
0.0269321
-0.706477
0.938799
-0.0152524
-0.196106
0.651409
0.150922
0.0787048
0.668244
0.0838013
-0.108298
-0.176338
0.549078
-0.117945
-0.862395
0.570568
-0.953103
0.600445
-0.0198971
-0.22804
-0.717895
0.393613
0.175547
0.958254
0.40798
0.812698
-0.0135407
0.432909
-0.054473
-0.576411
0.02086
-0.83485
-0.109765
0.167123
1.00105
0.328429
-0.515817
-0.614119
0.214225
0.821308
-0.46852
0.632633
-0.980406
0.230607
-0.180322
0.359013
0.475903
-0.906889
-0.392768
-0.153308
0.422314
-0.076838
0.842612
-0.517128
-0.0263077
-0.771578
0.840778
1.00255
-0.929275
0.088139
-0.713089
0.200084
-0.683454
0.480973
-0.288229
-0.100916
-0.406501
-0.706509
-0.773885
-0.785573
0.76687
-0.195948
-0.217921
0.285703
-0.908116
0.183161
-0.165927
0.779902
0.606598
-0.772655
0.500179
-0.146353
-0.491166
0.706788
0.08584
0.947763
-0.283734
-0.366746
0.584045
-0.328277
0.322453
-0.427688
-0.121442
0.863706
0.0187604
-0.156571
-0.457693
0.601192
-0.31829
0.317841
-0.446669
0.718626
0.387465
-0.138589
0.957952
-0.176969
-0.197305
0.565372
0.928765
-0.772447
0.555131
-0.734432
0.51664
0.217387
0.212256
-0.157729
-0.841742
-0.971197
0.557454
0.383316
-0.625726
-0.726102
0.54499
0.273509
-0.656316
-0.0340786
0.163876
0.707687
0.681582
0.853489
0.259734
-0.225463
0.754435
0.330441
-0.672311
0.856601
-0.140357
-0.167797
0.794314
-0.820806
-0.824661
0.594411
-0.951676
0.189387
0.864006
-0.513823
-0.520445
-0.717389
0.0351417
0.427382
0.715909
0.161913
-0.96107
-0.453916
-0.952653
-0.897867
-0.949259
0.261177
-0.916861
-0.778389
-0.316566
-0.215452
-0.0184766
-0.601344
0.409091
-0.825912
0.979089
-0.61698
0.701347
-0.665527
0.77465
0.883615
0.22949
0.789869
0.190708
0.477472
0.963587
0.721927
0.070727
-0.0782582
-0.411483
0.568815
-0.00107646
0.866891
-0.879184
-0.677582
-0.079279
0.0106335
-0.106689
-0.452381
-0.891135
0.0784342
-0.0706204
0.146331
-0.521209
0.747648
-0.295084
-0.529747
-0.589506
-0.105711
-0.928461
0.217416
-0.813631
0.434196
-0.508584
-0.522244
0.537058
-0.981803
-0.674119
-0.961828
0.563835
-0.831162
0.205755
0.092653
0.862634
0.968092
-0.899135
-0.159443
-0.0274721
-0.809215
-0.631815
-0.579542
0.706153
0.457133
-0.0780101
-0.575083
0.288654
-0.0207565
-0.00384057
0.387917
0.490189
-0.162699
-0.521877
0.892695
0.723612
0.0522068
0.925223
0.0106301
0.216817
-0.830854
0.745922
-0.26894
0.241044
0.210219
0.663176
0.190865
-0.721135
-0.857506
0.316709
0.869756
-0.978453
0.836686
0.923395
0.412646
0.486924
-0.0354963
-0.862417
0.473654
-0.507833
0.539734
0.762579
-0.600895
-0.440756
0.299154
0.974148
-0.0167893
-0.495792
-0.615649
-0.165847
-0.344461
0.688801
0.525252
0.198348
-0.232395
-1.00022
0.436247
-0.624819
-0.477206
0.69479
-0.0239543
-0.927179
-0.467602
-0.557918
0.128381
0.677919
-0.168766
-0.608489
0.164495
0.700011
0.739985
-0.761215
0.341054
-0.100471
-0.264886
-0.615344
0.192487
0.250833
-0.671491
0.0747605
-0.561129
-0.877705
-0.377725
-0.277549
0.880993
0.424246
0.71835
-0.874406
-0.61984
0.349786
0.114321
0.112866
0.0628353
0.239546
0.105108
0.218773
0.116955
0.317481
0.788911
0.444275
0.811094
0.139026
0.289247
0.409886
-0.00975236
0.686277
-0.356161
-0.706724
-0.301945
-0.237987
0.722557
-0.498059
0.4937
-0.344511
0.364
0.51437
-0.0209844
-0.0215073
0.820293
-0.116244
-0.743665
-0.228356
0.462251
0.789316
-0.524981
-0.127652
-0.444853
0.384688
-0.999946
-0.275839
-0.871331
-0.988155
-0.796863
-0.123953
-0.392012
0.232871
0.687965
0.604974
0.17704
0.845647
0.437332
0.617341
-0.683642
0.182819
0.720586
0.921721
-0.483424
0.515825
0.856137
-0.234972
0.51546
0.786434
-0.0530364
0.988232
-0.512569
0.918688
0.416178
-0.335751
-0.65537
-0.258606
0.0285842
0.526051
0.483889
0.128928
-0.500637
0.687676
-0.222081
0.9716
-0.101004
0.836781
-0.2714
0.675653
0.558271
0.235158
0.691347
-0.538454
-0.640218
0.647252
-0.653134
0.130031
0.180373
0.89979
-0.977561
0.498923
0.864364
0.84874
-0.132863
0.00926354
-0.388357
-0.51172
-0.997218
-0.098422
-0.120029
0.890349
0.391304
0.941525
-0.238837
0.917478
-0.441187
-0.804478
0.0629827
-0.36238
-0.734093
0.564483
-0.734419
-0.303238
-0.549248
-0.378029
-0.196346
0.181534
-0.500451
-0.0955377
-0.246535
0.881626
0.910508
0.329
-0.490711
0.884716
0.926416
-0.285722
-0.923793
-0.928488
0.834788
0.540307
-0.182745
-0.0341277
0.875878
-0.077827
0.852439
0.432943
-0.127148
-0.191741
-0.626254
-0.481728
-0.931697
0.302748
-0.149596
0.801932
0.935148
-0.446872
-0.532109
-0.239215
0.162194
-0.217701
-0.933647
-0.31565
-0.103396
0.195844
0.527527
0.133094
-0.253129
0.338236
0.220106
-0.232429
0.35502
0.178256
0.77964
0.888835
-0.355827
-0.520586
0.106962
0.388204
0.864759
0.812102
0.236856
-0.0399472
0.379893
-0.618461
-0.541219
0.900595
-0.947244
0.238516
0.40166
-0.516475
-0.0181361
0.467462
-0.357643
-0.919188
0.0376282
0.620944
0.598843
0.997614
-0.121905
0.484213
-0.557274
0.709041
-0.546414
0.704519
-0.542661
-0.429366
-0.617297
0.848782
0.0212457
0.435002
0.0545742
-0.568473
-0.70463
0.184889
-0.757101
-0.947078
0.0115801
0.289796
-0.836631
0.715997
0.0928942
-0.726356
-0.495989
0.321289
0.148957
0.626617
-0.624122
-0.79087
0.882131
-0.47261
-0.158374
-0.661041
0.776752
-0.622771
-0.214143
0.788493
0.829285
0.215888
0.855479
0.0475223
0.40246
0.9132
-0.221084
0.813339
0.00901866
0.317463
-0.533739
-0.869694
0.50508
-0.0644284
-0.661443
0.924424
-0.480805
0.0533602
-0.713446
0.530432
0.0771811
0.11297
-0.770903
-0.383072
-0.931967
0.69272
-0.642609
0.9895
-0.921608
0.686
-0.405222
0.417344
0.950882
0.204293
0.111067
0.395399
-0.63241
0.388285
0.520778
0.442713
-0.155099
-0.909758
-0.383146
0.236063
0.465894
-0.841484
-1.01143
0.120493
-0.630702
0.0101589
0.615515
-0.184216
-0.871865
0.736946
-0.34728
-0.599655
-0.174481
-0.0164872
0.3125
-0.814927
-0.68988
0.0317545
0.998224
-0.590224
-0.628971
-0.198588
-0.751884
-0.829636
-0.164298
-0.871328
0.85214
0.913733
0.642277
-0.0273152
-0.867204
0.0253052
0.208773
-0.580396
0.887846
-0.756124
-0.568524
0.0624211
0.965219
-0.460697
0.479461
-0.494576
0.0819288
0.406259
0.731821
-0.991146
-0.865937
-0.951111
0.666683
-0.415698
0.00958814
-0.341682
0.262167
-0.15862
-0.222987
-0.207609
0.723752
-0.0709724
0.393499
0.940537
0.529569
0.137026
-0.578324
-0.680598
1.00051
-0.870251
-0.231915
0.787361
-0.0739258
0.0499753
0.266701
-0.176027
-0.46728
0.774529
-0.421394
0.505639
0.575448
0.497218
0.15817
-0.0938935
-0.609559
-0.339096
0.149947
0.305759
-0.728535
-0.616855
-0.673158
0.643828
0.561787
-0.902877
-0.112431
0.272748
0.253851
-0.847771
0.409602
0.539535
0.398287
0.230806
0.625749
-0.860699
-0.608503
0.0484272
0.368842
-0.263303
-0.586199
0.66705
0.952281
0.272051
-0.365178
-0.913771
0.723445
-0.823728
0.815841
-0.96734
-0.273634
0.121474
-0.0623183
-0.402729
0.42407
-0.438261
0.668061
0.62025
0.316255
0.18351
0.928524
0.521189
0.532824
-0.190354
-0.291828
-0.95657
-0.186226
0.26825
-0.582966
0.221842
-0.998722
0.987272
0.542002
0.718855
-0.545243
-0.714285
-0.366026
-0.131158
0.609468
0.685767
0.738482
-0.704889
0.727522
-0.0979718
-0.858205
-0.307116
0.728804
-0.924371
-0.322512
0.0589537
-0.740561
-0.596709
0.360991
0.906834
0.7899
0.536804
0.26934
-0.36834
0.890859
0.609821
-0.0799389
-0.0887151
-0.603598
-0.342873
-0.69534
0.16065
-0.131517
-0.248552
-0.572069
0.735368
0.379295
0.412379
-0.671675
0.913942
0.52948
-0.093678
0.470181
-0.795697
-0.509623
-0.466155
0.580869
-0.0497454
0.0336234
0.556107
0.93166
-0.540219
-0.0641821
-0.189702
0.5952
0.471924
0.994894
-0.127891
0.135327
-0.00390228
-0.695928
0.20604
0.180202
0.71014
-0.172932
-0.349232
0.343272
0.38353
0.990431
0.158557
0.689474
-0.62433
-0.256925
0.0462467
0.806666
-0.157687
-0.881467
-0.75069
0.355138
-0.0140435
-0.657212
0.995816
-0.343204
0.338737
0.885394
-0.555114
-0.267026
0.982438
-0.794549
0.266402
-0.438006
-0.233233
0.436068
0.756015
-0.384784
-0.289047
0.59124
-0.074316
-0.585037
0.48138
0.830815
0.638337
-0.147152
-0.163708
-0.949515
0.310399
-0.246027
0.618548
0.486922
-0.0575898
0.820359
0.632476
0.741312
0.786685
0.610927
-0.887331
-0.819541
0.587088
-0.422942
0.0837284
0.0311436
0.348234
-0.0632727
-0.676534
0.875202
-0.984858
-0.72863
-0.141125
-0.453315
-0.785936
-0.395223
0.309277
0.464892
0.602236
0.0302976
0.809923
0.646369
0.595744
0.219975
-0.37926
-0.632804
-0.369821
-0.400919
-0.834217
-0.782739
0.754221
-0.303013
0.343423
-0.903402
0.633237
0.872518
-0.00204148
-0.354088
0.210003
0.50571
0.640973
0.412913
0.350149
0.201891
-0.763436
0.778861
0.259586
0.989393
-0.991581
-0.916222
0.051399
-0.954693
0.873361
0.822409
0.0494463
0.836311
-0.706114
0.485782
-0.0826408
-0.675447
-0.262726
-0.881037
0.0467587
0.592701
-0.924239
-0.418623
0.359427
-0.636061
0.525152
0.851802
-0.441988
-0.452281
-0.877155
-0.733885
0.4522
0.0504001
0.212769
-0.103324
0.621498
0.870028
0.413159
0.408236
0.27806
0.806268
-0.0726872
-0.504264
0.287464
-0.760124
-0.463923
-0.65601
-0.422559
-0.667315
0.112519
-0.0863741
-0.327795
-0.684571
-0.920357
0.189274
-0.971816
-0.980499
0.794082
-0.448014
-0.119004
-0.912784
-0.475502
-0.929902
0.81769
-0.797799
0.690075
0.52139
0.473735
-0.121292
-0.718217
-0.704521
0.242922
-0.954698
-0.786091
0.751112
0.983561
0.550372
0.802556
0.902314
-0.204608
0.444975
-0.106173
-0.817369
-0.815612
0.551789
-0.423261
0.0881288
0.947585
-0.611352
-0.0126206
-0.902656
0.883655
0.740249
0.320093
-0.569144
0.906014
-0.785835
-0.427016
-0.488494
0.315868
-0.884158
-0.710721
-0.584178
-0.567521
0.926148
0.178708
-0.366854
0.164821
-0.654664
-0.764983
-0.136757
-0.547201
0.527966
-0.920989
0.666991
0.961299
0.374804
-0.458461
-0.48556
0.16722
-0.380917
0.436984
0.404648
-0.492328
-0.529744
0.406429
0.728829
-0.784062
0.264773
-0.661951
0.816675
0.228928
0.172781
-0.641802
-0.127526
-0.459985
0.854483
0.686343
-0.612458
-0.0458983
-0.670289
-0.457192
0.528147
0.477071
0.135185
0.12377
-0.578374
0.0927842
-0.762414
-0.35892
-0.611675
-0.916557
0.882429
-0.0278603
-0.120939
0.569291
0.689254
0.627448
-0.418664
-0.259028
0.215528
0.138221
0.518528
0.584284
0.302425
0.786697
-0.638551
0.952372
-0.461602
0.101684
-0.953729
-0.0850726
-0.271352
0.713155
-0.486387
0.574221
-0.445337
-0.407077
0.381839
0.148924
0.250171
-0.991342
0.971206
0.535271
0.750404
-0.855636
-0.876514
0.553859
0.844644
0.546038
0.149431
-0.571097
-0.0984829
0.948776
0.128859
0.568925
0.85021
-0.00733876
-0.210836
-0.742166
0.0182611
0.485953
-0.776198
0.244182
-0.302469
-0.983981
0.325927
-0.46894
-0.284788
0.674198
0.82533
-0.724579
0.575522
0.633255
-0.669588
0.548379
-0.579401
0.862408
0.190126
0.448355
-0.210621
-0.487096
-0.157754
0.225618
0.593476
0.295195
-0.129574
-0.126681
-0.206385
0.0312655
-0.894505
0.145703
-0.871958
0.803977
0.181945
0.280404
0.136691
-0.63063
-0.634704
0.725003
-0.404242
-0.797757
-0.390124
-0.268589
-0.639919
-0.482335
-0.764489
0.0475619
0.729317
0.205485
0.418475
0.0643153
0.449137
-0.525993
0.932603
-0.775187
0.415846
0.421882
0.456961
0.721409
-0.147675
0.345978
-0.00532771
-0.610469
0.583847
-0.600681
0.907252
-0.472018
0.943482
-0.343823
0.281348
-0.0256347
0.556655
-0.144704
-0.292528
0.586926
-0.826411
-0.748314
-0.445826
0.386637
0.184061
-0.584014
0.634974
0.212288
-0.590479
0.436461
0.519557
-0.595278
0.169066
0.0675244
-0.256365
0.567962
0.77666
0.773438
-0.961857
0.205802
0.21647
0.311988
-0.730508
0.639065
-0.363547
0.541524
0.155566
0.543393
0.551003
-0.781773
0.665811
-0.965323
0.941172
-0.228068
-0.779434
0.165539
-0.300503
-0.966896
-0.290671
-0.229417
-0.557978
-0.100818
0.129213
-0.780114
-0.475517
0.612719
0.407331
0.939685
0.475629
0.420373
-0.995091
0.369386
-0.669102
-0.11462
0.517656
-0.580257
0.669394
0.939758
-0.935039
-0.126773
0.470202
-0.761853
0.11265
0.0675253
0.221953
-0.312739
0.0529312
0.0463917
-0.45209
-0.40566
0.63496
0.0250295
0.502029
-0.610753
0.809679
0.271708
-0.534329
0.622507
-0.945244
-0.981411
0.194038
0.908703
-0.0782809
-0.237938
-0.525834
-0.067186
-0.807142
-0.859141
-0.630758
0.74575
-0.538543
-0.467379
-0.466778
0.947698
-0.0214154
-0.133869
0.707748
-0.515449
-0.845522
-0.761151
0.813665
-0.868995
0.213957
-0.278616
-0.113637
-0.768195
-0.268148
0.397654
-0.37894
-0.544297
-0.657609
0.425166
-0.810815
-0.21709
-0.441253
-0.813549
-0.979882
-0.663398
-0.74279
0.16136
0.404936
-0.0329904
-0.309376
0.00992095
0.334062
0.0446388
0.40292
-0.572846
-0.447125
-0.677017
-0.714808
-0.775285
0.506006
-0.743761
0.280557
0.33255
-0.0302072
0.343212
0.347937
0.495547
-0.993671
0.711
-0.134587
-0.12499
0.559189
-0.11435
0.710074
-0.610105
-0.669591
-0.836182
-0.566969
0.627057
0.574401
-0.345816
-0.973733
-0.533754
-0.337269
-0.295689
-0.50936
0.291043
0.480711
0.0625217
-0.837256
0.883396
0.471934
0.09375
-0.207681
0.873554
0.271455
-0.219483
-0.829287
-0.634511
-0.489403
0.218643
0.321544
-0.930831
0.373049
-0.680586
-0.541349
-0.689483
0.394211
-0.036867
-0.140827
0.828583
-0.794967
0.50434
0.20374
-0.0824564
-0.359261
-0.931443
0.467071
0.474915
-0.469618
0.102155
-0.583312
-0.571889
0.822817
0.918546
-0.312817
0.695505
-0.781418
0.674275
0.549098
0.844948
-0.490377
-0.146376
-0.283825
-0.940771
0.38037
-0.760594
0.738213
0.508261
0.88492
0.0096265
-0.544341
-0.212019
-0.767164
-0.798921
-0.406814
0.944221
0.261327
0.289667
0.125527
0.0570034
0.219123
-0.556451
0.528095
0.4018
0.428563
-0.0746454
-0.317068
0.282537
-0.997709
0.534202
0.614319
0.260175
-0.125397
-0.455439
0.040083
0.581354
-0.928427
0.157385
0.542223
-0.423708
0.346662
-0.282012
-0.891752
-0.733864
0.455044
0.191548
-0.404684
0.463724
-0.242235
-0.722828
0.219589
-0.154095
-0.931629
0.564704
0.128805
0.553034
0.416021
-0.898282
0.890516
-0.0641167
0.643868
-0.361578
-0.309421
-0.550071
-0.184059
0.306382
-0.696482
-0.852343
0.123812
-0.170896
-0.614392
0.0276593
0.977672
0.442984
-0.168955
0.466051
-0.0515835
0.485363
-0.556764
-0.49599
0.843701
-0.224472
-0.705934
-0.848729
0.505484
-0.972512
0.74031
-0.629883
0.126572
0.209524
0.895165
-0.670726
-0.683892
-0.0657975
-0.372537
-0.134722
0.032593
0.933314
0.743429
-0.667971
-1.00891
0.173962
0.413341
-0.987914
-0.255403
-0.233538
0.807729
-0.281144
0.48018
-0.000641584
0.114508
-0.773573
0.581741
-0.0419707
-0.285232
-0.580533
-0.609242
-0.0131716
-0.368693
0.821332
-0.864002
0.0454964
0.130464
0.401129
0.297017
0.354606
-0.17587
-0.0646788
0.115081
-0.381167
0.243042
0.627242
0.762818
-0.686051
0.201242
-0.982904
0.696907
-0.315495
-0.53258
0.471224
-0.324109
-0.836372
0.27473
-0.233525
-0.754777
0.93853
-0.583936
-0.730445
0.312244
-0.361275
0.0946259
0.544013
0.549107
-0.128363
0.107405
0.534245
-0.6977
-0.584933
-0.165767
-0.938704
-0.614696
-0.819862
-0.0515938
-0.774127
0.957882
-0.30609
0.534766
-0.0661788
0.497536
-0.688155
0.0697181
-0.677779
-0.514059
0.155795
-0.967042
-0.902908
0.928155
-0.654974
-0.945791
-0.558779
-0.426814
0.507695
-0.215434
-0.447747
-0.804928
0.213793
-0.294744
-0.515748
-0.368723
-0.230872
0.708958
0.412226
0.611854
0.855592
-0.157963
-0.419894
-0.838064
-0.0205524
0.31011
-0.517925
0.0452696
0.381177
-0.979307
0.345079
1.00812
-0.840656
0.644575
0.486688
0.499179
0.50734
-0.118745
0.516335
0.50816
-0.762227
-0.405736
-0.133771
-0.69816
0.481031
-0.932263
0.535012
-0.744188
0.348934
-0.469543
0.444337
0.958458
-0.286262
-0.330747
-0.486246
0.894456
-0.828943
-0.455705
0.526244
-0.184337
-0.149037
-0.298301
-0.686344
0.476757
0.697378
-0.27877
-0.450029
0.712325
-0.478608
0.796468
-0.363104
0.96441
-0.842796
-0.858119
0.268795
-0.243482
0.36834
0.91939
0.0476583
0.364053
-0.719135
0.31629
0.247633
-0.821745
0.936415
0.000736176
-0.310147
0.138119
0.174136
0.388521
-0.214101
0.745048
-0.42932
0.335826
0.965598
0.199153
-0.83082
-0.357216
0.0641607
-0.70967
-0.256902
0.97192
-0.777682
-0.651334
0.166843
0.548967
0.0429441
0.886057
-0.388384
0.342368
-0.389111
0.990524
-0.737866
0.072983
0.878882
0.427896
-0.560932
-0.717767
0.499236
-0.355036
0.1155
0.707316
0.511766
0.8485
0.534795
-0.562734
-0.259669
-0.785378
0.0439079
0.245806
0.321261
0.238318
0.850785
-0.956865
-0.103585
-0.618146
-0.0694499
-0.235769
-0.232419
-0.380131
-0.412856
-0.0820193
-0.765366
-0.274458
0.694328
-0.708909
-0.00762293
0.260718
0.336809
0.844119
-0.47721
0.297292
0.727378
0.025546
-0.174139
-0.994995
0.617693
-0.409082
-0.825872
0.193272
0.32216
-0.334397
0.126913
-0.20843
-0.774618
-0.330897
-0.928883
-0.158537
0.164584
-0.0601103
-0.744166
-0.212611
-0.0624434
-0.723212
0.106948
0.339078
-0.283156
-0.435418
-0.412702
0.410061
0.761494
-0.317398
0.0886871
0.506857
-0.361683
0.499691
0.522569
-0.0536429
0.101852
-0.901813
-0.932047
0.636519
0.131419
0.162122
-0.333951
0.378271
0.548931
0.653175
0.395865
-0.829418
-0.112366
0.294263
0.703962
-0.84493
-0.933643
0.0519971
-0.0983937
0.358648
-0.441165
0.405401
-0.418482
-0.697773
0.208133
0.470039
-0.462707
-0.875444
-0.750023
-0.653028
-0.605718
-0.683413
0.606952
-0.284301
-0.325495
-0.208866
-0.0891222
0.851456
-0.329851
-0.900011
-0.912937
0.83094
-0.362883
0.699248
0.79238
-0.308219
-0.862734
0.0306118
0.863586
0.0438813
0.78445
0.709406
-0.793304
0.714252
-0.0984427
-0.655503
-0.922557
-0.303726
0.429187
0.0221112
-0.805898
0.183835
-0.055356
0.353289
-0.506432
-0.517229
-0.887908
-0.571775
0.974842
0.825883
0.0841535
0.918147
-0.874296
-0.906924
-0.195031
-0.256935
-0.613235
0.0404736
0.226417
0.83582
-0.993611
0.83991
0.353723
-0.284273
0.0748253
0.597121
0.639993
0.381829
-0.156025
-0.252961
0.363897
0.113544
0.179833
-0.185497
0.808075
-0.708602
0.209315
-0.0137364
-0.683292
-0.638857
0.250219
-0.164182
0.866853
0.35017
0.439363
0.308041
0.396595
-0.195351
-0.0978301
-0.813141
0.510994
-0.222834
-0.891428
-0.755049
0.47522
-0.238428
0.693375
0.595939
-0.314848
-0.923321
-0.480622
-0.285134
-0.512924
-0.182968
-0.012429
0.328458
-0.109264
-0.129228
0.315422
-0.96567
-0.449905
-0.684997
-0.877184
0.0970986
0.929539
-0.128479
0.120617
0.563225
0.396471
0.22475
0.265771
-0.373408
0.430519
-0.452306
-0.268217
0.48923
0.504796
-0.858192
0.895666
0.434842
0.133611
-0.590407
-0.146461
-0.359007
-0.0562584
-0.25744
-0.022339
0.66996
-0.291086
0.619233
-0.630056
-0.0628766
0.434121
-0.447759
0.775301
-0.639835
0.199683
-0.929409
-0.609942
-0.117595
-0.274927
0.943428
0.224096
0.045755
-0.920984
0.392979
-0.979447
-0.594283
-0.295845
-0.145285
-0.7969
-0.812813
0.541275
0.406312
0.532716
-0.625248
0.743063
-0.332923
0.267279
0.667006
0.496725
-0.647245
0.311163
0.225137
-0.983649
-0.838618
0.890516
-0.370687
0.678998
-0.0120517
-0.912208
0.92322
-0.964329
-0.197096
0.608391
0.434621
-0.622209
-0.713751
0.815344
0.793964
0.691468
0.144402
0.102932
-0.0860505
0.0389742
-0.366368
0.662891
-0.476433
0.547498
-0.523957
-0.113886
-0.509354
0.655549
0.476168
-0.745662
-0.180856
0.157801
-0.599739
-0.430266
0.653674
-0.660558
-0.441962
0.523823
-0.475708
0.714422
-0.604607
0.933434
-0.593048
-0.0563722
-0.844239
-0.0460505
-0.158035
-0.694039
0.62418
0.270057
0.592237
-0.123282
-0.4978
0.331997
-0.834551
0.6484
0.241796
-0.501708
-0.985348
-0.505499
0.548644
-0.341267
-0.39335
0.756959
0.317521
0.578935
-0.884566
-0.427397
-0.149035
-0.33684
0.495839
0.659063
0.208118
-0.520237
0.901458
-0.0579467
-0.733313
0.970997
0.695631
0.775091
0.403368
-0.179966
-0.905568
0.47762
0.242781
0.65912
0.63331
-0.157525
0.819445
0.101744
0.482199
-0.270015
-0.80569
0.106516
-0.699069
0.470334
0.976455
-0.493536
0.655105
0.550537
-0.742239
-0.587467
0.426458
-0.670032
-0.86293
-0.933468
0.360944
0.511573
-0.774409
0.38336
-0.218462
-0.288075
0.726155
0.848021
0.646895
0.655762
-0.706563
0.754146
0.368217
0.0452686
0.692269
0.377721
0.53404
0.12642
0.487838
-0.968961
-0.543008
0.893345
0.213589
0.429733
0.660132
0.128315
0.980247
-0.22223
-0.940137
0.263422
0.918298
0.73098
0.201852
0.775463
0.791807
0.901668
-0.288159
-0.38909
0.850961
-0.774314
-0.94969
0.883059
0.413949
-0.957514
0.489859
0.196013
-0.177975
0.0391431
0.977419
0.544106
0.817367
0.607437
0.250517
-0.27817
-0.248826
-0.371324
-0.296824
-0.365797
-0.389832
0.310595
-0.435969
-0.806596
-0.465488
-0.99157
-0.0201605
-0.356498
-0.0490502
0.186444
0.472482
-0.0649627
0.936034
0.389348
0.409094
0.775458
-0.708868
0.145111
-0.582094
-0.539752
-0.160054
-0.27474
-0.409047
0.32979
-0.640485
0.164795
0.718677
-0.156977
0.811783
0.168194
-0.579412
-0.683774
0.10979
0.586719
0.130189
0.258048
0.136704
-0.262211
0.957346
-0.723498
-0.111815
-0.169692
-4.99309e-05
-0.952922
0.83568
-0.045152
-0.696922
-0.180572
-0.974766
0.783905
0.973867
-0.576409
-0.461663
0.362859
-0.0129345
0.235007
0.60656
0.891394
-0.908034
0.728201
-0.501783
-0.0561531
-0.840018
0.36963
-0.509542
-0.469208
-0.443107
-0.806645
0.776733
-0.0362495
-0.708791
0.826722
-0.69529
0.148479
-0.495403
-0.496325
-0.0760974
0.527436
0.863681
0.0619714
-0.349527
-0.158028
0.830256
0.962827
-0.748509
-0.247371
-0.554004
-0.364377
-0.415716
0.518338
0.572093
0.375801
0.935367
-0.285767
0.784414
0.444952
0.689425
0.276948
-0.690242
0.235907
0.268531
0.539175
0.289415
-0.0781069
-0.106929
0.480289
0.277674
-0.950306
-0.533183
0.851752
-0.379058
0.462961
0.24833
0.875696
-0.618886
0.40595
0.050753
0.148302
0.33005
-0.383766
-0.879398
0.101888
-0.661274
-0.123691
-0.631487
-0.815505
-0.581146
-0.964515
-0.491424
0.790257
-0.439094
-0.557488
-0.110759
0.524144
-0.776174
-0.272632
-0.165915
-0.666595
0.0752724
-0.772136
0.635586
-0.969702
0.185786
-0.494354
-0.870377
-0.406041
-0.0122428
-0.727671
0.337542
0.354796
0.0265941
0.319242
-0.640266
0.687815
-0.195158
-0.645237
0.534649
-0.773768
-0.708776
-0.0798944
-0.495924
0.792118
-0.559943
0.642666
0.116385
-0.210547
-0.28974
0.00104898
-0.933185
0.405354
0.965931
-0.623417
-0.228354
-0.841729
0.495358
0.703977
0.646563
-0.696381
0.329482
0.634974
0.481163
0.0275705
0.735177
-0.324952
0.00245129
0.243325
-0.395992
0.545232
0.289563
-0.632075
-0.0687767
0.858339
0.250525
0.5855
-0.943327
-0.913022
-0.391748
-0.26074
-0.255734
-0.130663
0.442714
-0.574983
-0.584999
0.699655
-0.533648
0.440363
-0.674958
-0.914972
0.35223
0.925367
-0.96053
-0.686933
0.771665
-0.600925
-0.937133
-0.264042
-0.804737
-0.794507
-0.106803
0.162701
-0.615356
-0.143486
-0.594346
0.989057
-0.0583101
-0.820383
0.133635
0.34943
-0.731962
0.551692
-0.0666837
-0.719738
0.507076
-0.988786
0.776092
-0.179252
-0.901461
-0.118357
0.0904075
0.2215
-0.995915
0.943283
-0.8739
0.183478
-0.450849
0.300523
0.660312
-0.438127
0.0433813
-0.83151
-0.0909582
0.162218
-0.988186
0.564683
0.571575
-0.685962
-0.720271
0.0796813
0.583156
0.128648
0.528989
0.697641
-0.0114367
-0.0809577
0.898224
-0.473144
0.744765
-0.146995
0.568771
0.0981432
-0.790099
-0.238167
-0.96231
0.429953
-0.846055
0.585013
-0.224698
-0.477667
0.209031
0.969261
-0.757791
0.341541
0.709613
-0.147192
-0.849274
0.536639
0.384981
0.568384
0.692086
-0.261478
-0.653539
-0.0638163
-0.171617
-0.381424
0.436944
0.0406876
0.734228
0.407893
0.490969
0.0644477
-0.99195
0.230289
-0.230085
-0.618218
-0.848981
0.246022
0.502763
-0.0965088
-0.73519
-0.375626
0.0334462
-0.186381
-0.321053
0.325318
0.791269
-0.583301
0.714688
-0.431433
-0.505524
0.108699
0.373825
-0.0506231
0.602818
0.654811
-0.625497
0.0739397
-0.389321
-0.671975
0.111892
-1.00049
0.124304
-0.446136
-0.0993714
0.339652
0.201626
0.998266
-0.914414
-0.0914349
-0.51904
-0.89297
0.623647
0.912142
-0.218623
-0.727253
-0.677369
0.665984
-0.325899
0.0135465
0.486322
0.491699
-0.929057
0.92094
0.654348
0.667792
-0.798484
-0.0180235
0.944593
-0.837158
-0.593163
-0.552026
-0.292387
-0.532911
0.973081
-0.727592
-0.162092
-0.340732
-0.895347
-0.679217
0.852565
-0.641577
0.355074
0.947778
-0.445627
0.299141
-0.424317
-0.692939
-0.543166
0.309278
-0.113697
0.8894
-0.0916084
0.0419476
0.666212
-0.887922
0.766527
-0.252691
-0.847596
0.0681534
-0.661249
-0.815525
0.537286
0.260712
0.777094
-0.204843
-0.609072
-0.992311
-0.684351
0.841167
-0.53685
0.499891
0.871685
-0.266179
0.144441
0.0135163
-0.426556
0.450973
-0.339642
0.476568
-0.275639
0.309351
0.3069
-0.241554
-0.400053
0.262403
0.037185
0.183928
-0.895741
-0.695343
-0.244684
0.588772
0.654562
-0.582298
-0.567118
-0.082072
-0.233567
0.301891
-0.972828
0.253943
0.359014
-0.735584
-0.548659
-0.509734
-0.258547
0.43049
-0.335785
-0.401924
0.168292
0.588839
0.489228
0.180696
-0.838916
0.0109314
-0.204588
0.548443
-0.136025
0.0527127
0.546557
-0.989029
0.742821
0.682928
0.5414
0.482688
0.445411
0.899817
0.108993
0.0493467
0.524321
0.485304
0.796417
0.00018009
-0.852082
0.69764
0.870146
-0.752046
-0.55646
0.738276
0.214081
-0.0920998
-0.41646
0.989229
0.43986
0.254032
-0.422074
-0.889374
-0.083953
-0.844305
-0.0467579
-0.679743
0.644642
0.119772
-0.268979
-0.44713
-0.03687
-0.215499
-0.627989
-0.693
0.647797
0.0461072
-0.0705736
-0.821604
0.879554
-0.599992
0.0382228
0.903052
0.182955
-0.763229
0.205276
-0.951792
0.393985
-0.340472
-0.150287
-0.788893
0.337381
0.687209
-0.531384
0.997497
0.363549
-0.0791389
0.0297272
0.895884
-0.639068
0.0937772
-0.876963
-0.24043
-0.256631
0.994486
-0.921978
0.808502
-0.982045
0.817853
0.20871
0.600175
0.948521
-0.945864
-0.905471
-0.601666
0.246577
-0.0736892
0.880745
-0.25294
-0.541208
0.430248
-0.697705
-0.00566971
0.155547
-0.465476
0.35531
0.500027
0.203949
0.644963
0.674138
-0.179802
-0.776515
-0.242758
-0.94314
0.408821
0.0359483
0.585491
-0.463454
0.497473
-0.813596
0.987508
-0.558169
0.453582
-0.767743
0.0450711
0.648051
0.564216
-0.133284
0.646049
-0.596599
-0.696423
0.643798
0.714478
-0.466056
-0.682243
-0.786365
-0.137543
0.159278
-0.316188
-0.275925
-0.726156
-0.325214
-0.256042
0.00483567
-0.40856
0.367586
0.869818
0.684432
-0.815294
-0.667285
-0.065885
-0.760576
0.902326
0.861732
-0.497096
0.30295
0.803014
-0.928823
0.019182
0.456178
-0.722827
-0.869744
0.318905
0.512807
0.915496
-0.226994
-0.341059
0.99667
-0.105307
0.216921
-0.848355
0.0320638
0.0136484
-0.609733
0.813344
-0.0308643
-0.0848346
-0.326829
0.641926
0.641102
-0.851616
0.688581
0.676694
0.0535515
0.502645
-0.437646
0.767446
0.301655
-0.290474
-0.795973
-0.856855
-0.0247806
-0.608795
-0.665711
-0.309961
0.0252021
0.360342
-0.323343
-0.500423
-0.311129
-0.1809
-0.496069
0.480575
-0.864635
-0.519648
-0.644735
0.544653
0.099092
0.723989
0.864711
-0.799054
-0.769592
0.436509
-0.277629
-0.306159
0.417615
-0.964011
0.963642
-0.64719
0.0197593
0.313799
0.832665
0.711528
-0.990645
-0.815825
-0.353765
-0.803816
0.0235548
0.104263
-0.335147
0.372672
0.734781
0.399745
0.954084
0.779591
0.110534
0.128007
0.809286
-0.988134
-0.0719261
0.195824
-0.770936
0.250266
-0.987648
-0.738729
0.986716
0.19848
-0.814486
-0.994562
0.978839
0.590463
0.727984
-0.00758811
-0.297424
0.738883
0.560333
-0.664685
0.77108
-0.587825
0.944255
0.801083
0.00676039
0.0560905
-0.622971
-0.732338
-0.311482
0.94497
-0.111553
-0.32582
0.225831
0.143254
-0.318936
0.964796
-0.329629
-0.0594178
0.679562
0.125448
-0.219543
-0.270151
0.441774
-0.920353
-0.0128792
-0.841657
0.727639
0.73798
0.425546
0.997071
0.817052
0.773376
-1.00869
0.735428
-0.854203
-0.558111
-0.751142
-0.620279
-0.290839
-0.690347
0.0563187
0.16402
0.840244
-0.50347
-0.43457
-0.0492814
-0.305158
0.478204
-0.418231
-0.662189
-0.898724
-0.979987
0.0701449
-0.180737
0.127961
-0.242259
-0.905491
-0.359169
-0.271563
-1.02033
0.743618
-0.0901525
-0.317668
0.48643
-0.316806
-0.165521
0.99391
0.0438972
0.702539
-0.155384
-0.549834
-0.164579
0.461333
0.945741
-0.608769
-0.963122
0.243582
0.602832
0.814631
0.467469
-0.444067
0.562616
-0.302652
0.160433
-0.383038
-0.441925
0.409898
-0.342261
-0.230376
-0.559449
-0.790079
-0.739664
0.971226
0.741595
-0.785863
-0.618858
0.784213
-0.942194
0.750811
0.440404
0.578625
-0.258918
-0.854882
-0.743682
0.00613237
0.841273
0.0838378
-0.109136
-0.605433
-0.120885
0.504235
-0.0788557
0.0812045
0.963173
-0.608516
-0.889494
0.909503
0.179791
0.90175
0.110544
0.0909552
-0.978317
-0.631179
-0.694873
0.905125
-0.0378269
-0.168685
0.118658
-0.347396
0.793938
0.543301
-0.714507
0.900081
-0.0200737
0.0640655
0.533833
0.034355
-0.783526
-0.325318
-0.55936
0.170088
-0.853298
-0.980292
-0.0294182
0.348821
0.931809
-0.391306
0.426674
-0.862817
-0.144129
-0.445105
-0.882721
-0.244597
0.795612
-0.130447
-0.00230753
-0.805987
-0.986197
-0.685598
-0.360596
-0.076208
-0.114096
-0.066701
-0.893517
0.879825
-0.821441
0.825596
0.622586
-0.268392
-0.220783
0.812823
-0.516829
-0.516473
0.683074
0.966321
-0.75398
-0.364846
0.245461
0.169225
-0.785967
0.743259
-0.634155
0.22007
0.273174
0.269229
0.160401
-0.409887
0.0574551
0.812233
-0.323204
-0.539864
-0.328846
0.749022
-0.599123
-0.863259
0.308231
0.6434
0.435808
0.876079
-0.866205
0.597352
0.909611
-0.602524
-0.507872
0.320195
-0.410398
0.428112
-0.482595
0.837916
-0.60399
0.0882469
0.0235698
-0.381792
0.541195
0.551132
-0.938228
-0.372754
-0.0842966
-0.441658
0.846201
0.232161
0.0987145
0.222262
-0.925407
-0.246915
-0.0565684
0.429062
-0.0732924
0.310836
-0.316986
0.996022
0.166355
-0.533838
-0.712143
-0.691249
0.573905
-0.273792
0.37445
-0.799177
-0.407212
0.0593545
0.996684
0.3123
0.147167
-0.126464
0.994821
-0.0345058
0.53782
-0.227129
-0.234784
0.557125
-0.358631
0.513115
-0.776988
-0.0160354
0.930113
0.163625
-0.623712
-0.932029
0.503715
-0.623452
0.539427
-0.600811
0.712831
-1.00107
-0.694593
0.250248
-0.223244
0.618824
-0.496447
0.613419
-0.647233
-0.0616588
-0.571482
-0.105119
-0.506133
0.156931
-0.387323
-0.168326
-0.236655
-0.866323
0.622791
-0.709042
-0.863897
-0.95202
-0.0155283
-0.294875
0.968619
0.483934
0.982783
0.319701
0.956224
-0.274365
-0.0785083
-0.585599
0.754312
-0.355862
-0.452102
0.997768
-0.898706
0.436858
0.547603
0.321589
-0.0810578
0.0501576
-0.23192
-0.250401
0.772235
0.049176
0.322226
0.779796
-0.954324
-0.249991
-0.336993
-0.571032
0.891984
0.011119
-0.975325
-0.101105
-0.398167
0.2135
-0.0718392
-0.677381
0.731857
-0.197513
-0.281618
0.502901
0.347329
-0.453402
0.76665
0.974332
-0.498789
-0.974744
0.0853026
0.360438
0.764873
-0.869552
-0.514182
0.754977
0.330715
0.626868
0.923729
0.868322
0.517085
-0.993448
0.875425
-0.769757
-0.755116
0.110452
-0.0412502
0.425066
-0.730703
-0.298998
-0.640939
0.622061
0.358253
0.180947
-0.508392
0.375952
0.211054
0.0126264
0.062615
-0.94143
-0.92551
-0.134715
-0.436713
-0.772107
0.235375
-0.078848
-0.204509
-0.921086
0.0710979
0.396077
-0.471572
0.170613
-0.0911732
0.439486
0.933382
0.666555
-0.797012
-0.269164
-0.00277865
-0.0420837
-0.83289
0.56883
0.018231
0.0313881
0.42662
0.952644
-0.711066
0.183378
0.0823778
-0.154133
0.0324435
0.195453
0.142095
-0.217874
0.378368
0.266375
0.936112
-0.881926
0.322027
0.908499
-0.235278
0.636323
0.415407
-0.670634
0.61223
0.0122108
0.635804
0.767025
0.115964
-0.882201
0.606999
-0.816291
0.123756
0.20625
0.275606
-0.122272
0.599497
-0.438304
-0.593893
-0.520256
-0.700038
0.366945
0.0965934
-0.114052
-0.395933
0.617724
-0.636265
-0.491842
0.988506
0.596478
-0.41139
-0.425924
0.62786
0.432817
-0.509706
0.195542
0.247092
0.523762
-0.427364
0.434486
-0.121877
-0.341174
-0.128519
0.457742
-0.629299
0.732231
0.53503
-0.02746
0.947555
-0.717915
0.351588
-0.521018
-0.0676401
-0.980482
0.960105
0.835089
0.649274
0.334474
0.263153
-0.142914
-0.0639742
-0.516089
0.444376
-0.450248
-0.126945
-0.376241
-0.704299
0.856502
0.304336
-0.00463184
0.576933
-0.68391
-0.732821
0.249248
-0.988599
0.806098
0.851142
-0.210914
0.772581
0.0715349
-0.356469
0.710359
-0.468302
0.748894
-0.21116
-0.322387
-0.216456
-0.378869
-0.458329
-0.260374
-0.90003
0.712683
0.71824
0.887292
-0.813607
-0.633838
-0.539448
-0.325778
0.23577
0.814113
0.980129
0.806465
0.93417
-0.610021
-0.357694
-0.715372
0.364125
0.00576079
-0.843507
-0.0412481
0.124737
-0.389791
0.490895
0.3128
-0.0113884
0.853496
-0.0910701
0.298271
0.447612
-0.30767
-0.931087
-0.815773
0.105105
0.660538
0.299812
-0.149934
0.0140025
-0.214837
-0.327085
-0.192249
0.986916
-0.123495
-0.057869
-0.266571
0.98347
0.345861
-0.704907
-0.43027
0.0215471
-0.0307554
-0.780851
0.880026
0.446548
-0.724075
-0.87287
0.169134
-0.542749
0.933302
-0.345781
0.231148
0.794677
-0.453822
0.218635
-0.735615
-0.626417
-0.628957
-0.188325
-0.424232
-0.727308
-0.671105
0.156622
0.483454
-0.997242
0.450066
0.447421
-0.868719
-0.0709964
0.108129
-0.00160623
-0.867988
-0.472933
0.984016
0.40403
-0.348892
0.579416
-0.11911
-0.709306
0.34572
-0.262614
-0.700648
-0.157925
0.996017
0.0791154
-0.0954789
-0.12863
-0.354922
0.340379
-0.208174
0.17038
-0.427515
-0.355479
0.326279
-0.214921
0.29696
-0.991226
0.966421
-0.531564
-0.179241
0.0849407
0.565187
0.904506
0.386235
-0.759969
-0.523597
-0.169648
0.189321
-0.22181
-0.461556
-0.0834934
-0.933196
0.225972
0.782853
-0.370688
0.722613
-0.608547
-0.683666
0.585767
0.317311
-0.53705
-0.135253
-0.939126
-0.312942
-0.711959
-0.827984
0.828563
-0.663475
-0.0824336
0.340978
0.706263
-0.733126
0.53668
-0.122194
0.362271
-0.93811
0.700379
0.150037
0.658662
0.583655
-0.293113
-0.661284
-0.504384
0.674459
0.263149
0.971791
0.95458
-0.766704
-0.373002
0.877014
-0.165381
0.899597
-0.775551
0.305739
-0.330184
0.542149
-0.987488
-0.427508
-0.439603
-0.588706
-0.482165
0.503159
0.71108
-0.452011
0.0227192
0.332614
0.664628
0.460743
0.00763195
0.362045
0.860576
0.151876
0.814309
-0.508533
0.0521071
0.94523
0.657581
-0.225415
-0.791312
0.000393562
0.64977
-0.321996
-0.612045
-0.235355
-0.85174
0.739552
0.560928
-0.687401
-0.751476
0.0788563
-0.650755
-0.46167
0.311431
0.303366
-0.417579
-0.301851
0.147575
0.371141
0.146439
-0.947379
0.787492
0.389425
-0.901463
0.610456
-0.71662
-0.0149511
-0.688408
-0.238663
-0.33273
-0.833924
0.461816
-0.489127
-0.601801
-0.446958
-0.308828
-0.799578
0.336807
0.967003
-0.229854
-0.989672
-0.156229
0.162622
-0.64854
0.335751
0.0415462
0.276973
0.655905
-0.0873945
0.0973178
-0.27199
0.228046
0.149985
-0.61111
-0.53178
0.943454
0.433491
-0.222169
-0.0169188
-0.899346
-0.78704
-0.138249
-0.171219
0.863884
-0.418105
0.97394
0.164625
-0.433357
0.580231
-0.902079
-0.947188
0.303376
0.359882
0.41387
0.909201
0.87786
-0.00251069
0.785611
-0.445903
-0.845643
0.119097
-0.56508
-0.72222
-0.771621
-0.153573
0.531133
0.402186
-0.838476
0.476066
-0.401729
-0.600807
-0.288055
0.212483
0.361088
-0.356585
0.526618
-0.924097
0.382763
-0.0458923
0.987911
-0.917459
-0.630521
-0.866779
-0.859121
-0.51419
0.551594
0.61601
-0.393642
0.787794
0.375952
-0.235637
0.354012
-0.137414
0.0144411
0.0695703
0.920396
-0.871692
-0.660585
-0.57276
0.62459
-0.035381
0.975142
-0.600493
-0.419986
-0.353004
0.307401
-0.865396
0.146431
-0.49761
-0.831586
-0.0390763
0.890528
0.541195
0.81484
0.871555
0.319321
-0.213147
-0.51469
-0.193855
0.636207
-0.489749
0.226973
-0.544994
0.181717
-0.873169
-0.162935
-0.22858
0.386274
-0.914385
0.504677
0.446853
0.770464
0.635834
0.838097
-0.481659
-0.694864
0.515296
0.327796
0.808684
-0.418562
-0.57319
-0.651754
0.136353
-0.873054
-0.63836
0.344905
0.215504
-0.651214
0.620385
-0.664636
0.345034
-0.859382
-0.244478
0.578075
0.348302
0.965757
0.0691066
0.544785
0.317143
-0.374248
-0.877189
0.479611
0.761318
-0.421054
0.791682
-0.603961
0.56816
0.765289
0.842774
0.175649
-0.353676
0.616255
0.161829
0.998958
-0.25332
0.245466
0.104886
0.831481
-0.286735
0.819567
0.349656
0.85528
0.830244
-0.0623297
0.162627
-0.833684
-0.640685
0.622911
0.146015
-0.134487
-0.0095229
0.249106
-0.660485
-0.0134781
0.0925435
0.261837
0.719412
0.280805
-0.135939
-0.274833
0.472892
0.452088
0.849637
-0.893598
0.482331
-0.216493
0.290017
-0.0262261
0.784447
-0.0667222
-0.922124
0.0968857
0.63181
-0.551881
-0.61394
-0.147676
0.725947
0.0403122
0.986483
0.377731
-0.57564
0.970977
0.544621
-0.987749
0.361866
0.997475
0.904171
-0.955871
0.85438
0.849432
0.239839
-0.158575
0.180922
0.329843
0.914594
0.16077
0.519843
0.0798145
-0.247389
-0.257594
0.240434
0.936228
0.397931
-0.551916
0.990443
0.79043
-0.666563
-0.775195
0.0204431
-0.556862
0.588881
-0.0466271
0.124859
-0.728496
-0.0653287
-0.100824
-0.241025
0.882588
-0.849899
-0.00601829
0.201674
-0.910356
0.876828
-0.183192
-0.744765
-0.0479029
-0.99136
0.652572
-0.145182
-0.0142593
0.952384
0.975428
-0.938316
0.102015
0.866556
0.296757
0.902599
-0.783395
0.31411
0.573118
0.218063
0.494849
0.349332
0.800956
0.866725
-0.716912
-0.0508717
0.686228
-0.405188
-0.0360653
-0.961654
0.464196
0.673011
0.55369
-0.0647888
-0.937884
0.0751853
0.908843
-0.0741552
-0.638394
-0.227348
0.645995
0.524879
0.0254403
-0.182919
0.336496
-0.78133
0.203873
-0.488422
-0.644601
0.782257
0.870983
0.489993
-0.631344
0.840131
0.361353
-0.128053
-0.750585
0.299498
-0.709358
-0.733352
-0.408934
0.980417
0.660188
0.878035
-0.500403
-0.237815
-0.579795
-0.405745
-0.41144
-0.669312
0.578288
0.119435
0.129876
0.216466
0.261033
-0.976181
-0.581503
0.0706421
0.0871438
0.217706
0.608681
0.896802
-0.317732
0.0331982
0.665931
0.851854
-0.709189
-0.107449
0.780947
-0.299104
-0.143834
-0.494086
-0.151761
-0.81587
-0.949962
0.171752
-0.290996
0.31377
-0.441578
0.128504
-0.578462
-0.159222
-0.874123
-0.200174
-0.571636
-0.101624
-0.434708
0.50353
0.00464767
0.846326
0.114378
-0.393021
-0.288232
0.78112
0.657773
-0.750389
0.528535
-0.822465
-0.449377
-0.727025
-0.530153
-0.48228
-0.564335
0.866544
0.580607
-0.0888922
0.0646334
0.226987
0.454184
-0.654885
0.213555
0.539408
-0.713968
0.0656349
0.480149
0.355523
0.0487532
0.8314
0.665704
-0.79957
0.856796
0.374178
-0.346364
-0.706381
-0.331179
0.620961
-0.0271326
-0.666769
-0.354146
-0.849959
0.468853
0.949615
0.708483
0.859579
0.122841
-0.588176
0.119514
0.832574
-0.0628589
-0.967544
0.114312
0.919761
-0.638164
0.615505
0.717195
-0.183814
-0.962643
0.227446
0.305941
-0.062706
-0.116624
-0.42037
0.529972
-0.344563
-0.406968
0.605473
-0.504031
-0.478031
-0.237725
-0.862817
0.411505
0.52998
-0.972883
-0.954199
0.636833
-0.543729
-0.457678
-0.83166
-0.67056
0.0521412
-0.822571
-0.710569
1.00395
-0.30803
0.597579
0.338251
-0.0416887
-0.432023
0.995976
-0.17862
0.932374
-0.865473
-0.128679
0.409903
-0.587979
0.663875
-0.976183
-0.940216
0.879935
0.0791198
0.148347
0.452461
0.0200985
0.697222
0.67594
-0.619985
-0.346909
0.36811
0.0771986
0.477152
-0.759217
-0.743073
0.17641
-0.704226
-0.778992
-0.333701
-0.0024284
0.309889
-0.58526
0.237565
0.51698
-0.159018
0.672025
0.683675
0.69584
-0.0263707
-0.0965488
0.577796
0.0134922
0.078383
0.212033
-0.470495
-0.792451
0.589874
-0.901246
-0.947262
-0.0639711
0.08073
-0.651797
0.754542
0.806334
-0.200988
0.251241
-0.848139
0.90835
0.511964
0.806333
0.224527
-0.972247
-0.0643697
-0.119634
0.452946
0.529389
0.174654
-0.687261
-0.802655
0.112707
-0.0995304
-0.570465
0.523211
-0.847904
-0.955475
-0.898931
-0.944318
0.875885
0.679935
0.765755
-0.522336
0.0609699
0.934986
-0.284108
0.825066
-0.468262
-0.192078
-0.550745
0.241727
-0.212062
-0.0446006
0.809409
-0.190962
0.90753
-0.521473
0.831801
0.346021
-0.481332
-0.0520272
-0.371742
0.717746
0.775371
-0.290573
0.475585
-0.17882
0.1257
-0.813874
0.884175
-0.164197
-0.378923
0.170889
-0.724064
-0.46457
0.348468
0.228757
-0.175256
-0.63126
0.0561528
0.00804412
-0.69263
0.147913
-0.0272239
0.555596
-0.942263
0.826774
0.834625
0.664318
0.0795516
-0.514502
0.518078
0.721218
-0.84261
-0.183529
-0.0940682
0.786546
-0.808898
-0.0108526
0.0674362
0.431126
0.417327
-0.5978
-0.884786
-0.405665
0.628074
-0.956392
-0.00790799
0.483404
-0.346522
-0.762826
0.598521
0.308685
-0.8147
-0.251264
-0.576102
0.723675
0.20615
0.161793
0.0447895
0.487918
0.12284
0.368751
0.994869
0.22358
-0.21535
-0.926923
0.10907
-0.919887
0.81214
0.931721
-0.569042
-0.24014
0.0904758
-0.545244
0.264755
-0.688416
-0.817309
0.769314
0.162225
0.709377
0.850027
0.1682
-0.912202
-0.37514
-0.741579
0.19665
0.148285
-0.0062107
0.571678
-0.418645
0.576967
-0.0887606
0.351246
-0.958719
-0.55937
-0.244515
0.0277694
0.198491
-0.166556
-0.749461
0.859556
0.450111
-0.48298
0.0536765
0.244269
-0.880228
-0.444599
-0.0494246
0.817667
0.640229
-0.663231
-0.992292
-0.807187
-0.224572
0.700959
-0.722817
-0.741938
0.0424799
-0.221954
-0.59908
-0.564199
-0.994976
-0.926167
0.456975
-0.062224
-0.947144
-0.240831
-0.418338
-0.0745471
0.83991
0.26222
0.55595
0.383326
0.832173
-0.177737
0.589015
-0.902382
-0.285143
-0.0776994
-0.765763
0.00138001
0.337458
-0.431714
0.388487
0.989993
0.401652
-0.346405
-0.752892
0.469319
0.196499
-0.63941
-0.199556
-0.0717165
-0.312145
-0.323447
-0.21223
-0.0437896
0.313334
0.091681
0.234004
-0.144565
-0.430483
-0.393371
0.104581
0.994656
-0.469199
-0.94643
0.281706
0.155354
-0.992073
0.1367
-0.649093
0.635597
-0.677792
0.750745
0.262222
0.979977
0.843251
0.65801
-0.103851
0.712165
0.557084
0.443304
0.310147
0.387195
0.721764
0.572236
0.732936
-0.195829
-0.263302
-0.183564
-0.0160785
0.187
-0.322297
0.98969
0.138216
0.353668
0.570163
-0.900829
-0.942255
-0.82877
0.992184
0.800377
0.912916
0.319291
0.292669
-0.75478
0.0752866
0.147393
0.611751
-0.547451
0.64564
0.828503
-0.910777
0.271188
0.703686
-0.491037
-0.175083
0.0664159
0.929923
-0.442024
0.358499
0.348811
-0.150996
0.434842
0.308043
0.815206
0.0445272
-0.764139
-0.262902
-0.642088
0.373256
-0.120648
0.38331
0.840638
0.531476
-0.0914423
0.820379
0.221012
0.856522
-0.492351
-0.410215
-0.264849
-0.760607
-0.580762
0.669073
0.552468
-0.271557
-0.197481
0.565481
0.781358
0.6194
1.00145
-0.26419
0.765343
0.528676
0.483303
0.860678
-0.455004
-0.695413
0.754583
0.822932
0.050777
0.0522144
0.931897
0.515057
-0.604383
-0.962161
0.485768
-0.089149
-0.153961
0.612466
-0.839455
-0.35465
-0.574172
0.589199
-0.859707
0.223798
0.0569131
-0.92137
0.642997
-0.582762
-0.00262204
0.109019
0.577286
-0.379088
0.300198
-0.82159
-0.278073
-0.0502303
-0.0959189
-0.285198
0.964761
0.662007
0.0729737
0.982722
0.814571
-0.286703
-0.183527
-0.760722
0.666955
-0.697664
-0.885418
-0.284502
-0.257573
-0.839769
0.011503
0.482163
0.435626
0.705058
0.336554
0.0576544
0.896815
0.96187
0.643376
-0.444257
-0.480525
-0.448332
0.918235
0.768441
0.573786
0.372791
0.434381
0.44774
-0.0266849
-0.96115
0.31171
-0.359266
-0.813485
0.181913
0.862388
-0.00996474
-0.422017
0.21076
0.512214
-0.310414
-0.798915
0.212368
0.233301
0.895466
-0.821645
0.109312
0.932215
-0.883847
0.351439
0.645161
-0.576614
-0.537696
-0.376663
-0.883136
-0.907809
0.288981
-0.444442
0.55324
-0.133699
-0.939668
-0.143366
0.640579
-0.374621
-0.133544
-0.281688
0.965663
0.0404589
-0.113794
-0.0761201
0.608576
-0.890509
0.24459
-0.288194
-0.870548
0.714094
0.95352
-0.890643
0.153262
-0.249616
-0.136805
0.687512
-0.357682
-0.0976349
-0.822547
-0.688642
0.977417
-0.150342
0.571899
0.914598
-0.0230645
0.0258607
-0.960466
-0.0449072
-0.710965
0.990264
-0.877953
0.804887
0.499909
0.95861
-0.782012
0.0938463
0.905818
-0.534248
-0.476727
-0.652861
0.512288
-0.872802
-0.0442817
0.771605
-0.583714
-0.330769
-0.617812
-0.961013
-0.0931996
0.47288
0.984887
-0.871933
-0.161341
0.301393
-0.540982
0.111064
-0.99183
-0.836695
0.36249
0.255273
-0.599847
0.407607
-0.440752
0.442977
0.589444
-0.747605
0.627247
-0.244344
0.31698
0.465258
-0.742424
0.300686
-0.667328
0.124071
-0.00325724
-0.698996
-0.506499
0.377785
-0.892223
0.389102
-0.559557
-0.58482
0.771051
0.35444
0.509385
-0.349811
0.270277
0.289167
-0.937295
0.507231
0.318884
-0.548583
0.153646
-0.514305
0.769364
-0.5712
0.213094
-0.720863
-0.220816
-0.597808
-0.796714
0.374681
0.495501
-0.726638
-0.529882
-0.182481
-0.934442
0.328197
-0.741201
0.677281
0.878944
0.225795
0.278139
-0.527495
0.3559
0.875678
-0.874474
-0.2004
0.276201
0.157694
0.612489
-0.149341
-0.649931
-0.2989
0.979266
0.640731
-0.801005
-0.378669
0.446613
0.00486655
-0.174483
0.774031
0.0184944
-0.315481
-0.027689
-0.858986
-0.896112
0.734424
-0.487605
-0.942205
0.695655
-0.704535
0.832507
-0.805502
0.252181
-0.461232
0.0893345
-0.168901
-0.338668
0.157856
-0.464149
-0.882228
0.71207
-0.819443
0.0331832
-0.285088
0.00387971
0.120232
-0.0267775
-0.118021
0.0788783
0.769634
-0.0812173
0.567751
-0.913353
-0.472051
0.800505
0.252926
-0.600251
0.165095
0.695208
0.616062
-0.8892
-0.312249
0.272436
0.187197
-0.819646
0.690222
0.96978
-0.651997
-0.366315
-0.751608
-0.0945323
0.171789
0.124372
-0.201205
-0.764034
-0.747764
-0.766437
-0.562176
0.397631
-0.52213
-0.763997
0.67846
0.739388
-0.00591794
0.809726
0.413322
0.350038
-0.202823
0.134208
0.604446
-0.647393
0.32437
-0.635786
-0.344521
0.559461
-1.00802
0.751212
-0.712514
-0.807871
0.0870122
-0.885627
-0.688442
0.799408
-0.982222
-0.318009
0.193917
0.787725
-0.10997
-0.591661
0.953588
-0.943795
-0.737531
-0.577066
0.552703
-0.828618
0.320933
0.695907
-0.80569
0.848346
0.195202
0.398194
-0.91893
0.475709
-0.638148
-0.794815
-0.799311
-0.340904
-0.297613
-0.119974
0.252774
0.0574432
-0.88072
-0.856005
-0.540329
0.117898
-0.849003
0.867129
-0.0548104
-0.244171
-0.738847
-0.713534
0.85413
0.929619
0.0384219
-0.500874
-0.434748
0.578362
-0.168846
-0.708946
-0.262116
-0.121142
0.96825
-0.545817
-0.672443
0.92513
0.821629
0.595239
0.100928
0.797682
0.632659
-0.527524
0.727369
0.378038
0.560999
0.869544
-0.228288
-0.703289
-0.865081
-0.0500301
0.548326
0.42402
-0.166893
-0.353721
0.939809
-0.683574
-0.512767
-0.401164
-0.966877
0.918912
-0.528933
0.753094
-0.257312
0.633761
-0.289564
-0.566349
-0.938637
-0.018984
-0.282583
-0.31661
0.766106
-0.312568
0.958735
0.630522
-0.364131
-0.764219
-0.562444
0.786236
-0.246459
-0.368072
0.623199
-0.76171
0.284491
-0.980808
-0.0503769
0.417364
-0.716181
0.905419
0.822778
-0.242839
0.634172
0.644111
0.289061
-0.716947
0.668231
0.350975
-0.233841
0.658793
0.867715
-0.315834
-0.920852
-0.493069
0.746131
0.215104
-0.744466
0.382861
-0.418125
-0.247217
-0.685022
0.983134
-0.56702
0.73912
0.832833
-0.651003
-0.264443
-0.486461
-0.78664
0.319999
0.0863109
0.167148
-0.561112
0.345554
-0.898461
-0.13806
0.262339
-0.506652
0.583536
-0.119839
-0.157444
-0.998167
0.434419
0.290248
0.129412
-0.623387
-0.0474544
0.653154
0.185414
0.786839
-0.895178
0.176749
-0.28329
0.00704938
-0.962619
0.185589
0.882625
-0.970659
0.185373
-0.89024
0.628911
-0.349014
-0.993759
0.00628687
-0.318244
-0.80556
0.405298
-0.496663
0.955416
0.281982
0.00925946
-0.861861
0.856433
-0.641563
0.593953
0.376983
-0.815418
0.46017
0.276942
0.702247
0.300963
-0.363635
0.992121
-0.052774
0.372595
-0.482059
-0.766216
-0.350427
-0.956995
-0.278711
-0.168766
-0.400006
-0.494936
0.900596
0.349606
0.180119
0.516635
-0.275257
0.815673
0.0342499
0.616013
-0.379227
0.861256
-0.963467
0.959779
-0.229923
-0.572683
-0.493104
-0.417375
-0.690203
0.852971
-0.891135
0.339315
-0.260139
0.312078
-0.192297
-0.961457
-0.264156
0.787387
-0.326015
-0.782341
-0.307888
-0.23168
0.0239683
0.0797701
-0.709832
0.356413
0.141005
-0.784586
-0.797442
0.538632
-0.0763157
0.0421011
0.685544
-0.542413
-0.586278
-0.131243
0.0736291
-0.0886662
0.0688079
0.827909
-0.417794
-0.0286291
-0.138592
-0.274859
-0.272542
0.675271
-0.694076
0.979304
-0.683776
0.395635
0.399414
-0.876927
0.641236
0.871255
-0.209781
-0.466278
0.275626
0.304861
-0.886493
0.45975
-0.595818
-0.429454
0.440146
-0.67275
0.112067
-0.519888
-0.352848
0.935694
-0.177976
-0.0474022
0.743932
0.394933
0.00349333
-0.282251
-0.21925
0.14542
0.879035
-0.120329
0.692587
0.388443
-0.769134
0.271225
0.539261
0.473661
0.487364
0.422809
0.901844
0.227198
-0.225538
0.683252
-0.890567
0.623535
0.870507
-0.242684
-0.636048
-0.925236
-0.457405
-0.525027
-0.758296
-0.399858
0.962615
0.663927
-0.82897
0.890376
0.0391173
-0.443644
-0.0718557
-0.930294
0.598099
-0.162227
-0.640959
0.502486
0.567194
0.500644
-0.577112
0.938645
0.352481
0.12044
-0.584441
-0.0683172
0.236668
0.590328
0.071782
0.553031
-0.278068
-0.12525
-0.475815
-0.630351
0.0883386
0.503666
-0.724226
0.654694
0.668573
-0.64628
0.261657
-0.226891
0.344997
0.858294
-0.742476
0.367894
-0.19172
-0.556946
0.708108
-0.237519
0.198011
-0.211457
0.939613
-0.372803
0.517634
0.0382708
-0.560013
0.782196
-0.904145
0.83997
0.883631
0.458899
-0.515538
-0.935354
0.767592
-0.544803
0.903892
0.195593
0.320657
0.143104
0.878878
0.997626
-0.558506
0.420272
0.628175
0.586889
0.0197206
0.246585
0.21953
0.557427
0.821669
-0.313435
-0.965284
0.444132
0.0350034
0.0137606
0.406611
0.150772
0.953874
-0.351936
0.732183
0.544676
0.747431
0.16479
-0.187265
-0.813354
0.429036
0.364856
-0.924939
-0.723116
-0.842973
-0.475202
-0.899405
-0.52757
0.864464
0.00263662
-0.343592
0.712312
-0.419622
-0.320204
0.269799
0.0790196
-0.414627
0.4682
-0.256728
0.710134
-0.954501
-0.780054
0.423873
-0.158448
0.698826
-0.805971
-0.425535
-0.52534
0.996059
-0.953968
-0.42684
0.966873
-0.790399
0.945894
-0.392162
0.96703
-0.855986
-0.630618
-0.352063
0.163654
-0.394161
-0.668181
0.486952
0.3451
-0.686904
-0.180178
0.0760878
-0.043531
0.82414
-0.883311
-0.398838
0.00271589
-0.086706
0.116893
0.51641
-0.863484
0.85499
-0.155566
-0.242457
0.690577
0.485484
0.540426
0.712823
0.747745
-0.440323
0.962627
-0.916489
-0.843481
0.826711
0.751207
0.594389
-0.0156692
0.522775
0.625053
0.492989
-0.972655
-0.827312
-0.322267
0.985644
0.275852
0.19682
0.44963
0.250829
-0.673093
0.854152
0.421984
-0.920213
-0.15309
-0.154599
-0.91022
-0.0227436
-0.944931
0.366672
0.841888
-0.135343
0.999774
-0.396791
0.691378
0.281166
0.844122
0.477966
0.832303
0.0820515
0.419317
-0.0342699
0.904106
0.989645
0.610576
0.134935
-0.0948227
0.448719
0.861407
-0.430213
0.508042
0.615814
-0.974507
-0.12379
-0.106647
0.462771
-0.682021
0.32535
0.559391
0.0417856
-0.777516
-0.0845385
0.933928
0.484718
-0.579274
0.472117
-0.947805
0.323286
-0.247661
-0.255633
-0.438341
-0.299032
-0.972915
0.284125
0.727841
0.849031
0.458861
-0.0962615
0.981016
0.947716
0.163968
0.983195
0.508556
-0.473461
-0.410337
0.766149
-0.575696
-0.0797847
0.476816
-0.964031
-0.434791
-0.101898
0.630556
-0.0818953
0.78976
0.806016
-0.178816
-0.0694535
-0.50002
0.737743
0.227885
-0.971635
0.704745
-0.880303
0.531969
-0.956383
-0.998755
-0.15532
-0.263271
0.113901
0.707772
-0.783498
-0.663461
0.686208
-0.0181507
0.501885
0.610964
-0.344232
0.450882
0.373461
0.0950334
-0.225624
0.899355
-0.827366
-0.441687
0.366579
0.666093
0.494673
-0.0597422
-0.0362337
-0.238592
-0.0578662
0.243461
-0.470036
0.378593
-0.483364
0.883598
-0.048297
0.86756
-0.0715598
0.120514
-0.929218
-0.66761
0.400575
-0.703657
0.0208299
0.210572
-0.102041
-0.741052
0.459628
-0.705873
0.80662
0.439546
-0.971359
0.527414
0.0103353
0.20291
0.995571
-0.660411
0.102699
-0.0432923
0.943463
-0.924845
0.832286
0.917661
0.537751
0.300639
0.618574
0.249777
-0.217316
0.130502
-0.162447
0.332206
0.789003
0.277782
-0.944163
0.51186
-0.559585
-0.414695
0.592367
-0.56006
0.654606
0.164766
-0.970962
-0.760095
0.264696
-0.751123
-0.292475
0.204712
0.133321
0.941919
0.900669
-0.999055
0.966042
-0.839574
0.592959
0.053088
-0.440836
0.0606437
-0.570787
0.0576172
0.611828
-0.86896
-0.74108
-0.546718
-0.341733
0.418995
-0.806475
-0.739838
-0.577256
-0.510049
-0.495448
0.0099522
-0.654334
0.411914
0.876742
0.609399
-0.691053
0.645782
-0.923159
0.221817
0.787713
-0.148498
0.243321
-0.348253
-0.462556
0.243187
-0.313245
0.337303
0.00384607
0.326046
0.75673
-0.462711
-0.584542
0.933228
-0.587054
0.911146
-0.117198
0.589171
-0.0799411
0.520699
-0.376954
-0.818231
-0.104651
0.681378
-0.336359
0.60202
-0.374322
-0.12617
0.571608
0.677273
0.855634
-0.421429
0.786798
0.233443
-0.794174
-0.820573
-0.0727334
0.214044
-0.530121
0.014255
-0.276354
-0.596631
0.856464
0.343992
0.350526
0.0489029
0.0558565
0.132964
0.805933
0.100898
0.29119
0.590611
0.320105
0.126734
-0.0781137
0.213439
-0.219392
-0.955964
0.811297
0.868848
-0.055858
0.677733
0.16712
-0.471242
0.599279
-0.184296
-0.963628
-0.887826
-0.946952
-0.549928
0.388324
0.194416
-0.488918
-0.726907
-0.173192
-0.653581
0.884811
-0.839064
-0.58488
0.0508108
-0.37913
0.555309
0.328409
-0.806705
-0.0217224
-0.0210147
0.185691
-0.603478
-0.257898
-0.308651
0.778555
-0.440338
-0.84503
0.864916
-0.0216516
0.35567
0.254638
0.730172
0.782644
0.0754584
0.170042
0.200598
0.93507
-0.404725
-0.268349
0.14214
0.293909
-0.825339
0.747572
-0.595248
-0.654851
-0.748035
-0.688345
0.185068
-0.532298
-0.948562
0.0457046
-0.278682
0.466939
0.721356
-0.270775
0.388713
0.0197721
-0.726648
-0.065519
0.903709
0.993874
-0.281304
-0.924069
0.425891
-0.314735
0.0573556
-0.651456
0.0738844
0.428919
0.697587
0.996857
-0.696312
0.904712
0.863104
0.00369197
0.254682
-0.590937
-0.93851
0.382248
0.840016
-0.819236
-0.106876
-0.655954
-0.856524
0.407016
-0.234542
-0.276629
-0.276565
0.538477
0.312904
0.181663
-0.320756
0.965585
0.744751
0.0857202
0.678375
0.46817
-0.916842
-0.0303655
0.140177
0.571958
-0.0937213
-0.622918
0.734274
0.490366
0.147139
-0.200069
-0.649673
0.0106638
0.885803
0.237126
0.633619
-0.279825
-0.987025
-0.679625
0.293717
-0.582784
0.567203
-0.943982
-0.732355
0.628468
0.0586084
0.0143491
0.228361
-0.869869
0.495212
0.210776
-0.970929
0.41956
-0.00481301
0.485609
-0.541859
-0.329227
-0.733661
-0.0317438
-0.423557
0.848407
-0.324381
0.892338
0.378336
0.737608
0.408155
-0.372194
0.44693
-0.77949
-0.328934
0.69724
-0.26811
-0.346292
0.779667
0.517126
-0.660885
0.742727
-0.972605
-0.214105
0.485031
-0.311254
0.968381
0.917608
-0.657105
-0.839263
0.364192
0.668882
-0.21574
-0.0268328
-0.56699
-0.683448
0.978521
-0.678433
0.660302
0.0992105
-0.0188769
-0.531287
0.164416
-0.784375
0.152953
-0.0626267
0.482536
0.812523
-0.425167
0.768088
-0.00277368
-0.267712
0.113857
0.0834382
0.169856
0.558419
0.6918
-0.747762
-0.503117
0.194161
0.853691
0.774295
0.180288
-0.317823
-0.859262
0.697899
-0.641016
0.637998
0.47342
-0.25548
0.895804
-0.0632332
0.80345
0.923491
-0.779926
-0.42535
-0.52485
0.403241
-0.584683
0.814697
-0.066421
0.618318
0.863334
0.0745847
-0.515126
-0.286741
0.911668
-0.12611
-0.743037
0.592625
0.203656
-0.0303652
0.628051
0.0583005
-0.93663
0.194806
-0.4204
-0.593763
-0.576921
-0.823998
0.443367
-0.509827
-0.521782
0.647107
0.493239
-0.950415
0.954828
0.27733
-0.412662
-0.728109
0.594839
-0.888066
-0.0477048
-0.0815913
-0.321371
0.464686
0.156649
-0.411898
0.517408
0.818799
-0.293329
0.564566
-0.475095
0.435517
-0.922941
0.917368
-0.996208
-0.516973
-0.97892
0.18368
0.686462
0.160005
-0.0335914
-0.958451
0.330039
0.743397
-0.192804
-0.300924
0.831392
0.223554
0.861937
-0.639941
0.553949
-0.827438
0.926214
-0.89529
0.0831163
-0.0568837
0.30617
0.302029
-0.281846
0.264553
0.964614
0.0832939
-0.121458
0.650114
-0.0643733
0.781523
0.651345
-0.747294
-0.742482
0.810903
0.775168
0.556579
-0.0179892
0.234169
0.919417
0.570136
0.455728
-0.694824
-0.678406
-0.629798
-0.806365
0.569946
0.918388
-0.76437
-0.227064
-0.845543
-0.806966
0.663987
-0.819596
-0.444051
0.754563
0.377557
-0.243037
-0.182275
0.747869
-0.520359
-0.531237
-0.603016
0.766988
-0.277634
0.879146
0.614847
-0.853724
-0.114258
0.573054
-0.391922
0.490252
0.619121
0.988669
0.193137
-0.0156003
0.18671
0.390747
-0.245976
-0.837149
0.632514
-0.459673
0.71114
-0.012294
0.0949235
0.546356
-0.202271
0.787772
-0.269309
-0.325975
-0.905702
0.809692
0.285509
0.462013
0.686212
0.477826
-0.712444
0.403132
0.917457
0.0427098
-0.332162
-0.822734
-0.918054
0.168658
0.774598
0.765523
0.399656
0.391903
0.820829
-0.587811
-0.296951
-0.615334
-0.479667
-0.711298
0.246417
-0.0411253
-0.7238
-0.96021
-0.721771
0.988187
0.740413
-0.994205
-0.260649
0.847999
-0.462224
-0.153697
-0.918919
0.808517
0.11128
0.927952
-0.498921
-0.449741
0.647807
0.853504
0.898588
0.0511205
0.43447
0.0880687
-0.694431
0.236475
0.796165
-0.315771
0.758847
0.779407
0.229874
0.174505
0.661507
-0.0855861
-0.855165
-0.49458
0.965112
-0.889635
0.454032
0.125847
0.0725625
0.648319
0.622778
-0.739792
0.460522
-0.836258
-0.503296
-0.508033
0.769858
-0.971071
0.00553271
0.979497
0.358502
0.61234
0.833903
0.027005
0.382508
-0.919448
-0.606512
-0.57966
0.374101
-0.582659
-0.591665
0.630729
0.325103
0.780727
-0.650975
-0.202983
-0.96453
-0.647497
-0.341901
0.702685
0.994889
0.875579
-0.30043
-0.595908
-0.292779
0.452564
-0.201555
-0.466122
0.488422
-0.291508
0.602497
0.204165
0.718047
-0.867303
-0.882532
0.551622
0.392463
0.17361
-0.133059
-0.217955
0.040441
-0.651506
-0.137407
-0.547018
0.450567
0.136098
-0.561749
-0.0192744
-0.868897
0.684999
-0.731034
0.507509
-0.576962
-0.793783
-0.179476
-0.547733
0.34957
-0.675884
-0.467583
0.0388542
-0.684305
0.386663
-0.897667
0.864388
-0.379886
0.351976
-0.539021
0.0336827
0.394723
0.103442
0.903006
-0.723428
-0.702885
-0.535504
-0.863363
-0.926717
-0.0958841
-0.733686
-0.642905
-0.377826
0.263816
0.869895
0.987629
0.102946
-0.590527
0.953338
-0.444126
0.0535457
0.0696224
0.31373
-0.857341
-0.106419
-0.593898
0.380063
0.673678
-0.420011
-0.986608
0.089488
-0.670033
0.263041
-0.448073
0.134773
0.556776
0.553441
-0.942656
0.929344
0.150159
0.333188
0.651208
-0.343215
0.772246
-0.205154
0.793897
0.487256
0.224334
-0.394853
-0.978992
-0.124916
0.359541
0.672125
0.0545359
-0.813745
0.710485
0.633115
0.755974
0.889127
0.297851
0.993944
0.975682
0.471797
0.00882424
0.400985
0.27465
-0.981196
0.125373
0.0407259
-0.178409
-0.254287
0.458431
-0.900447
0.746893
0.474146
0.82176
0.75369
-0.961239
-0.577365
-0.856436
-0.797105
-0.0901047
-0.0354138
0.648941
-0.840794
0.38849
0.521425
-0.744121
-0.218453
0.304016
0.369823
0.344486
0.0104239
0.549388
0.0893496
-0.904247
0.361532
-0.00793388
-0.976159
-0.642137
0.806709
-0.925839
-0.626322
-0.4869
0.788502
-0.838577
-0.273689
0.612994
0.951608
0.875072
0.226564
-0.0196046
-0.75105
-0.8345
-0.279598
-0.0509248
-0.623576
-0.964648
0.0844349
0.60623
-0.139242
0.936974
-0.69807
-0.771898
-0.240672
0.721345
-0.628457
0.733167
0.687592
-0.676142
0.934918
0.210837
-0.40064
-0.0981779
-0.633029
0.122768
0.247087
-0.257687
0.966143
-0.187277
-0.892427
-0.792891
-0.0735995
0.676323
0.474438
0.757483
0.907452
-0.0476149
-0.615389
0.112536
-0.146536
0.252351
0.62131
-0.0391266
-0.608043
0.17659
0.09388
-0.668921
0.921268
0.760712
-0.213783
0.986923
-0.867197
0.846042
-0.506839
-0.0931768
0.0398625
0.441632
-0.380233
-0.000428482
-0.179559
0.479008
0.556317
-0.0877353
-0.364597
-0.446677
-0.289811
-0.260739
0.0441392
0.352773
0.588689
0.770549
0.57814
-0.140807
0.472357
0.641615
-0.491522
0.918977
-0.820846
-0.544367
0.462641
-0.932831
0.471723
