-0.106213
-0.112835
-0.052127
-0.198784
-0.117461
-0.0468121
-0.340511
0.423963
-0.334704
-0.493749
0.258377
-0.20528
0.224463
0.460285
-0.339061
-0.485263
0.249842
-0.287671
0.00667584
0.0294046
0.188571
-0.385832
0.314051
-0.0481744
0.114646
0.0577386
-0.486228
-0.0547947
-0.230307
-0.180389
-0.242012
0.274215
0.420963
-0.258604
0.320299
0.0620735
0.0417195
0.280748
0.48319
0.267931
-0.175035
0.416446
0.308397
0.36806
0.33325
-0.485588
0.375376
0.20183
0.303333
0.334152
0.0819517
0.277701
-0.18937
0.00780088
0.0894392
0.00601405
0.230795
-0.368586
-0.00506592
0.352588
-0.0211226
-0.125712
0.459616
0.46619
-0.433658
-0.269627
0.267
-0.352163
0.177214
0.245906
0.343271
0.228169
0.242433
-0.414822
-0.0280843
0.174898
-0.158619
-0.234068
-0.00211631
-0.469785
-0.480421
-0.417237
-0.0404162
0.102572
-0.109626
0.263817
-0.0791535
0.429389
-0.00228423
-0.371841
-0.347859
0.232868
-0.238704
-0.389968
0.244116
-0.00475469
0.284243
0.333197
-0.301459
-0.00284669
0.377464
0.375809
0.0555958
0.372247
-0.327481
-0.453898
-0.389754
0.11301
0.409436
-0.155482
0.352501
0.301596
0.159842
0.265923
0.224517
0.0447791
0.445294
-0.299698
-0.381541
-0.255153
0.475881
-0.243547
0.571783
0.442196
-0.170966
-0.00665648
0.168798
0.596278
-0.328901
0.380827
-0.104939
0.440311
-0.407782
-0.461016
0.157472
-0.254552
-0.27988
0.181088
0.364136
0.14503
0.222645
0.0283099
0.135632
0.381042
-0.248291
0.371489
0.440557
0.108148
-0.0800586
0.200538
0.552036
0.066361
0.566758
0.00323417
-0.31095
-0.424258
0.134875
-0.100861
-0.249839
0.0316513
0.124076
-0.451038
-0.523141
-0.495475
-0.428888
0.211286
0.00320272
-0.0657837
-0.366426
-0.495325
-0.186563
-0.052826
0.197972
0.208722
0.286413
-0.203934
0.461353
-0.136893
0.254329
-0.0942958
0.00912025
-0.0904187
0.000849123
0.0733528
0.107972
0.0630774
0.198853
-0.0129345
0.108008
-0.655774
-0.271527
-0.474765
-0.300317
-0.209295
-0.469772
0.114535
0.115532
-0.241406
0.0256772
0.120503
-0.407864
-0.204719
-0.00517779
-0.107152
0.729125
0.129018
-0.00884132
0.193224
-0.099822
-0.141432
-0.314662
-0.0582921
0.118803
0.387235
-0.217553
0.0875677
-0.400287
-0.526135
-0.50452
-0.187699
-0.0164547
0.44086
0.0537524
0.000270412
0.245125
-0.126584
0.136844
-0.20763
0.449192
-0.169246
0.0252256
-0.304605
0.159271
0.0768861
-0.141768
0.583699
-0.183288
0.0779759
0.115315
0.486166
0.0574466
0.0520488
0.397607
0.165395
-0.443723
-0.510898
-0.465511
0.00749241
-0.530698
-0.241547
-0.00198076
0.460988
0.360226
-0.173985
-0.165515
0.135548
-0.338264
0.0464385
0.280646
0.468116
-0.0438891
-0.4384
-0.325117
0.475536
0.040429
-0.00289095
0.235617
0.0178677
0.525183
-0.101251
0.0222507
0.278565
-0.501173
0.309204
0.179071
0.336422
-0.431613
0.0594439
0.116515
-0.0284607
0.486834
0.100033
0.371025
-0.285264
-0.28668
0.478538
0.328338
-0.291924
0.335131
0.222359
-0.453439
-0.311618
0.364167
-0.317164
0.183589
0.343022
0.585849
-0.191783
-0.155224
-0.350239
0.38265
0.0625123
-0.474587
-0.416239
0.284103
0.0183587
0.0288897
-0.447495
-0.453491
0.126203
-0.12976
0.251918
0.282325
-0.464787
0.335372
0.00283099
0.189712
-0.294952
0.101896
-0.0697819
-0.383518
0.121203
-0.526332
-0.34653
0.648619
0.439186
0.534813
-0.294982
-0.353932
0.166222
-0.235746
0.0112957
0.00755685
-0.356951
-0.249442
0.223852
-0.393619
0.128243
0.113458
-0.140655
-0.065717
-0.473536
0.232411
0.183265
-0.450848
-0.353875
0.141354
-0.224241
-0.0759451
-0.0918823
-0.581572
0.168931
-0.130234
0.813163
0.351283
0.468437
0.56843
-0.108248
-0.233314
-0.211678
0.317553
0.146868
0.318832
0.0168684
-0.0619423
0.385598
0.377085
-0.219657
0.254485
0.295224
0.464597
-0.330463
0.0659851
-0.268331
0.0444977
0.10606
-0.386379
-0.723909
-0.487749
-0.581893
0.0468169
0.336743
0.550127
-0.124271
0.0188094
0.0304348
0.0847886
0.489697
-0.197073
0.185594
0.0354613
0.143474
-0.261793
-0.335077
0.159611
-0.131553
-0.0308143
0.313459
0.217748
-0.00694502
-0.0384786
0.105052
-0.24436
0.296797
-0.454087
-0.364297
-0.226617
0.0204877
0.396553
0.513157
-0.0534237
0.400791
0.146783
-0.0664606
-0.290744
0.276983
-0.130057
-0.0166813
-0.249395
-0.0811561
0.115806
0.415787
-0.442482
0.295106
-0.400505
-0.228337
0.0376544
0.200254
-0.0130253
0.100953
-0.102893
0.112852
0.167679
-0.774223
0.0424268
-0.260919
0.05229
0.250885
-0.136373
0.324374
0.0208131
0.530302
0.390154
-0.332545
0.040614
0.281758
0.0283361
0.477435
0.346107
-0.427952
0.120848
-0.459353
0.0442885
0.00406428
0.354546
0.229429
0.423691
0.000628919
0.202856
-0.322064
-0.420635
-0.400563
-0.365027
0.0025826
-0.0607098
-0.151088
0.251362
-0.143384
0.747087
0.236966
0.350138
0.466009
-0.00932162
0.26388
0.221836
0.142186
0.352494
0.0749748
0.172959
-0.232481
-0.0133688
-0.200544
0.482051
-0.19673
0.619859
0.0483977
-0.162443
-0.330488
0.191844
-0.710487
0.0776147
0.380678
0.596073
-0.276686
0.349975
0.47118
0.710747
0.633199
-0.135211
-0.342516
-0.140916
0.260871
-0.264933
0.116982
0.235336
-0.0451872
0.27448
0.113514
0.486522
0.421306
-0.392784
-0.138495
-0.206892
0.234019
-0.224374
0.336241
0.368745
-0.0445767
-0.404433
-0.306337
-0.346424
0.456697
-0.133574
-0.0237783
0.545664
0.115243
0.476326
-0.0213196
-0.109087
0.0386612
-0.245892
0.384155
0.191146
-0.453078
0.179593
0.475816
-0.363979
0.14759
0.0935582
0.169736
-0.18314
-0.247029
0.325391
0.108891
-0.283942
-0.374487
0.220935
-0.175148
-0.130052
0.465092
-0.295005
0.461054
0.0494582
0.352728
0.366576
0.312361
-0.410625
0.104134
-0.229363
-0.300639
-0.074177
0.34626
0.204801
0.181508
0.0134446
0.392504
0.170917
0.362458
-0.054954
0.429658
0.391528
-0.0201454
0.301888
0.160384
0.659346
0.499743
-0.234599
0.318821
0.220542
-0.237129
0.553971
0.60082
-0.227303
-0.211549
-0.348402
0.0657466
-0.0309276
0.46907
0.0454939
-0.25923
-0.141544
0.0173297
0.148376
0.505118
0.0568454
0.269254
-0.463258
-0.259515
0.211994
0.0727956
0.408499
0.166735
0.144334
0.137066
0.235679
0.0749658
0.0160918
0.51006
0.231528
-0.162122
0.317698
-0.0716535
0.324486
-0.0722663
0.157282
-0.433632
0.31698
-0.284255
-0.0551773
0.068472
-0.189976
-0.441606
0.349456
0.0314322
0.217475
-0.278532
0.158249
-0.0387055
0.283915
-0.390301
-0.0465157
-0.0676899
-0.382992
0.0894622
-0.514193
0.2634
-0.289163
-0.0300783
-0.280314
0.233124
0.0996483
0.0080313
0.071632
0.18447
0.432898
0.40495
-0.415985
-0.38486
-0.308973
-0.309147
0.318786
0.100786
0.305653
0.23245
-0.22908
0.194309
-0.473524
-0.271971
-0.0834512
-0.0630088
0.0626528
-0.00971559
-0.160485
-0.0788836
-0.0158881
0.2512
-0.314591
0.158008
0.355299
0.251464
0.167094
-0.477175
0.437689
0.263357
0.024983
0.119273
-0.144418
0.177765
0.0659398
0.183477
0.243187
0.0409753
0.42114
0.417482
-0.16855
0.300595
-0.458296
0.337034
0.286476
-0.30836
-0.511442
-0.263962
0.267701
0.480747
-0.353169
0.38928
0.489776
-0.339059
-0.189973
0.0906368
0.423836
-0.00235957
-0.37623
-0.392745
0.162964
0.190936
0.135597
-0.0538652
0.0950936
0.511055
-0.251319
0.0965837
0.319527
0.129955
0.540169
-0.337962
0.0106713
0.132228
-0.429435
-0.454207
0.0375414
0.452253
0.144322
-0.0740314
-0.173184
0.299662
0.15043
-0.0512457
-0.329341
0.187631
-0.132062
0.0251332
0.316104
-0.175773
0.0269345
-0.0316525
-0.427997
0.47765
0.320948
-0.0174977
-0.12914
0.345338
0.0398531
-0.288223
0.491426
0.32726
-0.281302
-0.142989
0.0348545
0.295873
-0.102078
0.0519904
-0.198913
0.420143
0.323291
-0.132688
-0.179933
-0.400706
0.43877
0.0556597
0.255007
0.279943
-0.358658
0.292906
-0.245175
0.35829
-0.352026
0.437357
-0.475126
-0.264034
-0.315396
-0.257865
0.212363
0.460277
-0.14764
0.0652169
0.432323
0.40979
0.219536
-0.257873
0.401303
-0.304843
-0.154847
0.22574
-0.421252
0.13129
-0.394987
0.265111
0.023701
-0.217535
-0.306812
0.145034
0.0405644
-0.0584715
0.440757
-0.352549
-0.190382
0.491599
0.252426
0.36945
-0.173451
0.35859
-0.288421
0.45186
-0.34998
-0.0512576
0.43054
0.321663
-0.234266
0.232014
-0.108025
0.08531
-0.24853
0.342444
-0.255093
0.407368
0.263939
-0.0576547
0.195895
0.483204
-0.0499974
-0.061691
-0.465539
-0.392876
-0.488156
-0.234175
0.435697
-0.159697
0.497333
-0.290977
0.207371
0.0563744
-0.387922
0.243792
-0.321266
-0.103717
0.462649
-0.0425588
0.204879
-0.0282316
0.42366
-0.137755
-0.120845
-0.12092
0.326551
0.28953
0.235535
-0.0472634
-0.484973
0.337925
-0.117195
0.320523
0.313293
-0.2921
-0.494094
-0.387838
0.277141
0.385997
0.387557
0.161977
-0.246022
-0.1961
-0.219795
-0.432362
0.26575
-0.382257
-0.286582
-0.413477
0.373947
0.274367
-0.322754
-0.136657
0.0973719
0.369629
0.239003
-0.0787782
0.474467
-0.352377
0.104821
0.249289
-0.26977
-0.476056
0.213157
0.222533
-0.104184
-0.227139
-0.23558
-0.130144
-0.0773953
0.313659
0.456779
0.176526
0.276809
-0.487898
0.450391
-0.252283
0.461384
-0.428827
-0.351812
-0.132351
-0.320783
0.374014
0.234025
0.0123272
0.493197
0.199415
-0.0942982
0.218794
-0.289145
-0.214454
-0.297528
-0.0848388
0.0614857
0.056022
0.401771
-0.230994
-0.359206
0.431529
0.335365
-0.0168408
-0.0511809
-0.464246
0.131967
0.0877955
-0.285715
0.332392
0.448585
0.111649
-0.325749
-0.37622
0.126219
-0.0385028
-0.148511
0.454785
-0.071115
-0.0175179
-0.463022
-0.0419458
0.294693
-0.402614
-0.444184
-0.511439
-0.124806
0.461477
0.0949655
0.10134
-0.351405
0.495106
-0.197377
-0.113178
-0.0989989
0.119296
-0.276868
-0.463626
-0.365111
0.318335
-0.0963163
0.39144
-0.364789
0.500227
0.250283
-0.196094
-0.297367
-0.473435
0.336227
-0.277897
-0.194005
-0.215728
-0.256716
-0.389822
-0.328846
0.556851
0.266851
0.129025
-0.0161447
0.165469
-0.207119
-0.471234
0.0922422
-0.34212
-0.285309
0.166039
0.220577
0.161492
-0.291559
0.239393
0.360231
0.436808
0.410371
0.171586
-0.256392
0.263017
-0.0370746
-0.472334
-0.227439
-0.598084
-0.231744
0.0303915
-0.253037
-0.347374
-0.111237
0.27127
0.124885
-0.179978
-0.219004
-0.268601
-0.357885
-0.271814
-0.0253959
0.487924
0.332217
-0.32676
-0.0167663
0.180813
0.00046454
0.144394
-0.0928503
0.473399
-0.23419
-0.10873
-0.196006
-0.619029
-0.0672388
-0.263377
0.151453
0.548639
-0.189642
-0.202605
-0.0316506
-0.42787
0.250266
0.388291
0.378426
0.276057
0.203522
0.230739
0.327298
0.393772
0.375363
-0.139126
-0.394912
0.0187338
0.246423
0.0461804
-0.0796106
0.0137998
0.242956
-0.275206
0.328851
-0.198889
0.309514
0.451615
0.254524
0.133587
0.134757
-0.223688
0.0393612
0.200953
-0.0314351
0.32
0.000158387
0.117813
-0.161507
-0.053172
0.458048
0.198361
-0.141415
0.503627
0.236065
0.461088
0.0810185
0.555807
0.209152
-0.136738
1.19049e-05
-0.137419
0.0742856
0.381006
0.715647
0.421717
0.0244098
0.202063
-0.0374164
0.19505
-0.35447
-0.150698
-0.532046
-0.360772
0.25346
-0.0899926
-0.0351356
0.138265
0.0921084
0.0898564
-0.0250791
0.318614
0.148308
-0.341605
0.440221
-0.0410851
0.516657
-0.490084
-0.118891
0.0512146
-0.712056
0.151765
0.0552406
0.65157
0.446638
0.549592
-0.210969
0.139689
0.177347
0.12358
-0.287892
-0.341508
-0.442122
-0.483843
0.367412
-0.0614488
0.377769
0.00148015
-0.111384
-0.19574
-0.0790948
-0.19126
0.361481
-0.355118
-0.214352
-0.449426
-0.167539
-0.862307
-0.601001
-0.488212
0.488546
0.451857
0.458038
-0.0854759
-0.246219
-0.0422663
-0.231886
0.227619
0.286401
0.0758297
0.253519
-0.208627
-0.0729032
-0.246339
0.494921
-0.0576863
-0.354558
-0.254051
-0.000146876
0.435562
-0.166201
0.0693915
-0.148425
-0.54277
-0.723786
-0.483537
-0.373612
-0.0601179
0.213028
0.298336
-0.116376
0.055958
0.284328
0.10618
0.466038
0.379531
-0.229946
0.25001
-0.169633
-0.311334
0.297294
0.173417
0.392617
-0.149219
-0.197728
-0.0690619
0.470422
0.35093
0.319541
-0.257676
0.284674
0.0321479
-0.483293
-0.229347
-0.102348
-0.342084
0.154953
0.323548
0.347473
-0.19932
0.478629
-0.15118
0.312113
0.420222
0.322132
0.385378
0.244637
0.299044
0.022207
-0.302134
0.143024
-0.442974
0.00540186
0.210753
-0.0554786
-0.161518
-0.120427
0.272821
-0.668461
-0.120382
-0.926633
-0.653297
-0.248642
0.253729
0.0842647
0.477175
-0.198862
0.301604
-0.0951352
-0.213626
0.12398
0.351237
0.374486
0.407647
-0.0918127
-0.48899
-0.146744
0.173797
0.207649
0.27137
0.138801
-0.251318
0.182331
-0.0802671
-0.115096
-0.473845
-0.566349
-0.0929501
-0.114852
-0.317751
-0.0875455
0.550125
0.459
0.0969554
0.0315314
-0.371023
-0.113893
-0.246965
0.0379713
-0.0535604
0.0964185
-0.392895
-0.411075
-0.104629
-0.342902
-0.350705
0.370329
0.374529
-0.431348
0.441717
0.0709695
0.0912098
-0.127427
-0.412483
-0.21906
0.146061
-0.60872
-0.459891
0.2137
0.0879643
0.37833
0.318539
-0.161101
0.228089
-0.416473
0.291886
-0.181242
0.190073
-0.320204
-0.406985
0.0871986
0.404236
0.252665
0.443919
-0.0445454
0.327806
-0.277669
-0.0614673
0.0909708
-0.289791
0.349176
-0.235384
-0.656902
-0.0173448
0.38734
-0.22163
0.37494
0.024175
-0.0801146
0.240673
0.173118
-0.202017
-0.633496
-0.316831
-0.617208
-0.613329
-0.488794
-0.175463
0.0219247
0.357947
0.362925
-0.0739568
-0.0489251
0.471341
-0.140385
0.164326
0.00885664
-0.153469
-0.459257
-0.413388
-0.177069
-0.323061
-0.349443
-0.140667
0.428616
0.0222238
0.26322
0.501453
-0.492351
-0.207516
0.0107818
-0.666536
-0.35395
-0.0984247
-0.12051
-0.324618
0.226032
0.0267738
0.299813
0.291296
-0.0908774
0.287332
0.012835
-0.103834
-0.371213
0.118786
-0.40362
-0.113534
-0.191109
0.265812
0.00835619
-0.176478
0.290102
0.0232466
0.148502
0.463409
-0.199108
-0.0301529
-0.447598
0.153161
0.205629
-0.226403
-0.13831
0.155279
-0.426356
0.360456
0.0924582
-0.090293
0.423285
0.00388014
-0.309154
-0.114925
-0.103469
-0.441834
0.0737291
0.400886
-0.30992
-0.252641
0.0236452
0.369589
-0.569089
0.164893
-0.380114
0.321071
-0.0864673
0.329139
0.0478206
0.307451
-0.283657
-0.239917
0.113071
0.0901272
0.0808048
0.366913
-0.409723
0.420896
0.478821
0.0189266
-0.116923
-0.483441
-0.212749
-0.0590558
0.370989
-0.228572
-0.424694
-0.344869
-0.332271
-0.0300533
0.0051134
-0.071605
0.297515
0.300074
0.484543
-0.270158
-0.0781553
-0.0935941
-0.0141361
0.145497
-0.258253
-0.297616
-0.427388
0.263493
0.158856
-0.166606
-0.406905
0.0645402
-0.341007
-0.441103
0.341489
-0.310881
0.280616
-0.440577
0.461586
-0.0842363
0.039742
-0.0263855
-0.41032
-0.529597
-0.498573
-0.328899
-0.0832012
0.208245
-0.00858151
0.0741163
0.36457
0.350601
-0.424674
0.214026
-0.405231
-0.135595
0.0129846
0.421065
0.397252
0.114902
-0.231505
-0.302397
0.328324
0.326239
0.17754
0.208477
0.202808
-0.0232764
-0.415489
-0.258783
0.282432
0.328289
-0.0152341
-0.115538
-0.184267
-0.210411
-0.44329
0.209239
0.00761795
-0.22034
0.258551
0.0288963
0.383546
0.222589
0.234253
-0.356027
0.482044
-0.183595
0.376073
0.37616
0.300515
0.0715743
-0.0350321
-0.254852
-0.00377157
-0.171825
0.409658
0.390268
0.198311
0.449171
-0.400334
0.0747105
-0.362455
0.272119
0.00184922
0.461396
-0.462488
0.0575566
-0.296216
0.036583
-0.124158
0.253884
-0.197748
-0.453845
0.364515
0.172272
0.431777
0.182269
-0.455481
-0.348887
0.466643
0.0357865
-0.117011
0.0921729
-0.185354
-0.0908888
-0.423865
-0.434809
-0.143408
-0.120188
0.223166
0.0942966
-0.146839
0.0819736
0.454135
-0.389247
0.268971
0.378679
0.209519
0.490372
-0.424659
0.0874599
0.0237134
0.436059
0.12429
0.427847
0.406977
0.154426
-0.14135
-0.134601
-0.0727529
-0.396377
-0.174914
-0.488695
-0.265175
-0.211612
-0.0684686
-0.295852
-0.448238
-0.347116
-0.0547929
0.19959
-0.437309
-0.388006
-0.183074
-0.10605
0.139619
-0.22272
0.0663797
-0.17817
-0.212818
0.303923
-0.0898625
0.0331317
0.348218
-0.463619
-0.480559
0.240342
-0.139109
-0.0968097
0.249641
0.0341653
-0.0706023
0.445824
0.277921
0.492758
0.330719
0.158559
-0.46207
0.103149
-0.0846292
0.184562
-0.44596
0.298464
0.329884
0.17426
-0.323649
-0.180367
-0.31119
-0.230899
-0.405516
0.368111
0.0226658
0.0333993
0.393844
0.14014
0.0644048
-0.395356
0.412136
-0.0941867
-0.188658
0.357108
0.0683484
0.00531177
0.346823
0.18757
-0.126642
0.235924
-0.342453
-0.073773
0.218876
-0.299872
-0.0652333
0.282664
-0.120569
-0.422414
0.0304877
0.33215
0.0705819
-0.00102812
0.116529
-0.289507
0.162387
-0.254689
0.101691
-0.34183
-0.158164
0.21469
0.0703816
0.175537
0.296952
-0.0469261
0.133851
0.399006
-0.170904
0.0477074
-0.0393693
0.216561
0.489261
0.483934
-0.367961
-0.242373
-0.266998
-0.287735
0.479917
-0.387852
0.332861
0.485435
0.420171
-0.330007
0.480643
-0.470124
0.130227
-0.340182
-0.406404
-0.0651061
0.00419677
-0.217465
-0.155465
0.37413
0.31836
0.404951
-0.213922
-0.231419
0.352456
-0.483813
-0.0872392
-0.196835
0.317725
0.412737
-0.434241
0.457481
0.408312
-0.245969
-0.19788
0.211494
0.306134
-0.0851694
0.372725
-0.412655
-0.17895
-0.298852
-0.290934
-0.150852
0.114703
0.159147
-0.278724
-0.471177
-0.340708
0.304037
0.253297
0.00819665
0.464758
0.296263
-0.192767
-0.306002
0.398895
0.147757
-0.206078
-0.190504
0.456339
-0.159587
0.362083
-0.330371
-0.227269
-0.461452
-0.221148
0.180549
0.0975811
-0.449904
-0.161222
0.0799394
-0.426446
0.0456468
0.474662
0.147723
0.22115
-0.0670532
0.0386976
-0.389913
0.275049
-0.13199
0.0793768
0.349929
0.453396
-0.102159
-0.0119398
0.396533
-0.274998
-0.458859
-0.317984
-0.0778382
-0.395539
-0.176429
0.366042
0.195285
-0.231271
-0.473904
-0.475442
0.361322
-0.180002
0.0282383
-0.195593
0.289685
0.313127
-0.17187
0.0803967
-0.0207745
-0.312144
0.22378
0.319835
-0.140563
0.266425
-0.175393
0.110658
0.336459
-0.224371
0.171054
-0.377862
0.351805
0.400846
0.374928
0.0566371
-0.514742
0.149168
0.244532
-0.0722806
0.443352
0.331511
0.128695
0.29255
-0.0776666
-0.104378
-0.134909
0.366496
-0.339538
0.538576
-0.106242
0.215208
0.190454
0.193802
-0.278369
-0.0279957
0.317446
0.183426
0.401015
-0.0527607
-0.232771
-0.137518
-0.177056
-0.416441
-0.28516
0.0582387
0.367917
0.124298
-0.273494
0.00299455
0.635443
-0.204846
0.129554
0.159374
0.607378
-0.0095692
-0.217866
0.112097
0.440241
0.390794
0.418233
-0.286781
-0.0375509
0.487349
-0.132554
-0.323238
0.37051
-0.294808
0.285612
-0.370415
0.068667
0.269533
0.422341
0.184655
0.0533871
0.265909
0.224032
0.404876
0.184377
0.0889788
0.39527
0.316255
-0.262347
-0.103106
0.303441
-0.200915
0.13105
-0.186281
0.286915
0.101663
-0.250876
0.399247
-0.388731
-0.3138
-0.0564357
-0.25598
-0.489105
0.253248
0.442664
-0.21847
-0.0513625
0.261569
0.28794
0.689678
-0.296296
-0.149431
0.231581
-0.372807
0.355167
-0.258792
0.493121
0.167406
-0.113104
0.446808
0.450388
-0.3857
0.043373
0.0784263
-0.420936
-0.114113
-0.435062
0.202185
0.482659
-0.463892
-0.262859
-0.0299949
0.281416
0.23938
0.342822
-0.198067
0.0483819
0.0850679
0.138265
0.178386
0.0639717
0.128575
-0.388898
-0.00555978
0.326061
0.0607031
-0.14764
-0.316338
-0.411042
-0.169102
0.179328
0.381201
0.218779
-0.27748
0.183188
-0.399533
0.189898
0.0559109
0.208619
0.404088
-0.1995
0.285204
0.550798
0.592271
-0.00564368
-0.00977108
0.0990987
0.475352
-0.147304
0.590306
0.510175
-0.101005
0.10585
0.574431
-0.126232
0.384249
0.326317
0.142516
0.345405
0.316881
-0.148376
-0.0788253
-0.149553
0.473539
-0.0407208
-0.0326513
-0.0038444
0.425992
-0.395761
0.185202
-0.166009
-0.180068
0.140172
0.455925
0.0693361
0.365724
0.285498
0.202705
-0.162138
-0.142283
-0.102578
0.627287
0.178599
0.584402
-0.410551
0.0804857
-0.0928869
0.364102
0.255558
-0.282784
0.189779
0.414362
0.491403
-0.287506
-0.256051
-0.246777
0.181368
0.388192
-0.151693
0.430641
0.0131542
0.208873
-0.252562
0.00269887
0.493922
0.599677
0.519059
0.400053
0.186219
-0.271125
0.604932
-0.454739
0.169319
-0.449152
-0.498659
-0.078757
0.157545
-0.499975
-0.404389
-0.292469
0.186858
-0.417716
-0.257668
-0.362925
-0.152846
0.110597
-0.197217
-0.203
0.558115
0.0224617
0.55807
0.328473
0.676211
0.197894
0.260567
0.30763
0.435977
0.410218
-0.130541
-0.200164
-0.169311
0.253228
-0.12114
-0.134314
0.237326
-0.056327
-0.197721
0.195145
0.318404
0.267123
0.29492
0.277914
0.0851299
0.330237
-0.18231
0.108466
0.479737
0.568618
0.0162689
0.000474674
0.119209
-0.183811
0.724332
0.344418
0.221818
0.159446
-0.0673385
-0.0411943
-0.5851
-0.188324
0.158494
-0.263804
0.491303
-0.246861
-0.146662
0.363105
-0.436232
0.288706
-0.105674
-0.495681
0.198257
0.271518
-0.128273
0.335177
-0.310215
-0.043139
0.235333
0.439256
0.392186
0.462094
-0.0298441
-0.106339
-0.23831
0.44251
-0.461332
0.118796
0.218185
0.399802
0.153463
0.000107011
0.232086
-0.241492
0.465111
-0.206062
0.328001
-0.46348
0.217871
0.193247
-0.218978
-0.520418
-0.256
-0.0112663
-0.102721
0.0254032
-0.069001
0.570978
0.0242641
-0.259897
-0.00303172
-0.0451468
0.209251
0.272781
-0.304673
0.20871
-0.480653
-0.34143
-0.172906
-0.134033
-0.201529
-0.420944
0.00882962
0.498403
0.432449
0.375731
-0.379938
-0.145907
-0.559076
-0.469535
0.0166777
-0.529852
0.36256
0.247286
-0.472343
0.432896
-0.0751767
0.368522
0.372026
0.31638
-0.190321
0.084094
-0.121793
-0.175989
-0.331334
0.299929
0.337528
-0.242884
-0.167786
-0.413558
-0.0519276
0.0135528
0.087696
-0.26328
-0.358224
-0.275741
0.192146
0.112046
0.00499198
-0.284826
-0.627389
0.262212
-0.117738
-0.165778
-0.088774
0.437988
-0.31277
0.446275
0.394764
-0.245692
0.215939
0.121747
-0.272072
0.137208
0.460518
-0.428341
-0.0545413
-0.297694
0.0668105
0.0670993
-0.00746363
-0.330609
0.233089
0.406886
0.246288
-0.0478156
-0.204198
-0.480238
0.278221
-0.192962
-0.344687
0.0518319
0.449888
0.565431
0.160259
-0.0596316
-0.386471
-0.235352
-0.0638604
-0.253054
0.49106
-0.484732
-0.40548
0.498553
-0.324807
-0.437936
0.13908
-0.109519
0.134734
-0.447531
0.360558
-0.341424
0.080449
0.159926
0.15374
0.351344
-0.306843
0.376378
-0.184202
0.148041
0.471586
-0.214157
0.184541
0.492471
0.0895677
0.2759
0.388513
0.0352338
-0.00360033
0.152894
-0.352269
-0.0759308
0.301034
-0.00327842
-0.470132
0.312292
-0.273137
-0.496111
-0.200659
-0.501278
0.22087
0.333753
-0.212238
0.183292
0.44472
0.283552
-0.00999795
0.498395
0.56344
0.203708
0.543708
-0.0153858
0.0936616
0.331696
-0.191219
-0.157198
0.114036
-0.410726
-0.424105
0.286865
0.0632226
-0.475825
0.257492
-0.483138
0.0902936
0.292572
0.437358
-0.291312
-0.273911
-0.483028
0.0560897
-0.337456
-0.354473
-0.282587
-0.162582
-0.215675
0.115039
-0.228269
0.179607
-0.320906
0.434696
-0.104538
-0.180949
0.404491
-0.240834
0.0187098
0.501877
0.207081
-0.300297
-0.203073
0.299739
0.0346391
0.221314
-0.318347
0.334253
-0.0976556
0.0850449
-0.411029
0.000433097
0.185002
0.223822
-0.415881
0.357791
0.0264317
-0.0577414
-0.390139
0.0191282
0.502391
-0.207073
0.498091
-0.126774
0.496761
-0.248847
-0.094782
-0.285411
-0.21227
-0.476282
-0.234034
0.380663
0.223215
0.434592
-0.351674
-0.100576
-0.140089
0.287846
0.404647
0.236024
-0.186258
0.109262
0.404471
-0.377207
0.207563
-0.471737
-0.00275111
0.177986
-0.153465
0.26591
0.363433
-0.0168973
-0.0781064
0.0717551
-0.301223
-0.249331
0.0929064
-0.231469
0.0222645
-0.305905
0.00280291
-0.347791
0.424055
-0.408432
-0.160573
0.236528
0.118792
0.0999178
0.132441
-0.269916
-0.47802
-0.115819
-0.0528128
0.280323
-0.0853741
-0.494284
0.0668832
-0.431895
0.268244
-0.472331
0.149236
-0.376683
-0.415372
0.397264
-0.46038
0.434121
0.320091
-0.437851
0.122822
0.000769138
-0.245962
0.334239
0.215198
-0.0444658
-0.142267
0.286883
-0.455259
-0.289638
-0.0641341
0.0885457
-0.0196171
-0.147269
-0.340128
0.342452
-0.131333
0.190915
-0.274433
-0.184424
0.412708
0.290502
0.418924
0.0583035
-0.0380502
0.204734
0.389795
-0.0896769
0.457563
-0.311375
-0.312998
0.240055
0.107275
0.119751
0.0333337
-0.436913
0.35851
0.409628
0.260866
-0.202483
0.307159
0.0273822
-0.0649727
-0.225191
-0.177938
0.340736
-0.14189
0.0931072
0.318286
-0.160308
0.426617
0.00793552
0.137684
0.226687
-0.0447051
0.432512
0.0519421
-0.173363
0.270951
-0.230278
-0.229017
-0.408008
-0.0724908
0.231436
0.1432
-0.273269
0.286777
-0.452447
0.203386
0.298794
-0.453493
-0.440274
0.040114
-0.0235199
-0.383106
-0.280427
-0.000848796
-0.00208661
-0.0275554
-0.421817
-0.190091
0.192281
0.359813
0.357323
-0.194046
-0.426769
0.139305
-0.425877
0.0716096
-0.483053
0.0803952
-0.248247
-0.321806
0.349847
-0.560617
-0.278083
-0.587662
-0.297783
-0.41534
-0.0327484
-0.130234
-0.225081
-0.432946
-0.236469
0.317574
0.269158
0.310963
0.258552
0.0412341
0.128258
0.0692037
0.338538
-0.413577
0.293308
-0.138851
-0.183988
0.220173
-0.0776292
-0.150833
-0.143156
-0.390965
0.295526
-0.0324744
0.0465338
0.0104573
-0.155452
-0.167688
-0.129906
-0.390309
0.324767
-0.558315
-0.224652
0.227424
0.0405117
-0.226952
0.0163333
0.000133876
-0.0870844
0.0416772
-0.213295
-0.11442
-0.36428
-0.362586
0.237122
-0.286452
-0.154537
-0.178378
-0.51031
-0.604045
0.0579685
-0.118039
0.031105
-0.582346
0.377217
-0.461445
-0.0416518
-0.287735
0.471048
-0.380616
-0.278676
0.0872438
0.0264692
0.0318299
-0.250133
0.267785
0.118064
0.276736
0.219217
-0.126561
0.0810587
-0.330499
0.0256488
-0.350621
-0.434675
-0.025979
-0.0439561
-0.111484
0.144683
-0.065567
0.231023
-0.0531264
-0.424102
0.245834
-0.511045
-0.225258
0.389867
-0.0337338
0.670321
0.266893
0.198351
0.185607
0.584478
-0.00516761
-0.14147
0.168978
0.0042556
0.188275
-0.33382
0.28348
0.297153
0.344814
0.348958
0.146116
-0.0144558
0.285115
-0.238813
0.272714
-0.213378
0.157651
0.302251
-0.144035
0.195612
-0.0531029
-0.045884
0.490892
-0.218136
0.267956
0.0618158
-0.115736
0.471865
-0.385817
0.112213
0.143399
0.252742
0.0848361
0.0343358
-0.152183
-0.361112
0.244134
0.154023
-0.230012
0.284549
-0.402765
0.0147704
0.580369
-0.144909
0.0628314
0.0243173
-0.481068
0.0597776
-0.484559
0.365693
-0.364407
0.364746
0.429926
-0.0959533
0.11371
0.607181
-0.383921
0.370196
-0.18699
0.170241
0.400672
-0.388742
-0.0971376
0.070114
-0.389829
-0.403556
-0.18579
0.228121
0.280399
0.379254
0.426595
0.278544
-0.0989792
-0.216543
-0.478622
0.109132
0.189073
0.257419
-0.365825
0.62933
-0.27912
-0.234758
-0.233646
0.41651
-0.207727
0.204603
-0.462653
-0.0463498
-0.30405
0.383184
-0.347795
0.420411
-0.394141
-0.361001
0.111769
0.379171
0.27024
0.249405
0.773597
0.1714
0.672746
-0.456417
0.0211878
-0.288055
0.220592
0.354306
0.369521
-0.194592
0.200473
-0.0809304
-0.167715
-0.280938
0.133986
-0.186576
0.342634
0.197998
-0.107533
0.41448
-0.232592
0.15051
0.494147
-0.236225
-0.300834
0.125086
0.00284676
0.503972
0.016869
0.000283703
0.480896
-0.412208
0.0377115
0.200347
-0.0397528
-0.238947
-0.0107351
0.443915
0.304001
0.105418
-0.291194
-0.509417
0.453461
0.0424484
0.12313
0.289193
0.371005
-0.381842
0.442268
-0.445093
0.442479
0.0779014
0.334419
0.298266
0.36886
0.509962
0.907617
0.0400482
0.487411
0.168613
-0.248945
0.267112
0.486033
-0.198163
0.115852
0.463665
-0.0634453
-0.439682
-0.282778
-0.0310855
-0.175155
0.0680101
0.490696
-0.234496
-0.00841969
0.455983
0.105273
-0.403641
0.463004
-0.227692
-0.321986
0.0791238
-0.277802
0.519905
0.0721906
0.473917
0.258705
-0.312841
0.559602
-0.0125502
0.351517
0.64364
-0.261366
0.129215
-0.314914
-0.510974
-0.559352
-0.30859
0.071384
-0.0954418
-0.046616
0.480702
0.27334
-0.42383
-0.162862
-0.431883
-0.369935
0.0240307
-0.194421
0.376559
-0.128407
-0.337317
-0.315656
0.0825782
-0.320121
0.469571
0.0291718
0.518451
-0.117823
0.398041
-0.242359
-0.0130879
0.0423767
-0.498921
-0.0434724
0.322966
-0.480485
-0.405469
-0.382523
0.476259
-0.00852817
-0.325018
-0.113393
0.247769
-0.194002
0.32602
0.174007
0.176554
-0.113969
-0.272114
0.467941
0.0854836
0.409677
0.245226
0.0436923
0.258807
0.363881
-0.0402329
0.423265
-0.185396
-0.588487
-0.192409
0.249385
-0.509508
-0.109276
0.010837
-0.321715
0.288393
0.485976
0.375272
0.244185
-0.182423
0.441934
-0.0302278
-0.500339
-0.392066
0.146033
-0.385636
-0.387103
-0.388153
0.370696
-0.093645
0.653512
0.777738
0.106509
0.172085
-0.0790762
-0.200429
-0.34827
-0.281735
-0.196229
0.172127
-0.0370277
0.0565565
0.152409
0.129811
-0.170756
-0.0733779
-0.309285
-0.155001
0.205182
0.385835
-0.417105
-0.591856
-0.422898
-0.1762
-0.41883
-0.0606853
0.294045
0.212968
-0.0835036
0.193905
0.496308
-0.510759
-0.0515271
-0.155009
-0.51483
-0.339012
-0.648396
0.197757
0.46094
-0.0549901
0.425858
-0.367577
-0.397972
-0.326121
0.373267
0.2793
0.219366
0.202344
-0.215216
-0.168468
-0.131145
-0.398234
-0.0891376
-0.0545564
-0.104658
0.484948
-0.0558983
0.0977568
0.118077
-0.428655
-0.541629
-0.126877
0.109505
0.243838
-0.455719
-0.113688
-0.0545701
0.421446
-0.142055
-0.382043
0.323297
0.0209863
0.129898
-0.24593
-0.00230201
0.255043
-0.475841
-0.042081
0.143138
0.13234
0.125727
0.0623308
0.172349
-0.167106
0.444275
-0.485648
-0.754088
-0.0234012
-0.75863
-0.655876
-0.50826
-0.0403406
-0.527885
-0.308447
0.102736
-0.0770032
0.397957
-0.108266
0.0193822
-0.127702
-0.455081
-0.00338251
0.00729267
0.321136
-0.0253915
-0.0498435
0.274625
0.12801
-0.573083
-0.20752
0.287751
0.173923
-0.122468
0.0559529
-0.232601
-0.103168
-0.37633
0.0551075
0.310455
-0.325238
0.24062
-0.172668
0.429234
0.259473
-0.302865
0.209008
0.421401
0.394387
-0.18694
0.0786881
-0.332847
0.0388241
-0.583781
0.135482
0.17441
0.169118
0.000212297
-0.258407
0.0653272
0.134421
-0.498344
-0.513806
-0.0385175
-0.0365064
-0.1118
-0.318709
0.336349
0.279631
-0.279789
-0.176627
0.31935
-0.0749379
0.478518
-0.366918
-0.461787
0.0141631
0.475314
-0.476853
0.158955
0.0652196
0.216768
-0.473552
-0.0223308
-0.422094
-0.322255
0.322522
-0.108561
-0.0626663
-0.101333
0.0215038
-0.101769
0.413583
0.269962
-0.135217
-0.0412072
-0.338341
0.363678
-0.0506824
-0.461037
-0.498133
-0.256828
0.313051
-0.224259
-0.386728
-0.452909
0.0386379
0.43687
0.137393
0.0535947
0.304343
-0.161787
0.303674
0.205662
-0.308651
0.660291
-0.187364
0.36874
-0.154659
0.21166
0.547801
-0.281691
0.0137199
-0.1907
-0.380986
0.0380619
-0.320672
-0.235785
-0.293324
0.0882988
0.453891
-0.407444
-0.173557
-0.199229
0.171018
-0.502921
-0.0442737
-0.414922
0.157875
0.339688
-0.475259
-0.311013
-0.33387
0.00712208
0.423198
-0.00903106
0.0262715
-0.193895
-0.204866
0.0508945
0.136832
0.505748
-0.113561
-0.00356413
-0.326323
-0.00853372
-0.0223323
0.280282
0.18196
0.408222
-0.113124
0.123118
-0.0236423
0.400453
-0.110037
-0.0424755
0.511954
-0.455466
0.478466
0.49477
0.0103827
0.0284263
-0.172757
0.469362
0.276786
-0.429445
0.150015
-0.418143
-0.398686
-0.193468
-0.0451422
-0.465339
0.0503753
-0.382024
0.132698
0.0138552
-0.274786
0.447281
-0.0540895
-0.409068
0.339791
-0.3377
-0.0219173
0.341893
-0.178739
-0.234284
0.0259211
0.148935
-0.193493
-0.274626
0.373872
-0.257837
0.164793
0.197958
0.111578
-0.0785876
-0.264256
0.24292
0.0742433
0.315216
0.461617
0.148632
-0.0639427
-0.442968
-0.15662
0.117859
0.274716
-0.0218332
-0.453168
-0.157217
-0.456322
-0.301493
-0.078412
-0.0145523
0.325928
0.0542173
-0.343764
-0.0530802
-0.313928
0.410146
-0.158765
0.477326
-0.196525
0.403872
-0.137247
0.189202
0.190417
0.291093
-0.420669
-0.222686
0.426855
0.329988
-0.345168
-0.281155
0.406777
-0.119972
0.0201155
-0.0885384
0.0528809
-0.121504
-0.306832
-0.0146888
0.496617
-0.384242
0.370351
-0.00823092
-0.0932893
-0.212768
-0.385973
0.148701
0.271618
0.45739
-0.00641662
-0.225315
0.42868
0.398432
-0.0119022
-0.281861
-0.35235
0.286683
-0.056523
-0.103372
-0.426449
0.0491017
0.271633
-0.109147
0.179585
-0.140617
-0.495411
-0.0818034
0.0571943
-0.435334
0.171068
0.423999
0.269058
0.30094
0.134869
0.204605
0.438058
-0.0852153
0.260186
-0.0636327
-0.251949
-0.209814
-0.112199
0.0956641
-0.22883
-0.267309
-0.0816804
0.081774
0.214517
-0.443266
-0.452866
-0.472141
-0.100324
0.411136
0.040122
-0.110613
-0.0856516
0.00155086
0.0795896
0.0991978
0.189862
0.429127
-0.0729032
-0.382383
-0.0768789
0.321495
-0.00931812
0.11552
0.0469915
-0.444041
-0.117813
0.27339
-0.224943
-0.440435
-0.402811
-0.464276
0.25161
-0.330402
-0.392758
-0.280439
0.263528
0.291705
0.272216
-0.269027
-0.503252
-0.291175
-0.569796
0.207299
0.359833
-0.331232
0.377651
0.155113
-0.303243
-0.439163
-0.0701653
0.211276
0.374345
-0.126785
0.0315073
-0.318016
0.0618908
-0.284759
-0.169696
-0.0291641
-0.490946
0.1857
0.063039
0.165969
0.249502
0.364496
0.191465
0.171372
-0.0846662
-0.396465
0.125191
-0.111154
0.392337
-0.485897
0.417569
-0.576936
-0.570629
0.131106
-0.302444
-0.29111
-0.0471985
-0.131641
0.038149
0.195423
-0.00202497
-0.0270177
0.462772
0.221411
0.150187
-0.330397
-0.00186887
0.457652
0.302646
-0.474368
-0.382739
0.35146
0.174832
0.1431
0.21807
-0.150393
-0.264804
-0.352076
0.34028
0.172898
-0.1526
-0.212541
-0.276979
-0.527689
0.184533
-0.062263
0.324746
0.0972977
-0.2256
-0.345137
-0.166739
-0.443399
-0.00117749
0.484457
-0.385277
0.451059
-0.22053
-0.431718
-0.338455
-0.100938
-0.0181999
0.0626908
0.270384
-0.0595416
-0.121148
0.384327
-0.143485
0.221274
0.116896
-0.0467916
0.210733
-0.177209
-0.333545
-0.266214
0.156247
-0.159314
0.172288
0.182975
0.0741614
-0.327474
0.246082
-0.154215
0.149104
0.466586
0.0736396
-0.472005
-0.319011
0.123197
0.303925
-0.187967
-0.0429446
0.174233
0.603441
0.536753
0.30697
0.403602
-0.185779
0.028451
-0.235214
0.146235
-0.480841
-0.244907
-0.634452
-0.191685
-0.40686
0.0982966
-0.0568124
0.167156
0.493368
0.411954
0.227264
0.346966
-0.373022
0.051398
0.461659
0.0786639
-0.227672
0.077158
0.273974
-0.073664
-0.0570784
0.0389918
0.105673
0.615179
-0.0198354
-0.326244
0.0799839
0.0923735
0.175085
0.0200336
0.0318161
-0.511639
0.353516
-0.335307
-0.143019
-0.406629
0.0946615
-0.104266
-0.473332
0.211317
-0.182568
0.0209004
0.467597
0.257648
0.243362
0.61047
0.167298
0.121643
0.0256065
0.220036
-0.0856593
0.490385
0.309907
0.0609731
-0.307119
-0.447506
-0.0450739
0.0784245
-0.228328
-0.174884
0.159751
0.182251
-0.0589756
0.403492
0.142462
-0.0996604
-0.370877
0.464393
0.537579
-0.346183
-0.203495
0.266469
-0.181271
0.362345
-0.333948
0.0493139
0.0430849
0.379741
0.439972
-0.450373
0.508794
-0.0695701
0.164756
0.465394
-0.28204
0.389971
-0.359935
-0.290962
-0.481829
-0.289984
0.130053
-0.215617
-0.183031
0.169134
-0.334239
0.177889
0.145705
-0.208376
0.147656
-0.19303
-0.232167
-0.0891267
0.022901
-0.594017
-0.706081
0.143848
-0.0996097
0.413584
-0.0489771
0.608223
0.0681079
-0.0290461
-0.0902809
0.30087
0.00100153
0.00243544
0.391355
-0.217983
-0.491353
0.269563
-0.224246
0.399827
0.217186
-0.131638
-0.0585061
-0.0606085
0.497438
-0.386817
0.211998
-0.357183
-0.10784
-0.460322
-0.600957
0.352132
0.485997
0.200544
-0.0995516
0.451924
0.164601
0.678064
0.541385
-0.148683
-0.426363
-0.0257212
-0.444082
-0.178969
-0.115678
-0.0647503
-0.495401
-0.00497445
-0.0833208
0.141712
-0.341555
0.116452
0.173307
-0.237844
-0.213437
-0.713655
-0.276532
-0.34731
-0.299038
0.0341181
-0.152831
0.595303
0.590355
0.0927089
0.619586
0.198828
0.201444
0.043285
0.340028
-0.483045
-0.496758
0.0325527
-0.478433
0.348048
0.118013
0.262366
0.438082
0.106444
-0.10502
0.231425
-0.358869
-0.0992763
-0.11447
-0.228726
-1.05601
-0.0799963
0.246818
0.398974
0.728642
0.340438
0.126877
0.491816
0.53248
-0.379044
-0.100747
-0.0116083
-0.430078
-0.432179
-0.406372
0.10473
0.488174
0.165851
-0.347599
-0.445794
-0.449732
-0.0462631
-0.253176
-0.406804
-0.265258
-0.450033
-0.678486
-0.487675
0.21087
-0.285408
-0.156316
0.00164448
0.467874
-0.358535
0.352412
-0.341723
-0.358109
-0.531323
0.105461
-0.137509
-0.475646
0.0852035
-0.22766
0.368431
0.192713
0.0670171
-0.398233
0.0986594
0.0245469
-0.201952
-0.17432
-0.397508
-0.489455
0.109213
-0.562804
-0.0993152
0.218148
0.216029
0.457666
0.307241
0.130525
0.520742
-0.177582
-0.221225
0.244094
-0.135421
-0.619351
0.0919612
0.225724
0.360588
-0.262044
0.135507
0.499842
0.155907
0.133849
0.434374
0.274534
0.350609
0.193321
-0.562565
0.19749
-0.327285
0.168995
0.400126
0.769258
-0.0460783
0.479036
0.605235
-0.118021
0.388657
-0.436399
-0.231795
-0.66863
-0.66141
-0.119056
-0.647642
0.166862
0.31951
-0.284489
0.204938
-0.216942
0.467815
0.371723
-0.0649878
-0.35363
0.29101
0.28094
-0.295742
-0.243243
-0.576877
-0.199298
-0.0285567
0.0273862
0.504937
-0.0701469
-7.77956e-05
-0.183929
-0.726641
-0.257738
-0.0634102
-0.64029
-0.0390284
-0.56143
-0.300462
0.0872008
0.392037
-0.0745638
0.189708
0.435324
0.34569
-0.499582
-0.491534
0.190073
0.219879
0.157187
-0.4866
-0.327321
0.13129
-0.363434
0.202744
-0.0353355
0.41417
-0.2568
-0.127318
0.314725
-0.190659
-0.5156
-0.0543588
-0.426803
-0.0979378
0.136323
0.136229
-0.492036
0.472297
-0.00807476
-0.481438
-0.41085
0.444801
-0.429501
0.327645
0.184333
0.320337
-0.361751
-0.437584
0.0232696
-0.295523
0.236008
0.295868
0.280244
0.200329
-0.313327
-0.332269
-0.555044
-0.136907
-0.272967
-0.427182
0.144892
-0.0276741
-0.170796
0.374988
-0.479848
-0.424739
0.00772017
0.265273
0.426079
-0.349424
0.357066
0.420865
-0.0487875
0.357394
-0.510972
0.166075
-0.311775
-0.0240838
-0.364592
0.194369
0.123937
-0.185113
-0.00696561
0.116007
-0.588389
-0.254774
0.0334197
0.2978
0.0273514
-0.320526
0.485986
-0.314594
0.183737
0.502162
-0.138807
-0.352593
0.297447
-0.112647
0.206195
-0.470299
-0.0605939
0.168242
-0.579306
0.129809
-0.318799
-0.272397
-0.00743249
0.237863
-0.0319288
-0.310784
0.0355077
0.141261
0.222068
-0.147779
0.355109
-0.155255
-0.126276
-0.00675815
-0.0125921
-0.118263
0.455532
0.140935
0.503625
0.242228
-0.288954
0.208825
0.419806
-0.0837335
0.342225
0.484045
-0.254031
-0.35667
0.174266
-0.0313899
0.264244
-0.0524267
-0.31331
-0.232595
0.477308
0.197168
-0.110785
0.253861
-0.0397754
0.015091
0.112665
-0.413994
-0.31233
-0.253336
0.330702
-0.43425
-0.124669
-0.310742
0.00668508
0.160571
-0.170151
-0.150159
-0.0912131
0.496596
-0.19544
0.240192
-0.52703
-0.34051
0.157661
0.252463
-0.353622
0.0882878
-0.0720349
0.227004
-0.308749
-0.0123261
0.097114
-0.29286
-0.195498
0.0987017
0.23631
0.241973
0.177463
-0.136597
-0.463687
0.0178126
-0.303333
-0.414404
0.444327
-0.283689
0.0502288
-0.427074
-0.294727
-0.0827193
0.294685
-0.449251
-0.406984
-0.307701
0.422612
0.503051
-0.195796
0.0703593
-0.0989277
0.488214
0.0859773
0.530843
0.193775
0.421812
0.314686
-0.22458
0.460396
-0.488586
0.0543087
0.451378
-0.371567
0.386767
0.120677
0.372772
0.197989
0.0768205
0.410295
0.476972
0.332066
0.274756
0.401954
0.202911
0.164987
-0.0284152
-0.0867078
-0.00655435
0.275442
-0.440922
0.027112
0.226339
0.120929
-0.396731
-0.358584
0.451097
-0.12637
0.203504
-0.487586
0.437035
-0.394638
-0.248089
0.268279
-0.232335
-0.480069
0.226724
-0.00297946
0.456529
0.0543036
0.218165
-0.0407273
0.303267
-0.481192
0.34673
-0.285094
-0.0100151
0.33841
0.335423
-0.156446
0.379078
-0.449702
0.266396
-0.312093
-0.227374
-0.435447
-0.345899
-0.391274
0.115219
0.330072
-0.219382
0.285255
-0.447898
0.439484
0.151882
-0.43001
-0.21648
0.148254
0.277331
-0.265356
-0.241883
-0.323986
-0.161858
0.122798
-0.0531033
0.376682
0.111305
-0.193669
-0.218077
0.234662
0.399577
0.154042
0.0810787
-0.253669
0.294425
0.293654
-0.142513
-0.0528098
0.00828391
0.361982
0.0749978
0.326286
0.182481
-0.332836
0.0401188
-0.404753
-0.25425
0.241771
0.009603
-0.217502
-0.182016
0.294796
-0.318354
-0.176591
0.105785
0.33957
0.0376405
-0.374761
0.483246
-0.0373633
-0.400975
0.398521
-0.36767
-0.13437
0.22742
-0.44792
0.168525
0.01171
-0.167284
-0.495481
0.390737
-0.0813628
-0.320688
0.472526
0.279295
0.291851
0.288818
-0.250577
-0.403519
0.40501
-0.372153
0.124368
0.340381
-0.35284
-0.281661
-0.325688
-0.191719
0.174671
-0.0626149
-0.338803
0.0908066
-0.423422
-0.0757362
0.353672
-0.317385
-0.477772
0.0430457
0.376793
0.122465
0.483229
-0.0620782
0.0421914
0.475489
-0.220764
-0.20235
-0.0291729
-0.221082
-0.244061
0.247697
0.479999
0.387818
0.544722
0.162181
0.0614109
-0.259057
0.159622
0.485789
-0.0191443
0.269962
-0.191492
0.152638
-0.0913397
0.0136709
-0.335441
0.158595
-0.0916113
-0.384476
0.118701
-0.0818937
0.02641
0.327614
0.175501
-0.241629
-0.110696
-0.0121924
0.152263
0.144185
0.563879
0.511156
0.500137
-0.0156311
0.463554
0.451369
-0.207101
-0.30193
0.259105
0.509121
-0.31039
0.371492
-0.424574
-0.0367647
0.45669
0.270732
-0.361801
-0.33966
-0.453101
-0.205802
-0.341565
0.0429018
0.260277
-0.185047
0.0285456
0.292444
-0.449378
0.387279
-0.230276
0.365376
0.561748
0.435395
-0.193714
0.465913
0.125325
0.0139975
-0.0762101
0.101129
0.412617
0.456124
-0.316167
0.0660245
-0.354471
-0.49146
0.235072
0.226364
0.256284
-0.101799
-0.030461
-0.398271
0.0297479
-0.209235
0.283582
-0.21694
-0.487251
-0.437872
-0.409154
-0.508863
0.304532
-0.0905836
0.13395
0.140309
0.163529
-0.17214
0.273415
-0.217935
-0.131828
0.489567
-0.472449
-0.0984856
0.414052
-0.157403
-0.0898716
0.235985
0.067809
0.206727
-0.435329
0.269841
-0.0707417
-0.309786
-0.157747
-0.498044
-0.278596
-0.0472445
-0.847591
-0.742981
-0.0610761
-0.816075
0.126607
-0.379668
0.287538
-0.103271
0.142253
-0.465055
-0.180548
-0.461782
0.381902
-0.4836
-0.388101
-0.125708
0.0569525
-0.175745
-0.474015
-0.321623
-0.207962
0.287875
0.248249
0.200869
-0.691862
-0.683163
-0.453851
-0.735518
-0.308577
-0.228281
-0.423233
-0.482302
0.00136828
-0.118846
-0.287815
-0.304689
-0.173719
-0.239106
-0.384845
-0.174539
0.255621
-0.252885
0.219053
-0.420016
0.280154
-0.281465
-0.417792
-0.084924
-0.0262033
-0.259938
-0.629493
0.241918
-0.447817
-0.211276
-0.218027
-0.743468
-0.829905
-0.711415
-0.602097
-0.0441135
-0.573192
-0.490135
0.0947614
-0.164209
-0.411294
-0.380335
-0.634779
0.16987
0.242035
0.472667
-0.222069
0.370229
-0.0534848
0.0230079
-0.329927
-0.0342037
-0.246012
-0.245336
-0.499964
-0.62013
0.168081
-0.209099
-0.598325
-0.0506535
0.0677643
-0.57769
-0.144482
-0.51015
-0.0882071
-0.453733
0.091448
-0.137207
-0.760292
-0.318758
-0.377876
-0.487451
-0.23272
0.324674
0.0377719
0.497991
0.0722418
0.430301
-0.43555
-0.609101
0.215332
0.199099
-0.297609
0.0719021
0.120902
0.183187
-0.168532
-0.187885
-0.103384
0.208612
-0.024127
-0.300824
-0.340377
-0.16039
-0.127697
-0.35644
-0.146052
-0.0545637
-0.462997
-0.0974823
-0.421426
-0.0471033
-0.0241055
0.0191379
-0.357489
0.0709153
0.0146747
0.294672
-0.232717
0.174349
0.135668
0.0647488
0.366608
-0.461617
-0.21431
0.109711
0.128094
-0.145081
0.332778
-0.424978
0.151043
0.274938
0.400014
-0.572418
-0.183938
0.0990857
0.260353
-0.234381
0.198356
-0.216576
-0.299615
-0.358711
-0.22098
0.0128699
-0.107405
0.308627
-0.415655
-0.456995
-0.294824
-0.153216
-0.157484
-0.286748
0.639651
0.257362
0.529013
-0.102384
0.186167
0.0505619
-0.216729
0.265181
-0.149662
0.43485
0.410819
0.148203
0.386282
-0.407204
0.345408
-0.0487837
-0.279099
-0.224664
0.172498
-0.345126
-0.0885017
-0.0868042
0.146014
0.144268
0.431466
0.633068
0.560136
0.125354
0.731632
0.470926
0.18144
0.335231
0.178701
0.0529356
0.2568
-0.367135
-0.130398
-0.147346
-0.0630389
-0.0185369
0.0663415
-0.345287
-0.311849
0.34372
-0.257694
0.432232
0.179972
0.130663
-0.427381
-0.104326
0.5834
0.4526
0.138494
0.380111
0.397317
0.0430716
0.317211
0.607157
0.040051
-0.174311
0.110099
0.103242
-0.124129
0.229876
-0.00679737
0.187289
0.459439
-0.321937
0.22895
-0.151339
-0.152851
-0.4403
-0.428656
-0.155822
-0.246228
-0.183866
0.188217
0.228939
0.492521
0.53322
-0.127625
0.352606
0.0765147
0.35156
0.68813
0.765308
1.00951
-0.0640588
0.000674262
-0.545566
0.196349
0.205146
0.270678
0.234452
0.369238
0.345593
-0.172337
-0.465322
0.0943047
-0.349491
-0.170133
0.112242
-0.0699202
0.409105
0.344398
0.457696
0.17447
0.0541838
0.122068
0.690309
0.402441
0.683361
0.51999
0.439724
0.260082
-0.00956515
-0.190419
-0.586168
0.428692
0.201105
-0.321501
0.292021
0.428723
-0.170855
-0.144491
-0.296378
0.322488
-0.379582
0.0267025
0.162493
-0.172326
-0.134632
-0.430674
-0.0288978
-0.343753
0.130127
0.0207338
0.530614
0.0618633
0.506694
0.359194
0.29024
-0.026066
0.13261
0.133085
-0.181375
-0.424277
0.161534
-0.19888
-0.0648886
0.0308807
0.539612
0.189566
-0.434159
-0.378146
0.465595
-0.149466
-0.158413
0.446196
-0.0394211
-0.322927
-0.539882
-0.353
-0.149557
-0.117167
0.452008
0.532387
0.347536
-0.125561
0.272609
0.0489455
-0.229303
0.546728
-0.109977
0.217629
0.278008
-0.291744
-0.0933134
0.204397
0.45352
0.369151
0.110346
0.469346
0.192154
0.122329
0.388959
-0.192144
0.402559
-0.202919
-0.517124
0.0107645
0.469919
0.386264
-0.104466
-0.0287946
-0.207497
0.61491
-0.0245841
0.0186427
0.258804
-0.151414
0.291755
0.138893
-0.258143
0.157224
0.528861
0.169422
0.0649064
0.496638
-0.496927
-0.00573331
0.493694
0.0923254
0.256811
0.226005
-0.137978
-0.397983
0.048242
-0.567787
-0.0802969
-0.0382439
-0.205292
-0.0520276
0.222648
0.622925
0.202532
0.285343
0.0786247
0.445476
-0.121433
0.267084
0.332282
-0.0942457
-0.175717
-0.142129
-0.287567
0.159558
0.297373
0.170108
-0.0964528
0.306381
0.298639
-0.476761
0.416227
-0.216092
-0.0338141
-0.351742
0.12048
-0.166668
-0.498384
-0.257466
-0.447458
-0.456635
0.258333
-0.465423
0.161735
0.0397448
0.255559
0.235362
-0.408208
0.177823
-0.334833
-0.248345
-0.349011
0.347756
0.0107978
0.253447
-0.161578
0.103376
0.469162
-0.46638
-0.257256
-0.405272
0.182686
-0.202176
0.120026
0.11195
-0.312869
-0.157492
-0.0161086
-0.13257
-0.253242
0.00550642
0.0773406
0.325612
-0.288224
-0.237526
0.320851
0.115667
-0.375407
-0.0750661
0.107231
0.140852
0.0588532
-0.44566
0.448481
-0.226708
0.240158
0.411027
0.0766872
0.189985
-0.502252
0.247609
-0.12643
-0.15992
-0.497394
-0.29593
-0.668492
-0.193072
-0.378062
-0.146444
0.0288142
-0.467454
-0.398824
-0.0864129
-0.197968
-0.0315408
0.326751
0.209558
-0.317444
0.206285
0.158623
0.481449
-0.135443
-0.097719
0.273447
-0.0668549
0.275769
-0.0335884
0.336332
0.174528
-0.351226
0.247187
-0.230227
0.0332192
-0.46007
-0.320515
-0.289454
0.0538101
0.188622
-0.502006
-0.390991
-0.405974
0.119326
-0.0183722
0.0064542
-0.184635
-0.284273
-0.0113671
-0.223415
-0.467208
0.47223
-0.136361
-0.393949
0.035282
0.426076
0.184683
0.0606109
0.213095
0.0549445
0.420383
-0.172028
0.208642
0.0964726
-0.487761
-0.150438
0.0485797
-0.521202
-0.514346
0.106671
-0.164899
-0.40281
-0.198174
-0.153671
-0.0326103
0.347477
-0.199902
-0.289498
-0.117159
0.446778
0.476648
-0.447222
-0.00322342
0.17085
-0.0390594
-0.102797
0.390631
-0.00872967
0.299064
0.397568
-0.331588
0.171217
0.132678
0.180536
-0.336138
0.39176
0.312873
-0.191322
0.425102
-0.323158
-0.148998
-0.255003
0.494808
0.302526
-0.24528
0.0894958
0.0671079
-0.0871907
-0.230707
0.0738183
-0.343743
-0.419381
0.085477
0.04538
0.105503
0.267398
-0.259575
-0.388145
0.0677083
0.198817
0.397753
-0.3997
0.415871
0.385869
0.404135
-0.357709
0.0484014
0.466889
0.176589
0.421671
-0.0941607
-0.106343
0.115348
0.301799
-0.369721
0.277883
-0.323924
0.357471
0.231885
-0.128543
0.0581787
-0.264565
0.232823
0.0951747
0.294991
-0.129194
0.147914
0.402652
0.194062
-0.463105
0.19675
0.252529
0.260483
-0.367378
-0.120288
0.0867188
0.376256
-0.251232
0.0398051
0.125248
0.0952774
0.0904787
0.395794
0.189643
0.0836271
-0.0877817
0.301935
0.393308
-0.248704
-0.1429
0.494024
0.275222
-0.314692
-0.372241
-0.208113
0.431081
-0.0971615
-0.0492827
0.422298
-0.421348
0.0951523
-0.455581
0.0906238
0.399685
0.056732
0.0855531
0.0456195
-0.294491
0.0568024
-0.204304
-0.0531469
-0.221692
0.335249
-0.0236518
0.175408
-0.0415022
0.300249
-0.125884
0.439123
-0.326198
-0.0307829
0.485364
-0.174964
0.192687
0.389051
-0.314582
-0.368127
-0.340022
-0.141729
-0.0308395
-0.523129
0.130454
-0.105587
0.176673
-0.483645
0.434389
-0.380593
-0.384983
0.0498884
0.00756997
-0.418845
0.27067
0.235294
0.131998
0.423135
-0.200925
0.356021
0.536621
-0.419335
-0.317602
0.23855
-0.284468
0.238332
-0.178685
-0.207185
-0.102807
-0.183649
-0.0616258
-0.663938
-0.145982
0.0921533
0.250849
-0.0998161
0.468166
-0.298866
0.137758
-0.451062
-0.0722687
0.49536
-0.370465
-0.303374
0.236263
-0.241753
0.396325
0.152889
0.310779
0.364382
0.0879767
0.173158
0.142821
0.228316
-0.0938701
0.0772283
-0.102282
0.37136
-0.187368
0.0161031
0.103053
-0.503452
-0.119911
0.00293795
-0.142755
-0.246194
-0.0913693
0.205582
-0.0933995
-0.363172
0.302788
-0.446011
-0.433418
-0.249459
0.16519
-0.370884
0.199473
0.454643
0.443142
-0.0152338
0.285529
0.211682
-0.0747672
-0.08167
0.136253
-0.297666
0.297624
-0.401635
-0.155141
0.351454
-0.346589
-0.482055
-0.393157
-0.413007
0.106884
-0.494203
0.227563
0.442593
0.0954869
0.155405
0.390886
-0.383004
-0.0540966
-0.30084
-0.323017
-0.0624881
0.314246
0.285858
0.537506
-0.288429
0.00177109
-0.207524
0.428762
0.480173
0.286401
-0.192413
0.113932
0.27935
0.0352563
-0.0742565
0.33681
0.13604
0.0364941
-0.34237
0.137809
-0.29967
0.314092
0.344726
-0.104301
0.322612
0.421623
-0.143054
0.236204
-0.363042
-0.224316
0.151418
0.396031
-0.191722
0.285549
-0.0814085
-0.0774703
0.419262
-0.0185557
0.141871
-0.0696773
0.272524
-0.256641
0.266516
0.0587661
-0.111593
-0.110563
-0.260413
0.284319
0.451127
0.108214
-0.154256
0.0440824
0.419308
0.360449
-0.475817
0.294356
-0.113598
0.206812
-0.325955
0.0168486
0.0685846
0.0164707
-0.0979747
0.0967288
-0.134504
0.294864
0.501849
-0.342103
0.415404
0.0875338
-0.213445
0.309948
0.355007
0.420637
-0.150231
-0.0492755
0.0522709
-0.0690185
0.101124
0.0269684
0.311247
0.193961
0.0605303
0.240596
-0.134437
-0.0975868
0.20715
-0.144858
0.243822
-0.241909
0.0236897
-0.073856
-0.315018
-0.125096
0.156694
0.471255
0.287535
0.0870639
-0.395841
-0.250365
0.446242
-0.0927588
-0.0697432
-0.264875
-0.325385
0.158955
0.412742
0.30034
-0.354122
0.0247815
0.239059
-0.530416
0.243167
-0.32303
-0.504323
-0.0142473
-0.745762
-0.861082
-0.149884
-0.477966
0.13396
-0.294981
0.152762
0.220438
0.0983913
0.105352
0.271852
-0.281225
-0.148432
-0.0104225
-0.345354
-0.112797
-0.38892
-0.354421
-0.282568
0.168112
-0.155516
-0.0331433
-0.224468
0.156349
-0.535943
-0.291807
-0.419796
-0.111065
-0.290884
-0.434751
-0.424203
0.131368
-0.434142
-0.164158
0.0818567
-0.329832
-0.144375
0.380464
-0.306265
-0.36752
-0.43407
0.115904
-0.049697
0.0754525
-0.122275
-0.357973
-0.279987
-0.169355
0.157333
0.259923
0.0877074
-0.392786
0.0895913
0.0412766
-0.653758
-0.620792
-0.329341
-0.129693
-0.707121
-0.127029
-0.737815
0.0021826
-0.261965
-0.573977
0.416171
0.149101
-0.0211837
0.154597
0.4673
0.252828
-0.427222
0.0465871
-0.14549
-0.379363
-0.164752
0.0103942
-0.303523
-0.5367
-0.0348953
-0.324324
-0.116278
0.207985
-0.273901
0.119903
-0.34074
-0.701246
-0.583829
0.0230032
0.212697
-0.183146
-0.294294
0.0323061
-0.445362
0.28005
0.284404
-0.44576
0.385135
-0.244099
-0.305771
0.0494831
0.249989
-0.245039
-0.399882
-3.89115e-05
0.195785
0.312105
0.325087
-0.156432
0.149629
0.213407
-0.115921
0.151387
-0.375156
-0.870959
-0.749847
0.0225627
0.125436
-0.605015
-0.150402
-0.190354
-0.278965
-0.0163665
-0.301023
-0.337595
0.252731
0.15612
0.249154
0.373564
0.05006
-0.103841
-0.307368
0.387066
-0.166359
-0.279877
0.397316
-0.466587
-0.381871
-0.527743
-0.0097422
-0.568166
-0.490928
-0.113576
-0.69756
-0.475797
-0.0978348
-0.570674
0.0508407
-0.443312
-0.290695
-0.492441
0.112789
0.493188
-0.266233
-0.181345
-0.00040741
-0.33674
0.340617
-0.309764
0.398766
0.155637
0.265248
0.0475261
0.0081772
0.188184
0.15496
0.0928965
-0.364925
-0.0261746
-0.331307
0.163999
-0.0357019
-0.345783
-0.188995
0.00757233
-0.249232
0.097013
0.194164
-0.0889032
0.206601
-0.235284
-0.43868
-0.131858
-0.190372
-0.296713
-0.286376
0.0799568
0.211353
0.266474
-0.280181
0.617518
0.395835
0.192537
-0.174901
-0.248463
-0.252835
-0.0759471
-0.659353
0.161834
-0.455988
0.368127
-0.268523
0.381234
0.162321
-0.0933347
-0.188001
0.104379
0.0374465
-0.260024
0.205387
-0.147939
0.135796
0.20821
0.498077
-0.461835
0.152856
0.363902
0.637273
-0.11424
0.108413
0.0948132
0.368277
-0.367886
-0.0419853
-0.0949267
-0.572285
-0.629646
0.189309
0.271109
-0.419046
-0.306818
0.45756
0.174695
-0.00962738
0.13224
0.0913447
0.370077
-0.0271631
0.197102
-0.288954
-0.331281
0.313707
0.239069
0.485665
0.0454516
0.108014
0.128925
-0.0209062
0.121752
0.108285
0.2717
-0.49944
-0.366793
-0.337127
-0.307972
-0.171227
-0.607471
-0.479689
0.15037
-0.185431
-0.0788078
0.671341
-0.174533
-0.19429
-0.0309482
0.420755
0.461812
0.113913
0.204579
-0.00103825
-0.147867
0.403001
0.061646
-0.322455
0.348891
-0.206926
-0.23133
0.00220335
0.111661
-0.219682
-0.0778841
0.121418
-0.232418
-0.694539
-0.748327
0.290971
0.0991649
-0.340333
0.41527
0.438789
0.00966334
-0.262663
0.240169
-0.267589
-0.0193039
-0.123797
0.285109
-0.025245
-0.191219
0.234213
-0.457901
-0.145051
0.250801
0.139645
0.334018
0.305125
-0.09858
-0.146337
0.123338
-0.199732
-0.167332
-0.208785
-0.313575
0.165507
-0.336979
-0.17306
0.405348
-0.395009
0.0990215
-0.00969823
-0.164707
-0.405056
-0.154614
-0.252644
-0.276226
-0.323924
-0.308585
-0.0996349
0.0841524
-0.270454
0.439028
0.0836757
-0.37469
0.185342
0.112093
0.166122
-0.314194
0.18051
-0.110138
0.428919
0.358351
0.413043
-0.257943
0.402609
0.413177
-0.265315
0.460789
-0.402665
0.459766
-0.0456522
-0.385007
0.437949
-0.218432
0.419788
-0.395818
-0.3642
0.113162
0.19038
-0.461096
-0.241424
-0.0382123
0.255662
0.0795492
-0.230101
0.10447
0.0384989
0.318009
-0.355562
0.291584
0.122847
0.125555
0.330138
-0.483062
0.415418
0.0988295
-0.0801132
-0.388213
0.450917
-0.0578097
-0.461496
0.197597
-0.201131
-0.226949
0.00748038
-0.145896
0.361723
0.181307
-0.0631287
0.433598
0.378136
-0.254244
0.302803
0.517893
0.237651
0.483168
0.0486873
0.451301
-0.427841
0.342415
-0.476265
-0.445873
0.398136
0.299571
-0.095693
-0.449807
-0.246177
0.474408
-0.348243
0.058211
0.208107
-0.125205
0.0654889
0.163557
0.0442137
-0.33141
0.0434812
-0.280335
0.141385
-0.0257112
-0.144492
0.00228421
-0.105869
0.245938
-0.0241718
-0.246259
0.039032
0.0234249
-0.0175307
-0.494432
-0.19058
-0.187322
0.363052
0.41636
-0.0576153
0.111529
-0.478205
0.265719
0.394298
-0.0778515
0.25921
-0.393963
-0.214658
0.353658
0.188551
-0.0138138
0.429073
0.393273
0.451177
-0.331364
-0.0490385
-0.240386
0.29494
-0.282965
-0.410783
0.441778
0.271395
0.0484269
-0.0990304
-0.278888
-0.0161915
-0.321493
-0.077226
0.483536
-0.155491
0.0994629
-0.398721
0.122278
0.119224
-0.397042
0.186379
0.268466
-0.0610685
0.470711
-0.317598
-0.0338527
-0.00194097
-0.239831
0.398499
-0.321036
-0.290961
-0.320192
0.00458848
0.0181004
-0.405547
-0.312383
-0.445255
0.142662
0.347287
0.113687
-0.256463
-0.140055
-0.217197
-0.396182
-0.0737981
-0.200667
-0.285906
0.081475
0.210382
0.408132
-0.121937
0.234264
0.438382
0.497447
0.20631
-0.112026
-0.179841
-0.347504
0.428538
-0.164641
-0.44965
0.329391
0.175869
0.0227695
0.18909
-0.0167555
0.429909
0.421836
0.43862
0.201498
0.0728732
-0.146884
0.166195
0.44885
-0.359565
0.300866
-0.429079
-0.261243
0.246779
0.46904
0.337583
-0.330186
-0.165484
-0.127029
-0.0475329
-0.111862
-0.202468
-0.270953
-0.311979
-0.219202
-0.246038
-0.174634
-0.369643
-0.0535172
0.446044
0.371866
-0.462699
0.158726
0.0204055
-0.140264
0.489669
-0.056781
-0.0904459
0.306313
0.233502
-0.192167
0.0843247
-0.0733299
0.113005
0.399482
-0.00786608
-0.0761375
-0.401678
-0.283592
0.0458424
0.117924
0.520437
-0.350171
0.178397
0.293369
-0.0244466
-0.235752
0.0579922
0.0168622
0.417653
0.1399
-0.460598
-0.464472
-0.391102
0.24601
-0.095076
0.24215
-0.44392
0.19964
-0.486007
0.147675
-0.0507257
-0.162566
-0.423991
-0.200604
-0.210314
-0.380523
-0.406837
-0.461592
0.0774782
-0.0745091
0.0518952
-0.118633
0.160406
-0.187784
-0.156876
0.33597
-0.417739
-0.276004
-0.318063
-0.112137
0.243469
-0.408159
-0.386697
-0.408855
0.353698
-0.36028
-0.264105
-0.234102
-0.379191
0.00437029
-0.463279
-0.778049
-0.222412
-0.359888
-0.291115
0.11377
0.0578858
0.233812
-0.388749
-0.171987
0.645348
0.105655
-0.201031
0.491862
-0.0900202
0.26368
-0.294172
-0.376142
-0.0795451
0.0722494
-0.119828
0.0551669
0.148633
-0.424574
0.276939
-0.158013
0.158529
-0.0107168
-0.13295
0.0093511
-0.573797
-0.0500603
-0.0441476
-0.296491
-0.138795
-0.0562581
0.289256
0.0319297
-0.115647
0.309389
0.616404
0.178943
-0.150029
-0.0751517
-0.489459
-0.264909
0.0502559
-0.0273432
-0.289133
-0.180036
-0.436079
0.3316
-0.339599
-0.423163
-0.0662937
-0.124566
-0.458905
-0.327205
0.0696657
-0.502093
0.117575
0.314438
0.250427
-0.166078
-0.0786535
0.299771
-0.113415
0.184899
-0.0779108
-0.299556
-0.359671
-0.282847
-0.246967
0.307166
-0.0581166
-0.162999
0.192573
-0.0575135
-0.640126
0.186373
0.155107
-0.0742531
0.154592
0.215779
0.11837
-0.465527
0.0146016
0.0753065
0.292155
0.374044
-0.439885
0.194577
0.373073
0.0900537
-0.367439
-0.224679
-0.174326
-0.365991
0.207141
-0.358692
-0.0995899
-0.224807
-0.411748
-0.0812202
0.129989
-0.587695
-0.664707
0.306214
0.0242741
-0.139579
-0.22355
-0.311004
-0.0936799
0.281095
0.0344643
-0.0300352
-0.0903366
-0.560661
-0.0992596
-0.40964
-0.507976
-0.523056
-0.105735
-0.0441984
0.0119874
-0.222118
0.14571
0.156781
-0.218131
0.47386
-0.358269
-0.362085
-0.281972
0.188939
0.0868661
-0.285972
-0.316374
-0.0350519
-0.0118737
0.38214
0.54848
0.235176
-0.0696976
-0.681933
-0.0353999
-0.441076
-0.47296
0.300357
-0.477893
-0.437031
-0.250516
-0.33696
-0.339634
0.239927
-0.0566157
-0.509023
0.054952
-0.451441
-0.221757
0.384022
0.0614636
-0.271185
-0.384855
0.276119
0.662685
0.367109
0.531335
0.115285
0.291971
-0.0212875
-0.19512
-0.440379
-0.331317
0.0898246
-0.517786
-0.149541
-0.297818
0.359154
-0.0883448
-0.0418983
0.438449
-0.304376
-0.25271
0.435953
0.270055
0.273516
-0.155486
0.100568
-0.134517
-0.165293
-0.215193
0.533411
0.0750875
0.192092
0.237705
0.0689107
0.440733
0.706376
0.281542
-0.385842
-0.313742
-0.185709
-0.0911671
-0.45022
-0.199724
-0.181068
-0.0383888
0.248531
0.241117
0.228941
-0.0228058
0.110412
0.0843033
-0.0279014
-0.219672
-0.38528
-0.285417
-0.331274
-0.19789
-0.0538069
0.683436
0.314979
0.592019
0.50296
0.61271
-0.206634
-0.147378
-0.0133644
0.235063
0.237307
0.0235939
0.317978
0.0128104
-0.122744
0.0710632
0.0896975
0.0661615
-0.027647
0.458939
0.265152
-0.406098
-0.17415
0.134553
-0.171666
0.00338644
-0.360212
0.337469
0.08911
0.687116
0.420588
0.432123
0.2397
0.636338
-0.325191
-0.152264
-0.182945
-0.450474
0.00330687
-0.210405
-0.249125
0.515911
-0.0620908
0.312813
0.557845
0.0932736
0.50707
0.205423
0.242525
0.487481
0.0471615
0.331466
0.00772544
0.409462
-0.138185
0.359579
0.63958
0.266342
-0.0526232
0.149796
0.426787
0.340047
-0.446939
0.108651
-0.271634
0.0104277
0.320329
-0.280617
-0.504889
-0.195296
-0.134606
-0.23083
-0.112602
0.0451092
-0.230892
-0.417892
-0.293339
0.17162
0.497117
-0.325993
-0.274102
0.0987703
-0.121817
0.324598
0.519259
0.566833
0.306984
0.12342
-0.0658656
-0.00253939
-0.0471346
0.195248
0.396163
-0.0910418
-0.406674
0.00310881
0.352612
-0.297238
0.0745385
0.168985
-0.162593
0.326469
-0.0122181
-0.113594
0.00397343
0.0822052
-0.161127
-0.161382
-0.181547
0.142756
-0.556157
0.31469
-0.324076
-0.180569
0.328644
0.110371
0.058288
0.0174325
0.382498
-0.119671
-0.393116
-0.109059
-0.0258219
-0.0822366
-0.403397
-0.339525
-0.237098
0.115345
0.165124
-0.156344
0.242917
-0.374554
-0.478906
0.464298
0.331661
-0.445957
0.380199
-0.154384
-0.412526
0.0182328
-0.0666225
0.207273
0.429758
0.18922
0.458827
-0.128046
0.298954
-0.440017
0.209384
0.186786
-0.138359
-0.104993
0.168079
0.1602
0.161555
-0.0219554
-0.119959
-0.324553
-0.063655
0.022583
-0.451123
0.100069
0.18625
0.0838455
-0.362742
-0.539885
-0.044281
-0.519304
0.288349
-0.138518
-0.440161
-0.0430041
-0.0500886
-0.188882
0.120886
0.480016
0.245226
-0.258119
-0.0419547
0.28873
-0.299186
0.30005
-0.105546
-0.33123
-0.314485
-0.331087
0.202088
-0.267284
0.02485
-0.497216
0.397018
0.467952
-0.270833
0.30942
0.20489
-0.476989
-0.202762
-0.266757
0.0298072
0.349297
-0.323245
-0.099854
0.191363
-0.0319958
0.649746
-0.0841826
0.0882457
0.46926
-0.465408
0.144597
-0.466874
0.301167
0.0975508
-0.445672
0.18101
-0.279858
0.0891729
0.349576
0.231561
-0.425534
-0.398804
0.432173
-0.562459
0.0188886
0.0429439
-0.086273
-0.543282
0.0468887
0.49161
-0.193759
0.4183
0.197727
0.211069
-0.0946486
-0.153735
0.23084
-0.0155888
-0.122039
-0.226038
-0.0104364
-0.0967032
-0.102451
0.451203
-0.07296
0.179731
0.397256
-0.202343
-0.217723
0.0613373
-0.413223
0.146325
-0.149511
0.231251
-0.423766
0.246018
0.0125155
0.26388
-0.196123
0.142185
0.0372294
0.0865461
0.274934
-0.214273
0.244099
0.139401
0.267386
-0.24539
-0.0470307
-0.455325
0.0397994
0.13677
0.0780465
0.195388
-0.489996
-0.325365
-0.166075
0.239436
-0.0818723
-0.416292
-0.41488
0.212842
-0.280143
-0.534834
0.248379
-0.404242
0.467746
-0.46136
0.195269
-0.322071
-0.0157166
0.235287
-0.0555849
0.0555412
0.0533836
-0.238493
0.338769
-0.0427302
0.350626
0.450821
0.208924
0.420994
-0.361214
0.169627
-0.348938
-0.318098
-0.0314232
0.112589
0.465829
-0.389694
-0.569212
-0.144984
0.476526
0.211932
-0.14322
-0.374496
0.297819
-0.165099
0.329271
0.133377
-0.039778
-0.103629
0.475494
0.0129607
0.11764
0.278743
-0.485506
0.257691
0.33695
-0.0881324
0.143953
-0.00145835
0.0101462
-0.368764
0.184417
-0.298632
-0.451363
-0.251496
0.0497917
0.0775884
0.296887
-0.269689
0.140489
-0.380418
-0.0166745
-0.0592232
0.224357
-0.551887
0.0189584
-0.350646
0.171318
-0.355724
-0.144474
0.269435
0.152994
-0.450484
0.126495
-0.0903528
0.405718
-0.129864
-0.242367
-0.0924776
-0.389009
-0.313867
-0.0595551
-0.455383
-0.414
-0.265424
-0.383617
0.132527
-0.545473
-0.376964
0.215263
0.158557
0.136308
-0.200965
0.388879
-0.427473
-0.243704
0.274619
-0.463347
-0.0218912
0.397171
-0.0898838
-0.0238754
0.0425513
-0.01444
-0.192112
-0.390951
0.218122
-0.00595373
0.428032
-0.0164933
0.0301585
-0.0326281
-0.107926
-0.411382
-0.0289902
-0.0900423
-0.27655
0.470073
0.036036
-0.0727293
-0.344412
-0.472836
-0.0251059
-0.127642
-0.321225
-0.0474748
0.183842
-0.0995792
-0.402999
0.0427014
-0.113714
0.242142
0.186386
0.49445
0.151572
0.474928
-0.436873
-0.370547
0.141358
0.125177
-0.103419
-0.423892
0.0575261
-0.169678
0.112469
-0.102589
0.293912
-0.0843456
0.0873347
0.135336
0.243267
0.0387622
-0.230042
0.234199
-0.412713
-0.0769013
-0.0489959
-0.32909
-0.236573
0.124576
-0.38941
0.137775
0.336399
0.231482
0.251995
-0.247179
0.179292
-0.384404
-0.328292
0.0161494
0.0731528
-0.236182
0.327541
0.211396
-0.0459057
-0.40956
0.104829
0.367558
-0.121891
0.234095
-0.399236
0.310785
-0.256634
0.110585
-0.175023
0.447705
0.465919
-0.113471
0.137219
0.465986
0.152671
-0.298256
0.0953323
0.135672
0.207603
0.169578
-0.407264
-0.509184
0.438436
0.19151
-0.425374
-0.225414
0.35424
-0.296281
0.121603
-0.219381
0.266369
0.26283
-0.333595
-0.122416
-0.202101
0.184926
-0.0951704
0.243928
0.334051
-0.245521
-0.434465
0.104064
-0.152429
0.275204
0.440946
0.189164
-0.136938
0.0414896
0.249069
0.469874
0.255265
-0.24556
-0.0482509
-0.389382
-0.38297
0.373157
0.0240477
-0.452361
-0.312158
-0.475838
0.384312
-0.210717
-0.138336
-0.358463
0.256985
-0.219921
-0.0498849
-0.232119
0.282492
-0.237876
0.393478
-0.24624
0.0428234
0.1025
0.0564414
0.19095
0.213413
-0.550187
-0.162912
-0.346544
-0.417769
-0.0652136
-0.490893
-0.41956
0.190196
0.294255
0.144131
-0.0896448
0.221464
-0.0992973
-0.400362
0.27881
0.0801474
0.303065
0.314216
-0.338424
0.224263
-0.162715
-0.00387289
0.309076
-0.392477
-0.0806959
-0.191696
-0.485512
0.0193028
0.131784
0.00132327
0.191461
0.182506
-0.144918
-0.0800837
0.109168
0.0367954
-0.220592
-0.0742385
0.498515
0.0845954
0.208359
0.214651
0.49431
0.196834
0.0965754
0.30698
0.111356
-0.324801
-0.304505
-0.0451836
-0.406817
0.305673
0.242402
0.166972
0.379848
-0.266808
-0.207932
-0.220906
0.135978
-0.65143
-0.439214
-0.381879
-0.643628
0.0970105
-0.167004
-0.299791
0.210747
0.592941
-0.103464
0.306441
0.308625
0.374433
-0.308463
0.0946805
-0.292422
0.444069
-0.240028
0.230535
-0.0511202
-0.381505
0.251746
0.134152
-0.134794
0.400703
-0.261607
-0.0196517
-0.0278186
0.0162242
-0.328845
-0.15682
-0.180194
0.272662
0.072382
-0.341965
0.38843
0.281696
0.0498246
0.136636
0.0751391
0.308268
0.243958
-0.247676
-0.38529
0.448072
-0.460395
0.125508
0.0108765
0.149171
-0.298527
-0.297618
0.0271467
-0.230077
0.393899
0.18535
-0.468802
-0.0251083
-0.480549
-0.0428168
-0.53733
0.0226395
0.467578
0.685421
0.432992
0.00845502
0.180101
0.22029
-0.475525
0.0880556
0.327179
0.280475
-0.501192
-0.0949725
0.487083
0.336257
-0.218441
-0.192688
0.568924
0.401097
-0.0168377
0.355204
-0.0236264
0.374513
0.266182
-0.423275
-0.539836
0.0964529
0.175312
-0.11782
-0.0545171
0.573788
-0.110104
0.178432
0.190567
-0.423886
0.0383597
0.110652
0.378861
0.0681644
0.323248
-0.290637
0.143934
0.461514
-0.115731
-0.138789
-0.143508
0.0708202
0.528649
-0.25508
-0.309458
-0.0211006
-0.198395
-0.418132
-0.317017
-0.315634
0.66183
0.370599
0.57464
0.0984225
0.272404
0.116362
-0.0558708
-0.454665
0.261873
-0.455728
-0.489952
0.0248507
-0.459752
0.210616
-0.19533
-0.136147
-0.330451
0.0426028
-0.0372535
-0.0859238
0.273219
0.508748
-0.390859
-0.209567
-0.463501
-0.107154
-0.633923
0.593997
0.0174972
-0.124372
0.0894307
0.405719
-0.369814
-0.320116
0.406896
0.300991
-0.0711328
0.072816
-0.311765
0.118877
0.064625
0.0173638
-0.079032
-0.0915874
0.103324
0.189501
-0.241576
0.369304
-0.0718583
-0.0410042
0.411591
-0.481572
-0.40619
-0.751571
-0.222659
0.280616
0.0667621
-0.155732
-0.248579
0.229978
0.426045
0.411963
0.0571288
-0.468009
0.0308098
-0.250321
-0.249059
-0.454373
-0.439533
0.0869169
0.225258
-0.143894
-0.0398889
-0.0884768
-0.175471
0.222922
0.106062
0.072624
-0.320434
0.149472
-0.719594
-0.148409
0.270871
-0.225737
-0.300642
0.369461
0.119901
-0.0634677
-0.0573688
-0.124694
0.224539
0.203466
-0.473698
0.214571
-0.144649
0.0384204
0.377104
-0.494815
0.146164
-0.11095
0.319813
-0.134733
0.145107
-0.257786
-0.0155131
-0.374023
-0.132341
-0.299873
0.106953
-0.222205
0.252619
0.280237
0.309258
0.164119
-0.0901603
0.551797
-0.0251998
0.0960283
0.174334
-0.3551
0.129134
-0.120517
-0.387598
-0.0828038
0.174463
-0.229373
-0.488616
-0.182451
-0.174372
0.0588156
0.157594
-0.269088
0.124985
0.480141
0.303946
0.07145
-0.0963761
-0.322881
0.0338073
0.20929
0.251659
0.431792
0.241211
0.621485
0.274894
0.0082166
0.195169
-0.112115
-0.167789
-0.200217
0.0254507
0.316071
-0.457508
0.457579
-0.413922
-0.198248
-0.0204668
-0.330154
-0.310178
-0.346197
-0.0845569
-0.189298
-0.0792556
-0.363619
-0.226896
-0.0791913
0.121122
-0.145193
-0.3454
0.0226557
-0.39976
-0.00995483
-0.436726
-0.544321
-0.528717
-0.550449
0.0482683
0.297011
-0.482254
-0.197659
-0.312127
0.242606
0.302393
0.158023
-0.263627
0.217268
-0.167221
0.342843
-0.000967678
0.399831
-0.508585
0.336064
-0.422538
-0.326422
0.637661
0.129407
0.142757
0.251865
0.121495
-0.189594
0.108383
-0.152146
-0.383076
-0.0163018
-0.13962
0.323925
-0.148902
-0.338647
-0.402238
-0.041932
0.038005
0.0462911
-0.447431
-0.233371
0.228912
-0.276983
0.0278721
-0.122711
0.275241
-0.448892
0.267627
0.306159
0.39552
-0.00261292
0.109473
0.064122
0.0657883
-0.51944
0.183068
-0.261536
0.0322728
-0.243524
-0.441955
-0.303776
0.130746
-0.317499
0.13403
-0.467764
-0.245362
-0.284745
0.219366
-0.076945
0.372756
-0.396049
-0.628959
0.349106
-0.439943
-0.0567171
0.16381
0.102322
-0.0993147
0.0962732
0.221856
-0.357772
-0.019299
-0.0151582
-0.27041
-0.0357558
-0.326431
-0.0188781
-0.20407
0.284686
0.386568
0.13214
-0.0950185
0.45099
-0.325696
-0.449768
-0.27996
-0.553853
-0.192681
-0.552698
0.228657
-0.525213
-0.414847
-0.560514
-0.329054
-0.255069
-0.354835
0.35352
-0.430655
-0.530591
-0.533762
-0.551204
-0.645285
-0.0500761
-0.471519
-0.0894624
0.266188
-0.0389035
0.300682
-0.450049
-0.161682
0.110798
0.354978
-0.213899
0.312617
-0.436846
-0.393745
0.330539
0.24831
-0.387836
0.31214
0.329196
0.128853
-0.382302
-0.220197
-0.349843
0.300971
-0.107977
0.28454
-0.315739
-0.264669
-0.146221
0.334853
-0.334472
0.441558
0.460157
-0.340032
0.272441
0.221194
-0.170721
0.467654
-0.386473
-0.187352
0.318251
0.357836
-0.437193
-0.243449
-0.403216
-0.240232
0.203145
-0.249669
0.0528777
-0.0320015
0.28094
0.13539
-0.375823
-0.369792
0.194428
-0.393246
0.128206
0.0760918
-0.270647
0.0580306
0.205594
0.423812
-0.367944
0.0122092
-0.0134622
0.399687
0.191195
0.293977
0.124808
0.0372985
-0.424933
0.162716
-0.330147
-0.334249
-0.40117
-0.127652
-0.467764
-0.487529
-0.268979
0.0620652
-0.135917
-0.195186
-0.378742
-0.196226
-0.020129
0.303545
-0.118228
-0.329151
0.435554
0.203848
-0.318019
0.0429096
0.355048
-0.334473
0.213317
0.399236
-0.140421
-0.282755
-0.45115
0.0264891
0.0269128
-0.105586
-0.368656
0.409178
-0.116654
-0.283761
-0.360297
0.139688
0.077728
-0.323967
-0.305901
-0.186289
-0.431592
-0.471851
-0.260839
-0.0584707
0.489227
0.36285
-0.0747956
-0.445264
0.0968946
0.0259567
0.232233
-0.297876
-0.0255653
0.329277
0.198221
-0.105892
-0.268583
0.213302
0.154554
0.256414
-0.392976
-0.389562
-0.267255
-0.257117
-0.371367
0.480945
-0.0927505
-0.407432
-0.258322
-0.472046
-0.209651
-0.224675
0.406454
-0.335046
0.144453
-0.233097
0.307121
-0.38845
-0.135665
0.0112062
-0.107471
0.378885
0.274627
0.338929
-0.125288
-0.0281171
-0.220874
0.113854
-0.0713497
0.297578
-0.0257913
0.0434736
-0.070147
-0.234897
-0.239288
-0.345402
-0.083588
0.204048
-0.248744
-0.0248716
0.135551
-0.235243
0.416069
0.386483
0.0722964
0.395588
0.382437
-0.222852
0.274589
-0.417669
0.0882914
-0.455787
-0.424492
0.296917
0.429027
-0.266632
-0.361221
0.228613
0.233433
0.255462
-0.401977
0.145484
0.400131
0.349487
-0.263296
0.440294
0.0951928
0.437858
0.297277
-0.483867
-0.165852
0.370007
-0.362265
-0.495971
0.455291
0.469426
-0.0778383
-0.0570317
0.084214
0.24575
-0.280776
0.172452
-0.40239
0.46517
0.0862592
0.160264
-0.162133
-0.103504
-0.193699
0.166403
0.38053
-0.386819
-0.18831
0.130194
-0.262177
-0.429293
0.306153
0.360037
-0.215551
0.369438
0.4073
-0.167634
-0.197563
0.15636
0.0920246
0.252704
0.34013
-0.404236
-0.155474
0.315519
-0.139881
-0.0984799
0.0516794
-0.325252
0.0184434
-0.494714
0.161874
-0.381274
0.192745
0.280803
0.0858465
0.318643
-0.341397
-0.0745781
0.140828
0.132475
0.0744286
-0.371154
-0.0499104
0.0178844
-0.0681548
-0.260281
-0.0451826
0.357556
-0.422463
0.0867401
0.209639
0.328925
0.0944732
-0.184565
0.171771
0.270259
-0.201832
-0.221928
-0.0522069
0.368244
0.0699904
-0.358287
0.0318743
-0.406947
0.0739169
-0.286304
0.15852
0.261828
0.0968941
-0.389093
0.241111
0.422103
0.398316
0.16058
-0.143229
-0.455712
0.393553
0.0312096
-0.374883
-0.106173
-0.0365485
0.191857
-0.401971
-0.526556
0.364908
-0.52501
-0.0599891
0.0275614
-0.53072
-0.315562
-0.432488
0.159931
-0.254634
-0.367523
0.155913
-0.228453
-0.280938
0.340157
-0.0275546
-0.351022
0.303141
0.472903
-0.345807
-0.46093
0.154267
0.0130474
-0.0320983
0.127092
0.0362945
-0.235562
0.0152656
-0.255282
-0.365234
-0.375597
-0.234404
0.302389
-0.137226
0.334777
-0.00466137
0.385032
0.007818
-0.00981667
-0.236969
0.157695
0.383116
0.150955
-0.490319
0.0759151
0.301108
0.349353
0.421423
-0.243278
0.149357
0.157648
-0.33247
-0.580381
0.00880835
-0.202949
-0.172777
0.334134
-0.0239416
0.397979
-0.171814
-0.287292
0.116395
0.354538
-0.150417
0.529405
-0.0241957
0.0941992
0.416405
0.412165
-0.241915
0.177047
0.402725
-0.467167
-0.468705
-0.164755
0.0586895
-0.501239
-0.499723
-0.44813
-0.498691
-0.28242
-0.230995
-0.00535151
-0.206076
-0.314371
-0.203551
-0.406444
-0.265652
0.506169
0.393882
-0.0527531
-0.0456245
-0.455105
0.117732
0.373555
0.194543
0.112264
0.326169
0.22958
-0.415285
-0.0798845
0.4176
0.401291
0.0330802
-0.499335
-0.370505
-0.0211216
-0.353965
-0.386655
-0.289105
-0.0790695
0.247941
0.0388526
0.483018
-0.161194
-0.169858
-0.197181
0.293633
0.0208827
0.403167
0.2325
0.164169
-0.188073
-0.0434836
-0.5164
0.356201
0.368442
0.377841
0.002823
0.205487
0.432545
0.0982607
-0.209095
0.361293
0.122905
0.0620413
0.29547
0.492813
0.333913
-0.13175
0.260553
-0.266679
0.0941499
0.121839
-0.394615
0.0581209
-0.201887
-0.386991
0.397194
0.156601
0.164861
-0.247872
-0.127061
-0.330907
-0.386097
-0.0829567
0.180484
-0.391935
-0.482331
-0.255642
0.464389
0.292093
-0.263225
0.340949
0.180779
0.0507514
0.627604
-0.0428137
0.206731
0.178178
0.159631
0.104081
-0.423741
-0.132882
-0.123431
-0.00151566
0.234339
0.0967316
0.246624
0.0700677
-0.420317
0.0163444
-0.392741
0.403201
-0.41643
-0.0108126
-0.0846704
0.134916
0.496905
0.0989516
-0.195388
0.746697
0.155873
0.428048
0.754891
-0.0143428
0.40945
0.258282
-0.315097
-0.391066
0.481018
0.467173
0.00486191
-0.230001
-0.247905
0.342508
-0.512134
0.385364
0.316821
-0.472479
-0.118442
-0.463208
0.296955
-0.342475
-0.202156
0.00304643
0.285025
0.513235
0.435733
-0.116226
0.566704
0.502408
0.385133
0.427912
-0.462574
-0.309652
-0.182618
-0.531361
0.545242
0.716236
-0.11344
0.33557
-0.308019
-0.229395
-0.249158
-0.26341
0.15152
0.465046
0.0177074
-0.20282
-0.349826
-0.0914986
0.226141
-0.477105
0.247545
0.141319
0.433479
-0.150272
0.102358
-0.0968212
0.159368
-0.181761
-0.217355
0.0247057
0.204761
0.135063
0.554223
0.551235
0.212497
0.0987715
-0.0579826
-0.188963
-0.343851
0.224428
-0.0157424
0.452501
-0.363243
0.28111
-0.0942799
0.2342
-0.346054
0.41493
-0.266211
0.0416422
0.376267
-0.00748641
0.0991469
0.299573
0.140477
0.00823481
-0.586831
0.290128
0.472911
-0.103487
0.249633
0.401678
0.55118
0.399449
0.0449412
0.249463
0.0579951
-0.0928648
-0.0661151
0.353514
-0.263274
-0.487882
0.228428
0.215797
-0.0245102
0.12899
-0.101104
0.17468
0.613898
0.319467
-0.287558
0.0568585
-0.224016
-0.435576
-0.135011
0.280376
0.143664
0.199927
0.0183975
0.144106
0.327738
0.347496
0.102751
0.312663
-0.526332
0.200559
0.340124
-0.118454
-0.336205
0.441736
0.188502
0.0393308
0.403599
0.261261
0.0206185
0.0349015
0.140157
0.355686
0.482172
-0.307133
-0.0173359
-0.558324
0.226112
0.208108
0.036591
-0.0373473
0.8058
0.238296
-0.169624
0.388839
-0.0657565
-0.257802
0.404058
-0.12205
0.21711
-0.0358119
0.37401
-0.222148
0.459057
-0.0901237
0.179853
0.144347
-0.414491
0.280646
0.521142
-0.0516443
0.0152774
0.444078
0.585348
0.512852
-0.138566
0.184506
0.00111709
0.538294
-0.0476637
-0.0174461
-0.150359
-0.35664
-0.452391
-0.486422
-0.483885
0.290855
0.117081
0.320048
-0.266455
0.25777
-0.494041
-0.242831
-0.183445
-0.484366
0.112946
0.200209
0.266652
0.515247
-0.00233868
0.105816
0.498388
0.134457
0.843882
0.260011
0.308393
0.357066
0.198345
-0.00872547
0.370381
-0.522237
-0.0641241
-0.045253
-0.358485
-0.446047
0.425507
-0.234717
-0.148798
-0.352751
-0.24666
-0.140486
0.170955
0.159342
-0.217702
-0.483137
-0.118784
-0.121908
-0.179024
0.134801
0.769881
0.80138
0.121372
0.413662
0.460738
0.31051
-0.552129
-0.664438
0.150831
0.0527316
-0.326155
-0.404031
-0.14905
-0.0027351
-0.460408
0.213958
-0.0581987
-0.245346
-0.4608
0.4642
-0.178916
0.0126862
-0.558761
-0.100987
-0.244316
0.345853
0.340296
0.187331
0.139203
0.31863
0.587589
-0.329774
-0.456859
-0.495636
-0.363146
-0.152253
-0.701561
-0.0699297
0.265572
0.326341
0.016081
-0.364011
-0.273297
0.45545
0.360566
-0.123655
-0.134806
0.209435
0.178885
0.272884
-0.158269
0.0273166
0.0100024
-0.503944
-0.0972997
0.00246367
0.0594336
-0.087148
-0.428102
0.229292
0.237889
0.140383
-0.570393
0.320085
0.140942
-0.166886
0.211946
-0.496416
0.384574
0.372154
0.200132
-0.141588
0.417544
0.167273
0.34627
-0.0387505
0.0974258
0.00866056
-0.44999
-0.647554
-0.151609
-0.158459
-0.327053
0.0406549
-0.387634
0.236022
-0.611444
-0.135916
0.0971919
-0.38627
-0.0874478
0.339321
0.30877
-0.397202
-0.030085
-0.221248
0.0566439
0.303636
-0.373155
-0.29376
-0.0735804
-0.372586
0.259811
0.491283
-0.254726
-0.21977
0.0940667
-0.565612
-0.278609
-0.369894
-0.143642
0.0418659
-0.308563
-0.0856099
-0.115615
0.145883
-0.166134
-0.225948
0.0320479
-0.387601
-0.24611
-0.0168652
-0.0829371
0.0344115
-0.081496
-0.273402
-0.474223
0.023115
0.128438
-0.0196148
0.441786
0.129743
-0.457951
0.0529145
-0.306003
0.12459
0.0622735
-0.250439
0.328914
-0.00919551
-0.168034
0.337715
0.368036
0.318629
-0.194596
0.666037
0.177349
0.462697
0.153212
-0.189075
-0.043167
0.256638
0.339373
0.410996
-0.243996
-0.330137
-0.208129
-0.243002
0.376777
0.440394
0.120028
0.333473
-0.424269
-0.0804448
0.333767
0.115466
-0.560001
0.100844
-0.546347
0.229065
-0.510931
0.0286977
-0.337268
-0.245856
0.407853
0.212113
0.399563
0.480837
-0.227276
-0.163823
-0.46935
-0.150622
0.148285
0.466749
-0.239567
0.374374
0.38532
-0.477814
-0.0368581
0.302428
0.18431
0.0395728
-0.475863
0.424663
0.222574
0.234657
0.12683
-0.0294389
0.388128
-0.0761887
0.279045
0.353147
0.310626
0.500725
0.453701
0.194668
-0.153554
-0.00161341
0.0503076
0.126729
0.175244
-0.113209
-0.488258
-0.129055
0.367009
-0.488217
0.458503
-0.214364
0.21513
-0.185786
0.0238118
0.34921
-0.264671
0.438938
0.118863
-0.388235
-0.0108141
-0.182492
-0.154602
-0.421045
0.379561
0.359876
0.0187964
-0.358851
-0.0391857
-0.133282
0.415467
0.147356
-0.18845
-0.402314
-0.0627003
-0.0928861
-0.22172
-0.202315
-0.134501
0.449041
0.0851523
-0.258213
0.183496
-0.200543
0.231276
0.0211512
0.404557
-0.158656
0.348611
0.318003
0.301122
0.134669
-0.00887442
-0.403856
-0.109833
-0.19995
0.372969
-0.465715
0.418116
0.497333
0.12983
-0.121727
-0.440649
0.191922
-0.398866
0.363411
-0.482001
-0.366134
-0.0720229
-0.0106757
0.0113654
-0.180744
0.0276387
0.340997
0.403625
-0.0746896
0.323367
-0.412585
-0.347374
0.307611
0.00324631
0.251981
0.318858
0.405111
-0.303118
-0.487454
0.265773
0.0251208
0.183308
-0.443345
0.196714
0.0984648
0.217398
-0.157895
0.403243
-0.262856
-0.0370088
0.272822
0.496645
-0.0785705
0.118125
-0.346328
-0.228036
-0.0953799
0.00538263
-0.40762
-0.29475
-0.123444
0.214405
0.0997019
0.334218
0.341064
-0.280289
-0.243418
0.423788
0.030471
-0.140556
0.192106
0.106172
-0.157302
0.0917467
-0.0329624
-0.194355
-0.324168
-0.218428
-0.486476
0.24502
0.23665
-0.309428
0.216021
-0.38043
-0.205764
0.228961
0.139725
0.144042
0.423094
-0.171055
-0.0470197
0.244114
0.111424
0.298073
-0.433382
0.151193
-0.386647
0.0537577
0.17956
0.222277
0.173923
0.154267
-0.376779
-0.181033
-0.41609
-0.321498
-0.450431
0.220484
-0.409353
0.428866
0.335943
0.387691
-0.0784765
0.527287
-0.0811836
0.0411033
-0.336657
-0.184367
-0.291127
-0.217647
-0.42703
-0.50048
0.0438737
-0.262494
0.0308982
0.0789893
-0.447698
-0.0660365
0.0170149
-0.442016
-0.0420013
-0.010667
-0.340498
-0.245253
0.458701
0.0399725
-0.269335
-0.131108
0.215591
-0.0276474
0.628066
0.369754
0.0943071
0.420888
-0.185496
0.435263
-0.176396
-0.461991
0.384057
-0.00975045
0.371755
0.0569588
0.0137472
0.399252
-0.053255
-0.0838746
0.346233
0.0408808
-0.174436
-0.185963
-0.373883
0.442041
0.194594
0.171242
-0.0226112
-0.282916
0.0560423
0.257165
0.481854
-0.0798069
0.50744
0.370236
-0.169233
0.19608
-0.301456
0.121865
0.330442
-0.510911
0.0626296
0.12465
0.0025431
-0.0444997
-0.455568
-0.395079
-0.0435957
-0.165711
-0.47335
0.145227
0.0130844
-0.293212
0.488838
-0.0311696
0.643124
-0.17018
-0.381811
0.130923
-0.0876635
-0.260073
0.218487
0.292678
-0.0795937
0.471445
0.51035
0.00925243
-0.0976017
-0.470363
-0.202933
0.311167
0.320999
0.0124895
0.188952
-0.482133
0.394833
-0.258359
-0.317322
0.188144
0.173235
-0.00475547
0.295251
0.469297
-0.0564755
-0.200046
0.132751
0.426987
0.15148
0.173267
0.118982
-0.106673
-0.211308
-0.154611
-0.388136
0.29305
-0.374379
0.382418
0.382011
-0.660827
-0.178063
0.163595
-0.007752
0.061489
-0.485167
0.271871
0.480575
-0.296735
-0.116046
0.312943
0.515625
0.258915
-0.308492
0.459986
0.230353
0.184489
0.00831435
0.0841701
0.509647
0.780685
0.820179
0.190578
0.201832
0.387325
0.30616
-0.236114
-0.417917
-0.0603863
-0.112652
-0.283425
-0.299855
0.309626
0.154661
0.226209
-0.174569
0.0571894
0.304424
-0.01093
0.503426
-0.0342895
0.401305
0.214943
-0.404605
-0.118012
-0.457861
0.451043
-0.047177
0.125579
0.00957666
0.0197826
-0.00766105
-0.0120623
-0.151318
0.456945
0.06991
-0.384281
-0.211564
0.0370551
-0.0383816
-0.354167
0.0899336
0.494374
-0.454612
0.32706
-0.0852181
0.420367
-0.0568752
-0.291727
-0.355152
-0.352068
-0.250633
-0.295169
0.186348
-0.323405
-0.170018
-0.174614
-0.225959
0.581613
0.334213
0.00139196
-0.344305
0.104309
-0.136167
0.49148
-0.324721
0.34559
0.307468
-0.315131
0.288458
0.370188
0.25755
-0.447756
-0.426361
-0.437642
0.099013
0.236404
-0.14453
-0.516439
-0.0437239
-0.753479
-0.148149
-0.443523
-0.571374
-0.363229
-0.35154
0.184948
0.218675
0.0649268
0.365741
-0.344161
-0.0197436
-0.125943
0.526497
-0.057451
-0.282344
0.309189
0.254188
-0.343318
0.050901
-0.106602
0.413977
-0.0870898
-0.122013
-0.304653
-0.558267
-0.0826624
-0.336213
-0.650171
-0.302856
-0.202318
-0.969132
-0.124642
-0.448022
-0.502709
-0.44442
0.17258
0.299592
0.0749192
-0.137482
0.511747
-0.277097
0.276728
0.339283
-0.409936
-0.0988859
0.316681
0.180063
0.3244
0.30975
-0.285589
0.330883
0.200499
-0.0936839
-0.448305
-0.218068
0.0382502
-0.686697
-0.484787
-1.05865
-0.0298437
-0.421606
-0.501343
-0.0382498
-0.188664
0.195171
0.364036
-0.0783739
0.194899
0.319451
-0.290632
-0.435711
0.0684199
-0.364505
-0.294402
0.354971
-0.111485
-0.302686
0.0733322
0.168004
0.058107
0.0986484
-0.363421
0.287296
-0.168199
-0.503381
-0.278993
-0.601261
0.0236954
0.115499
-0.394252
-0.0218328
0.0264146
0.415358
0.171411
-0.0960284
0.443454
-0.371312
0.380206
-0.340687
-0.364516
0.130251
-0.0378575
0.0571562
0.280817
0.0923079
0.390352
0.422728
0.537632
-0.257552
0.05466
-0.108036
-0.313249
-0.458984
-0.848401
-0.453734
-0.705148
-0.524088
-0.53119
-0.0685751
-0.384814
-0.11891
0.0356573
-0.234094
-0.313033
-0.327848
0.06258
0.0820159
0.0163524
-0.138674
-0.0216612
0.401771
-0.194172
-0.142747
-0.343276
0.142411
0.257212
0.00439287
-0.131692
0.35583
0.22844
0.146151
0.155926
-0.19456
0.239452
0.373128
0.0253211
-0.152368
0.111358
0.206959
-0.428163
-0.376718
0.223799
0.149221
-0.193947
-0.25251
-0.0279862
-0.0131457
-0.106065
0.0158229
0.213428
-0.280855
-0.305645
0.283116
0.505299
0.226716
0.872212
0.220796
-0.136691
0.115445
-0.0189116
-0.174345
-0.26241
-0.331889
0.362947
0.178437
-0.440024
0.301299
0.432698
-0.193968
0.401941
-0.13025
0.473514
-0.116383
0.483825
-0.0383729
0.313387
0.257324
-0.148535
0.000259635
0.402473
0.472801
0.157169
0.513038
0.0501359
0.675367
0.359752
0.400991
-0.326186
-0.0231307
0.520905
-0.171056
0.391617
-0.145965
0.146116
-0.390039
-0.175852
-0.321039
0.308785
-0.150804
-0.31179
-0.41072
0.124821
-0.465028
0.490679
0.369183
0.0449005
0.353919
0.369009
0.0528302
0.244384
-0.327405
-0.150524
0.527002
0.32749
-0.13949
0.247699
-0.125774
-0.347955
-0.258205
-0.295052
0.0237663
0.434647
-0.243347
0.265922
-0.162313
0.550267
-0.130493
-0.182512
0.149806
0.139971
-0.00779229
0.0825846
-0.260147
-0.176519
-0.103173
-0.27244
-0.365138
0.089102
0.384212
0.377727
0.323374
-0.127613
0.325159
0.0325678
0.449164
0.0837929
-0.0265435
-0.43383
0.425893
0.0880225
-0.266569
-0.0190636
0.208267
0.0621215
0.458773
0.366487
0.250142
0.280161
0.0415733
-0.191308
-0.305669
0.27957
0.357726
0.402846
0.361356
-0.216465
-0.0814926
0.00906183
0.296086
0.386671
0.0115618
-0.417553
0.150922
0.056411
-0.205253
0.34591
-0.0946792
-0.145112
0.146166
0.556102
0.553766
-0.325992
0.202647
0.388751
0.33452
0.322731
0.481753
-0.217138
-0.493473
-0.346761
-0.209616
0.45233
-0.199515
0.2737
-0.228386
-0.169693
0.109607
0.144366
0.120236
0.260602
-0.0990425
-0.0452976
-0.437084
-0.403985
-0.447942
-0.325302
-0.341506
-0.300078
0.368888
0.0704856
-0.369549
-0.0735977
-0.45833
0.285932
-0.407547
-0.379172
-0.281533
0.0791468
0.239975
0.326035
-0.340568
0.240125
0.404914
-0.190085
0.346978
-0.275758
-0.0813195
-0.00673139
0.00666654
0.167053
-0.472242
-0.0744953
-0.0701982
0.236873
-0.20115
-0.370641
0.404515
0.117297
-0.273845
-0.342551
0.450998
0.0393143
0.351358
-0.478315
-0.119309
0.199048
0.0301939
-0.335534
-0.392713
-0.193144
-0.399011
0.148007
0.498792
-0.3038
-0.341698
0.11844
0.0666288
-0.237023
0.335529
-0.0272471
0.207458
-0.108373
0.35191
-0.0205093
0.370278
0.493642
0.0904549
0.365485
-0.427268
0.475579
-0.19503
-0.19665
-0.293746
-0.0420955
0.384381
0.0539334
0.271509
0.363631
0.446098
-0.248052
0.21074
-0.388207
0.526253
-0.228448
-0.478958
0.015949
-0.190307
0.316246
0.496237
0.0431027
-0.380494
-0.179761
0.316312
0.12351
0.411003
-0.208734
-0.27431
0.242246
-0.23573
0.438724
-0.153766
0.232532
-0.0829111
-0.218992
0.251468
0.167512
-0.396389
0.486142
-0.263376
-0.179029
0.352671
-0.389832
-0.409124
0.036211
-0.112342
0.224927
0.0653079
0.226544
0.340194
0.428596
-0.350826
-0.419361
0.109857
0.248678
-0.279633
0.18153
0.336222
-0.304237
-0.104029
0.353682
0.295438
-0.370271
-0.30696
0.224731
0.428896
0.275346
0.046938
-0.373996
-0.435332
-0.107079
0.122539
-0.357873
0.167504
-0.0215169
-0.196761
-0.155431
-0.0219034
0.327274
-0.419681
-0.145052
-0.491591
-0.0305761
-0.496749
0.285284
0.0504902
0.0143356
-0.367944
0.458729
-0.462145
0.093976
-0.32064
0.378763
-0.114575
-0.232352
-0.0443236
0.310745
0.178648
-0.170143
0.222602
0.0937213
0.0452871
0.184013
-0.042221
0.153857
0.453329
-0.481305
-0.366634
0.445174
-0.18018
-0.145056
-0.276383
-0.180436
-0.479589
-0.388768
-0.412199
-0.138097
0.211052
0.0742392
-0.309208
-0.247937
0.359017
-0.394292
-0.234889
-0.335433
0.428791
0.130086
0.0591336
-0.125662
0.0833336
0.325796
-0.1555
0.396551
-0.135204
-0.166831
-0.116259
-0.249963
0.140175
0.434756
0.102766
-0.0206268
-0.431352
-0.0109566
-0.481247
0.385426
-0.261746
-0.445957
-0.386684
-0.373647
-0.0833472
-0.247023
0.483385
-0.384052
0.108437
-0.424463
-0.197988
0.0223742
0.20424
-0.120971
0.347942
0.110784
0.286727
-0.073001
0.471633
0.424379
-0.0734595
-0.00905824
-0.39219
-0.400614
0.420773
0.294242
-0.0102332
0.164372
-0.366226
-0.232745
-0.15938
0.447158
-0.00460832
-0.095208
0.0879611
0.0179325
-0.344055
0.362562
-0.0750415
-0.172301
-0.028416
-0.455627
-0.463527
-0.0650391
-0.463726
0.229549
0.247966
0.444214
0.156518
0.308525
-0.344424
0.243363
0.403112
0.384638
-0.481415
-0.363552
-0.0920988
-0.105413
-0.0714263
0.309034
-0.0558971
-0.136877
-0.283726
-0.0941087
0.419159
0.105653
0.119164
0.522939
0.24247
0.267352
0.252234
0.116724
0.317627
-0.049721
0.194484
0.394721
0.356367
0.184619
-0.0311046
-0.173237
-0.483391
0.442016
-0.496605
0.157003
0.150209
0.398212
-0.291002
-0.176713
-0.266254
-0.373031
0.32422
0.0865132
-0.228566
-0.438026
0.33231
-0.0203908
0.101329
0.220476
0.0372307
-0.483776
-0.0465183
-0.307015
0.187335
-0.399809
-0.442377
0.041599
-0.310679
0.382339
0.374217
0.456927
0.0918424
0.192121
-0.0325969
0.34819
0.4379
-0.432011
0.459956
0.0913348
-0.0453289
-0.57544
-0.374372
0.355781
-0.476102
-0.0314405
-0.235671
-0.213282
0.172892
-0.0501412
-0.308514
-0.359248
-0.472824
0.352776
-0.389001
-0.33471
-0.3914
-0.270888
-0.278964
0.436947
-0.437264
0.0226058
0.472949
-0.0496765
-0.213685
-0.333285
-0.24218
0.420058
0.147737
-0.0140049
-0.357019
0.217095
-0.0940444
-0.0399494
-0.145047
0.0189421
0.336076
0.272807
0.330074
-0.046315
0.382294
0.412809
-0.135657
-0.456566
0.478803
-0.0516637
0.441515
0.47028
-0.318954
0.462038
-0.112193
0.200562
0.471497
-0.228916
0.237473
-0.388742
-0.413482
-0.46065
0.109712
-0.181505
-0.426332
0.422399
-0.135912
-0.0973575
-0.0793964
0.271805
-0.336295
-0.239932
-0.263118
0.274821
0.139808
-0.378939
-0.480631
-0.197466
-0.0348621
0.11141
-0.449421
-0.384938
0.0246918
-0.127783
0.441465
0.0887648
-0.383507
-0.404732
0.0624168
-0.542965
-0.658518
0.177152
0.0319841
-0.0926467
-0.081714
0.28291
-0.222476
-0.289279
-0.111205
-0.450216
-0.374567
-0.349618
0.471716
0.409541
-0.327254
0.390236
-0.141095
0.124855
0.108048
-0.234405
-0.0232356
0.361824
-0.169254
0.0861576
0.211642
-0.0616396
0.0415275
-0.159891
-0.0436722
0.0864175
0.180051
0.700923
0.21883
0.516315
-0.141203
-0.1233
0.315217
0.333986
-0.304765
-0.0891658
-0.440931
0.0350061
-0.436118
-0.301034
0.473359
-0.0398612
-0.435852
0.346272
-0.207614
-0.149016
-0.4482
0.0773922
-0.452161
-0.261351
-0.342638
-0.0483984
0.0993386
0.416282
-0.0817943
0.770941
0.652106
0.0977512
0.222963
-0.00551323
-0.249009
-0.310257
0.339667
0.257622
-0.477088
0.0254386
0.208059
0.100751
0.183653
0.312901
-0.22426
0.277121
-0.341336
-0.407387
0.347738
-0.181429
0.106957
-0.337582
-0.699852
0.0687937
-0.0451972
-0.073312
0.861718
0.484774
0.220127
0.840726
0.0338666
0.0609205
0.24287
-0.243687
0.354696
-0.503192
0.045567
0.0206731
0.466713
-0.280079
-0.0359344
0.163144
-0.414465
0.0476649
-0.281916
-0.197176
0.488698
0.218295
-0.158538
-0.0119719
-0.0056679
-0.559733
0.222543
0.0147775
0.600439
0.653466
0.233858
0.667915
-0.0802622
0.246916
0.168149
-0.376835
-0.176699
-0.466858
0.348417
-0.486829
-0.236218
0.266665
-0.476252
0.451302
-0.418401
-0.0432222
0.249678
-0.384518
-0.304602
0.186777
0.340517
0.211498
-0.0349026
-0.488088
-0.0932544
0.498507
0.0258367
0.441923
0.765105
0.530168
0.522552
0.528342
0.190947
-0.343394
-0.423696
0.327581
0.175484
0.205406
0.124875
0.140455
0.0651671
0.347968
0.331909
-0.23526
0.0283419
-0.431278
0.436825
0.231832
0.263989
0.302143
-0.137212
-0.267752
0.38107
0.699715
0.809862
0.746014
0.161948
0.706463
-0.235006
-0.324673
0.252137
0.351867
0.337008
-0.102222
0.0395716
0.141153
-0.37321
-0.334522
0.460123
0.479665
-0.301531
0.191676
0.121684
-0.0395881
0.38972
0.0840529
-0.0920798
-0.00358275
0.292929
0.420657
0.190285
0.588013
0.848193
0.112707
0.618248
-0.00453051
0.0271052
-0.273269
-0.409962
-0.387488
-0.262298
0.0286921
-0.0742806
0.243572
0.25128
-0.369725
-0.446447
0.096514
-0.383051
0.2104
-0.0948636
-0.177944
-0.0215701
0.0548822
-0.201749
0.113169
-0.301444
0.173914
0.48765
0.540434
0.785448
0.599298
0.141149
-0.429937
-0.66544
0.150833
0.0458489
0.00114189
-0.534401
0.310227
0.322474
-0.124567
0.00631785
0.176576
-0.0544222
0.150638
0.160155
-0.494722
0.464637
-0.0138632
-0.556317
-0.0772575
-0.165758
-0.19293
-0.146051
-0.230572
0.458863
0.613965
0.84384
-0.0825086
0.0316573
-0.757129
-0.181077
0.294143
0.279693
0.106877
-0.545054
0.0844677
-0.391455
0.256853
-0.407049
0.348778
-0.379547
-0.0864567
0.00274096
-0.143602
0.129457
0.171837
0.0394647
-0.297512
0.0777113
-0.09039
0.369477
0.408762
0.132569
-0.0503955
-0.0886334
0.313
-0.135134
-0.211148
-0.21741
0.167403
-0.500204
-0.0226135
0.340516
0.400064
0.228742
-0.479705
0.367582
0.148339
-0.394574
-0.190163
0.444994
-0.0299893
0.112051
-0.450722
-0.0861376
0.373016
0.0526845
-0.200603
0.0128979
0.0157928
-0.126997
-0.0606686
0.0793567
-0.0522645
-0.270702
-0.0846542
-0.501031
-0.265154
-0.0843646
-0.257719
-0.215493
0.408628
0.0158734
0.241787
0.0622488
-0.0192493
-0.045166
0.309649
0.11577
0.0721602
0.13533
-0.216891
0.271251
-0.0252393
0.0110506
-0.30865
0.00163277
-0.111466
0.446624
-0.106931
0.438702
-0.185889
-0.183163
-0.286614
0.0695121
-0.195548
-0.0555225
0.0654397
-0.365941
-0.155322
0.0152736
0.454722
0.14213
0.0325408
-0.476275
0.251036
-0.232579
-0.387521
0.23469
-0.14324
-0.513031
-0.422024
-0.099517
-0.0223656
-0.29599
0.337188
-0.465358
0.0519236
-0.0785116
-0.153671
0.165408
-0.152997
-0.240763
0.26081
0.313777
-0.130662
-0.262241
0.268533
0.0654901
-0.177199
0.3794
-0.0507739
-0.0075863
0.0976394
0.0616297
-0.167241
0.343403
-0.198881
-0.346422
-0.166713
0.279469
0.013219
-0.0572544
-0.235069
0.064421
-0.490103
-0.205615
-0.138467
-0.0807588
0.432512
0.086929
-0.182982
0.48321
0.0632561
-0.232573
0.300749
0.265763
0.162851
-0.218079
0.480056
0.227338
-0.381581
0.173725
-0.252544
0.485277
0.211773
0.343582
0.19032
-0.441531
-0.151217
0.127412
-0.0778998
-0.167279
-0.246155
0.152266
0.00684228
-0.240538
-0.0943956
0.260023
-0.0404105
0.486943
0.206739
0.258342
-0.385315
-0.0377385
-0.132939
-0.103924
0.00300664
-0.227516
0.201739
0.476516
0.0936921
0.164835
0.42203
0.268332
0.223706
-0.414634
-0.161819
0.0637168
-0.109334
-0.0975548
-0.100104
-0.18008
-0.137265
0.300819
-0.05711
-0.34696
0.30806
0.512216
-0.0870609
0.460388
0.317265
-0.114205
-0.408742
-0.295034
0.270475
0.12019
-0.307012
0.132273
-0.477128
0.279776
0.423803
0.195444
0.498167
-0.274721
-0.369476
-0.426596
0.0881778
0.328809
-0.412468
0.42792
0.0565079
0.199721
-0.370928
0.19286
-0.353561
-0.0464259
-0.0587703
0.056283
0.285267
0.30817
0.492162
0.341886
0.319651
0.150781
-0.118978
0.234757
-0.105531
0.109281
0.355222
-0.450079
-0.0355827
-0.430233
0.0454507
-0.0470753
-0.432181
-0.273296
-0.453991
-0.407775
0.225158
0.462057
-0.488058
0.463831
0.154677
0.278628
-0.439828
-0.428348
-0.397414
-0.210309
0.496054
-0.110902
-0.482574
-0.0888712
-0.291567
0.194685
-0.319901
0.229642
-0.0221351
0.376385
-0.222363
0.303347
-0.290598
0.066941
0.440252
-0.162301
-0.4515
0.367594
-0.173633
0.0262727
-0.0727343
0.250813
0.0712746
-0.128358
-0.0797591
0.455029
0.276832
-0.220491
-0.0864479
0.202385
0.375193
0.458093
0.125786
-0.081893
0.238428
-0.330084
0.102128
-0.253119
-0.173564
-0.165828
0.111646
-0.317315
0.182968
-0.304378
0.36592
-0.370006
0.264711
-0.0426908
0.0150316
0.195471
0.0419233
0.17879
-0.0333518
-0.193917
0.0580803
0.486318
0.10275
-0.00183278
-0.0217213
0.284589
0.261745
-0.187768
-0.154937
-0.392322
0.288872
-0.0917808
-0.292903
-0.327177
-0.275417
-0.23518
0.445719
0.177323
0.0714507
0.128492
-0.320178
-0.07868
0.464478
0.331703
-0.0588236
0.0581601
0.194479
0.491762
-0.495425
0.0968947
-0.440835
0.345661
0.403542
0.447408
-0.241327
0.359385
0.212791
0.357867
-0.154048
0.0904473
0.392065
-0.504201
-0.11661
-0.236034
0.0420284
0.161124
0.133983
-0.354967
0.375078
-0.0860237
0.529876
0.177723
-0.0975059
0.161787
-0.168322
-0.0495853
-0.0484126
-0.0310211
-0.00221937
-0.174048
0.250274
-0.0701588
-0.372666
0.349643
0.297028
0.383127
-0.199686
0.106131
0.0943853
-0.463493
0.111778
-0.0118027
-0.38097
-0.179757
-0.196495
-0.586831
0.162024
0.514067
0.310585
-0.0602522
0.446629
0.400703
-0.265055
0.155159
0.452501
-0.306272
-0.272218
-0.493456
0.339032
-0.272049
-0.329956
0.407653
0.477252
0.352707
0.306275
-0.160303
-0.582098
-0.283727
-0.485892
-0.705147
-0.0289179
-0.405225
-0.0745228
0.181098
0.254888
-0.367383
0.18663
0.19757
0.115931
0.158846
0.132085
-0.0428529
-0.0260721
-0.126677
0.482795
-0.261962
-0.25409
0.102956
-0.0929967
-0.138757
0.190776
-0.502082
0.0357972
0.159214
-0.0251624
-0.402776
-0.511853
-0.465339
-0.689946
-0.273834
-0.426605
0.100549
-0.0877017
0.377958
0.115754
-0.184508
0.0642191
0.59162
0.456786
-0.159575
0.18225
-0.182371
-0.216598
-0.398426
0.331877
-0.0424457
0.43745
-0.320597
0.133231
0.14845
-0.204991
0.223002
-0.0730977
-0.135273
-0.110442
-0.350206
-0.74154
0.261739
0.183435
-0.0626955
-0.230648
0.247885
-0.507501
0.149007
-0.324832
0.00224383
0.0134863
0.437743
-0.451746
-0.319388
-0.0322093
-0.238549
-0.408326
0.254045
-0.01845
0.0576548
-0.269646
0.378429
-0.384654
0.0183312
-0.354011
-0.311479
-0.65293
-0.755867
0.247667
-0.311432
0.15103
-0.123055
-0.298266
-0.137735
-0.199226
-0.0737655
-0.409305
-0.494926
-0.0331275
-0.616855
-0.51849
0.395396
-0.0947338
0.22758
-0.0562292
-0.394504
-0.303662
0.364943
0.29703
0.256301
-0.140708
-0.36776
-0.0585468
-0.501415
0.0874174
0.0525136
-0.194174
-0.118541
0.611938
-0.156331
-0.114306
-0.340852
-0.694124
-0.852756
-0.156998
-0.0430517
-0.159674
0.00313331
-0.0825987
0.34566
0.18256
-0.335375
-0.478154
0.287132
0.33736
-0.270755
-0.356591
0.430274
-0.281931
0.302025
-0.675149
0.106765
-0.097817
-0.253355
0.388818
0.35733
0.219023
0.0901702
0.00695048
0.136627
-0.542295
-0.446428
-0.230556
-0.253981
-0.660714
-0.704922
0.0932754
-0.501352
-0.116453
-0.465451
0.180624
-0.415451
-0.394732
-0.00201663
-0.382872
-0.00733403
-0.331873
0.330973
-0.298245
-0.613178
-0.442995
0.19771
-0.210687
0.183292
-0.263848
-0.177721
-0.206853
0.204098
-0.560332
-0.276281
-0.112011
-0.406445
0.0219168
-0.0382391
0.328631
-0.486152
-0.281591
0.483233
-0.114676
-0.177788
0.209035
-0.280934
0.315905
-0.205112
-0.335751
-0.643402
0.126958
-0.33099
-0.192263
0.595408
0.189958
0.542742
0.367055
0.437623
-0.00883669
-0.0997276
-0.0384755
-0.297245
0.149683
0.157279
0.127544
-0.286627
-0.155899
0.263715
0.350999
-0.388291
0.1784
0.448612
0.100523
-0.450811
-0.107702
0.410973
0.284524
-0.0992125
-0.131237
-0.202585
0.0215005
0.00078621
-0.127381
0.54883
0.20562
0.814564
0.600836
0.288919
-0.0804696
-0.385023
0.309794
-0.485111
-0.112108
-0.0117745
0.260748
0.115442
0.0747099
0.0762137
0.332271
0.270849
0.447474
-0.0506759
0.236704
-0.160197
0.353923
0.117174
0.387525
0.11237
-0.122599
0.535711
-0.0251845
-0.178741
0.181501
0.0983201
0.262547
0.336705
-0.623054
-0.482516
0.389895
0.124759
0.147269
0.424072
-0.527403
-0.149893
-0.0084245
-0.335192
0.240689
0.163356
-0.219324
-0.0991757
-0.466304
0.397809
-0.0104446
-0.384616
-0.36722
-0.27635
0.00817711
0.112765
0.0479879
0.0394583
-0.0540777
0.190804
0.144174
0.151109
0.116605
-0.349651
-0.18636
0.295062
-0.118351
-0.0106739
-0.215924
0.0913854
0.291487
0.0747075
-0.498891
0.417572
0.251119
0.139687
-0.254216
0.0120777
-0.432592
-0.483921
-0.477571
-0.255809
0.062576
0.174763
0.0672798
0.124549
0.478117
-0.092482
0.133362
-0.0500319
-0.70891
-0.0858907
-0.450874
0.320537
-0.518655
-0.23644
-0.0799953
-0.27729
-0.5145
-0.185015
0.357919
0.221025
0.340713
-0.306
-0.467313
0.0732485
0.0514539
-0.275228
-0.236424
-0.351559
0.348898
0.323263
0.639636
0.299735
0.317835
0.462901
-0.212521
-0.201524
-0.348185
-0.0511641
0.177734
0.368845
-0.0181693
-0.0361055
-0.583655
0.374795
0.182759
-0.166504
-0.260221
-0.0496941
0.443341
-0.47327
0.112286
0.0596137
0.272796
0.125016
0.0179711
0.124128
-0.411641
0.0505325
-0.27169
0.294186
0.116513
0.352149
0.256026
0.0660329
-0.61592
-0.257221
-0.242436
0.181534
-0.0278919
-0.300444
0.0562607
0.0379614
-0.401233
-0.431398
0.294462
0.0565808
0.1352
0.319147
-0.186618
-0.0300677
-0.34456
0.224965
-0.443708
0.000879559
0.101474
-0.250107
0.416191
-0.162739
0.445605
-0.038397
-0.112252
-0.355029
-0.00944512
0.416986
-0.00797067
-0.401258
0.241226
-0.168337
-0.0548852
-0.139949
-0.259838
-0.39941
-0.102936
0.0580898
-0.350891
0.131003
-0.11234
-0.562525
0.262381
0.100425
-0.599332
0.319367
-0.247171
0.398707
0.19788
-0.298092
0.212183
0.46507
-0.0923025
0.309108
-0.00894983
-0.432299
-0.340787
-0.00987252
-0.163734
-0.526893
0.311823
0.329289
-0.409799
0.306586
-0.181397
-0.383542
-0.291786
0.122029
-0.458941
0.0553655
0.18861
-0.563653
-0.257518
-0.307978
-0.313013
0.289503
0.352723
0.149526
-0.00923502
-0.267998
0.174141
-0.237133
-0.284765
0.105593
-0.335409
-0.271673
-0.298057
-0.145296
-0.512884
-0.153425
-0.0493603
0.05993
-0.408271
-0.491431
0.0501595
-0.145499
0.0937877
-0.0209881
0.429054
0.315653
0.258625
-0.319884
-0.0703507
0.261596
-0.267116
0.149405
0.0608276
-0.00180072
0.317331
0.264489
0.00319056
0.141584
-0.296906
0.0179333
0.390905
0.381482
0.173118
0.269824
0.458531
-0.101122
0.251035
0.334311
-0.393457
0.410535
-0.464046
-0.27699
-0.0462454
0.346838
0.209618
0.22895
0.18459
-0.0847063
-0.575879
0.0581416
-0.475854
-0.442315
-0.00319043
0.119008
-0.000781575
-0.453037
0.215737
0.122894
-0.303141
0.407428
-0.135288
0.413382
-0.0404887
-0.137901
-0.435904
0.334408
0.0482051
0.135609
0.139209
-0.310657
-0.100905
0.329908
0.425879
-0.119629
-0.301141
0.230632
-0.288824
-0.568411
0.0745306
-0.0120827
0.322007
-0.263516
0.411017
0.120111
-0.191455
-0.293358
0.237008
0.0400894
0.184195
0.316392
-0.368705
-0.312687
0.27116
-0.0541103
-0.18984
-0.412079
0.108545
-0.263029
-0.332068
-0.416444
-0.23845
0.0821961
-0.552827
-0.158713
-0.477952
-0.541483
0.245671
-0.234053
-0.243041
0.325557
-0.116645
0.194061
0.134931
-0.130026
0.42336
-0.296762
-0.332877
-0.330738
-0.308511
0.00182778
0.181991
0.490682
-0.474021
-0.0202507
0.19887
0.241515
-0.308275
-0.0441335
-0.0581488
-0.420676
0.152832
-0.532119
0.0752418
-0.316887
-0.517311
-0.105536
-0.471059
-0.142001
0.285639
0.22205
-0.205375
0.250654
0.2971
0.222094
-0.233288
-0.498176
-0.414224
-0.429907
-0.22157
0.488888
-0.414282
-0.368449
0.0954108
-0.440328
0.443511
-0.147195
0.45712
-0.227473
0.0579216
0.46381
0.437001
-0.443634
-0.190958
0.23931
-0.368097
-0.0938277
0.175551
-0.311128
0.0395943
0.000565674
0.164059
-0.182238
-0.413254
-0.24081
-0.476057
-0.149845
-0.236304
0.454599
0.325445
-0.105852
0.256013
-0.000102162
0.356984
0.00492007
0.408461
-0.138411
0.105836
0.0599869
0.0649085
-0.406486
0.140256
0.317625
0.0850745
-0.485714
0.215201
0.255661
0.0830348
0.318353
0.340465
-0.0147569
0.409363
-0.303431
-0.468504
-0.130757
0.311941
0.140464
-0.0522121
-0.491377
-0.307133
-0.310831
-0.280741
-0.367354
-0.0560733
0.338047
0.198406
-0.488373
0.14911
-0.0994565
-0.299869
0.241859
0.418115
-0.413718
-0.164929
0.368688
0.214384
0.176033
-0.0205395
0.171959
-0.343719
-0.286223
-0.292992
-0.395436
-0.486987
0.109272
0.246362
0.137208
-0.19443
-0.202848
0.208087
-0.397975
-0.07743
-0.102478
-0.308617
-0.152589
0.271191
-0.335271
-0.409563
0.168788
0.0694686
0.0936336
0.0830482
0.466057
-0.0573148
0.30175
0.354639
-0.313837
0.052869
-0.0927738
0.45
0.27797
-0.450779
0.0762741
-0.0213192
-0.230367
0.0666985
-0.277739
0.156777
0.154052
-0.310771
0.467736
-0.0400773
0.0415054
0.275537
-0.136015
-0.287106
-0.252219
0.11349
0.237952
-0.51596
0.061875
-0.217129
-0.431616
-0.440878
0.334025
0.194363
-0.452404
-0.230855
0.326746
0.28558
0.299165
-0.378365
0.186433
0.419991
-0.0588076
0.327668
-0.437357
0.379339
-0.0783946
-0.313586
-0.472755
-0.283473
0.037532
-0.0979107
-0.267382
-0.0763981
-0.218881
0.3783
0.387129
0.390504
-0.254311
-0.0266067
-0.420883
-0.268603
-0.153008
-0.412519
-0.127608
0.472523
0.394784
0.283779
-0.361208
-0.13131
0.0968628
0.372373
0.324236
-0.296102
0.35004
0.155825
-0.254207
-0.285842
-0.541024
-0.0447181
-0.000851577
0.271277
-0.257828
-0.0271508
-0.0691423
0.192266
0.35719
0.231295
0.320453
-0.0533801
0.0229773
0.059203
0.300512
-0.460586
0.0153878
-0.131139
-0.400871
-0.264855
-0.489377
-0.0103026
0.127698
-0.164019
0.206669
-0.122688
-0.379329
-0.60365
-0.343808
-0.377161
-0.45918
-0.411037
-0.615422
0.298261
0.385991
-0.43054
-0.187351
0.199561
0.173243
0.307401
0.176066
-0.309546
0.379629
