-0.988985
0.33844
-0.423945
0.440729
0.94409
0.13025
0.469296
-0.714561
0.976084
0.0335885
0.140306
0.194061
0.707219
-0.0796309
0.270903
-0.762637
-0.606641
-0.595975
-0.128249
-0.855632
0.776622
0.543935
0.572227
0.671394
0.0151159
-0.799766
-0.151578
0.991618
0.943773
-0.969498
-0.893888
-0.0909308
0.94733
0.846063
-0.857704
-0.522421
0.598426
-0.102867
0.370532
0.150329
-0.0713964
0.580733
-0.62431
-0.65472
-0.0436025
0.194731
-0.615022
-0.082373
0.668766
0.633894
0.810218
0.411907
-0.509131
0.00579882
0.726533
0.832646
-0.832819
0.238598
-0.952984
-0.566737
-0.962253
0.3149
0.110667
0.426977
-0.257852
0.131763
0.207505
0.586791
0.767266
-0.460075
0.387833
-0.40442
-0.146493
-0.852365
0.0522013
-0.752259
-0.330361
-0.599875
-0.400862
0.887357
-0.491672
-0.834181
0.775304
-0.61708
0.12822
0.238529
0.143876
0.0463003
0.703042
0.175845
0.983818
-0.569163
-0.234741
0.376723
-0.102707
-0.612348
-0.266142
-0.658129
0.420256
-0.363508
-0.996056
-0.679591
-0.0548544
-0.811444
0.348892
-0.24835
0.455452
0.975964
-0.526263
0.147053
0.820936
0.740134
-0.362063
-0.370157
0.274566
0.107611
-0.893956
0.357775
-0.807452
0.578221
0.918511
-0.68461
-0.609655
0.934426
0.838053
-0.563946
0.105918
-0.0999492
-0.0329151
-0.26051
0.833117
0.135656
-0.734287
-0.704806
0.0688518
0.509157
0.352111
-0.390114
-0.232337
-0.0222131
-0.961715
0.390982
0.878967
-0.335688
-0.983731
-0.368899
-0.661648
0.591548
-0.363196
0.100902
0.14165
-0.0202006
0.34957
-0.621416
0.209633
-0.940323
0.546395
-0.952105
-0.566071
-0.000186086
0.239767
-0.186921
-0.353468
0.759722
-0.160634
-0.52291
0.97676
-0.64507
0.39722
-0.637254
0.130633
-0.101282
-0.398541
0.713761
-0.502482
-0.400933
-0.480041
0.262378
-0.691053
-0.790679
0.202958
0.128699
-0.489327
-0.435265
0.887737
-0.700847
-0.016625
0.78938
0.326281
0.835193
-0.733602
-0.108435
-0.257208
-0.178263
-0.580251
0.433113
-0.0348957
-0.655636
0.418344
0.90564
-0.113307
-0.102983
0.229896
0.75612
-0.737398
0.685378
-0.795112
0.350907
0.0295109
0.74667
0.330974
-0.197932
-0.650466
0.368624
0.61611
-0.1997
-0.0680482
0.671936
-0.283071
-0.509224
0.0567529
-0.543673
-0.98026
0.702857
0.653959
0.927216
-0.930442
0.965652
-0.232194
-0.101663
0.0774331
-0.799072
-0.734667
0.485668
0.72782
0.299114
0.286968
-0.51651
-0.0795494
0.471502
-0.434007
0.976234
-0.101612
0.139414
-0.315958
-0.558971
0.193516
0.573094
-0.809934
-0.219297
-0.657015
0.500815
-0.66249
-0.102115
-0.714318
0.83164
0.623179
0.942162
0.627935
-0.525
-0.459267
-0.659732
0.347715
-0.534422
-0.130443
-0.595252
-0.259683
-0.955087
0.52369
-0.755196
-0.718468
0.761039
-0.931142
0.977486
0.129373
0.685197
-0.636445
-0.130671
-0.819537
-0.240566
-0.817023
-0.703094
0.722895
-0.459753
-0.43478
-0.861648
-0.694157
0.535648
0.471627
-0.0523282
0.131639
-0.991246
-0.406026
-0.682819
0.647391
-0.754565
-0.884401
0.633403
-0.906965
-0.945425
-0.482443
0.859601
-0.757671
0.595668
-0.530962
-0.477781
0.741221
0.196827
-0.61693
-0.0790963
-0.830084
-0.35221
0.0723338
-0.460936
0.521984
-0.869809
-0.609969
0.467464
0.532666
0.886272
0.304484
0.966557
-0.0565451
-0.07533
0.252413
-0.308033
0.384092
0.471447
-0.674181
-0.295032
0.0607817
0.327806
-0.500813
0.279299
-0.733646
-0.577673
0.0514154
-0.0251197
0.717982
0.144876
0.0766886
-0.410925
-0.254691
-0.272241
-0.274924
-0.7284
-0.483298
-0.849211
-0.353264
0.190404
-0.363341
-0.658238
-0.153723
-0.157936
0.172322
0.175833
-0.837516
0.503324
0.525893
-0.963375
0.508244
0.721036
-0.644547
-0.436433
0.54024
0.559561
-0.320652
-0.589652
0.00877619
0.305965
0.629735
-0.949255
-0.549358
-0.852294
-0.631239
0.80519
-0.252571
-0.962627
-0.248269
0.015682
0.936361
-0.420179
-0.816443
0.604137
-0.266947
-0.0493014
-0.259273
0.428789
0.782075
0.416425
0.0291319
-0.662288
0.195923
0.395491
-0.675788
-0.0594373
-0.157402
-0.181882
0.759393
0.148584
0.765169
-0.489812
-0.57996
0.334877
0.578295
0.687266
0.173346
0.913991
0.884973
-0.884517
-0.994384
0.140922
0.771695
0.765297
0.695483
-0.834187
0.429675
-0.768907
0.802511
0.277339
-0.0925388
0.170986
-0.643837
-0.476803
0.0181347
0.00985193
0.767072
0.354967
-0.586189
-0.86027
0.402499
0.126849
0.00524628
-0.73671
-0.362423
-0.647786
-0.859919
-0.0236974
0.908938
0.079794
-0.132856
-0.609483
0.351246
-0.739711
0.0411825
-0.348011
0.513559
0.706223
0.788656
-0.800248
0.639444
0.687746
-0.90299
-0.672474
0.705061
0.796651
0.911779
-0.355447
-0.33165
-0.738427
-0.87372
0.392421
0.866913
-0.45207
0.0101464
0.802508
0.650335
0.46555
0.576539
-0.448441
-0.403433
-0.0852041
0.697069
0.542694
-0.830895
-0.963934
0.680655
-0.733116
-0.966302
0.000276923
-0.367283
0.0193588
0.822118
-0.775801
0.907429
0.492666
-0.83912
0.120398
0.217762
-0.226969
-0.068383
0.68837
-0.14175
0.366887
-0.96924
-0.0821357
0.39275
-0.311731
-0.73507
-0.878708
-0.0218287
0.127081
-0.738996
0.335864
-0.899642
0.730337
0.705219
0.887856
0.554909
0.0410426
-0.562081
0.84995
0.934182
0.335454
-0.670737
-0.0368572
-0.483768
0.346448
-0.486685
0.278649
-0.309618
-0.359417
-0.354287
-0.916057
0.646923
-0.446117
0.872316
0.428528
0.909623
0.030462
-0.0949444
0.837391
-0.22118
0.0783774
0.245846
0.689812
-0.534237
0.570348
-0.613558
0.412976
-0.594609
0.743741
0.178153
0.93381
-0.929697
-0.0393118
-0.272837
-0.780432
-0.40594
0.247158
-0.547404
0.078112
-0.822873
-0.573017
-0.209713
0.830757
0.834735
-0.278099
-0.282009
0.258762
-0.356998
-0.306231
0.218897
-0.401403
-0.425544
-0.2759
-0.396881
0.985057
0.137252
0.105289
0.488015
0.783533
0.371713
0.431323
-0.176099
0.656519
0.928938
0.484777
0.0785009
0.601812
0.786051
0.597407
-0.679244
0.582354
-0.0367513
-0.0263945
0.241155
-0.803756
0.349516
-0.403667
0.321998
0.976557
-0.422902
0.417222
0.77941
-0.350848
0.507152
-0.320946
0.767288
-0.0924857
0.0542136
-0.597752
-0.842432
-0.954638
0.608341
-0.621317
0.915466
-0.448774
0.5746
0.779603
0.62716
0.985326
-0.786305
0.609935
0.698383
0.971842
0.869554
0.279597
-0.341102
-0.997152
-0.900772
0.508267
0.369112
-0.966604
0.0377952
-0.802936
-0.55086
0.94896
0.420534
-0.780763
0.504502
-0.741436
0.748113
-0.0923088
0.0853952
0.443531
0.401269
-0.878896
-0.781174
0.889686
-0.768008
-0.561134
0.879802
0.230595
-0.594711
-0.943747
-0.270286
-0.879349
-0.456641
-0.895856
-0.785877
0.451701
0.0421903
0.830733
0.0816263
-0.399049
0.261177
0.201252
-0.295909
-0.301585
-0.667707
0.253501
0.895772
-0.972612
0.786881
-0.224066
0.858057
0.364897
0.991303
0.0605686
-0.600415
0.312757
0.749702
-0.133657
0.551988
-0.433088
-0.34343
0.653389
-0.203502
0.18501
-0.96032
0.584671
-0.937568
-0.404641
0.299821
-0.29266
0.607998
0.552002
0.899021
0.0127224
-0.585253
-0.00820279
0.969969
0.785777
0.522351
-0.807599
0.0963149
0.255502
0.68389
-0.639104
0.337801
-0.0742263
0.453202
0.456343
0.574299
-0.530121
0.0647224
0.707922
0.903831
-0.735368
0.696754
-0.375546
-0.3828
0.0444804
-0.326251
0.331205
-0.556497
0.68747
-0.649958
0.45326
0.549371
-0.221746
-0.26186
-0.286395
-0.719469
0.847763
-0.480275
0.860038
0.271608
0.170544
0.683321
0.258461
0.0991166
-0.997699
-0.694648
0.86998
-0.110976
0.526613
-0.128448
-0.329302
-0.913295
0.657889
0.188822
-0.352617
-0.65158
-0.345788
0.480363
-0.0769836
-0.108317
-0.718535
0.096457
0.226386
-0.315957
0.90673
-0.680788
-0.527164
0.683059
0.930891
-0.241385
0.561592
-0.932835
0.67022
-0.990719
0.320154
0.0186263
0.368513
0.134868
-0.4407
0.686594
-0.0393533
-0.298251
-0.839993
-0.430814
-0.0982015
0.90933
0.261033
-0.433721
0.0413797
-0.250751
0.476549
-0.589327
-0.29306
-0.337019
-0.213563
0.836574
0.717613
-0.52749
0.662644
-0.809911
-0.748083
-0.650099
-0.70524
-0.45055
-0.156065
-0.177855
0.389777
-0.911022
0.77059
-0.483233
0.317735
-0.738621
-0.544483
0.376575
0.96546
0.929736
0.546291
-0.74797
-0.983709
0.965632
0.649173
0.8962
0.483641
-0.869161
0.936063
0.658271
-0.685308
0.557181
0.625044
-0.144657
0.678523
0.823841
-0.112732
0.370269
0.307964
0.514462
0.134188
-0.666415
-0.927669
0.919101
-0.885577
-0.430399
-0.04172
-0.934815
-0.482359
-0.940539
0.818538
0.198372
0.0162952
-0.651154
-0.326293
-0.322533
-0.822177
0.496646
0.279599
0.934099
-0.293638
0.562551
0.187736
-0.896313
0.3185
-0.0326594
-0.174764
0.928184
0.850642
0.29029
0.789448
0.112255
-0.356217
-0.370911
0.816572
-0.833467
-0.485403
-0.834325
-0.701964
-0.726429
-0.668953
0.871203
-0.747736
-0.154643
-0.892681
0.683576
-0.964954
0.765854
-0.142311
0.967839
0.0981157
-0.593126
-0.350837
-0.927246
-0.773112
-0.212343
-0.900287
-0.410673
-0.053367
0.402135
0.380905
0.530686
-0.301384
0.309735
0.785864
0.0597135
-0.203661
-0.481812
-0.397628
-0.517827
0.291856
0.00417793
-0.318849
-0.440303
-0.113094
-0.767963
0.289347
0.945956
0.542012
-0.556123
0.259191
0.21849
0.117581
0.669157
0.493724
0.484106
0.819445
0.501403
0.258784
0.0497485
-0.885903
-0.76943
-0.754623
-0.937706
0.408585
-0.968279
0.640812
0.859342
0.378925
-0.909201
0.935822
-0.784986
0.0141727
-0.411989
-0.769785
0.595747
0.706352
-0.548661
0.660569
0.540741
-0.427844
-0.393433
-0.446448
0.754363
0.744281
-0.529689
0.114625
0.894516
-0.204038
-0.609751
-0.19391
0.626132
0.404911
-0.126888
-0.612552
-0.28925
0.369058
0.369606
0.820215
0.132418
-0.23344
0.0468068
-0.197551
0.638746
0.000248909
0.138667
0.99647
0.831016
0.778059
-0.235815
0.472528
0.263055
0.995546
-0.112393
-0.220919
-0.622572
0.938408
0.738055
0.811995
0.832446
0.867194
-0.00602543
-0.125134
-0.17169
-0.252663
0.105879
0.739911
-0.571472
-0.0192908
0.103107
-0.00956881
0.220928
-0.914527
-0.554931
-0.595709
0.93844
-0.112967
-0.667994
-0.984374
0.409735
0.453151
-0.902094
-0.579639
0.287325
-0.932626
-0.498351
-0.436963
-0.854232
0.125116
-0.726805
-0.867165
-0.516438
-0.849923
0.968509
0.513671
-0.162119
-0.834385
0.672614
0.845258
0.770382
-0.463171
0.465681
-0.0713109
-0.656056
0.0598642
-0.170095
-0.991427
0.507189
0.284595
-0.248315
-0.0983294
-0.850068
0.470318
-0.199414
-0.0113525
-0.31066
-0.146157
-0.913469
-0.687356
-0.529191
-0.0580642
-0.327257
0.39644
0.710771
-0.113022
-0.300781
0.663443
-0.367311
0.985076
0.919765
-0.459448
0.0461285
0.00579453
-0.581198
0.619443
0.829367
0.84562
-0.159407
-0.958893
0.811148
0.903242
-0.334857
-0.998902
0.281963
0.652752
-0.94077
-0.326247
-0.317385
-0.24037
-0.0206895
0.71212
-0.75622
-0.425746
-0.314417
0.626315
-0.616186
0.137829
0.432962
-0.895727
0.787355
0.0432061
0.321154
-0.12402
0.566261
-0.626304
0.687492
0.501278
0.989917
-0.15673
0.129249
0.516443
0.641241
0.0606074
0.375571
0.526019
-0.945395
-0.977556
0.744674
-0.444546
0.827219
-0.26619
0.549378
-0.659555
-0.987695
0.733828
-0.31071
0.224589
-0.859128
-0.124649
-0.111675
0.24993
-0.220685
-0.251554
-0.122609
0.404285
0.689701
0.317087
0.821553
-0.751999
-0.239166
0.0664973
0.0640967
0.663068
-0.781599
-0.623216
0.0522721
0.405754
-0.57526
-0.242671
-0.520275
0.177551
-0.440262
0.000723481
0.115296
-0.899262
-0.929922
0.537551
-0.963499
-0.996118
0.0397854
0.950605
-0.0321106
-0.948889
-0.217137
-0.21803
0.217443
-0.0953943
-0.340382
-0.798624
-0.835994
0.0571135
0.514269
0.0440682
0.333203
0.433991
-0.367108
-0.543609
-0.308628
0.482644
-0.818194
-0.557102
-0.0545731
-0.519659
0.481856
0.120926
0.717987
0.401643
0.955207
0.877193
0.220926
-0.249313
0.0136654
-0.0450598
0.257059
0.384801
0.48713
0.379219
-0.933994
0.0258632
-0.751968
-0.0861478
0.0267978
0.0641941
0.167079
-0.723653
0.0189308
-0.028621
0.313572
0.0943873
-0.160284
0.779063
0.798644
0.256233
-0.604765
-0.590718
-0.736522
0.930249
0.495416
-0.287015
-0.503717
0.761893
0.277107
0.849464
0.754098
-0.346028
-0.327937
0.139251
-0.97207
0.39544
-0.482994
0.591173
-0.675346
-0.66743
0.0848389
-0.586355
0.00588489
-0.973969
-0.97009
0.513073
-0.00376415
-0.111163
-0.594266
0.189976
0.677638
0.756361
0.280265
-0.910201
0.55111
0.273706
-0.32328
0.949555
0.289102
0.87316
-0.93065
-0.923446
-0.483083
0.335688
-0.770175
-0.747577
-0.0870904
-0.159118
0.58852
0.0981089
-0.460259
-0.0505714
0.769977
0.645237
0.422686
0.85669
-0.551673
0.816784
0.157974
-0.942365
0.975258
-0.248492
0.365837
-0.144758
-0.603665
-0.53454
-0.819859
-0.340956
-0.710087
-0.349122
-0.782388
0.782071
-0.84804
0.702396
0.0468572
0.0226623
0.794152
0.713009
0.669087
0.254657
0.354457
0.962005
0.0563576
0.748784
-0.859723
0.191361
0.130702
-0.0755373
0.0523585
0.798379
0.0316825
0.172834
0.635145
-0.53944
0.129245
0.44433
-0.440353
-0.65618
0.0396062
0.727187
-0.751067
-0.797213
-0.727281
0.0656128
0.465544
-0.697184
-0.909813
-0.276477
-0.759735
0.603843
0.879157
-0.648208
0.25758
-0.352242
-0.050611
-0.529046
-0.511133
-0.440254
-0.0189981
0.279591
-0.15067
0.535016
0.0607618
0.137905
0.958706
-0.65285
-0.420074
0.800375
-0.613906
0.955958
-0.290919
0.106042
0.508519
-0.688468
0.685841
0.35647
0.256488
-0.814242
-0.333764
0.385582
0.201993
-0.233398
-0.207198
0.464941
0.978849
-0.152177
-0.459995
-0.729792
-0.417031
0.525873
0.19915
0.893304
-0.825341
0.990023
-0.0462012
-0.31995
-0.984575
0.468403
0.725869
0.664914
0.536853
-0.376471
-0.574307
0.403995
-0.487778
0.665766
-0.59897
-0.916099
-0.264484
-0.156513
-0.206891
-0.0402238
-0.481663
0.952201
0.597378
-0.63271
0.717329
0.270031
0.303462
-0.665137
-0.508075
-0.281823
-0.756047
0.149508
-0.785784
-0.127456
0.944667
-0.500413
0.437851
-0.0473591
0.607576
0.352935
-0.105833
-0.441769
-0.499533
0.334723
-0.128968
0.896637
-0.395466
-0.266529
0.533507
-0.560556
-0.936356
0.616655
-0.144263
-0.275121
0.260816
-0.330277
-0.318481
-0.651005
0.306111
0.701641
-0.145692
0.738324
0.554448
0.812183
-0.328157
0.499151
-0.838223
-0.838064
0.387534
0.268682
0.640788
0.91417
-0.558363
0.716031
-0.344417
0.810619
-0.807879
-0.353513
-0.670716
0.666424
-0.187047
-0.463876
-0.97409
-0.112205
0.220928
0.699181
0.0453701
0.498717
-0.719815
0.0523357
-0.922627
0.471071
-0.770818
-0.382975
0.396921
0.411781
0.819027
-0.705893
-0.107914
-0.602467
-0.456556
0.283162
0.378672
-0.0335215
0.864521
0.458297
0.713199
-0.341849
0.350998
-0.907256
-0.801251
0.654375
-0.1528
-0.0957688
-0.927358
0.193057
0.554516
0.21902
-0.432735
-0.571391
0.384663
0.209919
-0.761653
-0.317389
0.335763
0.605076
0.456118
-0.953507
0.9041
0.587936
-0.774836
0.505078
-0.606764
0.715156
0.838126
-0.109968
0.849406
-0.494004
-0.0877181
-0.814485
-0.695698
-0.911032
-0.972202
0.724485
0.260618
0.274493
-0.818872
-0.124765
-0.0570616
0.432928
0.642201
0.926145
-0.667452
-0.0739684
0.802663
0.863531
-0.75418
0.639109
-0.95697
0.079928
-0.893473
0.808698
0.467199
0.544955
-0.356598
0.508514
-0.111987
0.959977
0.218417
0.909238
-0.290916
-0.667731
0.147457
-0.370738
-0.395444
-0.660921
0.240869
-0.21737
0.620727
0.186029
-0.124798
-0.484776
0.826309
0.360703
-0.668433
0.129707
0.0234816
-0.779029
-0.136777
0.017056
0.0946528
0.804139
0.600855
-0.025641
0.712627
0.688739
-0.419325
0.143983
-0.047142
0.185856
-0.796724
0.1693
-0.44665
-0.453324
-0.56544
-0.985683
0.605229
0.284449
-0.437138
-0.777883
0.965342
0.216683
-0.410654
-0.143523
-0.0222933
0.905871
-0.847645
0.383224
0.095705
0.353071
-0.436673
-0.306371
0.00181162
-0.80212
0.188565
0.348026
-0.79496
-0.97008
-0.925315
-0.321222
0.382738
-0.159749
-0.0999765
-0.74096
0.496583
0.0255291
-0.221052
-0.0226431
0.27077
-0.355191
0.792879
-0.203972
0.938499
0.901699
0.566264
-0.761098
0.306781
-0.932288
0.261273
0.0496595
0.958121
0.286663
0.834289
0.639313
-0.532674
-0.350355
-0.720532
0.536345
-0.298207
0.807224
-0.506451
0.992789
0.899303
0.113813
0.752301
-0.4352
0.136023
0.687779
0.864291
-0.329931
-0.402843
0.136186
0.107491
-0.985614
-0.603778
-0.937077
-0.689666
-0.928077
0.43015
0.0664594
-0.00418067
-0.184191
-0.628163
-0.641964
0.8757
0.146918
0.223944
0.482125
-0.06093
0.0435526
-0.427243
-0.757396
0.395737
-0.0160837
-0.0367759
-0.591998
0.697678
-0.379629
0.228407
0.167445
-0.322154
-0.816769
0.567304
-0.758712
-0.122861
-0.639526
0.532578
0.201607
-0.910491
0.475773
0.552341
-0.299125
-0.712724
-0.553063
-0.779812
-0.264577
0.91575
-0.765296
-0.103687
-0.71631
-0.802585
-0.929041
-0.037716
-0.486348
0.488354
-0.304183
0.821817
0.505326
0.379322
0.166405
0.737205
0.783256
-0.434825
0.897698
-0.519869
0.163163
-0.776133
-0.30899
0.726878
0.396891
-0.605175
-0.110333
0.0745326
-0.0786206
-0.618268
-0.197212
-0.98426
-0.513248
-0.156437
0.385205
0.826033
-0.24827
0.126656
-0.208015
-0.107542
0.19276
0.138248
-0.411072
-0.437846
-0.604439
0.0582818
0.165026
-0.970863
0.945538
0.476275
-0.747268
-0.197283
0.460965
0.68626
-0.523362
-0.792524
0.331274
0.361268
-0.806701
0.865632
-0.0083487
0.968259
0.750779
-0.105084
0.0604386
0.451873
0.103818
0.760892
0.204825
0.588286
0.0878797
-0.506831
0.558747
-0.9892
-0.876924
-0.181757
-0.908438
0.0440547
-0.729887
0.467288
-0.623434
-0.714251
-0.885846
-0.0301335
0.608336
0.500961
0.842072
-0.179644
-0.742952
-0.408715
-0.558171
-0.727603
0.066378
-0.58202
0.792966
0.370206
-0.906932
0.47516
0.120648
0.15708
0.213814
0.0362636
-0.154598
0.62143
-0.114425
0.580315
-0.593765
-0.0461737
-0.680958
0.489792
-0.0987799
0.377339
0.317707
-0.877007
0.454416
-0.60411
-0.736296
-0.0598155
0.622367
-0.359139
0.253301
0.157954
0.633963
0.0226454
-0.0672463
-0.124594
-0.207203
-0.813614
-0.729215
-0.980083
0.227247
0.110963
0.536673
-0.221954
-0.944009
-0.147519
0.778234
0.853049
-0.446568
0.173656
0.486158
0.886638
0.0205998
-0.0194807
-0.292694
-0.878337
0.549277
-0.287323
-0.274177
-0.594166
0.168238
-0.997504
-0.646218
0.663962
0.584865
-0.572285
-0.643746
-0.17529
0.581348
-0.620517
0.731842
-0.020152
-0.392977
-0.936384
0.921002
-0.491819
-0.482927
-0.952576
0.778606
0.354108
-0.506159
-0.980034
0.695649
0.0178984
0.729256
-0.00812221
0.774057
-0.459169
0.965045
0.96753
-0.586404
-0.385741
-0.798534
-0.0945991
-0.220865
0.226098
-0.448608
-0.2031
-0.688265
0.028628
-0.0244696
-0.46404
-0.111934
0.330678
-0.0439181
0.582183
-0.269726
0.128825
-0.600951
-0.4077
-0.630125
0.314906
-0.605433
-0.635493
-0.358831
-0.932208
0.814198
0.566196
-0.133548
0.844436
-0.456567
-0.646288
0.262559
0.918808
-0.48402
-0.0857339
-0.555962
0.405565
-0.733834
0.442983
-0.791852
-0.165812
0.637277
-0.0646321
0.126567
0.614914
0.952594
0.159388
0.548728
-0.573462
-0.929072
0.692134
0.0622091
0.122469
-0.621165
-0.323513
-0.0810233
-0.632052
-0.287559
0.749673
-0.945581
-0.344096
0.598753
-0.0416197
0.614881
-0.319495
0.315865
-0.71259
0.710579
0.549875
-0.900732
0.972031
0.468555
0.85222
-0.640949
-0.887178
0.521637
-0.284811
-0.803014
-0.189949
-0.378241
-0.395576
-0.731984
0.256998
0.36474
-0.0320942
0.365658
0.407205
0.403824
0.0612457
0.784469
0.541722
0.712946
-0.499034
-0.84939
0.238463
0.942932
0.720234
-0.847775
0.261094
0.454439
0.876785
0.399114
0.362015
-0.255443
0.596544
-0.205924
-0.0945987
0.84998
-0.622431
0.908113
0.51053
-0.380669
0.495631
0.984151
-0.819887
0.825265
-0.279602
0.686028
0.0996015
0.091168
-0.802289
-0.943056
-0.615661
-0.947503
0.929034
0.254196
0.828414
-0.751037
-0.261906
0.962476
-0.995506
-0.414589
0.904904
-0.364322
0.636401
0.227865
0.338743
0.934553
0.940684
0.58052
-0.245365
-0.291416
0.555802
0.140278
0.883324
-0.27958
-0.398943
0.000118256
0.291628
-0.243104
-0.757373
-0.0196542
-0.11691
-0.706263
-0.4475
-0.305911
0.858606
0.449258
-0.625302
0.29373
-0.270032
-0.367571
0.70526
-0.837883
0.881717
-0.63841
0.439879
-0.813475
0.267426
-0.195108
-0.108723
-0.872308
-0.471079
0.473379
0.769725
-0.552403
0.788783
-0.727467
0.746709
0.0451951
0.497482
-0.865865
0.845059
0.547123
-0.067766
-0.0373745
0.947465
-0.00615561
0.656746
-0.332909
0.663336
-0.617862
0.333951
-0.579367
0.393054
0.495013
0.244424
-0.973566
0.88657
-0.877478
-0.736034
-0.686165
0.332821
0.641174
0.553539
0.930106
0.473812
-0.803117
-0.837318
-0.85513
-0.809831
-0.769958
0.135508
0.821379
0.054546
0.933862
0.914941
0.748373
0.923166
-0.859969
0.26675
0.895029
0.7628
-0.903734
-0.194214
-0.451113
0.193678
-0.972182
0.458623
-0.0618131
-0.0541353
0.686548
-0.296203
-0.758932
0.126552
0.939436
-0.47696
0.347059
0.934363
-0.722672
-0.976175
0.337117
-0.799326
0.135825
-0.0756134
-0.941511
-0.516604
-0.676753
0.619417
0.211192
-0.114833
-0.442039
0.389733
-0.48106
0.405653
-0.0317746
-0.142025
-0.723181
0.438384
-0.242067
0.00742435
0.155547
-0.433176
-0.272934
0.574527
-0.289482
-0.84371
0.743299
-0.521117
-0.606909
0.524855
-0.786526
-0.454387
0.491203
-0.868889
0.836657
-0.889126
-0.656152
-0.205777
0.0907422
0.45532
0.659674
0.433607
0.536639
-0.328592
-0.0257527
-0.884734
-0.749815
0.733002
-0.372896
0.0273019
0.404397
0.282329
0.643443
-0.617975
0.572457
-0.575543
0.410351
0.692795
0.99733
-0.262587
-0.498487
-0.0763707
-0.682025
0.922678
0.901609
0.395915
0.80095
-0.494765
0.64277
0.180491
0.715469
-0.509115
0.460296
-0.725326
-0.313317
0.467135
-0.643702
0.0583252
0.731051
-0.813431
0.801248
-0.290273
-0.95605
0.648257
-0.673648
0.477908
-0.158734
-0.403852
-0.395884
-0.0101264
-0.274572
0.871719
-0.555882
-0.927595
0.739222
-0.831714
0.651276
-0.0372088
0.147996
-0.114979
-0.0751352
0.449079
0.383851
0.169641
-0.605015
-0.559677
-0.590223
-0.826209
0.431092
0.891398
-0.270154
-0.885406
-0.366887
-0.678824
-0.676326
-0.616651
0.0821437
-0.481137
-0.559667
-0.513458
-0.195651
0.773713
-0.250163
0.180322
0.580153
-0.88218
-0.696972
-0.443554
-0.116639
0.722175
-0.046674
0.711778
0.413689
-0.586006
-0.979498
-0.72248
-0.221632
0.199998
-0.742824
0.58827
-0.530895
-0.951695
-0.424808
0.442772
-0.371077
0.979697
-0.417334
0.584043
-0.983943
0.282227
0.272168
0.289944
-0.180498
-0.917701
-0.20847
-0.206859
0.814251
0.701535
-0.643802
-0.879029
0.129676
-0.51072
-0.436614
0.588908
0.705935
-0.239478
-0.326343
-0.710317
-0.476847
0.149618
0.059298
-0.314603
0.217492
0.934014
0.54911
0.750331
0.0242097
0.254718
0.105204
0.246264
-0.163707
-0.675369
0.253694
0.282337
0.0911709
-0.208822
-0.428606
0.939125
0.454825
-0.0165154
-0.265501
0.0952061
0.953989
0.479157
-0.918478
-0.831127
-0.69541
-0.864367
-0.884539
-0.114502
-0.441808
-0.0402527
0.893532
0.284776
-0.0256304
0.0847151
-0.0667042
0.0589304
-0.792238
0.295846
-0.164978
-0.0186001
0.0432173
-0.717288
0.581151
-0.800032
0.00263631
-0.246134
0.261514
0.518519
-0.00189531
-0.769246
0.872707
0.0599605
0.127704
0.39108
0.541732
-0.233976
0.887109
-0.758649
0.427414
0.788511
0.98357
-0.930077
-0.881896
-0.493411
0.279799
0.197519
0.800198
-0.48451
0.624035
-0.581212
-0.15942
0.183746
-0.825529
0.702972
0.104908
-0.623844
-0.79157
-0.514861
-0.221143
0.672671
-0.953092
-0.898052
-0.439726
-0.369257
0.958389
-0.959009
0.14135
-0.604395
-0.83045
-0.278838
-0.339473
-0.992359
-0.54071
-0.209282
-0.627439
0.573286
-0.211707
-0.479103
-0.877288
0.278558
0.340693
0.147605
-0.529092
0.539405
0.341682
-0.0750941
-0.648895
0.368842
0.736458
0.98934
-0.966344
-0.629131
-0.941022
-0.566118
-0.216653
-0.0390918
-0.386328
-0.323428
-0.810243
-0.201623
-0.955541
-0.0566195
-0.418375
-0.239913
-0.790755
-0.0610697
0.619265
0.903957
0.108411
-0.412061
-0.77097
0.303279
0.108194
0.0808933
0.806961
-0.893585
-0.0582107
-0.972275
-0.12608
0.815294
0.874481
-0.502617
0.348645
0.324949
0.1357
0.729807
0.0764835
-0.49011
-0.139805
-0.745556
-0.412361
0.197655
0.14004
-0.298817
-0.124431
0.516414
0.326208
0.0828087
0.361369
0.726936
0.955859
0.315651
-0.917584
0.782787
-0.113168
0.0706415
-0.0317426
0.578931
-0.875516
-0.460756
0.544134
0.31219
0.670125
0.251868
0.389647
-0.179204
0.211647
-0.994917
0.92722
0.960641
-0.298678
0.723328
0.791986
0.437651
0.477431
0.399684
0.880816
0.549308
0.107769
-0.200817
-0.996087
0.0790206
0.648221
-0.775344
-0.943949
-0.472258
0.684893
-0.860454
-0.463928
-0.909313
0.734096
-0.487548
-0.35961
0.625241
0.933182
0.704507
-0.67606
-0.800591
0.529696
-0.249216
0.34231
-0.478121
-0.45283
0.190278
0.339414
-0.132871
-0.358145
-0.950095
-0.67004
0.931904
-0.49718
-0.832378
0.227003
-0.173039
0.0883704
-0.448449
0.797066
0.760517
0.895265
-0.527272
0.681315
0.504834
-0.767338
-0.610345
-0.0466949
-0.200143
0.90428
-0.023543
0.553788
0.134003
-0.193166
0.481854
-0.966311
-0.534329
-0.434382
-0.406337
0.101986
0.121902
-0.295836
-0.113226
-0.402999
0.0692109
-0.27488
-0.136017
0.830384
-0.910926
0.860548
0.524364
0.969816
0.604074
-0.421937
0.511672
0.162908
-0.0607936
-0.551437
0.21196
0.488692
0.852558
0.559033
0.303857
-0.0975499
0.792452
-0.194707
-0.974597
-0.697538
-0.791529
0.897643
0.357867
-0.19783
-0.335335
0.343671
0.971237
0.436635
-0.131459
0.999898
0.473684
0.587181
0.102817
-0.0473975
0.0984994
0.741179
-0.708818
0.766622
-0.498603
-0.54423
-0.853832
-0.215776
0.268189
-0.0662171
0.339937
-0.526233
0.788491
-0.139774
0.724222
0.596879
0.699744
0.660329
0.966596
-0.253693
-0.743149
-0.0430579
-0.573782
0.876881
0.600316
-0.686137
-0.495112
-0.27358
-0.467689
0.20881
-0.788476
0.794489
0.221331
0.499337
-0.302229
-0.781323
-0.115492
-0.870537
-0.657306
0.100095
-0.288015
-0.789615
-0.867489
0.947521
0.948753
-0.223953
-0.301855
0.310805
-0.382362
-0.859714
-0.00728989
-0.945612
-0.738493
0.662531
0.872454
-0.936818
-0.0278673
0.175813
-0.308131
0.101931
0.448097
-0.631972
-0.110158
0.217671
0.506941
-0.00826073
0.0447013
-0.421543
0.44641
-0.062645
-0.930514
0.978938
-0.920333
-0.0339668
0.0474643
-0.772237
0.225153
-0.176585
-0.515585
0.412703
-0.93743
-0.75943
0.522353
-0.999153
-0.427468
-0.562939
-0.208235
-0.640294
-0.633485
-0.409841
-0.0618211
0.481043
0.960115
0.922705
-0.0030725
-0.0848546
-0.652266
0.742545
-0.240173
-0.939752
-0.863178
-0.524726
-0.443911
0.299507
0.253485
-0.809276
-0.826494
0.153116
0.918091
0.749295
0.225356
0.27723
-0.0706415
0.243904
-0.975472
0.589762
0.682806
-0.0779797
0.0257049
0.994483
-0.115855
0.583233
-0.979194
-0.270712
-0.531367
-0.947604
-0.565974
-0.276165
0.0785848
-0.12816
0.423035
0.590958
0.838896
-0.936155
-0.931742
0.144384
-0.94424
0.524673
-0.666761
0.804404
0.251689
0.0596689
0.00282407
-0.0423506
-0.644975
0.309952
-0.160632
0.120101
-0.513748
0.603707
0.366149
0.546537
0.933242
-0.507162
-0.189586
0.215703
-0.620792
0.81801
0.204323
-0.174375
0.7117
0.845694
-0.853141
-0.826187
-0.168731
-0.543998
-0.284402
-0.63177
0.663009
0.988327
0.336322
0.0196275
-0.0217229
-0.753871
0.178077
-0.14132
-0.114431
0.816763
0.316168
-0.278232
0.984406
0.124831
-0.276506
-0.741016
-0.227124
-0.83688
-0.0733014
-0.688952
-0.935656
-0.0339661
-0.791906
-0.81874
-0.505996
-0.363147
0.596388
-0.630215
-0.0216534
-0.189843
-0.285356
0.145589
-0.377868
0.910798
-0.995086
-0.733147
0.115851
0.984869
-0.737109
-0.685154
0.959862
-0.912247
0.450143
-0.417551
-0.408909
0.956264
0.794148
0.559095
-0.887085
0.186833
-0.313337
-0.196153
0.533401
-0.174933
0.732801
0.180015
-0.375293
0.178081
-0.255903
-0.0316031
0.751974
-0.512316
0.760783
-0.0687947
0.826745
-0.431606
-0.451575
-0.538179
0.0269657
0.482559
-0.461619
0.143924
-0.584958
-0.651475
0.0854642
0.501826
-0.624088
0.692229
0.0698715
0.344008
0.962257
-0.731646
-0.521236
0.723037
-0.764576
0.0115796
-0.986481
-0.71697
0.619152
-0.538017
-0.354396
-0.356322
0.89699
-0.847019
-0.759613
0.199276
0.427072
-0.791856
0.930175
0.396754
0.651741
-0.317188
0.502204
-0.419127
0.763965
-0.700939
-0.225647
0.188187
0.154688
-0.619023
-0.640242
-0.264598
-0.191666
-0.688156
-0.706828
-0.148953
-0.0619866
0.434592
-0.989998
-0.00516129
-0.74938
0.279646
-0.817256
0.841719
0.72757
0.840186
-0.73717
-0.583764
0.0180001
-0.574937
0.617571
0.36251
-0.103766
-0.522401
0.556615
-0.0839252
0.784766
0.294909
-0.810316
-0.0117781
-0.398415
0.890875
0.0218141
0.331173
0.474949
-0.808089
0.577206
-0.463654
0.860842
0.0228263
-0.00936437
-0.0233734
0.0646232
0.173568
0.843032
-0.426299
0.0402983
0.601309
0.410282
0.204295
-0.405581
0.232445
-0.259018
-0.00311899
0.320505
-0.656911
0.481396
-0.0426624
0.540087
0.0384187
-0.827239
0.90214
0.0266989
-0.465027
0.0686446
-0.356892
-0.0972967
0.0143585
-0.648738
0.171576
0.605821
0.0924729
0.74675
0.531204
0.417739
-0.15375
0.067287
0.912225
0.774498
0.267684
0.430302
0.210468
-0.114309
0.770365
-0.143161
0.608596
-0.713927
-0.206853
-0.0462843
0.481218
0.756106
0.0774417
0.445253
0.00882447
0.478388
-0.372772
-0.0286351
-0.711782
0.692829
-0.0790699
0.838826
-0.4544
-0.99209
0.93242
-0.130526
-0.213843
0.980062
-0.867212
-0.676636
-0.076008
-0.687183
-0.673188
0.403016
0.902295
0.716352
-0.0681837
-0.0610906
-0.238934
-0.666094
0.963822
-0.224107
0.764745
0.542435
0.130359
0.690741
-0.73208
0.0295725
0.995975
0.09382
0.345067
0.515048
-0.145347
-0.358955
0.353444
0.193484
-0.159396
0.790603
0.693087
-0.173316
0.783028
-0.163187
-0.688362
-0.0219179
-0.483421
0.124728
0.43836
0.327375
-0.656143
-0.573014
0.256474
-0.710234
0.57238
-0.325939
0.935527
-0.225766
-0.717311
0.899173
0.787399
0.319908
0.810289
-0.715121
0.962996
0.0582317
-0.962132
-0.179019
0.884462
0.407262
-0.0092721
0.196512
0.560671
0.514395
0.590827
0.164267
-0.190199
-0.635285
0.999991
-0.961092
-0.0925729
-0.476741
0.494457
0.776941
0.571922
0.714429
0.0828197
0.877817
0.384944
0.787638
-0.206905
-0.882289
-0.850019
-0.262854
-0.53246
-0.827486
-0.611371
-0.0543002
0.795037
-0.488309
0.647455
0.62
0.879377
-0.755502
0.726245
0.371113
-0.725184
0.0274082
0.943703
-0.813229
0.827596
0.021615
-0.869012
-0.622269
0.0754297
-0.801682
0.296075
0.090544
-0.600095
0.0463911
-0.138663
-0.40168
0.734739
0.24619
0.53446
0.649208
0.547068
-0.359516
-0.659372
0.181224
0.541886
0.621707
0.0915561
-0.356642
-0.527505
0.297521
-0.604413
-0.593463
-0.946607
-0.848259
0.767139
0.267647
-0.0700638
-0.0676171
-0.6896
-0.999896
-0.0301247
-0.326663
-0.358431
0.170249
0.700432
0.226236
-0.992694
0.495181
0.60173
-0.856245
0.506013
0.842757
-0.266608
-0.0971512
0.520505
-0.456175
0.86431
0.316191
-0.500249
0.226693
0.614924
0.1953
0.847582
-0.337642
-0.12744
0.220483
0.631898
0.265911
0.248619
-0.226345
-0.813141
0.963668
-0.515132
0.548129
-0.370376
0.852727
-0.679058
0.767321
0.872199
-0.805605
0.178757
-0.874947
0.775434
-0.529863
-0.888916
-0.0218598
0.237167
-0.890002
-0.94149
-0.508293
-0.383403
-0.963954
0.954412
0.708111
-0.40362
-0.278078
-0.172929
0.0872258
0.5693
-0.884541
-0.876953
0.276783
-0.901518
0.531041
-0.749439
-0.513786
-0.389365
0.47156
-0.873798
-0.675834
0.0778258
-0.399895
-0.0428593
0.125656
0.237968
0.189653
0.293549
-0.922916
0.583232
0.120169
-0.068905
-0.0653977
-0.334031
-0.789407
0.223804
0.762786
0.675193
-0.611416
0.306518
0.403912
-0.88488
-0.98842
0.787896
0.748185
-0.154094
-0.167748
-0.723407
-0.438684
0.858241
-0.0973841
0.0683885
-0.239757
-0.576607
0.480794
-0.634373
-0.694803
-0.0470636
-0.832099
-0.119748
-0.850293
-0.067143
-0.0942395
0.0927519
-0.0703824
0.289369
-0.714362
0.787517
-0.416994
-0.0445032
0.737659
0.271228
-0.349103
-0.328961
-0.735228
0.139737
-0.671488
-0.87618
0.386806
0.549799
0.315896
0.208725
-0.832416
-0.310179
0.602872
-0.0135379
-0.284928
-0.755641
0.550042
-0.293798
0.717421
0.263535
0.328779
0.795225
-0.489758
0.397124
-0.568949
0.516439
0.312243
0.785428
-0.895266
0.731381
0.408549
0.386454
0.044237
0.995064
0.94973
-0.711458
0.116925
0.1247
0.444735
0.424602
-0.415748
-0.131824
-0.925497
0.391195
0.921912
0.374358
0.961604
-0.931874
-0.253823
-0.679289
-0.428705
0.215267
0.547018
-0.965117
-0.116553
0.590557
0.0339026
0.666019
-0.780121
-0.0070231
-0.34362
-0.807768
0.146032
-0.135528
0.819414
0.955435
-0.564427
-0.900828
-0.0771421
-0.0360087
-0.729495
-0.381615
0.929141
0.436187
-0.468247
0.894758
0.0627382
0.728261
0.795718
-0.498262
-0.903592
-0.368985
0.353771
0.188191
0.174733
0.185008
0.785287
0.0340408
0.0791143
-0.503682
0.971142
-0.742388
0.154252
0.628611
0.405143
-0.760221
-0.676562
-0.675731
0.341337
-0.167085
0.90727
-0.794932
0.584067
-0.282062
0.740881
-0.913729
-0.735348
0.753532
0.646483
0.0296499
-0.662093
-0.341177
0.920615
0.853746
0.892429
0.442784
-0.455198
-0.154438
0.522625
0.987102
-0.405335
0.160587
-0.880683
-0.145583
0.850303
-0.6846
0.095266
-0.337514
-0.529353
-0.575129
-0.183779
-0.530443
-0.26986
-0.338181
0.527862
-0.898139
-0.07502
-0.32633
0.398746
-0.699783
0.52218
0.149898
-0.417226
-0.769518
-0.739607
0.792766
-0.72072
-0.715046
0.202442
0.798636
-0.631523
-0.794888
-0.481675
0.827553
-0.999959
0.178377
-0.48676
0.161331
-0.280872
-0.174309
0.557884
0.412102
0.0150173
-0.21986
0.958483
0.648787
-0.928928
-0.692095
0.693895
0.411545
0.081906
-0.246228
-0.694676
-0.869501
0.956359
0.29523
-0.73954
-0.876757
-0.849133
-0.928491
-0.939728
-0.998079
-0.231711
0.80016
0.0367529
-0.412241
0.383255
-0.48571
0.904143
-0.182196
0.117888
-0.107719
0.371673
0.706584
0.598253
0.947811
0.538878
0.899972
-0.275496
0.836273
0.507636
-0.336185
0.541984
0.373277
-0.548444
-0.634596
0.954043
0.664577
0.11571
0.260656
0.927456
-0.659201
-0.855388
0.718576
0.847517
0.211125
0.441762
0.109142
0.31306
0.508239
0.972355
-0.884307
-0.185886
0.660794
-0.161904
-0.915192
0.506667
0.477851
-0.628698
-0.805128
-0.867728
-0.0986328
-0.0436455
0.134569
-0.15301
-0.224643
0.601611
-0.57329
0.739796
-0.241549
-0.434037
-0.88062
0.954274
0.860997
0.810776
0.627848
-0.265492
0.0920476
0.420609
0.0847135
0.460411
0.778732
0.834525
0.339891
-0.985108
-0.564541
-0.0980068
-0.475891
-0.880239
0.91703
0.502828
-0.855029
-0.865376
-0.292871
0.946917
-0.564356
-0.602936
-0.478208
0.409713
-0.49593
0.00373554
-0.172386
0.870946
0.34423
-0.129629
0.0892525
0.416402
-0.0653054
0.757376
-0.100206
0.849122
-0.608618
0.311288
-0.316293
-0.83012
-0.174237
-0.036584
0.792525
-0.960069
0.674289
-0.122444
0.732242
0.284515
-0.253611
0.468222
0.363817
0.322006
-0.529473
-0.00974715
0.94189
0.55076
-0.939205
0.642539
-0.951836
-0.958332
-0.758459
0.0379461
0.326229
0.817565
0.84378
-0.0188136
-0.708749
-0.819739
-0.404396
-0.0594759
-0.182936
-0.950948
-0.366692
-0.307288
-0.99897
-0.38711
-0.800272
0.529895
-0.69548
-0.0892837
0.76669
0.482901
-0.6823
-0.492333
-0.95115
0.848332
0.594474
-0.176427
0.708185
-0.176941
0.353282
0.649329
0.641569
0.135785
0.866492
0.422755
-0.65119
-0.767207
-0.540258
0.528866
0.374198
0.974392
0.560798
-0.513452
0.774747
0.796248
-0.160229
-0.922915
-0.406803
0.534123
-0.72906
-0.795552
-0.459717
0.319297
-0.887934
-0.100927
-0.128474
-0.619689
-0.0338731
0.592573
0.986393
-0.587775
-0.790951
0.275643
0.700008
0.289133
-0.577951
-0.925513
-0.276908
-0.158025
0.419466
0.166894
-0.94236
-0.472455
-0.622322
0.398653
0.375186
0.691966
-0.317698
0.766865
-0.22421
0.507618
-0.692095
0.95062
-0.0550817
-0.681704
0.966558
0.601125
-0.870262
0.0845087
-0.627424
0.0621425
-0.717035
-0.0976315
-0.606953
0.0796905
0.401823
-0.490707
-0.171222
-0.426942
0.88368
-0.112531
-0.717009
-0.421266
0.518999
-0.972628
0.975439
0.535851
0.319905
0.556297
-0.410405
-0.0660616
-0.00524008
-0.319289
0.823383
-0.216588
0.110007
-0.970419
0.393891
-0.972205
-0.182608
-0.775625
-0.372252
0.896584
0.702352
0.780373
-0.978284
-0.673004
-0.843026
0.360382
-0.309393
-0.651819
-0.0175107
0.739934
-0.432627
-0.531686
-0.24185
-0.943726
0.0788647
-0.96858
0.0254483
0.844465
0.422213
-0.303042
-0.929652
0.455587
-0.171118
-0.505516
0.404472
0.612939
0.158746
-0.576194
-0.486616
-0.0381991
0.744637
-0.307108
0.307366
0.7316
0.392211
0.679867
-0.26417
-0.347041
-0.788078
-0.149285
-0.20278
0.124701
-0.0749573
-0.335905
0.688418
-0.662437
-0.320664
0.772092
0.294893
-0.649981
-0.323045
-0.917723
0.178483
-0.405084
0.0984412
-0.352323
0.893067
0.549712
0.384987
-0.673744
0.635435
-0.760468
0.929936
0.272244
0.4704
0.646576
-0.392547
0.0454373
-0.620722
-0.470864
0.409546
0.960286
0.543597
-0.444684
0.281013
-0.317344
-0.22193
0.261169
0.883363
0.0793631
0.949965
-0.424537
-0.508084
-0.633746
0.914456
0.0770586
-0.399494
0.704504
-0.185178
-0.229835
0.151789
0.779698
-0.343803
0.99489
0.486357
0.131024
-0.147758
0.0680351
-0.39535
-0.105861
-0.16164
-0.983326
-0.717627
0.460107
-0.792476
-0.0533929
-0.577099
-0.187441
0.436703
-0.780604
-0.161238
-0.369753
-0.89787
0.615024
0.742131
-0.880269
0.568767
0.80249
0.759703
-0.0984085
-0.984538
-0.953764
0.45768
0.845728
-0.427098
0.998586
-0.187355
-0.407383
-0.882666
0.352711
0.896158
0.899889
-0.158946
-0.917623
0.893741
0.0727774
-0.681244
-0.392426
0.999494
0.799888
-0.857345
0.508485
0.856925
-0.721477
-0.327505
-0.519809
-0.105224
-0.208188
-0.0770859
0.715264
-0.483455
-0.520004
0.518445
0.899014
0.980388
-0.974083
-0.86277
-0.438522
0.533531
0.500517
-0.288304
-0.471231
0.924196
-0.165724
-0.614443
0.0124726
-0.499247
0.801702
0.0473479
-0.515731
-0.805954
-0.0285789
-0.962311
-0.951552
-0.904741
-0.70129
-0.423711
0.865083
0.996595
0.768771
-0.778486
0.12983
0.793502
-0.283312
0.533158
-0.855819
0.703937
-0.135368
0.541088
0.0405276
0.906443
-0.597237
0.516959
0.24123
-0.560573
-0.160782
0.0226173
0.188307
-0.996609
-0.422668
0.106551
-0.817839
0.950381
0.127328
0.661814
-0.330088
-0.961476
0.793612
0.851804
0.397452
-0.603162
0.487399
-0.0853171
0.943207
-0.470775
0.247855
0.121446
0.372662
0.924531
0.964002
0.5506
0.970827
-0.330834
0.339595
0.212396
-0.175041
-0.261613
0.955969
-0.501837
-0.694131
-0.637649
-0.683219
0.000755429
-0.53483
0.501921
-0.281537
-0.757576
-0.481814
-0.484924
0.0663801
-0.941123
0.842095
0.201056
0.374457
-0.606581
-0.298324
-0.757234
0.605048
0.0293844
-0.822268
0.715434
-0.774407
0.392672
0.558607
0.450398
0.103338
0.850113
0.0376172
-0.875854
0.682363
0.903403
-0.0492367
0.677741
0.305548
0.000910401
0.312524
0.812997
0.869923
0.40601
-0.856849
0.415376
0.886134
0.101938
-0.427768
-0.934874
-0.0920025
0.178606
0.431926
-0.195123
0.692401
0.0947953
-0.35693
-0.857586
-0.129806
-0.956612
-0.819615
-0.102847
0.310882
-0.858529
0.597562
-0.070145
0.306411
0.410745
-0.550771
-0.340957
0.565142
0.417504
-0.882203
-0.532035
-0.778432
-0.6306
0.0513445
0.132165
-0.179548
0.645073
-0.0978853
0.911661
0.675206
0.680878
0.0542868
-0.899878
-0.971543
-0.718073
-0.0206496
-0.91206
0.86327
-0.73983
-0.186014
-0.661281
-0.933844
0.386335
-0.725687
-0.558054
-0.774561
-0.412857
0.209601
0.150517
0.954612
0.217051
-0.936772
-0.289733
-0.017733
0.650849
0.415961
0.106009
-0.265047
-0.762656
-0.579388
0.723574
0.771827
0.454205
0.482326
0.851191
-0.909949
0.616436
0.121327
-0.770738
0.326831
-0.904933
-0.847808
-0.569646
-0.493017
-0.732991
-0.268776
-0.715436
-0.970945
0.500135
0.00965023
-0.374604
-0.691742
0.995919
-0.199079
0.202788
-0.486266
-0.929976
-0.566717
-0.369485
0.992736
0.387829
-0.366447
0.20858
-0.0794173
0.0591105
0.480515
0.170335
0.251097
0.494456
0.331796
0.443294
-0.0783386
0.695694
0.993705
0.324479
0.481484
-0.860351
0.249967
-0.64443
-0.587528
0.341426
-0.108757
0.303625
-0.643946
0.40484
-0.491194
-0.393318
-0.667219
0.170791
-0.512344
-0.708451
-0.755391
0.582149
0.29946
-0.948314
0.725612
-0.0721273
0.988762
-0.830197
0.184402
0.0794555
0.455987
0.508318
-0.359817
0.0893322
0.279003
0.159397
0.0454367
0.71703
0.0508336
-0.989733
0.263566
-0.364962
-0.673779
0.176149
0.904164
0.769307
0.558192
0.431868
-0.2908
-0.385851
0.459657
0.0982344
-0.913685
-0.643056
-0.429186
0.712679
0.387228
0.488955
0.950634
-0.716768
0.248788
0.865103
-0.80752
0.290957
0.89684
-0.245251
-0.158666
0.541342
-0.486451
-0.920758
0.503586
0.580116
0.163553
-0.0570706
0.95651
0.428303
-0.725678
-0.473742
0.493373
0.500247
-0.393986
0.0238432
-0.590781
-0.652623
0.340964
-0.566553
-0.846376
-0.1976
-0.164661
0.920631
0.921561
-0.168844
0.113969
0.227801
0.385787
-0.875281
0.902232
-0.276996
0.674727
0.617549
-0.592797
0.141102
-0.504626
0.424071
-0.390795
0.838938
0.134213
-0.315223
0.198037
0.339244
-0.158244
0.0309522
0.780291
-0.110612
-0.761179
0.996533
-0.208734
-0.146969
0.574476
-0.814144
-0.270553
0.105636
-0.747861
0.590182
0.341977
0.353088
0.333389
0.54042
-0.83774
-0.833027
-0.719032
0.807972
0.286774
-0.476334
-0.466891
-0.611309
0.57449
0.246608
0.0340168
0.757114
-0.553696
-0.187541
-0.697821
0.428866
-0.802678
0.553793
0.899408
0.61657
0.673207
-0.795176
0.543955
-0.94404
0.03277
0.737919
-0.19804
0.921345
-0.673095
-0.345907
0.789106
0.268821
-0.317775
-0.234684
0.18701
-0.809787
0.0499413
0.587471
0.844765
0.477567
0.989408
-0.864439
-0.661631
-0.509542
0.452096
0.414155
0.908401
-0.0918208
-0.344414
0.867251
-0.0168729
0.947422
-0.0758477
0.349486
-0.734914
-0.769477
-0.521356
0.789765
-0.671472
-0.589058
0.0682778
-0.951595
0.7094
-0.540242
0.58658
-0.00305307
-0.0553633
0.465639
-0.902413
0.475498
-0.699619
-0.9121
-0.0868666
-0.464625
-0.181974
-0.627279
0.528892
0.956622
0.839584
-0.895599
0.569816
-0.659727
-0.715853
0.687685
-0.42581
0.731406
-0.723893
0.720873
0.496801
-0.15231
-0.685617
0.334707
-0.146242
0.553507
-0.896771
0.041647
-0.932764
0.583296
0.648725
0.546323
-0.285269
0.530115
0.947775
0.224181
0.806737
-0.0753102
0.989162
-0.651021
-0.252293
-0.978186
-0.0887409
0.598238
0.304967
-0.365792
-0.555325
-0.993024
-0.0837796
-0.316329
0.0935605
-0.713404
0.242084
0.161681
0.254409
0.730372
-0.498896
-0.428257
0.592139
-0.462669
0.690743
0.994357
0.616577
-0.300191
-0.971596
0.202493
0.926416
0.0548491
0.164052
0.47098
-0.0700684
0.71194
0.320263
-0.434501
0.936239
-0.977114
-0.0748746
-0.759597
0.620385
0.658983
0.683078
-0.498849
0.219666
-0.750248
-0.497416
-0.304607
0.917841
0.16666
0.178712
0.694918
-0.494411
-0.286448
-0.165452
0.578845
0.706732
0.636865
-0.232339
0.881421
-0.360359
-0.187312
-0.0566332
0.538445
-0.910189
-0.898802
-0.704052
-0.315916
-0.57907
0.617217
0.08778
0.189264
0.37606
-0.340789
0.116921
-0.11162
0.473548
-0.82579
-0.926226
-0.930214
-0.656195
-0.964062
0.147209
0.968919
-0.508562
-0.312182
0.974176
0.122922
0.210806
-0.715694
0.308025
0.738809
0.957036
-0.275407
-0.502693
-0.524233
0.122277
0.745731
-0.267186
-0.629281
0.826165
-0.438548
0.709654
0.38782
-0.392169
-0.19197
0.403292
-0.223087
0.400774
0.964904
0.558781
0.521972
0.963365
-0.169903
0.829455
-0.519139
-0.709075
0.8923
-0.369221
0.652043
0.336447
-0.154597
0.255794
0.266225
-0.632709
-0.190896
0.612904
-0.491347
0.0601761
-0.864327
-0.740928
-0.413233
-0.239928
-0.858458
0.620238
-0.798964
-0.44118
-0.622448
-0.967445
-0.885062
0.912366
-0.324551
0.724845
-0.669416
0.656288
-0.565494
0.0272011
0.60792
-0.201332
0.487793
-0.707719
0.951895
-0.204173
0.079507
0.499929
-0.368693
-0.799985
-0.882827
0.397557
0.771349
0.260989
0.923733
0.319357
-0.562954
0.785951
0.789667
0.72948
0.0730689
-0.360825
0.939663
0.413792
-0.694253
0.266337
-0.896532
-0.450247
0.622341
0.0893674
-0.104051
0.11015
0.595141
-0.73718
-0.546124
0.951291
-0.977241
0.856348
-0.152425
-0.182023
0.300666
-0.786801
0.371679
-0.179401
-0.71262
0.373714
-0.00769389
-0.814587
0.287243
-0.575122
0.824606
-0.3097
0.84405
0.185346
-0.271232
-0.917222
-0.755557
-0.157442
-0.0786614
-0.0276239
-0.174613
0.184238
0.869719
0.0131173
0.497009
0.199785
-0.881539
0.478555
0.854319
0.699755
0.550914
-0.766026
-0.747822
-0.6756
-0.347831
0.951916
0.337835
0.814331
0.175446
0.505251
-0.492854
-0.618314
0.270796
0.433607
0.336482
-0.0410304
-0.746344
-0.321571
0.811884
-0.527582
0.138847
0.224163
-0.476408
0.0494133
-0.538773
-0.991147
0.463855
-0.963994
-0.421781
0.508365
-0.0293899
-0.578735
0.38982
0.969214
0.381722
-0.449388
0.23413
0.162995
-0.361016
-0.0843123
0.00172162
-0.462015
0.0181587
0.125523
-0.443003
-0.394384
0.5165
0.943756
-0.14932
-0.762378
-0.574562
0.854409
-0.768432
0.205526
0.166077
0.437008
-0.877883
-0.590912
0.787141
0.00426972
0.0773067
0.0869169
-0.878662
-0.595617
-0.626191
-0.260995
-0.0892386
-0.199127
-0.205085
0.211394
-0.541359
0.00180483
0.0684344
-0.727411
-0.0725604
0.559808
0.667855
0.410497
-0.943978
0.571485
-0.620515
-0.245046
-0.326662
0.1414
0.877537
0.866342
-0.471896
0.929029
-0.0396105
0.321136
-0.278007
0.787654
0.0358222
0.891699
0.58449
0.0460269
-0.514225
0.98874
0.00204444
0.1585
-0.452031
0.265915
-0.739033
0.860561
0.798704
0.419505
-0.285751
-0.527678
0.0280719
-0.124794
0.297433
0.0260229
-0.530505
-0.794363
0.425335
-0.415659
0.603084
-0.784797
-0.286382
-0.894936
-0.223423
-0.876818
-0.208562
-0.797554
-0.534905
-0.590039
0.940921
-0.582466
-0.971195
0.677466
0.927991
0.260466
-0.363853
0.76981
0.479815
-0.598816
0.385609
-0.503322
0.463468
-0.0988973
-0.565593
0.36235
-0.509087
0.301352
0.506661
-0.522466
-0.987675
0.801584
-0.141216
0.875634
-0.844617
-0.937631
0.341767
0.781552
0.0298712
-0.585431
0.826197
-0.440932
-0.0240163
-0.330109
0.14028
-0.291704
0.604512
0.380323
-0.824699
0.555718
-0.215556
-0.574794
0.241885
0.904562
-0.296098
0.0220304
0.0155487
-0.8969
0.230605
-0.789649
0.3302
0.453752
-0.897746
0.148243
0.589038
0.668351
0.44617
0.561992
0.42443
-0.445031
-0.0551083
-0.811242
-0.283155
0.679587
-0.291224
0.0337826
-0.888778
0.76084
-0.180767
-0.050825
-0.900903
-0.233057
-0.304529
0.0837672
-0.222602
0.0244864
-0.233871
0.241686
0.61899
-0.836256
0.420282
0.538387
-0.575128
0.301538
0.946877
-0.707804
0.853739
0.498462
-0.610973
0.558124
0.954842
0.752924
-0.535587
0.706239
0.663713
0.0302148
0.591129
-0.097119
0.663484
0.671173
-0.21368
-0.705918
0.53197
0.510515
0.965903
0.659002
-0.504566
0.0365883
0.490803
0.514605
0.210119
0.9662
0.547131
-0.201544
0.784069
0.487113
-0.352739
0.553462
0.667128
-0.500633
-0.388493
-0.75234
0.776718
0.157283
0.198159
-0.709013
-0.721623
-0.66023
0.106334
0.915757
-0.32839
-0.0397707
0.987483
-0.889962
0.754209
-0.866929
0.801988
-0.6075
0.338473
0.599426
-0.979868
0.976529
0.803746
0.585082
0.0576171
0.53348
-0.896836
0.490912
-0.072679
-0.443066
-0.653037
0.967412
0.158823
-0.412673
0.595327
-0.0902147
-0.43855
-0.276562
0.39357
0.27467
0.723514
-0.365848
-0.464768
-0.064687
0.528511
-0.343561
-0.0884446
-0.545065
-0.645446
0.897068
0.0751376
-0.275401
-0.781507
0.391583
0.0412794
0.864741
0.57349
0.610138
0.197645
-0.123926
0.264176
0.282705
0.58257
0.310724
0.388287
0.165973
-0.317962
-0.598718
-0.868443
-0.810779
0.855868
0.275562
-0.661716
-0.695936
-0.837315
-0.384066
0.252322
-0.0737547
0.973169
0.493773
0.214891
-0.659697
-0.883697
0.723967
0.979575
0.753525
-0.99378
0.349318
-0.279399
0.243049
0.721768
0.515346
0.406409
0.0976207
-0.534591
0.861705
-0.235471
-0.413973
0.0153439
0.524275
0.134475
0.739482
0.375638
0.945877
0.569899
-0.405953
0.900733
-0.953896
0.933156
-0.944207
0.155902
0.391455
0.308517
-0.255781
0.243421
-0.528653
0.66729
-0.114832
0.127734
0.502602
0.258177
-0.57736
0.895327
-0.652801
0.875786
0.729106
0.671528
-0.921918
-0.277576
-0.776337
0.258391
0.50754
0.0257244
-0.17556
0.141746
-0.218592
0.115835
-0.16386
-0.394243
0.988803
-0.58041
-0.743089
0.490466
0.119277
-0.188974
0.676867
-0.837159
0.487557
-0.812131
0.0277947
-0.410848
-0.019598
-0.646659
0.30346
0.592473
-0.444402
0.853993
0.836001
0.725085
-0.920475
0.796258
0.307124
0.666342
-0.27827
0.720843
0.789605
0.794124
0.203704
0.657532
0.293601
0.0536112
0.872146
0.861082
0.426833
-0.0422982
0.135729
0.555169
-0.46725
0.371672
-0.603552
-0.2855
0.0160366
0.682302
0.861218
-0.554467
-0.483828
0.734064
0.984614
0.729047
0.259925
-0.65295
-0.80418
0.190157
-0.704332
0.547912
0.750152
0.534262
-0.0977293
0.952204
0.653499
-0.939452
0.0209105
0.161679
0.567065
0.800877
0.424352
0.128043
0.0449911
0.710617
0.695513
0.464321
-0.898217
0.507883
0.525673
0.642936
0.353974
-0.411652
0.979748
-0.590074
-0.52863
0.0973271
0.604062
-0.605153
-0.198788
-0.490595
-0.150955
0.0725027
0.889923
-0.379582
-0.907072
0.791139
0.195544
-0.239964
-0.749126
-0.263278
0.432398
-0.131773
0.345913
-0.080109
-0.0315326
0.643382
-0.398729
-0.0379554
-0.132705
0.695594
-0.8706
0.151242
0.862931
0.590758
0.045577
0.69311
-0.212067
-0.67074
0.958831
0.658327
-0.903952
0.376515
0.394516
0.632198
0.534718
-0.463052
0.443068
0.585804
-0.644519
0.159434
0.121443
0.325479
0.189076
-0.588234
-0.500239
-0.676218
-0.280552
0.540916
0.680366
-0.600975
0.452254
-0.521494
0.384837
0.412757
0.747527
-0.0895931
0.077879
0.447374
0.861941
0.781174
-0.198116
0.804963
0.507308
-0.412201
-0.943807
-0.0845844
0.93784
0.125091
-0.0431287
0.657224
0.345118
-0.137178
0.12825
-0.54953
0.11994
-0.805855
0.47198
0.0795103
-0.837599
-0.636023
0.765371
0.442409
-0.857972
0.651044
0.259606
0.90453
0.30713
-0.299821
-0.0248412
-0.727719
0.796776
0.113846
-0.135334
0.24856
-0.932498
0.33765
0.324331
-0.770499
0.259025
-0.885507
-0.526304
-0.636073
0.864155
0.974329
0.470899
0.921112
0.858504
-0.0652962
-0.371812
-0.855871
-0.752723
0.986938
0.00535285
-0.314047
0.183596
-0.765068
0.159853
0.926606
-0.613755
-0.611508
0.0717548
0.20074
-0.638708
0.21075
-0.454807
-0.26689
-0.220976
-0.665255
0.959669
0.29882
-0.669553
-0.41358
-0.927912
0.585547
-0.549692
0.383438
-0.354524
0.792729
0.337894
0.889148
-0.838282
0.25269
-0.0242801
0.377926
0.806368
-0.0233067
0.997032
0.275763
-0.0031755
0.560595
-0.0336745
0.133281
0.229771
-0.398413
-0.961831
0.569029
0.902955
-0.325773
-0.48108
-0.384713
0.765028
0.621053
-0.682768
-0.696277
-0.995158
0.711886
0.633538
0.0357711
0.288717
-0.782416
0.670991
-0.517133
0.211806
-0.361645
0.926239
-0.885402
-0.928464
0.527471
0.13936
-0.465904
-0.053009
0.589065
0.150682
-0.916249
-0.348269
0.220776
0.0874748
0.676164
0.873916
0.542763
-0.351435
0.106223
0.923432
0.876339
-0.331955
-0.359567
-0.460283
-0.336313
-0.202427
0.0329279
0.127512
0.759569
-0.293492
-0.80736
0.314655
0.482367
0.0693153
0.369927
0.425586
-0.34069
-0.90917
0.778687
-0.212849
-0.495969
0.346033
-0.40239
-0.505456
-0.734038
-0.16191
0.758552
-0.820829
-0.0702313
0.766912
-0.0916841
-0.711854
0.157738
-0.040612
-0.045298
-0.922067
-0.805339
-0.466456
0.643184
0.229636
0.813084
0.39808
0.148131
-0.280867
0.937853
0.376421
0.174599
0.185527
0.91061
0.164236
0.615386
0.586786
0.124024
-0.105823
0.870682
0.260508
-0.378782
-0.501791
-0.71302
-0.739317
-0.307433
-0.451849
-0.539359
-0.612126
0.924899
0.758458
0.148037
-0.00766075
0.956949
-0.778421
0.915015
0.696442
-0.495863
0.819459
-0.53697
0.863784
0.351305
-0.879222
0.801827
-0.83472
0.535637
-0.201818
0.0140675
0.767143
-0.379507
-0.689231
0.887169
0.617713
-0.937008
0.764688
0.431684
0.731934
0.810708
0.567583
0.0501051
-0.477507
-0.696359
-0.549846
0.882308
0.639432
0.759726
-0.438661
-0.410099
0.528065
-0.337684
0.792149
0.431981
0.215522
-0.0212277
0.327062
0.694665
-0.834233
-0.652896
0.311485
-0.0809829
-0.554081
-0.305609
0.447109
-0.286783
0.723298
-0.435652
-0.71116
0.969241
-0.0144753
0.235234
-0.289652
-0.214206
-0.869651
0.391591
-0.944588
-0.895241
-0.32963
-0.38846
-0.25398
-0.781463
-0.29727
0.503424
0.951254
-0.947836
-0.345817
-0.534668
0.768657
-0.440549
-0.348642
-0.520006
-0.360081
-0.968785
0.196956
0.841993
0.067238
0.663131
-0.172871
-0.110229
0.772436
0.254658
-0.0436045
0.795777
0.214662
0.566788
0.610144
0.605727
-0.518347
0.423754
0.945964
-0.297296
0.285423
-0.673819
0.229773
-0.551258
-0.29173
0.701955
-0.327559
-0.0619969
0.804777
-0.562455
-0.778258
0.737203
0.345448
-0.620652
-0.424757
0.311664
0.0626837
-0.485547
-0.713983
0.699913
0.125414
0.937926
-0.321763
-0.656791
0.61581
0.92454
-0.250595
0.733019
0.359729
-0.915308
-0.454936
0.72968
-0.593993
0.732225
-0.698499
0.720799
-0.478706
-0.617061
-0.202886
-0.667913
-0.282275
0.691066
-0.357056
-0.638082
-0.512635
0.0678743
0.56883
0.960923
0.596278
0.431476
0.481425
-0.499125
-0.366809
-0.793975
-0.963002
-0.770661
0.363797
0.561511
0.516349
-0.505008
-0.886541
-0.963187
0.492372
-0.449794
-0.0288194
0.303903
-0.526327
0.827874
0.505057
0.863226
-0.820024
0.872525
0.544384
0.650108
0.0800132
-0.534149
0.87269
-0.343435
0.299665
0.0222399
-0.32919
-0.588472
0.405565
0.26262
0.228032
-0.0501306
0.855689
-0.124065
-0.767705
0.0824682
-0.495441
-0.722805
-0.0203439
-0.941085
-0.202805
0.480867
-0.488138
0.359999
0.121161
0.75843
0.773372
0.148419
0.282826
-0.167449
0.724073
0.457676
0.464565
0.676125
-0.364146
-0.847614
0.491018
0.598769
0.413894
0.442393
-0.859806
-0.889567
-0.687837
0.946382
0.610218
-0.399817
0.252353
0.885549
-0.991985
-0.400943
0.225867
-0.989651
-0.0625656
0.0188859
0.131468
0.447215
-0.56034
0.405953
-0.0488261
0.656767
0.610945
-0.243058
0.180116
0.613208
-0.10465
-0.232268
-0.719868
0.184268
-0.140816
-0.128315
-0.920241
-0.850369
0.838556
0.426733
0.677727
0.0454121
-0.963491
0.387337
0.911131
-0.936874
0.853494
0.95051
-0.656487
-0.709969
-0.0894375
0.787057
0.258272
-0.780827
-0.305275
0.869406
0.825656
0.17674
-0.48525
-0.452784
-0.211002
-0.458499
0.500438
0.812177
-0.320839
-0.075676
-0.605038
0.379683
-0.472214
0.211017
-0.402825
-0.933505
0.259178
0.952783
0.0285419
-0.408829
-0.740426
-0.526484
0.415501
0.0169693
-0.878857
0.219443
-0.255595
0.99383
-0.338223
0.477783
-0.17722
0.638219
-0.170092
0.775839
0.700549
-0.715884
0.0973616
0.807382
0.00940216
0.577703
0.341287
0.651206
-0.164068
-0.00592232
0.870205
0.582872
-0.633604
-0.767973
0.627838
-0.23697
0.00272751
-0.540743
0.889713
-0.259032
0.0963634
0.651763
0.982132
0.479305
-0.188687
-0.608881
0.460716
-0.993498
-0.72887
0.182318
0.677413
-0.903532
-0.291761
0.779483
-0.432778
-0.0407113
-0.333537
0.595385
-0.144997
-0.402202
-0.755079
-0.512276
0.834197
-0.692842
0.813046
0.0670166
0.133005
0.278371
-0.131862
0.927931
0.00985813
0.532773
-0.433842
0.0121906
0.915897
0.772509
0.899912
-0.394508
-0.454861
0.178139
-0.522174
0.0553005
-0.962187
0.580454
-0.00102246
0.654908
0.296488
0.879181
0.0744467
0.358693
-0.946583
0.963944
0.755039
0.355732
-0.461861
-0.0365952
-0.93648
-0.205632
0.24146
0.24615
-0.775628
-0.704784
0.742643
-0.377908
-0.324108
0.801434
-0.551483
0.642171
0.82935
0.064281
0.326393
0.00485051
0.819669
0.21606
-0.0568265
0.339272
0.245892
0.0884733
0.778029
-0.110657
0.311092
-0.995613
-0.72706
0.0518136
0.705901
-0.606615
-0.352877
0.221026
0.235884
-0.0612303
-0.711376
-0.134545
-0.677659
0.0766674
-0.0421491
0.303688
-0.26305
-0.517909
0.414749
0.875968
0.430838
-0.856135
-0.332327
0.362231
-0.79051
0.712262
0.33894
-0.519009
0.467468
-0.664747
-0.276881
-0.281544
0.904748
0.63828
0.444883
0.425731
-0.736052
0.153823
0.315479
0.760646
-0.466394
-0.743368
-0.658947
0.488686
0.367474
0.234463
0.0319374
0.578614
-0.105917
0.273053
0.0293292
0.135129
0.196622
0.891491
0.632365
0.997836
-0.0284054
0.38941
0.0466098
-0.553862
-0.798617
-0.366771
-0.0836414
0.346856
0.109273
-0.180693
0.561048
-0.0891331
0.171995
0.373911
-0.268566
0.0484232
0.335441
0.784851
0.839494
-0.142393
-0.715597
-0.120027
-0.306792
0.716934
-0.711603
0.958537
-0.376841
-0.146092
-0.255195
-0.456671
-0.879639
0.0607452
0.896121
-0.393554
0.739646
0.34628
0.871081
-0.904723
0.0954771
-0.00283968
0.0925525
-0.348907
0.0417922
-0.326863
0.463426
-0.780738
-0.303473
-0.729622
0.712234
-0.502298
-0.979867
-0.431685
0.5959
-0.986101
-0.699014
0.494516
-0.6007
-0.498049
-0.48661
0.537393
0.605196
0.248628
0.223192
0.699501
0.930465
-0.609934
0.650327
-0.475939
-0.103712
0.387482
0.57936
0.993369
0.348005
-0.912557
0.245793
-0.85135
-0.983568
-0.553026
-0.522679
0.00877345
0.0322812
-0.923251
0.91954
-0.800632
-0.183963
-0.73316
0.332945
-0.547574
0.143095
0.294138
0.905997
0.406739
0.774714
0.0897821
-0.53797
0.11593
0.735349
-0.133281
0.507236
0.642988
-0.365772
0.701255
-0.766958
0.290314
0.643456
-0.763761
0.928404
0.608047
0.83764
-0.464307
0.586481
-0.472028
0.243132
0.488325
-0.369871
-0.894823
0.0152638
0.587109
0.740774
0.35148
-0.224863
0.75691
0.808178
0.632499
-0.680713
0.181355
0.14679
0.0474598
0.344764
0.182485
-0.262416
0.0341802
-0.0668492
-0.653256
-0.0388167
0.896382
-0.142699
0.846896
0.710804
0.46791
0.562258
-0.686988
-0.178108
0.490532
0.479073
0.978164
0.69563
0.987397
-0.319636
0.683546
0.960331
0.0461904
0.349706
-0.596547
0.136828
-0.584477
-0.96098
-0.150916
0.588226
-0.944769
-0.655523
-0.527125
0.984787
-0.941177
-0.853111
0.466258
0.457987
-0.444668
0.479801
-0.43288
0.764435
0.847817
-0.619588
0.868966
-0.306731
0.0205439
0.866146
0.504751
0.222863
-0.798719
-0.240511
-0.905668
0.583946
0.251976
-0.839721
0.425503
-0.981891
-0.0982758
-0.887264
0.251308
-0.184065
-0.878904
-0.69271
-0.642218
0.0271904
0.958439
-0.320596
0.0636468
0.493818
0.209727
0.6998
-0.387879
-0.86099
0.295755
-0.0441641
0.229555
0.239491
-0.241815
-0.600005
0.188316
0.813735
0.701861
0.351305
-0.70825
0.74448
0.327854
-0.759168
-0.396094
0.926621
0.189844
0.810025
-0.355064
-0.140836
0.221809
0.35086
-0.642258
-0.368833
0.26671
0.122078
-0.714231
-0.0606972
0.715204
-0.986956
-0.355755
0.350327
0.97427
0.583733
-0.0538747
0.901118
0.947334
-0.0081476
0.451504
0.910302
-0.0849028
0.265115
0.243613
-0.810573
-0.527681
-0.942787
0.462776
0.806881
-0.426741
0.169536
0.824048
0.655334
0.501655
0.14615
0.357924
-0.0774461
-0.948267
0.707239
-0.745245
-0.372542
-0.636889
-0.167871
-0.892657
-0.975192
-0.587741
0.772148
0.503515
0.0354427
0.0856154
0.250736
0.403388
0.0203826
-0.0507952
-0.87657
0.887051
0.883817
0.196162
0.879676
0.117649
0.104051
-0.673803
0.033906
0.218454
-0.152871
-0.688174
0.568823
-0.335302
0.122028
-0.713484
-0.168728
-0.248657
-0.112158
0.732223
-0.88577
-0.935238
0.875967
0.658694
-0.634555
-0.187546
-0.578735
0.983884
-0.964636
-0.314618
-0.845264
0.421052
-0.178869
-0.486981
-0.393256
-0.891235
0.523195
0.159389
0.78237
-0.633809
-0.403151
-0.004287
-0.794886
-0.102333
-0.00486255
-0.563824
-0.566676
-0.342687
0.559803
0.506083
0.530344
0.849234
0.640514
-0.347207
0.166039
0.400224
0.34339
0.180457
0.27837
-0.349574
0.266476
-0.56802
0.880313
0.179026
0.443039
-0.958255
-0.281404
-0.704054
0.368596
0.0355912
-0.208737
-0.236383
0.609673
0.178678
0.804096
-0.0195454
-0.138713
0.322092
0.641122
0.939232
-0.528312
-0.863435
0.244799
-0.425372
-0.447678
0.668812
0.54767
0.700643
-0.318289
-0.417142
-0.0603354
0.673575
0.341389
0.00521696
-0.868392
0.650217
-0.44956
-0.485778
-0.651886
0.0207491
0.674809
-0.318836
-0.884774
-0.586063
-0.471484
0.123572
-0.590186
-0.547829
0.369158
-0.092398
-0.622884
0.773177
-0.673105
-0.723757
0.60134
-0.2603
0.934753
0.151435
0.13138
-0.0169216
0.604405
-0.787884
-0.539005
0.734186
0.235173
0.75676
0.715702
0.587416
-0.690163
0.697031
0.103442
-0.956279
0.492235
0.99052
-0.650994
-0.0594817
-0.400941
-0.464013
-0.114044
-0.183564
0.444621
-0.877366
0.568106
-0.378402
0.273649
-0.240427
-0.22948
-0.379584
0.573939
0.341715
-0.0844318
-0.860475
0.316705
0.0978295
-0.57255
-0.249608
0.638616
0.943976
0.250311
0.216097
0.969808
-0.0594184
-0.705708
-0.802987
-0.956155
0.522039
0.426193
0.959243
0.646752
-0.420407
-0.632893
-0.0872338
-0.150209
-0.803435
-0.921935
-0.0838373
-0.845065
0.930288
0.528546
-0.654931
0.718303
-0.332916
0.850661
0.930909
-0.349746
0.620744
0.682359
-0.17404
0.0163153
-0.948062
-0.585044
-0.256338
0.573913
-0.574114
0.903368
-0.0860639
0.66017
0.161104
-0.774195
0.879498
0.420311
0.584418
-0.374249
-0.949071
-0.280465
-0.409517
0.794828
0.178392
0.619414
0.602271
0.530039
-0.18555
0.894875
0.938217
0.784244
-0.893886
-0.304386
-0.495753
-0.625417
0.242411
0.526401
0.457822
0.872483
0.57727
-0.102771
-0.434421
-0.631255
0.571202
0.842299
-0.0643332
0.813127
-0.105597
0.0381901
-0.963144
0.882606
0.648292
0.559335
-0.0614433
-0.335434
-0.0972419
0.820933
-0.963954
-0.408891
0.0496336
0.637219
-0.361679
0.848136
0.378635
0.708838
-0.962137
0.349256
0.412717
0.0270095
0.0127656
0.591214
-0.911034
0.975073
0.658095
-0.0635977
-0.530325
0.446052
0.139233
-0.403392
0.470953
-0.435692
0.443988
-0.259957
0.954907
-0.274493
-0.505021
0.168484
0.333283
0.485088
-0.802752
0.239258
0.209033
-0.152916
0.599593
-0.08761
-0.1214
0.634539
-0.0139453
0.836984
-0.438233
0.178933
0.974004
-0.127629
0.207127
-0.717387
-0.846217
-0.0543932
0.413911
0.55797
-0.347243
-0.231939
-0.492265
0.173384
0.229989
-0.534732
0.573531
-0.528057
-0.186616
0.325236
0.0508509
0.949096
0.602898
0.623448
0.930151
-0.363114
-0.420546
-0.21046
-0.6836
-0.291775
0.103347
0.751361
-0.875472
-0.890275
-0.757242
0.578906
0.531898
0.821254
-0.773059
-0.333825
-0.749191
-0.220502
-0.48451
-0.43601
0.654954
-0.947805
0.273412
0.125505
-0.702287
0.308709
0.980225
0.639779
-0.426582
0.612695
0.916429
0.907732
-0.0757809
0.458474
-0.660177
-0.462232
-0.385747
0.673502
0.382407
-0.0828458
-0.743219
-0.519767
0.338178
0.869987
-0.867743
-0.770677
0.871357
-0.803603
0.938568
0.675894
-0.539026
0.639062
-0.463133
0.640458
-0.628458
-0.625684
-0.948799
0.182076
0.334015
0.465135
0.64202
-0.824906
-0.528679
-0.415791
-0.213354
-0.616659
-0.258584
-0.897171
-0.625238
-0.725791
-0.69453
0.625458
0.0630336
-0.478657
0.328315
0.372759
0.0583262
-0.533279
0.952361
0.0886737
-0.637437
0.586896
-0.944959
0.753328
-0.778156
0.453724
-0.571357
-0.745629
-0.0363388
-0.88292
0.901479
-0.376974
-0.433339
-0.046423
-0.0680487
-0.630057
0.244774
-0.455309
0.982577
0.480376
-0.518253
-0.680192
-0.611644
0.977425
-0.636651
0.467473
-0.235033
-0.630661
0.075763
-0.200385
-0.610609
-0.821417
-0.623391
0.0496092
-0.413043
-0.180677
0.471748
-0.827133
0.968643
0.100423
0.354148
-0.54631
0.603458
-0.450449
-0.396585
0.981658
-0.578491
-0.844979
0.106971
-0.270443
0.733789
0.310008
0.653019
0.807278
-0.564286
-0.28002
0.170329
0.807915
0.162229
-0.727345
0.704543
0.200888
-0.942903
0.786245
-0.82339
-0.327319
-0.694865
-0.406044
-0.292397
-0.289726
-0.770818
-0.844799
0.364877
0.696858
-0.931487
-0.205678
-0.413895
-0.750665
-0.986776
0.691339
0.394103
-0.252993
-0.300565
0.310794
0.20564
-0.800594
0.343665
0.0665565
-0.476405
-0.640802
0.391969
0.0370638
0.417181
-0.788014
-0.845392
-0.144349
0.660843
0.448589
-0.929447
-0.576694
-0.382899
-0.781201
0.446697
-0.744223
-0.305217
-0.238319
0.335925
0.471742
-0.42167
-0.337532
-0.678213
-0.891291
-0.970627
-0.322468
0.57387
-0.34946
-0.286502
0.266238
-0.0637791
-0.430804
0.606943
-0.0112392
0.713805
-0.0524975
-0.804649
0.491735
0.452602
0.494828
-0.607431
0.254487
-0.818069
0.00682151
-0.62923
0.849479
-0.385442
0.794639
-0.144696
-0.792883
0.929053
0.617937
0.30115
0.95106
0.312545
-0.141654
0.160527
-0.881132
0.507225
0.106302
0.483447
0.371202
0.965645
-0.511661
-0.898984
0.980996
-0.225254
0.665251
-0.357856
-0.17433
-0.175769
0.882015
0.488604
-0.00988102
-0.89178
-0.976657
0.99074
0.812694
0.0166473
0.90451
0.127848
-0.132799
0.340517
-0.691165
0.0526696
-0.261787
-0.969924
0.325614
-0.325328
0.673684
0.764012
0.736662
0.392271
-0.280093
0.854923
0.27779
0.400674
-0.66728
-0.108776
0.322503
-0.694708
-0.570348
0.64437
-0.712826
0.788305
-0.522689
-0.723215
0.495116
0.130239
0.213848
-0.872347
0.71528
0.833101
0.715718
-0.235392
0.491695
-0.819983
0.557273
-0.451341
-0.766136
-0.513324
-0.58947
0.707882
0.38868
-0.5797
-0.876377
0.856681
0.0224154
0.628434
-0.344273
-0.857062
-0.879105
0.62396
-0.0892642
0.997822
-0.133443
0.397612
-0.072726
0.395896
0.139068
-0.656105
-0.600839
-0.329394
-0.212275
-0.592514
0.476556
-0.847008
-0.433103
0.505728
0.870534
0.998585
0.00453246
0.114406
-0.436341
0.902851
-0.276288
0.831955
0.387944
-0.467283
-0.215206
0.516963
-0.292801
0.464026
-0.797421
-0.261712
-0.260306
0.488293
-0.649062
0.532581
0.790485
0.32398
0.881206
0.297184
-0.1996
-0.541864
0.882539
0.919787
0.515469
0.973568
-0.15695
-0.179743
0.915571
-0.313103
-0.414106
0.401096
-0.512073
0.181186
-0.819595
0.772348
0.261647
0.0781924
0.539981
0.350492
-0.357254
0.365787
0.975663
-0.923934
0.943567
-0.572537
-0.608946
0.0273093
-0.541654
0.595204
0.286197
-0.901996
0.422838
-0.470028
0.323432
-0.894188
-0.421163
-0.106245
-0.566077
0.374967
-0.766364
-0.22562
0.87335
-0.805871
-0.976334
-0.71186
-0.723093
0.482674
-0.746393
0.317048
-0.561746
-0.930922
0.167935
-0.982386
-0.456495
-0.741894
0.0361813
0.704238
0.0544928
0.409783
-0.124624
0.907918
0.584677
-0.22264
0.309244
0.820418
-0.487181
0.934974
-0.910146
0.118619
0.181593
-0.340862
0.172853
-0.955082
0.877706
-0.961681
0.565575
0.13641
-0.683242
0.531452
0.614416
-0.295176
0.805336
-0.509785
0.281981
-0.367023
-0.2403
-0.803142
-0.726213
0.0773067
-0.30493
-0.606853
0.377547
0.156095
-0.116315
0.876007
0.366673
-0.904621
0.170644
-0.40789
0.333288
0.0978141
0.377701
0.435344
-0.446696
-0.930192
0.440136
-0.885453
-0.863175
0.893794
0.704409
0.829859
0.0273223
0.175176
-0.976997
-0.586546
0.0118554
0.194111
0.62404
0.59776
-0.0592421
-0.648453
-0.643856
0.000589132
0.683124
0.45769
-0.127824
-0.142823
0.946414
0.687471
-0.422944
0.894794
-0.877494
0.912797
0.893895
-0.591101
-0.100508
-0.768125
0.848307
0.325221
0.447226
-0.388006
-0.427738
0.498156
0.855845
-0.246883
-0.844889
-0.031382
-0.705881
-0.872516
-0.957162
-0.107732
-0.402909
0.560907
-0.406888
0.404164
-0.795062
0.00796723
-0.845471
0.117778
-0.730863
0.609962
0.811206
0.818462
-0.263332
-0.167169
-0.785949
0.834684
0.513672
-0.605729
0.984912
-0.554667
-0.055855
-0.424151
0.0292941
-0.967864
0.811014
0.164844
0.827855
0.0724748
-0.704283
0.332167
-0.853796
0.281727
-0.732441
-0.0207587
0.60478
0.776856
0.699334
0.0235087
0.206273
-0.371792
0.150332
0.636453
0.664746
0.533437
-0.192246
0.894217
-0.853249
-0.98017
-0.216498
-0.0513163
0.80303
-0.664308
-0.827517
-0.820446
0.128673
-0.0241976
-0.759716
-0.638531
0.672994
-0.714922
0.220601
0.461607
0.579005
0.640626
0.0284503
-0.789663
-0.87365
-0.522754
0.246791
-0.639616
-0.343549
0.647064
-0.556159
-0.147982
0.811885
0.941858
0.706814
-0.627517
0.321372
0.209613
0.133712
0.282174
-0.0682354
0.686042
0.356483
0.477018
-0.350392
0.97156
0.221908
-0.339931
0.614407
-0.54534
0.262828
0.120141
0.52887
0.436361
0.35103
-0.0955575
0.932089
0.232741
0.553441
0.191836
-0.824484
-0.376191
-0.940786
-0.89325
-0.359871
0.627318
0.174892
0.607903
-0.385699
-0.883162
0.311911
0.661733
0.136445
-0.275071
0.979883
-0.456313
0.427388
0.526458
0.830962
-0.3695
-0.18169
-0.443965
0.0185231
0.757728
0.241791
-0.11502
-0.610858
0.487735
0.461711
0.21989
-0.277513
-0.852837
0.0129486
0.338533
-0.0554447
-0.245915
0.576393
0.037724
-0.142313
-0.170457
0.716568
0.40247
-0.0697604
0.261392
0.304996
0.356991
-0.255101
0.994891
-0.290724
0.506224
-0.906547
-0.852976
-0.786633
0.303486
0.328465
0.366426
0.757836
-0.930353
0.733121
0.971643
-0.212632
-0.65009
-0.226964
0.59874
0.555049
-0.647532
-0.331599
-0.732392
-0.825129
-0.394324
-0.346744
0.083071
-0.706788
-0.531015
0.725241
0.457095
0.148424
-0.940535
0.343599
0.848733
0.303816
-0.98037
-0.319185
0.623683
0.833332
-0.589032
-0.13761
0.444939
0.821171
0.217037
0.107746
-0.582153
0.642329
-0.89453
0.167179
0.876968
-0.00179517
0.0503131
-0.722506
-0.273978
-0.745346
0.523896
0.882656
-0.719792
0.344566
-0.489174
0.600187
0.137107
-0.820494
-0.612032
0.775516
0.395256
0.689899
0.00175726
-0.0939339
-0.264808
-0.0802335
0.712391
-0.626672
-0.850711
0.0389868
0.459175
0.496576
-0.327312
0.764639
0.589313
-0.783764
-0.105832
0.7266
0.46906
-0.0776918
0.156369
-0.365545
-0.46819
-0.0511416
-0.25695
0.713985
0.410565
-0.436458
-0.7571
-0.532181
-0.834972
0.46489
-0.774768
-0.0554945
-0.565371
0.650399
-0.927622
0.805686
0.60417
0.2593
0.0149963
-0.233578
0.133966
0.197758
-0.00595272
-0.112176
0.975914
0.988462
0.40714
0.20864
0.644881
0.795185
0.140939
-0.408949
-0.491512
-0.198827
0.495194
-0.424625
-0.976994
0.686069
0.80033
-0.142896
-0.76439
-0.309557
-0.986532
-0.112841
0.644702
-0.728802
0.307599
0.961051
-0.77078
0.57829
0.505974
-0.780538
-0.44534
0.915008
0.395371
0.508055
0.405616
-0.00697827
0.629644
0.308637
0.686303
0.0458052
-0.957893
-0.0696825
0.837597
0.221329
-0.761811
0.108262
0.668954
-0.558084
-0.487965
0.98332
-0.684309
-0.326326
-0.874399
-0.0115503
0.571636
-0.0270882
0.175854
-0.0241654
-0.326096
0.264396
0.951785
0.178382
-0.431547
-0.857956
0.0383322
-0.275917
0.154175
-0.899292
-0.937182
0.248136
-0.684817
0.177227
0.743597
-0.0856053
0.0130132
0.107485
-0.0977606
0.285861
-0.973563
-0.756133
0.79463
0.286123
-0.125349
-0.150343
0.858418
-0.857061
0.318889
0.650898
0.224543
0.326301
0.947907
0.873175
-0.501862
0.367963
0.216602
0.804907
0.0733882
0.571668
0.209067
-0.609604
-0.863658
0.621691
-0.147859
-0.804021
0.832361
-0.0801076
0.707918
0.160173
-0.304335
-0.592793
0.287812
0.302344
0.615027
-0.867384
0.746326
0.571416
0.696902
-0.202262
-0.132772
-0.163804
0.60299
-0.0404606
0.00952864
0.019582
-0.797887
-0.31199
-0.331071
0.844018
0.272158
-0.587115
-0.700765
0.388812
-0.847577
-0.595059
0.819687
-0.449574
-0.455285
-0.657467
-0.71452
0.727009
0.756472
0.248176
-0.669557
0.157446
0.0297889
-0.0775801
-0.322678
-0.168002
-0.235014
0.898335
0.84531
-0.464205
0.431689
0.272347
-0.538086
0.147796
-0.0950979
-0.287258
0.181763
0.509519
0.589104
0.519021
0.617256
-0.252324
-0.137232
-0.992232
0.812931
-0.134015
-0.331277
-0.694642
0.70322
0.336449
-0.299035
0.880704
-0.860197
-0.324933
-0.861781
-0.239883
0.168543
0.0964457
-0.774814
-0.531748
-0.249366
-0.117676
-0.411988
0.753531
-0.967
0.516019
0.362951
0.64211
0.255681
-0.639907
0.695814
-0.857891
-0.110401
0.44171
0.310701
0.783182
-0.758235
0.0225375
-0.150552
0.802078
-0.822109
0.855274
0.562805
0.354321
0.843869
-0.530426
0.471001
0.0231645
-0.505326
-0.917406
0.37602
0.476283
0.938028
-0.46692
-0.0888439
0.211659
-0.93067
0.231861
-0.667408
-0.127678
0.681602
-0.657442
0.544689
-0.593046
-0.319788
0.454037
-0.882781
-0.136571
-0.601967
-0.977042
-0.723419
0.163456
-0.61852
0.451027
0.501452
0.493611
-0.76034
-0.46021
-0.844742
-0.135194
-0.85302
-0.748989
0.575266
-0.226881
-0.114427
-0.952282
0.606142
-0.0159832
-0.968621
0.632981
0.920791
0.811602
-0.970818
0.561853
0.875342
0.985487
0.939161
0.651203
0.401329
0.600278
0.146395
0.370342
0.558407
-0.953291
0.0587968
0.776617
0.566039
0.336675
-0.643233
0.203694
0.238687
0.648642
0.788751
0.276129
0.586708
-0.151077
-0.757601
0.767121
0.718918
-0.508246
0.936397
-0.527802
-0.0846965
0.0425676
-0.938693
0.510105
0.152712
-0.820284
0.931519
-0.41889
-0.0847739
0.718125
-0.555679
-0.937454
-0.245944
-0.720233
0.534256
-0.130032
-0.515171
0.161288
0.389794
0.373751
-0.874556
-0.282803
0.86541
0.13746
0.822742
-0.910451
-0.46988
-0.866767
0.593939
0.137613
-0.573853
-0.128752
0.511853
0.518411
0.981616
-0.0498112
-0.567878
0.881328
-0.496894
0.218867
-0.371379
0.863797
-0.573482
-0.140382
-0.874578
-0.369438
-0.577296
0.577756
-0.32006
0.76589
-0.548449
-0.627401
-0.270411
-0.948509
0.670253
-0.399356
0.156672
0.865917
-0.720152
-0.133361
-0.428266
-0.94519
0.672363
-0.550155
0.505195
0.432175
-0.0159662
0.514921
0.0514823
0.0862148
-0.534938
-0.0805157
0.956551
0.0224704
0.306055
0.515177
0.219623
0.257165
-0.612765
0.179843
0.662739
0.89965
-0.901311
-0.94408
-0.491964
-0.151132
-0.0842443
-0.863412
-0.774569
-0.672219
0.815884
-0.729909
-0.427205
0.490935
-0.262298
-0.314741
-0.151661
-0.610868
0.283008
0.627324
-0.653568
-0.888221
0.890842
0.582734
0.940394
0.983291
0.311324
0.437437
-0.320542
-0.777739
0.249021
0.446974
-0.0552779
0.715697
0.453488
0.237734
-0.456093
0.495093
-0.705629
-0.517294
-0.712763
0.311654
-0.839544
0.326766
-0.196198
-0.44009
0.962693
-0.898534
-0.730748
-0.407677
0.492891
-0.609928
0.42837
-0.897866
0.39285
0.22727
0.100495
0.505564
0.558346
-0.391753
-0.697329
-0.936431
0.635048
0.7713
-0.963654
-0.00675488
-0.523817
0.143155
0.918854
0.0709397
0.147694
0.483395
-0.551536
-0.512598
-0.434029
-0.425156
0.490737
-0.670594
-0.31998
0.946444
0.293003
0.378671
-0.583423
0.0834873
-0.177732
-0.667311
0.804136
0.0637667
0.732804
0.0335525
-0.214224
0.636977
-0.942227
-0.582045
0.416386
-0.434641
0.380773
0.77434
0.456675
-0.998498
-0.053359
-0.803234
0.0585175
-0.580668
0.583603
0.955519
0.450873
-0.347724
-0.540954
0.178576
0.224392
0.133612
-0.984333
0.0815817
-0.233581
0.454919
0.606583
-0.491319
0.0915061
0.423783
0.142529
-0.453412
-0.718113
0.153973
-0.319317
-0.553278
0.291369
-0.839306
0.0428175
-0.648677
-0.464587
0.687753
-0.547829
0.103054
0.163174
-0.165817
0.413998
0.288355
0.668265
0.969112
0.237414
-0.336199
-0.519133
-0.303424
0.744191
-0.70081
0.526455
-0.688897
-0.992421
-0.28126
0.62084
0.831126
-0.955353
0.123956
0.0131918
0.316757
-0.595391
-0.587526
-0.677209
-0.22193
-0.954727
-0.754332
0.165139
0.882415
-0.518275
0.896608
-0.0790538
-0.8598
-0.158632
0.696819
-0.718294
-0.978146
0.835211
0.597334
-0.0894469
-0.583224
0.661612
-0.843193
-0.0922692
0.525127
-0.66988
0.18735
0.114077
0.918154
0.196033
-0.399523
0.0148301
0.476128
-0.306422
0.522054
0.959803
0.846861
-0.901739
0.526601
0.227481
-0.0725069
0.7544
0.803521
-0.278116
0.608633
-0.0700405
-0.520924
0.145051
-0.167822
0.097093
-0.184163
0.31482
-0.67486
-0.0240158
-0.0798104
-0.962728
-0.790503
0.0470116
-0.0678831
-0.147736
-0.862712
-0.0349897
0.947799
0.186978
0.406489
-0.173702
0.683826
-0.21806
-0.176633
-0.634762
0.683717
-0.930039
0.889383
-0.161342
-0.456487
-0.951684
0.752938
-0.139152
-0.473739
0.0459877
-0.457547
0.363938
-0.836215
-0.036895
-0.474194
0.101106
0.39981
0.977866
0.379483
0.710633
-0.41897
0.547499
0.921829
-0.632439
0.079469
-0.973378
-0.474144
0.184771
0.492447
0.600655
0.240505
-0.61041
-0.789773
0.763986
0.905858
-0.550676
-0.971355
0.436782
-0.0828677
-0.953
0.586007
-0.0285512
-0.888999
0.0378276
0.988524
0.357406
-0.914492
0.337063
0.480208
-0.466949
-0.721597
0.246342
0.146726
-0.862397
0.243257
0.585155
-0.058019
0.289173
-0.13645
0.136089
-0.879625
-0.736887
0.837533
-0.38618
-0.290475
0.411464
-0.712501
0.0445497
0.706936
0.649082
-0.280111
0.076177
0.374861
0.976168
-0.241622
0.83159
-0.869218
-0.398274
0.228359
-0.962924
0.898097
0.813306
0.709048
0.774872
0.919302
-0.318249
-0.497978
0.31591
0.158691
0.666468
0.813385
0.133337
-0.510601
-0.400433
-0.396583
-0.615263
0.196322
0.735571
-0.561567
-0.74151
0.75894
0.331739
0.221874
-0.226989
0.837575
-0.263139
-0.661587
0.356563
-0.785115
-0.930227
-0.883973
-0.277168
0.789125
-0.0705153
-0.298565
-0.739339
0.461198
0.965021
0.977485
0.863948
0.879477
0.667001
0.570819
-0.504488
0.431357
-0.770747
0.653787
-0.14486
0.0150497
-0.333502
-0.680112
0.889036
-0.594703
-0.882869
-0.219595
0.948853
-0.285907
0.352457
-0.353722
-0.993335
-0.155316
0.387543
-0.243441
0.963919
-0.468604
-0.726528
0.285997
0.519835
-0.741633
-0.908641
-0.395202
-0.257041
0.418492
0.415366
-0.326433
-0.246369
0.203841
0.436174
-0.632954
-0.320932
0.118398
-0.557715
0.742421
0.563221
0.697141
-0.422074
0.126455
-0.481726
-0.921141
-0.83445
-0.306978
-0.527535
0.125411
0.788313
0.36068
-0.416494
-0.952523
-0.399102
0.185883
-0.0454495
-0.700916
0.452181
0.558943
0.937925
0.0660704
0.00495267
0.507988
0.715865
-0.914662
0.454948
0.40916
0.692579
0.18984
0.227302
-0.515298
-0.169961
0.4943
-0.83397
0.955504
-0.733224
0.257221
0.379208
0.34991
0.890968
0.986686
0.656371
-0.981998
0.818764
0.348407
-0.339463
0.467077
-0.0874546
0.535922
-0.0931656
0.442672
-0.381464
0.649247
0.482633
0.920189
0.763028
-0.210676
-0.694093
0.060023
0.448133
0.624663
-0.27516
-0.60149
-0.100872
-0.345581
0.7261
-0.857989
0.354105
-0.164035
-0.691282
-0.614047
0.0327218
-0.522196
-0.0113552
0.356142
0.842183
-0.392157
0.774351
-0.418537
-0.340954
-0.74119
-0.0425934
-0.0703191
0.112085
0.0103668
-0.127582
0.997825
-0.767446
0.0786796
0.0153086
-0.091925
-0.771972
0.55882
0.580339
0.435634
-0.350707
0.116469
0.732439
0.824929
0.816922
0.912222
0.960119
0.69805
0.314488
-0.529014
-0.753678
-0.289717
0.419999
-0.939493
0.0783015
0.173494
-0.872665
0.774946
0.84679
0.105509
0.222469
0.0931005
-0.308228
-0.641438
-0.0548999
-0.0373667
0.189673
-0.116735
-0.418353
0.00629485
0.227149
0.339509
0.786152
-0.669873
-0.532721
0.153433
0.622557
0.760985
-0.742856
-0.0918647
0.445282
-0.549915
0.856597
-0.0280908
-0.0465364
0.325891
-0.906538
-0.959416
-0.600057
0.529484
0.972991
-0.0636966
0.666259
0.347435
0.759085
0.909429
-0.592093
0.828433
-0.662701
0.67603
0.974114
0.792289
0.392862
-0.949024
-0.949144
0.548857
-0.593136
-0.888699
-0.323986
-0.113611
-0.379733
-0.349402
-0.281435
0.811285
0.0274075
0.515984
0.954594
-0.190038
-0.497228
-0.471115
0.983605
0.305158
-0.587636
-0.769531
0.675881
-0.0407419
0.796508
0.836081
0.322819
0.854105
0.27407
0.709561
-0.7541
0.257626
0.0934134
0.504977
-0.61779
-0.480797
0.145545
-0.0323051
-0.284712
-0.0627909
0.959331
-0.826673
-0.532005
-0.241352
0.965874
-0.649695
-0.813986
-0.16725
-0.747911
0.875986
-0.460029
-0.873188
-0.786164
-0.998487
0.648105
0.833003
0.84493
-0.468556
0.29387
0.567629
0.504126
-0.664925
0.459896
-0.253099
-0.654649
-0.809113
0.583227
-0.941005
0.617694
0.956957
-0.456106
-0.72904
-0.814289
-0.720451
0.111445
0.902735
-0.370881
0.397586
-0.833289
-0.194914
-0.912928
-0.583851
0.877832
-0.638237
0.269736
0.0484328
-0.0395799
-0.691081
0.434467
0.655411
0.952417
-0.751232
0.983461
-0.171159
-0.436327
0.93306
0.445865
0.58162
0.691862
0.621013
-0.62162
0.127207
0.750268
-0.82497
0.0348145
-0.987299
0.545593
-0.308843
-0.213962
-0.752415
0.724301
0.421188
0.647549
0.30943
0.281635
-0.776395
0.0357798
-0.154546
0.803985
-0.818007
0.379941
-0.129033
-0.0945874
0.776653
0.83097
0.88411
0.300225
0.866697
-0.10796
0.532057
-0.483368
-0.273394
-0.866619
0.431642
-0.285936
0.573547
0.108528
0.17756
-0.227739
-0.498883
0.375893
0.0880069
0.599225
-0.835592
-0.300959
-0.714851
0.202978
0.481387
0.647034
-0.291332
0.074476
0.213747
0.29251
0.0291259
-0.272844
0.782129
0.598347
0.556792
-0.698215
0.306778
0.111534
-0.0120331
0.978741
0.94001
-0.14187
0.534992
-0.641381
0.161007
-0.583094
0.28349
0.235798
0.110607
0.874965
0.185067
0.910107
-0.896336
0.132923
-0.377122
0.0926354
-0.45869
-0.168683
-0.0082612
-0.767444
0.886843
0.969776
0.143779
-0.726667
-0.133337
0.0860206
-0.482319
0.0109392
0.121745
-0.891669
-0.526292
0.540347
-0.18508
0.818158
0.853843
-0.102414
-0.513515
-0.985545
-0.166654
0.0554726
0.735568
-0.867988
0.532575
0.430415
0.362889
0.973857
0.919993
-0.136411
0.883137
0.675729
-0.957492
0.841223
0.660296
-0.893078
-0.192114
-0.701754
-0.659698
-0.759076
-0.486949
-0.424356
0.682524
-0.56313
0.972303
-0.342003
-0.653658
-0.727327
0.88345
0.42164
-0.30709
-0.185295
0.224564
-0.896449
-0.813251
0.575926
0.206377
-0.223611
0.286587
-0.171264
0.173047
0.0189011
0.841925
-0.764442
0.49179
-0.705575
0.817828
-0.866005
-0.611528
-0.925743
0.0215564
-0.94485
0.807072
-0.432402
0.233046
-0.0702827
-0.233477
0.0944724
0.0437698
0.391529
-0.321759
0.102361
0.44214
0.355225
-0.65974
0.148152
-0.0812991
0.635534
0.58871
-0.715614
0.711342
0.642009
0.672043
0.356691
-0.793893
-0.51291
0.828558
0.189315
-0.0237547
-0.492889
0.677912
-0.396546
0.303956
-0.539682
-0.0199895
0.327661
0.967221
-0.8625
0.0768026
0.78826
-0.537771
0.761624
0.497317
0.817997
0.304888
0.432885
-0.0601373
-0.544255
-0.851036
0.762287
-0.901719
0.911169
-0.557294
0.974302
-0.99638
-0.893769
-0.635596
0.952292
0.504617
0.329089
-0.534152
-0.634367
-0.76315
-0.621187
0.630406
-0.395208
0.123749
0.147043
0.922348
-0.00176823
0.533434
0.0263764
0.297283
-0.907858
0.412538
0.911698
0.606491
-0.96347
0.938431
-0.383876
-0.313455
0.745784
-0.651011
-0.631257
-0.206492
-0.600009
-0.0254177
-0.621468
0.284138
0.912164
0.162367
0.440295
0.745075
-0.10015
0.812505
-0.47018
0.138123
-0.90174
0.641164
-0.431329
-0.692032
-0.0380296
-0.635348
-0.507229
-0.44208
-0.890922
-0.131756
0.741526
0.906801
-0.85508
-0.16595
-0.27849
-0.67492
0.243811
0.802393
-0.158208
0.197324
-0.628284
0.996121
-0.806672
-0.96396
0.158086
0.867718
0.569786
-0.769307
-0.508335
0.0220625
-0.269666
-0.709237
0.956847
0.319772
-0.271007
0.814774
-0.274305
-0.799764
0.626087
-0.721752
0.700793
0.470186
0.712291
0.00479949
0.312927
0.831565
-0.54372
-0.310246
-0.015479
0.310818
-0.736801
-0.712416
-0.264493
0.969097
0.69044
0.271298
0.357104
0.903838
-0.296124
-0.208298
0.485106
-0.874687
-0.512492
-0.416812
0.374433
0.760978
-0.418659
0.0387212
0.683408
0.411121
0.602054
-0.609751
-0.413975
0.602314
0.548451
0.583556
-0.256276
0.00414169
-0.659245
-0.287671
-0.772545
-0.0171778
-0.0934027
0.847495
-0.399496
0.220431
0.88856
0.563053
-0.238733
-0.160576
0.619202
-0.523006
0.84048
0.746209
-0.106541
-0.336391
-0.442134
0.933166
0.115551
-0.798596
-0.510605
0.0136473
-0.976977
-0.230406
0.549602
-0.321301
0.536743
0.562096
0.895546
-0.525945
0.734737
-0.546932
0.399485
-0.875837
0.53664
0.715836
0.205476
0.406666
0.665604
0.973051
0.401656
-0.345024
0.277381
-0.886362
-0.617495
-0.00969589
-0.874392
-0.757541
0.937564
-0.180619
0.484109
-0.0771618
-0.310948
0.702565
0.312766
-0.462336
-0.30742
0.158478
0.390363
-0.327995
0.871396
0.360236
0.3964
-0.85614
0.733239
-0.534145
-0.420456
0.918041
-0.536668
0.237707
0.146348
-0.316027
-0.483609
0.568347
0.49805
0.184143
0.37147
0.321205
0.401491
0.461604
0.965157
0.992569
0.698566
0.426265
-0.888437
0.22612
0.409256
0.609566
0.363933
-0.71717
0.36836
0.19104
-0.361544
0.728576
-0.795945
-0.876225
-0.0936551
0.72217
0.111506
-0.16752
0.329301
-0.815328
-0.942453
0.597832
-0.737126
0.48191
0.358803
0.331589
0.467513
-0.926855
0.357398
0.623732
-0.986553
0.823497
0.157612
0.261373
0.75214
-0.963731
-0.260873
-0.658282
0.366861
-0.690859
0.15899
0.716574
0.985294
0.371772
0.468425
0.894904
-0.0674551
0.0322025
-0.177505
-0.712368
-0.229589
-0.21585
-0.37555
0.394392
0.865966
-0.415849
-0.077311
0.999363
0.931568
0.944051
-0.0395271
0.823606
-0.810763
-0.71194
-0.653333
-0.396706
0.0849524
0.755499
0.565292
0.107545
-0.840356
0.0924714
-0.587271
0.646434
-0.695295
0.547152
-0.940506
-0.996907
-0.353442
-0.183732
-0.101759
0.9496
0.925181
-0.422529
0.0816662
-0.121427
-0.988649
-0.602108
-0.434603
-0.133258
-0.2437
-0.180158
0.846778
-0.294659
0.738427
0.134301
0.874979
0.282794
-0.513041
-0.599889
0.109453
0.927657
0.911453
-0.102756
0.937316
-0.323406
0.695501
0.716261
0.734471
0.734128
-0.720419
0.58603
0.580565
-0.73116
-0.314572
0.743433
-0.52929
-0.814743
-0.703861
-0.618391
0.990557
-0.351349
0.694721
0.779003
-0.772188
0.174551
-0.89064
0.31637
-0.196283
0.468133
-0.978817
0.828254
-0.834779
0.836811
-0.598643
-0.0848634
0.701746
0.816489
0.053026
-0.960156
-0.747193
-0.143881
0.75827
-0.307557
0.506162
0.368029
0.142901
-0.21924
-0.211825
0.499956
-0.701445
0.346184
-0.326982
0.789623
-0.552669
-0.350509
0.858287
0.950253
-0.133324
0.760602
0.775448
0.533085
-0.455891
-0.571439
-0.16614
0.370711
0.355703
0.680669
-0.587918
0.19754
0.160927
0.469316
-0.535327
-0.438072
0.212076
0.0465561
-0.608371
0.376358
0.200422
0.375092
0.273968
-0.826093
0.437244
-0.818181
-0.705501
0.146688
0.795368
-0.963677
0.499978
0.949933
0.249577
0.943191
-0.275602
-0.140345
0.460356
0.250607
-0.500557
0.43202
0.99534
0.585056
0.769307
0.983086
0.380255
-0.127934
-0.974041
0.616511
0.571324
0.166965
0.750737
0.14062
-0.697184
-0.382789
0.250355
0.0187026
-0.949395
0.344314
-0.909074
-0.728805
0.537903
0.403901
0.747769
0.773894
0.650995
-0.229122
-0.657061
-0.772517
0.195165
0.465273
-0.336438
0.189808
-0.683251
-0.415122
0.821314
0.38735
0.738542
0.222159
0.276636
0.443586
0.489296
0.583649
-0.167858
-0.350234
0.0645685
0.258309
-0.987807
0.27575
-0.502301
0.692549
-0.819023
0.0380282
0.30851
-0.321571
0.488285
0.343624
-0.985214
-0.35838
0.0150087
0.811754
-0.742842
0.34289
0.462205
0.893095
-0.752351
-0.991311
-0.766306
0.185912
-0.950588
-0.658694
-0.164705
-0.0959423
-0.890657
-0.870624
-0.023345
-0.261839
-0.751946
-0.396206
-0.907087
0.897009
0.772618
0.506753
-0.352205
-0.425934
-0.114375
-0.955058
-0.391132
-0.498537
-0.33414
-0.32952
-0.375586
0.648154
-0.681905
-0.441198
-0.723299
-0.0701154
0.949523
-0.877458
-0.51486
-0.146216
-0.619462
-0.0722346
-0.233239
-0.73763
-0.824695
-0.540949
-0.193571
0.337766
0.764812
0.953089
-0.49662
0.665435
-0.795286
-0.829166
-0.608595
0.13546
0.753357
0.643876
0.247995
-0.291202
0.341241
0.41708
-0.240666
-0.32814
-0.0328228
-0.00451303
-0.0864809
0.966732
0.619124
-0.171278
0.884423
-0.700776
0.55393
-0.537622
0.66382
0.0533861
-0.581099
-0.678792
0.928438
0.655934
0.0554608
0.961251
-0.952348
0.994358
0.842791
-0.666377
0.134581
0.367081
0.404552
-0.33565
-0.960161
0.929865
-0.558055
-0.479859
-0.478308
0.32337
-0.757259
0.685802
-0.990846
-0.561644
0.539481
-0.151154
-0.715542
0.0522494
0.91179
-0.511301
-0.876242
0.247409
0.492264
0.125334
-0.822491
-0.777801
-0.979917
-0.493423
0.911166
0.934684
-0.376264
-0.12705
-0.648845
-0.258626
0.808152
0.30223
0.171331
-0.157078
0.513401
0.141281
0.222177
-0.594704
-0.778668
-0.253003
-0.158629
0.375543
-0.258798
0.110176
-0.21218
0.934792
0.36145
-0.756476
0.517635
-0.197258
-0.189218
0.0550833
0.183844
0.673586
-0.113382
0.663047
-0.942779
0.836978
0.508996
-0.706615
0.226864
-0.336083
0.0433506
0.904107
0.510468
-0.565107
0.354794
0.0163049
-0.297792
0.956647
-0.286576
0.996207
0.349877
0.0179311
0.376511
0.94639
0.471239
-0.886562
-0.764124
0.273175
0.367814
0.396766
-0.0229534
-0.155931
-0.791047
0.894105
0.960021
-0.653761
0.966373
0.728388
-0.00916481
-0.313297
-0.359454
-0.555351
0.736716
-0.594947
0.910649
0.15476
0.0237584
-0.146014
-0.351267
0.436076
0.0242777
0.300069
0.209939
0.956551
-0.771338
0.920151
-0.10596
0.195974
-0.141074
-0.17416
0.446567
-0.0151627
-0.264978
-0.718978
0.876749
0.276416
-0.404482
-0.669201
-0.245959
0.719264
0.469859
-0.528732
-0.62532
0.582141
0.590256
-0.687452
-0.43162
-0.839483
0.574675
-0.525711
-0.0135137
-0.902123
0.750283
-0.91212
-0.840112
0.488482
-0.496781
0.743087
0.673741
-0.0260209
0.406806
0.885857
-0.277627
-0.490706
0.0595158
-0.317635
0.79767
0.330662
0.193613
-0.878848
0.362614
-0.660042
-0.527573
0.338212
-0.884523
-0.651492
-0.681209
-0.227519
0.0576659
0.19847
-0.165127
0.32167
-0.324593
-0.823467
-0.516591
-0.245975
0.594078
-0.201578
0.782979
0.181538
-0.197034
-0.458944
0.00460374
0.934517
0.569901
0.311568
0.665994
0.704637
0.458074
0.623748
0.375146
-0.105745
0.309254
-0.682512
0.213579
-0.935641
-0.600185
0.450245
-0.837386
0.153385
0.845208
0.333534
0.376786
0.313289
-0.301092
-0.521468
0.36889
-0.235304
-0.39621
0.243981
0.617373
-0.57526
-0.542819
0.153915
-0.338992
0.845421
0.866564
0.663511
0.335924
-0.712315
0.962597
-0.0559399
-0.891198
0.157729
0.608256
0.0820327
0.4456
0.965117
-0.89975
-0.578601
-0.709617
0.262639
0.371264
0.198874
0.497297
-0.677917
-0.530324
-0.158995
-0.274105
0.126597
-0.276434
0.333557
-0.366805
-0.28386
0.911894
-0.271195
-0.150146
-0.693073
-0.31302
0.140324
-0.875088
0.236431
-0.664295
-0.824516
0.0265778
-0.71698
0.890446
-0.998371
-0.150317
-0.618146
-0.558078
0.0449444
0.434626
-0.738002
0.149788
0.727106
-0.458809
0.929584
0.68345
-0.511613
0.0203067
-0.532232
-0.297515
0.931948
-0.952356
0.932832
-0.46601
-0.79423
-0.343225
-0.474725
-0.928499
-0.203883
-0.894711
-0.470355
-0.175686
-0.838176
-0.0232198
0.598322
0.167263
0.160455
0.420273
-0.669145
-0.615986
0.128614
-0.877384
0.46921
-0.360266
-0.998979
0.492863
0.860034
0.495805
0.534066
0.275107
-0.170217
-0.372689
-0.797256
0.146009
-0.0768657
0.94396
0.988132
0.847658
-0.669855
-0.68997
0.420167
-0.588816
0.0974349
-0.780788
-0.602184
0.205449
-0.877998
0.491719
-0.907652
-0.16475
0.739309
-0.63334
0.838677
-0.121703
-0.19291
-0.747146
0.361536
0.413719
-0.71333
-0.825531
-0.487882
0.257969
-0.3551
0.924407
0.595871
0.267651
0.403951
-0.415608
-0.736511
-0.116406
-0.955013
-0.761637
-0.390946
0.230283
-0.925515
0.975743
-0.590879
-0.520771
0.78661
0.162288
0.352219
-0.844838
-0.662109
0.0736766
-0.77878
-0.746266
0.394416
-0.829771
0.734051
0.963585
0.646091
0.882427
0.501106
0.835834
0.875887
0.737407
-0.905582
-0.990934
0.5566
0.348891
-0.858138
0.558862
-0.186703
0.0417672
0.308704
0.0480133
0.560326
-0.914893
-0.810308
0.893663
0.15488
-0.669439
0.594953
-0.857623
0.983811
0.924163
0.273718
0.960859
0.0225126
-0.175373
-0.905918
0.531102
-0.900935
0.665218
0.201737
0.64409
-0.0757217
-0.586801
-0.445561
0.284912
0.253395
-0.662517
-0.837787
-0.393028
0.206162
-0.548682
0.0466378
-0.576595
0.897631
0.984623
0.784382
0.270023
-0.303146
-0.81888
0.903947
0.753791
0.158763
0.7675
-0.860603
-0.760437
-0.638356
-0.413691
-0.428314
0.279809
-0.61513
0.89978
0.899698
0.512439
0.892031
0.0302436
-0.103782
0.892464
0.52668
0.189348
-0.755608
0.68874
0.503811
0.113719
0.0516851
0.23962
0.502852
-0.828382
0.599231
-0.591177
0.845926
-0.550554
0.137047
0.664003
0.164452
0.988102
-0.115694
0.276509
-0.434132
-0.762422
0.687567
0.653599
-0.584886
0.291834
-0.759197
0.0920658
-0.537522
-0.66648
0.883032
-0.970291
-0.376009
-0.392716
-0.386407
0.401436
0.663729
-0.867016
-0.323077
0.900718
0.724583
-0.0270796
-0.31177
0.249286
-0.268023
0.171935
0.227301
0.635959
0.860431
-0.327807
0.577216
-0.863346
0.542428
0.595146
0.330418
-0.0711161
-0.838516
0.945033
-0.228432
-0.188409
-0.410944
-0.733989
0.814886
-0.752926
-0.663499
-0.123872
0.677015
0.269837
-0.610718
0.0958445
-0.528384
0.780963
-0.687832
-0.597757
0.394836
-0.203153
0.492101
-0.129145
0.48949
0.789042
0.183242
0.837554
0.0972375
-0.938325
0.223339
0.916932
0.470938
-0.410259
-0.140761
0.457278
0.603701
-0.67071
-0.0933146
0.209961
0.157319
0.949373
0.397562
-0.259027
-0.314778
0.414483
-0.483327
0.0673224
-0.255645
-0.449099
-0.772275
0.126351
-0.169071
-0.287158
0.374197
0.000927091
0.747433
0.567295
-0.108751
0.703744
-0.0385494
0.435976
0.493185
0.252051
-0.810851
-0.929893
0.36308
-0.674464
0.821254
-0.918028
-0.358585
0.462036
-0.707374
0.787737
-0.424573
-0.868686
0.12683
0.882185
0.573154
-0.677835
-0.257021
0.659784
0.153598
-0.76117
0.870657
-0.57735
-0.309401
-0.817656
-0.393629
0.834353
-0.84125
0.268256
-0.526498
0.554318
-0.121319
-0.31876
0.25044
0.533447
0.00736547
0.0132354
0.141934
0.108796
0.696571
-0.499832
-0.489671
-0.261025
-0.416072
-0.182762
-0.587146
0.574239
0.550492
-0.362929
-0.372862
0.242678
0.480192
0.401572
0.0398741
0.771281
0.467357
-0.312522
-0.934203
-0.0537429
0.821055
-0.382537
-0.859283
0.386096
0.971579
-0.878074
-0.24539
-0.869367
0.205899
-0.569011
-0.380411
0.110164
0.83455
0.172391
0.64
0.539536
-0.64145
-0.854995
-0.0606823
-0.257716
-0.436128
-0.963303
0.386577
-0.258629
0.966076
-0.434869
0.763446
0.999645
-0.175346
-0.65608
0.761711
0.207537
-0.0853223
-0.283452
0.895508
0.911728
-0.80137
-0.100322
0.911899
-0.500392
0.259676
0.674089
-0.871288
-0.214085
0.756266
0.374617
0.546073
0.939106
-0.703872
-0.396044
0.747271
-0.177421
-0.406921
-0.286632
0.288839
0.495643
-0.542846
-0.587306
-0.966673
0.762864
0.385775
-0.923604
0.158607
0.47624
-0.465004
-0.36819
0.54269
0.239797
0.925189
0.288087
0.388017
0.996535
0.635236
-0.241205
0.524079
0.305082
0.338086
0.732231
0.28278
-0.909703
-0.717373
0.602145
0.890018
0.39812
0.144552
-0.0132245
-0.625705
-0.207693
-0.42677
0.152742
0.716709
0.353316
0.938026
-0.165579
-0.137644
0.28775
-0.204773
0.342114
-0.331543
-0.674068
-0.0253462
-0.583366
0.63797
-0.620713
-0.74908
0.516437
-0.287117
0.450901
0.49071
0.502983
-0.71763
0.8542
0.122473
0.844963
-0.610734
-0.115585
0.808781
0.0824263
-0.398268
-0.551226
-0.556356
0.972379
0.51903
0.283596
0.825233
-0.151012
0.150454
0.832905
-0.879507
0.373956
-0.788605
0.767862
0.0168316
-0.315228
-0.232122
-0.307109
-0.0382149
-0.020453
0.668968
0.899398
0.746648
0.615008
0.0813128
-0.983889
-0.808658
0.933176
0.598676
-0.280533
0.371381
-0.8401
-0.111649
0.862787
0.434011
0.0759149
-0.988935
0.414505
-0.454719
-0.252381
0.164816
-0.463332
-0.806122
0.265696
-0.496071
-0.807979
0.749065
-0.896728
-0.316899
-0.552611
0.866316
-0.310968
-0.993914
0.394411
-0.932044
0.929312
0.550269
-0.577522
-0.194053
0.540554
-0.856753
0.267867
-0.563483
0.398987
-0.358231
0.721607
-0.619774
-0.338895
0.233729
0.744219
0.0736375
0.781204
0.178914
0.628427
0.167455
0.0224555
0.780728
-0.979765
0.336811
-0.280479
-0.93121
0.0456837
-0.963414
-0.174685
-0.609971
0.765037
-0.27625
-0.291098
0.648055
-0.703164
-0.727405
-0.117954
0.401067
0.233282
0.290524
-0.466642
0.0617812
0.556836
0.976754
-0.121621
0.972524
0.703878
0.831764
0.389436
-0.672173
-0.657973
-0.247686
-0.318768
0.441512
-0.688463
-0.0600815
0.221147
-0.119742
-0.39964
-0.74103
-0.802263
0.200093
-0.481477
0.898906
-0.365707
-0.181607
-0.810031
0.397687
0.330775
0.996272
-0.851317
-0.42292
0.965508
-0.0729239
-0.732068
-0.383887
0.529661
0.441917
-0.795602
-0.882119
0.700719
0.669054
-0.776725
-0.223582
0.261974
0.747098
0.117901
0.769416
-0.620024
0.0650806
-0.414334
0.0285758
-0.381394
0.72388
0.47434
0.412754
-0.948314
0.238964
0.653909
0.506173
-0.356206
0.745288
0.0786235
-0.422475
-0.524907
-0.753675
-0.23717
-0.719491
-0.373002
0.682342
-0.449246
-0.0762511
0.566583
0.600597
0.135
0.479072
-0.367787
-0.129296
-0.35052
-0.362509
0.318325
0.118287
0.590745
0.468596
0.380168
0.180464
-0.748791
0.341291
0.77608
0.729719
0.954859
-0.0962782
0.907125
0.435941
-0.38593
0.0160537
0.449638
0.825882
0.0519772
0.172264
0.598139
0.226786
-0.996006
-0.456023
0.289766
0.457176
-0.0935165
-0.405835
0.805902
-0.900733
0.613683
-0.414135
0.941265
0.631152
-0.396703
0.828868
-0.868817
-0.754342
0.471018
0.652661
-0.84682
-0.781777
-0.854451
-0.242682
0.623057
0.597179
-0.697282
-0.901533
0.435839
-0.920114
-0.869153
-0.724804
-0.165801
-0.610938
0.94829
-0.350062
-0.895993
-0.969738
-0.177878
-0.73745
-0.0893579
0.546838
-0.729872
0.798056
0.31871
-0.809987
0.277039
-0.807669
-0.620915
-0.454402
-0.860773
0.145109
0.222209
0.0265411
0.452655
-0.267556
-0.325927
-0.780599
-0.602016
-0.0874964
-0.632662
-0.916932
0.0910783
0.237059
-0.490266
0.153537
-0.901697
0.815313
0.358144
-0.831656
-0.193328
-0.789585
-0.180353
-0.7915
0.94129
-0.824648
-0.673124
-0.645316
0.858477
0.324266
-0.683218
0.662136
-0.866146
0.699676
0.509388
0.839341
-0.916998
0.72949
-0.794125
-0.531249
0.243584
0.152956
0.391793
0.496312
0.832777
0.804723
0.947922
-0.322003
-0.48578
-0.932975
-0.966482
-0.602682
-0.379493
0.852489
-0.661034
0.359036
0.364458
-0.270702
0.164695
0.67417
-0.623656
-0.550728
-0.3421
-0.327139
-0.215325
-0.551295
0.384499
-0.596591
-0.827488
0.087008
-0.361403
-0.0603442
-0.637528
-0.782306
0.817442
-0.479193
-0.822945
-0.113907
0.205463
-0.0571257
-0.887301
-0.329499
0.360529
-0.167748
-0.215567
0.120958
0.824008
0.00226986
-0.897566
-0.0644236
-0.8223
-0.443727
-0.977345
-0.623656
-0.959755
0.311154
0.100688
-0.146802
-0.963442
-0.510199
0.175411
-0.182174
0.334857
0.345806
-0.689071
-0.615731
0.882862
-0.630828
-0.505457
-0.683119
-0.389361
0.0482512
-0.818193
0.698371
-0.372847
-0.839134
-0.172596
-0.393195
0.0833889
-0.0771605
-0.209645
-0.730101
0.0634315
0.799135
0.838576
0.210991
0.840708
-0.945273
0.137243
0.216312
-0.689883
-0.07065
-0.379631
-0.649779
-0.0343541
-0.739417
-0.733949
0.921939
0.174979
0.359944
-0.173846
0.0552275
0.945886
0.49263
0.0127479
-0.0958266
0.890852
-0.0432174
0.628481
0.0465351
-0.0312676
-0.101777
-0.738626
-0.236741
0.433725
0.306808
0.288546
0.421481
-0.427192
0.0833851
-0.379895
-0.00239313
0.176108
-0.700872
0.193625
-0.702849
0.464738
-0.0775704
0.613492
-0.155707
-0.944082
0.0976495
-0.661992
0.487218
0.425701
-0.999235
-0.784979
-0.972205
0.796739
-0.225179
0.26107
-0.111148
-0.85453
-0.667225
-0.300084
-0.232319
-0.798608
-0.445111
0.0232408
0.779321
0.782179
-0.960678
-0.495792
0.878839
0.704962
0.416615
-0.0328581
-0.804713
0.393
-0.762182
0.194778
0.370469
0.836655
-0.55245
0.831786
0.146402
0.111654
0.407439
-0.859835
0.013945
-0.898286
0.498509
0.640977
-0.144968
-0.724027
0.637505
0.881594
0.592483
0.755878
0.757771
-0.548034
0.816825
0.237743
0.122021
0.689615
-0.00179172
0.140234
-0.0385269
0.502189
0.903202
-0.0275725
0.230681
0.57065
0.0642769
0.394868
0.833466
0.51091
-0.806018
0.576633
0.842591
0.781044
-0.581222
-0.298357
-0.315224
-0.376858
0.957759
0.925588
-0.125024
0.382266
-0.996233
-0.0590776
-0.22474
-0.191502
0.903547
-0.499134
-0.906704
0.687817
0.238582
0.425604
0.883034
0.211323
-0.692488
-0.78313
-0.931487
0.0113522
-0.110921
0.0188024
0.234823
0.589609
0.578414
-0.67607
-0.781286
-0.446398
0.32349
0.234852
0.0230194
0.532716
-0.329787
0.565964
0.785672
-0.744539
-0.457163
-0.587486
-0.00920379
0.15509
-0.0456518
-0.595145
-0.878325
0.409641
-0.316365
-0.919468
0.915536
-0.97143
-0.326916
0.103707
-0.903483
-0.00715375
0.686286
-0.274884
-0.319167
-0.279516
-0.252577
-0.0699824
-0.379937
-0.955152
-0.683168
0.719691
0.400807
-0.43762
-0.552932
0.562296
-0.96201
0.630777
-0.543744
-0.97592
-0.647743
0.551533
0.198037
-0.693923
-0.933426
0.712443
-0.882777
-0.0459605
-0.600304
-0.960588
0.509343
0.121067
0.829634
0.0678041
0.248718
-0.576202
-0.0777768
-0.797342
-0.00780094
0.073243
0.737201
0.526714
0.859591
-0.827951
-0.428552
0.518938
0.0906949
-0.463149
-0.749295
0.653768
-0.367255
0.163622
0.156289
-0.785482
-0.112111
-0.604162
0.532686
-0.0288264
0.99697
-0.197381
0.157036
-0.259825
0.0860617
0.740919
0.158231
-0.225332
0.329294
-0.369857
-0.85287
0.603417
0.372765
0.42635
0.905419
-0.14978
0.8686
-0.0385784
0.270864
0.99868
0.865141
-0.795861
0.819318
0.914499
-0.420565
-0.844492
0.88166
-0.982355
0.894113
-0.576894
-0.270609
0.768761
-0.627953
-0.892661
0.0961761
-0.265416
0.327226
0.712094
0.286137
0.39666
-0.152572
0.146953
0.655241
-0.294125
-0.217217
-0.303852
-0.95548
-0.580665
-0.820281
-0.0623378
0.48373
-0.827833
-0.0951885
-0.774521
-0.791553
0.761517
-0.187429
0.201825
-0.277482
-0.779194
0.853246
0.545302
-0.334491
-0.151753
-0.583242
0.243817
0.624919
0.273694
0.77508
-0.234078
0.948695
0.30837
-0.318664
0.0994836
0.564128
0.432705
-0.908092
-0.698701
-0.355218
-0.803402
0.586967
-0.231123
-0.044084
0.160815
-0.367433
-0.107926
-0.745671
-0.419368
0.19752
0.337371
0.987281
0.408527
-0.747182
-0.44032
-0.915818
-0.986535
-0.623226
0.298169
-0.59726
-0.849663
0.379824
0.531204
-0.970306
0.784225
0.613486
0.897829
-0.145095
-0.641172
0.140786
-0.124694
0.230915
0.303104
0.874712
0.148258
-0.529368
0.333941
0.314887
-0.268903
0.407666
-0.149927
-0.430523
-0.935473
-0.224495
0.962935
-0.954487
-0.113505
0.763074
-0.723336
-0.130642
-0.614319
0.960522
-0.0187783
0.695965
-0.716606
0.78634
0.798184
-0.776959
-0.384662
0.38959
0.496101
0.173174
0.132441
-0.362719
-0.613177
-0.0105124
-0.661687
-0.887643
-0.518962
0.627728
-0.816057
-0.00942194
-0.92576
0.778084
0.194075
0.700587
0.241886
0.0395857
-0.829484
0.04036
0.981745
0.692545
-0.608021
-0.00862014
0.2903
0.232022
-0.071183
0.370981
-0.523299
-0.253299
0.96628
0.564563
0.391674
-0.170831
-0.806386
-0.380802
-0.823912
-0.194913
-0.854883
-0.934296
0.769996
0.888828
0.873572
0.671175
0.0623968
0.794446
0.596208
0.22469
-0.769022
-0.693677
-0.4382
-0.543945
-0.0288727
0.29329
-0.865947
-0.743552
-0.0131437
0.153145
0.241425
-0.498014
-0.0001055
-0.722668
-0.719073
-0.627791
-0.11951
0.325501
0.0733403
-0.245098
-0.327801
0.0712891
0.561828
0.0994842
-0.92222
0.805782
0.00112581
0.363172
-0.474154
0.0506718
-0.0118642
0.624987
0.670062
-0.927304
-0.120601
0.421491
0.676223
0.302047
0.504942
-0.655718
0.244474
0.234695
0.645849
0.15696
0.719377
-0.434063
-0.436997
0.270913
0.0952879
0.302979
-0.68011
-0.329596
-0.552575
-0.515837
0.773333
0.867587
0.375927
0.605452
0.837385
-0.675953
-0.685341
-0.547373
0.551878
-0.745773
0.841653
0.185297
0.490837
0.396021
-0.954291
-0.835671
0.972948
-0.601133
0.347357
0.626063
-0.842233
0.81004
-0.610345
-0.478383
0.459062
-0.643861
0.174631
-0.304012
-0.840634
-0.22757
-0.450786
0.232434
-0.839246
0.07061
0.481518
0.871476
-0.260831
-0.818511
0.891121
0.134251
0.922711
0.871745
0.880301
-0.637771
0.80237
0.527342
0.521411
0.60811
-0.924363
-0.303929
-0.953788
-0.873971
-0.953041
-0.541422
-0.327744
0.0110255
0.0645642
-0.857062
-0.167034
0.520897
0.560603
0.27636
0.587285
0.404983
0.321272
0.574736
0.197908
0.207091
0.0630831
0.444873
0.796052
-0.814477
0.585724
-0.870943
-0.884621
-0.283162
0.789587
-0.844928
0.339872
-0.6926
-0.0688317
0.587684
0.673103
-0.079031
0.691722
-0.409898
-0.574214
0.888974
-0.868306
0.962477
-0.903066
0.236053
-0.158432
0.640108
-0.989782
-0.404335
-0.157847
-0.651751
0.904483
0.734945
0.0299318
0.260212
0.564921
-0.0492722
0.866921
-0.177417
-0.400543
-0.912621
0.822133
-0.457751
0.269806
0.0671861
-0.818853
0.0749253
-0.111714
-0.652507
0.272119
-0.868407
-0.199262
-0.700115
0.245134
-0.603734
0.177481
0.588181
-0.746038
0.386647
0.00476158
0.747531
-0.265101
0.718242
0.878562
0.299517
-0.64858
-0.433251
-0.0754107
-0.0368762
-0.158831
-0.451322
0.204374
0.447368
0.944495
-0.0470458
-0.678355
0.181619
0.680376
-0.251572
-0.475089
-0.181068
-0.525097
0.503104
-0.9708
0.445468
-0.975073
-0.0147101
0.776685
0.507008
-0.727158
0.753613
0.159508
-0.678746
-0.701857
0.874649
-0.172927
0.923111
-0.78013
0.851693
0.0462556
-0.680272
-0.398654
0.338426
0.596496
0.638154
0.343462
-0.568786
0.75493
-0.278875
-0.829139
0.257403
-0.251826
0.402285
-0.234851
-0.0750818
-0.592689
0.0340925
-0.51029
-0.0680811
-0.922396
-0.524125
-0.0463197
-0.592015
0.127378
0.373479
-0.493219
0.341005
0.89668
-0.990762
0.594564
-0.348824
-0.189668
-0.444233
0.925894
0.285885
-0.382177
-0.849617
-0.623235
0.219556
0.441669
-0.905292
0.690641
-0.552251
-0.400541
0.574054
-0.817379
0.510986
-0.171619
-0.237643
0.404557
0.103831
0.696141
0.411907
-0.837806
0.0589741
-0.669066
-0.270033
0.799281
-0.911114
-0.756689
-0.500847
0.288663
-0.0303706
-0.615208
-0.126423
0.854045
-0.582168
-0.951054
-0.832041
0.960582
0.166762
0.768306
0.822254
-0.775299
0.832054
0.0780654
-0.81809
0.812456
-0.041993
0.770397
-0.303693
0.0533631
0.0910453
0.352694
