-0.810562
-0.405719
0.813326
0.705557
-0.245345
0.219615
0.0949861
0.185507
-0.831728
-0.501939
-0.916002
-0.0699317
-0.905984
-0.784436
0.77876
0.419638
-0.821822
0.829969
-0.642708
-0.662948
-0.804372
0.0808553
-0.457054
-0.341039
0.69662
0.91897
-0.705116
0.472422
0.691502
-0.362753
-0.652888
0.0480543
-0.16533
0.224299
0.637428
0.0117624
0.0975793
-0.601214
-0.159508
0.702971
0.697627
-0.132073
0.0338177
-0.41313
0.812298
-0.735689
0.167998
-0.382357
-0.712631
-0.521177
-0.0782051
0.607758
-0.258252
-0.0533571
0.186702
-0.149228
-0.195291
0.156748
0.216965
0.932729
0.792141
-0.127487
-0.671693
-0.728676
0.851273
0.617828
0.269536
-0.84906
-0.786177
0.342354
0.734653
-0.303386
-0.478532
-0.966145
-0.824175
-0.55749
0.139187
0.438552
0.403046
-0.204582
-0.554905
0.4306
0.184866
0.405353
-0.597964
-0.513842
0.80238
-0.585577
0.308493
-0.99932
-0.636582
-0.780437
-0.754284
-0.272871
-0.735164
-0.983527
-0.450147
0.983307
-0.0876423
-0.736644
0.569886
-0.368492
0.0638445
-0.832663
0.890994
0.162984
0.525627
-0.643521
0.0968681
-0.934789
0.993624
0.505971
0.55186
-0.606272
-0.640722
-0.386864
-0.632709
0.239374
0.271131
0.438375
0.31246
-0.205359
0.631768
0.60886
0.455791
0.352967
0.542081
-0.395723
-0.0462775
0.0251939
-0.378121
0.782585
0.644205
-0.772998
0.195455
-0.955547
0.559472
-0.472008
-0.820242
-0.613719
0.401282
0.717445
0.852969
0.273947
0.251457
-0.131448
0.0304983
0.653905
-0.833845
0.189707
0.472474
0.976788
-0.299726
-0.650305
0.643595
0.784656
-0.00660163
0.399556
-0.639005
-0.527497
-0.728638
0.00691778
0.95043
-0.6243
-0.963011
0.301641
-0.0155514
0.852899
-0.788835
-0.537634
0.968978
-0.676421
-0.816698
-0.56544
0.521704
-0.864486
-0.663588
-0.199306
-0.345254
0.18108
-0.911294
0.932626
-0.327461
-0.906237
0.0378326
0.791194
0.355899
-0.285791
0.523217
0.216222
-0.483611
-0.637411
0.597179
0.123893
0.378178
-0.00668095
0.00563395
-0.469088
0.210669
0.718588
-0.2333
-0.718005
0.0477414
-0.0557616
-0.214495
0.526957
-0.804994
-0.453143
-0.627772
0.722221
-0.539488
-0.904451
0.388684
0.956897
0.022188
0.858621
0.270702
0.852708
-0.94074
0.651691
0.639596
0.789559
-0.329853
0.125194
0.425
0.637097
-0.784519
-0.534395
-0.988956
0.274629
0.21899
-0.556831
-0.640698
-0.51155
-0.0953842
-0.573508
0.894781
-0.590297
0.842209
-0.180629
0.322278
0.0166759
0.218764
-0.808741
0.87555
0.921449
0.893828
0.645176
0.825337
-0.546404
-0.170004
-0.301442
-0.0710843
-0.238746
0.914961
-0.340655
-0.104194
0.493293
0.202317
0.215366
-0.978309
0.963118
-0.0251559
0.194032
0.575265
0.781193
0.223645
-0.741699
0.0471701
0.538443
0.201556
0.0406986
0.189846
0.26804
-0.847027
-0.76517
0.82259
-0.602699
-0.623817
0.255767
0.0776169
-0.143142
0.13444
0.22175
-0.899092
0.0196112
0.715435
0.470055
0.0438615
0.479359
0.560042
0.619193
-0.369337
0.372605
0.739634
0.0469363
0.803283
0.696339
0.855905
0.0332758
-0.802943
0.380315
0.639778
0.690456
-0.346897
0.307901
-0.20811
0.793149
-0.517826
-0.701266
-0.566715
0.670376
-0.488633
0.30539
-0.260536
0.111087
0.519649
-0.0764325
-0.378138
0.826062
-0.779775
0.664115
0.781889
0.108954
0.785798
-0.850776
0.385254
0.723385
-0.718241
0.533093
0.973483
-0.392711
-0.44873
-0.638
0.729692
-0.0273858
-0.554541
0.0926226
-0.103422
0.950114
0.0457297
0.122999
-0.442004
-0.380938
-0.393588
0.0282115
-0.693202
0.202645
-0.813459
-0.33174
0.368499
-0.566267
-1.01792
0.820709
-1.00244
0.78791
0.899552
0.82167
-0.260209
-0.299278
0.643617
0.937763
0.641936
0.877913
0.0466535
-0.16312
0.116365
0.536526
0.539271
-0.115326
0.215862
0.916851
-0.531225
-0.238959
0.33574
-0.958514
-0.109176
-0.857435
-0.86558
0.837395
0.784863
-0.670657
-0.161727
0.0248504
0.817357
0.713887
0.927234
0.92859
-0.560095
0.830364
0.223396
0.609278
0.00683248
0.288543
-0.531697
-0.684342
0.952682
-0.149227
-0.674765
-0.216123
0.653611
0.702867
-0.629478
0.439844
0.788676
0.510838
0.082167
0.183924
-0.7486
0.485693
0.116427
-0.597944
-0.0278165
-0.53234
0.00615224
-0.0845211
0.535286
-0.518469
-0.902674
-0.5307
-0.377747
0.504981
0.577153
-0.264072
-0.619691
-0.347711
0.695238
-0.63603
0.466092
-0.163193
0.947209
-0.0515677
-0.119942
-0.582472
-0.0769029
0.869808
-1.07573
-0.279558
0.357751
-0.845649
-0.549976
0.0917804
0.423803
-0.134195
0.55625
-0.500339
-0.365364
0.356252
-0.210597
-0.7467
0.279199
-0.698321
0.119457
-0.773081
0.760822
0.29569
0.401139
-0.527247
-0.763939
-0.897369
0.724423
-0.560073
0.286236
-0.987324
-1.05636
-0.43539
0.0364198
0.865632
-0.507421
-0.0258012
0.649557
0.753123
-0.0175901
-0.881218
-0.493236
0.186654
-0.262347
-0.730782
0.725324
0.5395
-0.875625
0.411236
-0.71081
0.669854
-0.682654
-0.598297
-0.754685
-0.0484487
0.936345
-0.704793
-0.789787
-0.173285
-0.35664
-0.438362
-0.0609108
0.787987
0.143559
-0.187638
-0.260397
-0.48681
-0.0916839
-0.697004
0.708664
-0.58683
-0.155339
-0.591043
-0.886572
0.774128
-0.14489
0.737519
0.744742
0.555429
-0.413027
0.484813
0.63769
0.00162603
-0.825231
0.973889
-0.97495
-0.609821
-0.729465
0.757626
0.719589
0.790637
-0.887772
0.877744
0.96039
-0.725086
-0.880752
-0.0979912
-0.407137
0.514283
-0.283354
0.0143574
-0.192434
-0.99378
0.0744072
0.192738
0.695294
0.145344
0.50232
0.233042
0.0519201
-0.18666
0.817452
0.972201
-0.659908
0.157025
-1.00955
0.258752
0.414716
-0.668196
0.531007
0.788233
0.0323452
-0.0556103
0.711239
0.932576
-0.888977
0.923837
0.975696
-0.217984
0.0301191
-0.403426
0.395975
1.00793
-0.377105
-0.00618953
-0.438031
-0.881138
0.815778
0.205036
0.593274
-0.340638
0.548712
0.573569
-0.389667
-0.11773
0.186328
0.044579
-0.751779
0.315306
0.739891
-0.941736
0.132777
0.637112
-0.628279
-0.378952
-0.724982
-0.559919
0.0275039
-0.330191
0.518934
0.581164
-0.238213
-0.874763
-0.498638
-0.703278
-0.0800997
-0.40334
-0.736202
0.804971
-0.056363
-0.576318
-0.379129
-0.357732
0.435518
-0.238263
-0.846333
0.551482
0.386575
-0.176182
0.637071
0.219477
-0.287589
-0.682868
0.0401967
0.827641
-0.0615014
-0.239973
-0.646565
0.027485
0.692258
0.480392
0.212126
-0.145935
-0.572857
-0.578875
-0.388508
0.537376
-0.197957
0.244239
0.666222
-0.695942
-0.176808
-0.435054
0.983506
-0.857678
0.0096226
-0.196513
-0.723801
-0.477833
-0.251737
-0.112867
-0.514545
-0.251585
-0.23774
-0.295593
0.235839
0.647722
-0.47818
-0.811367
0.34127
-0.0365186
-0.370267
-0.525726
-0.625788
0.48707
0.238411
-0.249632
-0.705698
-0.131387
-0.034104
-0.454775
0.165426
-0.956343
0.219753
0.475707
-0.7198
0.331071
-0.802781
-0.0216507
-0.792243
-0.199396
-0.546767
-0.188919
-0.280484
0.202283
-0.606238
0.339932
0.961608
-0.705389
0.572586
0.812422
-0.282399
-0.124214
0.782645
0.940974
0.837845
-0.0864637
0.221869
-0.221358
0.30244
0.618395
-0.910666
0.657419
0.217523
0.251016
0.242151
-0.893021
0.894299
-0.983009
-0.140496
0.837596
0.543471
-0.955867
-0.190877
-0.197671
-0.295362
0.97071
-0.402839
0.594652
0.433988
0.570776
-0.137753
0.72838
-0.595984
0.911744
0.0807161
0.286877
-0.0848511
0.666695
-0.0517948
-0.947715
-0.0450395
-0.459898
-0.399454
0.738901
0.425912
0.0889176
0.722404
-0.549587
0.3948
-0.21106
0.138863
-0.569605
-0.901755
0.824169
-0.690402
0.326415
-0.483053
-0.6589
-0.880595
-0.642628
0.10453
-0.890306
-0.216934
0.395608
-0.962355
-0.693439
0.0330505
-0.056432
-0.301699
0.39149
-0.32692
0.0815005
-0.127302
-0.53998
-0.381762
0.52703
-0.941042
0.976127
0.85571
0.464046
-0.170213
0.766834
0.852081
0.211144
0.124734
0.321752
-0.454045
-0.822704
0.601398
0.742421
-0.248166
0.726478
-0.512626
0.600382
-0.233533
0.351608
-0.714055
0.726323
-0.300997
-0.590331
-0.517822
-0.696807
-0.747915
0.591678
0.343433
-0.329613
-0.973545
0.218366
-0.286659
0.317285
-0.674777
0.805021
0.313003
-0.922846
0.477743
-0.796482
0.744977
0.0800046
-0.417236
0.154811
0.111852
0.167372
-0.796838
0.536057
0.425577
0.908211
0.99727
0.299231
0.582919
-0.187933
-0.184749
0.925529
-0.199132
-0.343237
-0.53135
0.622473
0.435727
0.140659
-0.752339
-0.766685
-0.06005
0.719402
0.722855
-0.0333485
-0.810903
-0.360819
-0.243867
-0.894552
-0.255059
0.543675
0.402829
0.32904
0.818258
-0.561012
0.885157
-0.90212
0.357761
0.606222
0.00960183
-0.358703
0.165878
0.797463
0.804029
-0.845192
-0.00291934
0.178063
0.0935857
0.152614
0.245842
-0.701684
-0.078215
-0.355475
-0.0412767
-0.511287
-0.214346
-0.523484
-0.91055
-0.76874
0.576845
-0.149004
0.655325
0.537266
-0.914716
-0.661678
0.0902146
-0.0609491
-0.161084
-0.204993
0.536261
-0.240427
0.421485
0.183597
0.620972
0.292021
-0.641553
-0.938902
0.614519
-0.54176
0.068697
0.784398
0.388901
0.802611
0.309061
-0.357397
-0.151184
-0.264398
-0.994456
0.842616
0.957725
-0.387217
-0.643364
-0.962111
0.416721
0.891458
-0.395485
-0.726976
0.940767
-0.969279
-0.644986
0.871417
0.174865
-0.989386
0.595578
0.404648
0.107261
0.0158422
0.0557061
-0.133194
-0.241916
-0.700486
-0.704968
-0.132256
-0.757505
-0.812184
-0.701796
0.342818
0.391918
0.287421
-0.97126
0.395748
0.859768
-0.115854
0.986238
-0.676478
-0.799261
-0.643374
-0.1038
-0.295372
0.843393
1.00588
0.201636
-0.343778
0.706816
0.697822
-0.534425
0.866753
-0.932935
-0.268914
0.237308
0.508562
0.712571
-0.840082
0.381497
0.0847372
0.316254
0.906424
-0.775774
0.352304
-0.139746
-0.173604
0.681267
-0.95198
0.678986
0.541329
-0.998754
-0.336985
-0.497696
0.188821
-0.88901
-0.79337
-0.0858426
0.644317
0.742305
0.779404
-0.23476
-0.369874
-0.724595
0.460378
-0.412373
-0.21591
-0.737727
-0.654603
-0.0145187
0.945475
-0.472215
0.579886
-0.701985
0.963655
-0.14467
-0.926753
0.517607
0.988705
0.107662
-0.25789
-0.735525
0.317487
-0.479893
-0.929411
0.607112
0.01314
0.705238
0.730062
-0.945675
-0.984574
-0.723213
0.236602
-0.899512
0.807277
-0.761249
0.485445
0.134172
-0.4437
0.598117
0.604136
-0.646182
-0.210826
0.962644
0.970313
0.0799357
-0.0321033
-0.216359
-0.989394
0.437169
-0.264421
0.909029
-0.113288
-0.155444
0.132752
-0.654003
-0.483227
0.898834
-0.813943
0.0978876
-0.645682
-0.676251
0.585485
-0.808608
-0.381869
-0.0342393
-0.0537244
-0.89052
-0.488407
-0.417337
-0.997447
-0.572611
-0.449912
-0.11408
-0.631189
-0.805607
-0.426032
-0.71254
0.124676
-0.618948
-0.774091
0.409084
-0.139385
0.468676
0.67082
-0.519683
0.929275
-0.833898
0.0194165
0.930339
-0.255098
0.746054
0.0892377
-0.0943957
-0.823211
0.42147
0.352363
-0.904064
-0.105712
-0.452427
-0.0961863
0.413088
0.87305
0.419972
0.346321
-0.216271
-0.7267
-0.456299
0.491587
0.526823
0.157403
0.874862
-0.0923883
0.324317
0.433336
0.347423
-0.060527
-0.293548
0.0657966
0.420374
-0.0999739
0.163014
0.0139542
-0.705759
-0.527679
-0.311702
0.240205
-0.649976
0.93703
-0.933992
0.121507
-0.986847
0.293458
0.988096
0.919594
0.192153
1.00516
-0.40435
0.453411
-0.876799
0.308751
0.00611625
0.288767
-0.299587
-0.578396
-0.759124
-0.766285
-0.899543
-0.512318
0.869704
-0.0457135
-0.347814
-0.669863
0.161274
-0.873703
0.448595
0.806665
0.932655
-0.578504
0.998547
0.970808
-0.595824
0.514187
-0.808453
-0.471369
-0.947264
-0.34981
-0.141181
-0.985725
-0.619797
0.538993
-0.839484
0.503627
-0.713341
0.276121
-0.716691
0.057085
0.460682
-0.89616
0.0927224
0.285114
-0.71661
-0.235865
0.807113
-0.0657166
0.622518
0.251394
-0.302185
0.54489
-0.461682
0.49951
-0.30141
-0.300255
-0.0547525
0.812157
0.650693
-0.0609314
-0.91548
0.0689123
0.89602
0.150261
-0.392337
-0.517054
0.413403
0.893999
0.369965
-0.730652
-0.129039
-0.975883
0.172442
0.135293
0.0716052
0.0283764
0.0759647
0.0570463
-0.806485
0.780822
0.281714
0.831418
0.1321
-0.449861
0.683515
0.967898
0.853853
0.833504
-0.619953
-0.736482
-0.61604
-0.127286
0.928156
0.544484
0.330353
0.780848
0.903044
0.947038
-0.11248
0.854769
-0.912803
0.913744
-0.270837
-0.227524
0.563254
-0.33823
-0.675242
-0.621796
0.1518
0.641379
0.814462
-0.961138
0.0977934
0.945105
0.237707
0.608403
-0.0477054
-0.471012
0.235158
0.45471
0.951575
-0.419643
0.139452
-0.85718
-0.0360258
0.091341
-0.802925
-0.924449
0.0975838
0.549889
0.395921
-0.81277
0.30543
-0.800307
-0.120471
0.176852
0.423699
-0.651198
-0.628579
-0.311094
-0.930146
-0.989444
0.366276
-0.260939
-0.626864
-0.458093
-0.757585
-0.0561252
0.441532
-0.0404208
0.179861
0.794391
-0.947704
-0.51237
-0.170357
0.664184
-0.0541863
-0.272712
-0.196365
0.140198
-0.957942
0.291026
-0.290149
-0.585403
0.201977
-0.251965
-0.897294
0.140194
0.678082
-0.437746
-0.415586
-0.109745
-0.846306
-0.877032
-0.464218
-0.955866
0.338198
0.188798
-0.245106
-0.888877
-0.592349
-0.212464
-0.184093
0.234271
-0.803026
0.650447
0.444598
0.502045
-0.804835
-0.320413
0.625735
0.798901
0.970822
0.643245
0.130568
0.177895
0.388804
0.911594
-0.309077
-0.598679
0.866506
0.913603
-0.78455
0.961429
0.916979
-0.423822
0.688284
0.684689
-0.851057
0.522953
-0.147093
0.987589
-0.0029422
-0.308231
-0.464368
-0.0545264
0.138512
-0.214775
-0.381467
-0.131882
-0.599169
0.418465
0.366082
0.653291
0.256578
-0.954483
0.822612
-0.462061
0.259245
-0.394374
-0.39617
0.0119036
-0.283995
-0.929747
0.219726
-0.73976
0.845491
-0.718941
0.802304
0.208559
0.116708
-0.499029
0.971255
-0.0907827
0.806708
0.402813
-0.416689
0.0626204
0.748711
-0.619775
0.537071
-0.547835
-0.182964
0.344681
0.998294
0.524935
-0.224923
0.0654292
-0.960164
0.103689
0.155033
-0.565656
0.306438
-0.209101
-0.512028
0.25683
-0.31268
0.725688
-0.503273
0.175697
0.535702
0.397573
-0.846328
-0.895339
-0.204536
-0.885929
-0.0362207
0.953443
-0.310071
0.814439
0.327674
-0.426437
-0.779894
-0.0329155
-0.917888
0.544262
-0.562275
-0.11581
0.874055
-0.393988
0.487235
-0.933917
0.931601
0.422209
0.421201
-0.487004
0.81112
-0.800316
-0.305222
0.834063
0.461141
0.410118
-0.644224
-0.25479
0.840324
-0.52984
0.275144
-0.727707
-0.414947
-0.6517
-0.210529
0.223795
-0.350215
-0.804804
0.424972
-0.477457
0.284942
0.145706
-0.725893
0.997806
0.72463
-0.672986
-0.645661
0.764758
0.215654
-0.237992
0.915271
-0.18446
0.00712194
-0.549034
0.653454
-0.535985
-0.533175
-0.954298
0.801291
-0.204122
-0.435069
0.903793
-0.212189
-0.510302
0.857602
0.0297972
0.803897
0.472888
-0.395481
0.226477
0.983719
-0.992263
-0.382194
-0.59258
-0.877644
0.0980344
0.188618
0.659788
0.582991
0.0823993
-0.0354975
-0.721969
-0.900045
0.654422
-0.672824
0.284413
-0.0449276
0.632151
-0.525406
-0.0721114
-0.782003
-0.0835758
0.500768
-0.924271
-0.649887
0.342652
0.54608
0.524917
0.811299
-0.774952
0.389072
0.664225
-0.43048
0.058602
-0.68333
0.492959
0.00976682
0.99728
0.504104
-0.496341
0.552449
0.0326064
0.867721
-0.708043
0.403383
0.258492
-0.63138
-0.367683
0.299548
-0.912986
-0.349925
0.481036
-0.966037
0.294331
0.782303
0.393
-0.533493
-0.378463
0.755095
0.17188
-0.404264
0.248335
0.325502
-0.242183
0.867619
0.542517
-0.981922
-0.757901
-0.458139
-0.469431
-0.655598
-0.331686
-0.187574
0.0458575
-0.82064
0.110879
0.123765
-0.815504
-0.575408
0.278065
-0.327052
0.00527079
-0.262509
0.863112
-0.057415
-0.615609
0.478221
-0.381961
0.532423
-0.290405
-0.206863
-0.724047
-0.422657
0.222019
0.0689986
0.504825
-0.791317
0.66829
-0.500595
0.160167
0.789402
-0.733149
0.126443
-0.599834
-0.870539
-0.603898
0.887202
0.974043
-0.38206
0.104865
0.804512
0.855931
0.888025
-0.886677
0.932782
-0.371666
0.602629
-0.488564
0.248233
-0.87387
-0.169231
-0.685431
0.301008
0.385819
-0.769211
0.425164
-0.318783
0.460352
0.340629
-0.799647
0.749438
0.674406
0.810265
0.827795
0.152305
-0.679183
-0.258683
-0.481805
0.428014
0.077808
-0.240694
-0.756994
-0.144081
0.266415
-0.846237
0.060719
-0.558597
0.171585
0.960181
-0.671437
-0.928929
-0.729358
0.1481
-0.0702491
0.343104
-0.106306
0.479785
-0.916295
0.167375
-0.899782
-0.600949
-0.237709
0.112372
0.8646
-0.758871
-0.510039
-0.417018
-0.0639917
0.645893
-0.138841
0.0591407
-0.254599
-0.840777
0.832876
0.320738
0.108347
0.417278
0.736001
0.731485
0.0879729
-0.439584
0.551318
0.804126
-0.097548
-0.719503
0.831115
0.393996
0.237364
-0.241814
-0.942421
-0.698014
0.63419
-0.782568
0.391287
0.99136
0.547084
0.0817401
-0.647248
0.619992
0.620447
-0.586163
-0.0546219
0.660425
-0.186767
-0.460247
-0.584098
-0.224606
-0.588446
-0.0413085
-0.121208
-0.746202
-0.179449
-0.474703
-0.0255678
-0.0648872
-0.709528
0.822278
-1.01457
-0.63842
0.0797611
0.795076
0.309934
0.844605
0.898779
0.253699
0.7793
-0.954318
-0.835732
-0.726783
0.901593
0.368711
-0.0993185
-0.605892
-0.376193
-0.5688
-0.648218
-0.538797
0.89958
-0.419228
-0.87824
-0.759278
0.237455
-0.655564
0.104027
-0.905514
-0.441882
0.627305
0.197466
0.773658
0.687961
-0.794078
-0.528525
-0.49673
0.596157
0.555759
-0.249376
-0.166646
-0.932056
0.844805
-0.401216
-0.745802
-0.111916
-0.296195
0.779514
0.52872
-0.352221
0.422908
0.25237
0.0533583
0.467743
0.80265
0.585867
-0.792226
0.82242
0.320804
-0.492545
-0.111932
-0.852915
-0.0285257
-0.836405
-0.335817
-0.00798047
-0.507229
0.0115704
-0.28852
0.534287
0.439934
-0.719724
-0.599985
0.276483
0.44059
-0.189758
-0.170867
0.195539
-0.609727
0.466597
-0.87446
-0.639055
0.500793
-0.279972
-0.517671
0.294255
0.968481
0.243812
0.832954
0.360851
0.979473
-0.740655
0.845042
0.395043
0.4492
0.831329
0.299364
-0.931605
-0.961394
-0.149643
0.852222
-0.902007
0.1516
0.434455
-0.727335
0.109016
0.423895
0.703712
-0.832589
-0.556613
0.24495
-0.210307
-0.435972
-0.0829871
-0.865713
-0.546252
0.837121
0.70258
0.237027
-0.538041
-0.481251
0.222313
0.203832
0.153719
0.72496
0.690368
-0.277281
-0.256151
-0.584044
0.403972
-0.649938
-0.528043
-0.81842
-0.677442
-0.131116
0.293629
-0.316907
0.225402
-0.33667
0.555459
-0.579154
0.964009
-0.919242
-0.66854
-0.681289
-0.299165
-0.460187
-0.523002
0.129114
0.758398
-0.308516
0.97661
-0.0992783
0.0212272
0.811078
-0.226188
0.0374883
-0.648111
0.802723
0.221629
0.903864
-0.0149449
0.856363
-0.305784
-0.781192
-0.457561
-0.193375
0.824512
0.64698
0.809366
-0.45551
-0.990857
0.643644
0.121883
-0.250925
0.133756
-0.0197881
0.254956
0.290897
0.291738
0.455658
0.623671
-0.667859
0.73679
-0.608468
-0.578357
0.178969
-0.230219
-0.468265
0.23538
0.236311
-0.32314
0.778781
-0.95573
-0.207974
0.345434
0.796434
-0.902893
-0.779483
0.37422
0.137113
0.891141
-0.640528
0.130193
-0.303693
-0.488299
0.432862
0.0978304
0.256954
-0.663568
0.696139
0.686644
-0.234016
-0.770808
-0.713314
-0.964089
0.55226
0.87058
0.0248455
-0.870648
0.270695
0.506998
0.42788
0.217914
0.969491
-0.0447834
-0.0221774
0.0529944
-0.507669
0.293121
0.377142
-0.809917
-0.273113
-0.618793
0.547368
0.924062
0.716936
-0.00202262
0.859809
0.0195353
-0.560268
-0.872579
0.461059
0.517918
-0.138292
-0.977474
-0.37954
0.854245
-0.915622
0.323314
0.624468
-0.92343
0.207158
0.0133051
0.855208
-0.618016
0.229045
0.745021
0.721311
0.539629
-0.242915
0.529152
0.998396
-0.38826
0.903637
0.832866
0.455833
0.299221
-0.21698
-0.261182
-0.162903
-0.837759
0.581098
-0.19263
0.299347
-0.397978
0.522997
-0.685596
0.408518
0.0477682
-0.410547
0.753708
0.86333
-0.447301
-0.546398
-0.00218238
0.980836
-0.528365
-0.419856
-0.2784
0.802388
-0.155852
0.0558957
0.257941
0.478085
0.0468346
0.206122
0.0770172
0.27282
-0.484538
-0.76355
0.477441
-0.233544
0.454828
0.799809
-0.146519
0.815797
0.875835
0.849516
0.334744
-0.113227
0.910038
-0.527182
0.892124
-0.359567
0.628728
0.840934
-0.258557
-0.209253
0.794359
-0.638174
0.403988
-0.035005
-0.915393
0.611946
-0.652497
-0.978873
0.0234544
0.845692
-0.648933
0.0341694
0.862568
-0.257001
0.553497
-0.301484
0.873539
-0.814045
0.0680305
-0.329834
-0.99501
-0.639256
0.226991
-0.785196
-0.610361
0.514893
-0.622031
0.2795
-0.604773
-0.931178
0.302987
-0.433846
-0.308557
-0.23609
-0.110573
-0.547416
-0.747915
0.522522
0.372661
-0.931819
0.585318
-0.170116
0.399463
0.215324
0.967735
-0.872272
-0.28755
0.647045
0.831927
0.776136
-0.479619
-0.123748
0.759842
0.661464
0.393758
-0.822197
0.850553
-0.824311
-0.768059
0.385206
0.69816
-0.277134
0.227475
0.750828
-0.805408
0.833629
-0.383903
-0.605883
-0.706353
0.13039
0.46476
0.174091
0.819547
-0.309506
-0.662913
0.62368
-1.00679
-0.236243
-0.394151
-0.778831
-0.779883
-0.810409
0.224544
-0.664588
0.607455
0.560231
0.877931
0.221235
0.901353
-0.993226
-0.181576
-0.337275
0.852026
-0.357506
0.644557
-0.211441
-0.554822
0.939352
-0.191367
0.602323
0.0561367
-0.440446
0.348436
-1.02949
-0.563285
0.83714
-0.760706
0.327673
0.0886566
-0.229332
-0.81035
-0.647408
0.674475
0.567501
0.942564
-0.61428
0.929544
0.725159
-0.214799
0.196485
-0.207126
0.360786
-0.671604
-0.277063
-0.259081
0.92885
-0.353957
0.120407
-0.0130225
-0.613932
0.386019
0.303631
0.661395
0.258261
0.325716
-0.184686
0.872181
0.402022
0.734176
-0.0886055
-0.932094
-0.453112
-0.785019
0.858408
0.679882
0.0142976
-0.536043
0.0810125
-0.143673
-0.453669
0.392146
-0.495003
0.636633
-0.721066
-0.597952
0.624229
-0.144504
-0.78133
0.702893
-0.462802
-0.953375
-0.16428
0.026672
-0.13415
-0.0566721
-0.168659
-0.850113
-0.367855
0.96026
0.190889
-0.338563
-0.809122
-0.223587
-0.111841
-0.767347
-0.890212
0.381002
-0.996024
0.673252
0.452276
0.705109
0.950779
0.783767
0.294637
-0.299008
0.392731
-0.974469
0.704452
0.0281852
-0.639823
-0.399979
0.0897867
-0.678413
0.923761
-0.940411
0.936501
0.629036
-0.933541
0.806424
0.611098
0.730728
-0.507237
-0.128344
0.7937
0.670125
-0.474107
0.206885
0.372189
0.267686
0.242762
0.434927
-0.238354
-0.569353
-0.189421
-0.727809
0.417085
-0.0604945
0.239743
0.302595
0.501738
-0.339739
0.592118
0.713787
0.210456
-0.0719935
-0.690646
0.0107017
-0.826491
-0.86046
0.429529
-0.63036
-0.397771
0.777403
-0.683654
0.421186
0.50951
0.847506
0.554479
-0.937683
0.96683
-0.237865
0.465453
-0.441452
0.864353
0.0159168
0.596113
0.417645
0.763922
-0.539296
-0.272756
-0.970656
0.285992
0.03101
0.375014
0.198829
-0.0598043
-0.834533
0.291959
-0.212971
0.977958
-0.236345
-0.133107
0.7233
0.682878
0.0880317
-0.0928623
-0.960692
0.298389
-0.640893
0.82346
-0.288414
0.544772
0.0053215
-0.912684
0.669533
0.327024
-0.972732
-0.946905
0.315466
-0.167654
0.775577
-0.726791
0.371575
0.279743
-0.203031
0.173954
-0.601583
-0.895463
-0.481729
0.985552
0.154668
0.539973
0.940577
0.198676
0.702803
0.657127
-0.498405
0.821884
0.810803
-0.00164287
-0.327733
-1.00515
-0.348834
-0.516481
-0.0198439
-0.261051
0.695264
-0.226087
-0.0329008
0.840638
-0.34157
0.731418
0.555663
-0.674367
-0.355169
0.713754
0.581012
0.240166
0.110363
0.140802
0.995953
0.457963
0.531701
0.933287
-0.775853
0.875145
0.787788
-0.669946
-0.651419
0.824666
0.49471
0.199671
-0.695745
-0.38469
0.993651
-0.686948
-0.869586
0.170302
-0.515681
0.492667
-0.38956
0.782719
-0.421177
0.931441
0.713375
-0.624559
0.0179626
0.763771
-0.49968
-0.761698
-0.367416
0.341646
-0.0485539
-0.892701
0.707927
-0.812056
-0.508714
-0.961151
-0.0304544
-0.105892
0.0978847
-0.190657
0.897091
0.02679
0.109315
0.95806
0.789993
0.0242029
-0.700609
-0.613937
0.847678
0.467978
0.615358
0.471974
-0.515398
-0.0164046
0.485084
-0.970747
-0.837473
0.0979773
0.343569
-0.48018
-0.451019
0.102357
0.355776
-0.565434
-0.937255
0.555049
-0.3372
0.13439
0.876094
0.174306
-0.329798
0.00552034
-0.937377
0.335822
0.0819376
-0.692967
-0.835084
0.151657
0.527858
0.232874
-0.421413
0.257902
-0.906097
0.22516
-0.80934
0.768507
-0.325368
-0.463205
0.290331
-0.126737
0.513412
0.686373
0.485552
-0.16722
0.816115
-0.678759
-0.820389
0.875351
0.377048
0.614801
-0.0956436
0.759985
-0.873436
-0.100015
-0.818465
-0.040574
-0.318906
0.816307
0.698962
0.118935
0.202521
-0.334574
-0.393417
-0.958614
0.580479
-0.614076
-0.512459
-0.328332
0.0801796
-0.0232576
0.459937
-0.914819
0.821503
-0.824655
-0.800852
0.885039
0.319973
-0.523551
0.821835
-0.0103242
0.190061
0.709378
-0.991724
0.547319
-0.534346
0.369504
-0.235265
0.18332
-0.626511
0.693153
0.691847
0.176971
0.287845
-0.313511
0.918702
-0.210351
-0.987282
-0.340309
0.374281
-0.253408
0.974247
-0.405475
-0.696067
-0.464218
0.503137
0.130952
-0.409822
0.0876408
-0.983248
-0.281213
0.367165
0.132615
-0.893277
-0.303347
0.577893
0.0288134
-0.4287
-0.116868
-0.74963
-0.562092
-0.944786
0.575157
-0.204415
0.439364
0.713731
0.459431
0.993717
0.781551
-0.333154
-0.435646
0.229615
0.864593
0.114538
-0.73494
-0.330845
-0.704803
-0.54454
-0.444442
0.29423
-0.0978243
0.853584
-0.769371
-0.842191
0.53857
0.794005
0.158159
-0.906762
0.725021
-0.951111
-0.223172
-0.701261
-0.37598
-0.316676
0.797148
0.808426
-0.296719
0.534984
0.970215
-0.761528
0.193713
-0.552782
-0.789708
0.977182
0.127352
0.384121
-0.221539
0.220344
-0.966609
-0.640729
-0.0769578
0.909883
-0.588153
0.921748
0.869474
0.872278
-0.102431
-0.492432
0.164046
-0.681083
-0.583744
0.699712
-0.0284117
-0.478662
0.946574
0.166515
-0.718377
0.276078
-0.881955
0.47491
-0.801949
0.015007
0.318572
0.378367
0.460467
-0.652377
-0.995723
0.103468
0.311246
0.334516
0.952031
0.200805
0.352417
0.126036
0.197405
0.274997
0.431831
-0.691756
-0.00310253
0.415939
-0.194469
-0.29375
-0.0107672
0.564259
-0.741746
0.627022
0.517906
-0.626691
0.963932
-0.682998
0.393967
0.0802483
0.809506
-0.529105
-0.0307095
0.810781
-0.922411
-0.145076
-0.383617
-0.626032
-0.617264
0.474211
0.448065
-0.750605
0.226438
-0.408766
0.108265
-0.16161
-0.335006
-0.596576
0.261761
0.320221
0.0661141
-0.73529
0.199573
0.693533
-0.411553
0.209708
0.72339
0.0431713
0.815393
0.235908
0.107367
0.741623
0.751436
0.480928
-0.256724
0.00370497
-0.0101929
-0.710547
0.895131
0.648419
-0.479528
0.204942
0.494954
-0.268013
0.226214
0.220398
-0.201064
0.042946
-0.789964
0.026756
0.830295
0.302284
0.413358
-0.0807767
0.0299306
-0.872792
0.601001
-0.181073
-0.932308
-0.174964
-0.671774
-0.100449
0.553498
-0.939117
0.023469
-0.263497
-0.104511
0.629526
-0.496646
-0.778281
-0.7948
-0.125159
-0.0349712
0.747208
0.953733
-0.856234
0.204271
-0.754302
0.793707
-0.323655
0.890077
-0.792086
-0.671702
0.377498
-0.846914
-0.369537
0.368541
-0.272208
-0.761425
-0.377868
-0.19852
-0.560921
0.731228
0.826425
0.173394
0.109743
-0.949559
0.48072
-0.940102
-0.48577
-0.796337
0.957726
0.446171
0.770558
-0.642303
-0.280248
-0.238839
-0.229876
-0.986535
0.0618639
0.519822
-0.175976
0.795637
0.212474
-0.740916
-0.0894029
-0.266435
-0.776343
0.169541
-0.919265
0.32845
0.837482
-0.0537201
-0.602158
-0.791088
-0.104942
0.847532
-0.270189
-0.196583
0.418961
-0.502136
-0.553753
0.522509
0.672792
-0.194445
0.119302
0.286268
0.638117
0.23806
0.12332
-0.414492
0.152924
-0.782397
0.122012
0.377205
-0.953333
0.840048
-0.0657289
-0.797016
0.812937
0.31584
0.635605
-0.346136
-0.0232354
-0.158632
-0.58114
-0.451756
0.260041
0.321693
-0.910782
0.428507
-0.270323
-0.280979
0.533451
-0.184684
-0.0119438
-0.970484
-0.0114501
-0.892141
-0.750374
-0.0668196
-0.847426
-0.107919
-0.380618
0.546444
-0.319224
0.0312129
0.392367
0.1195
0.446218
-0.259141
0.450632
-0.504678
0.552009
-0.870145
-0.8275
-0.835373
0.891833
0.477905
-0.709981
-0.96659
0.292865
-0.987537
-0.971093
-0.214311
0.171372
0.901796
-0.678991
-0.42677
-0.286778
-0.190995
0.0731163
0.921737
0.568789
-0.343014
0.33056
0.102938
-0.0222138
-0.803925
-0.310044
0.826603
-0.236058
0.954382
0.755868
-0.131575
0.391859
-0.523581
-0.461669
0.103127
-0.457957
0.19776
-0.614163
0.120205
0.442261
0.230439
-0.200657
0.754478
-0.446012
0.358312
0.756807
0.32624
0.751927
-0.0138278
0.132916
0.225828
0.816359
0.0536959
-0.589145
0.390039
-0.0474218
0.488596
0.863501
0.0646061
-0.731202
-0.18399
0.633578
0.439165
-0.950651
-0.852179
0.919798
0.123834
-0.512287
0.170004
0.621561
0.628588
-0.58657
-0.91565
-0.165664
-0.481754
-0.559217
-0.529484
-0.476921
0.574791
0.629098
0.457628
-0.685841
-0.931786
-0.748442
-0.532565
0.488692
-0.0708539
-0.508678
0.430928
-0.87514
0.265912
0.938194
-0.00468593
-0.818033
-0.786755
-0.146738
0.037314
0.807846
0.748787
-0.654143
-0.876327
-0.175054
0.226943
-0.212756
0.261819
0.196985
-0.484765
-0.199296
-0.0757799
0.781906
-0.0143676
-0.436304
0.199513
-0.580524
-0.804117
-0.697255
0.619256
0.25989
-0.22627
0.0539946
0.414304
0.291742
-0.282387
-0.900599
-0.903951
0.10045
0.05025
-0.255808
-0.451119
0.939219
-0.920438
-0.700772
-0.0384346
-0.561523
0.940798
-0.592274
0.222277
-0.516894
-0.20802
0.491487
-0.285378
0.620191
0.91192
-0.124089
-0.345684
0.672918
0.728435
0.985507
0.980655
0.283742
0.206812
-0.317307
0.282377
-0.851115
-0.972858
0.266428
0.104653
-0.749632
-0.564667
-0.453313
-0.877284
-0.546747
-0.595614
0.0285745
0.82555
-0.23958
-0.825467
0.899425
-0.801519
-0.0847851
-0.540665
-0.0288247
-0.862641
0.27029
-0.5844
0.0172679
-0.782133
0.362976
0.0787216
-0.374551
-0.223846
-0.454058
-0.355009
-0.640426
-0.247224
0.280172
-0.311316
-0.486265
0.977538
-0.361181
-0.857179
-0.242603
-0.0618163
0.657781
-0.317598
0.256183
0.343034
-0.237709
-0.700404
0.682201
-0.271122
-0.479663
0.263489
0.719991
-0.0846497
-0.528799
-0.681894
-0.35232
-0.349736
0.851966
-0.226851
-0.571441
-0.504717
-0.959823
-0.571259
0.242701
0.000851201
0.421884
0.517192
0.4529
0.591072
-0.882041
0.280619
-0.369821
0.725094
-0.581575
-0.480701
0.872256
-0.913929
-0.0313867
-0.365797
-0.419996
0.230488
0.977108
-0.374629
-0.898209
0.524131
-0.533599
-0.858081
0.183906
-0.949629
0.723019
0.251369
-0.208603
-0.762188
0.964339
0.722508
0.640826
0.572726
-0.525171
-0.0219091
0.805732
0.951748
-0.85947
-0.476154
-0.537742
-0.611177
0.349936
-0.773404
0.980761
-0.598552
0.648444
0.224977
0.380168
-0.58378
-0.937897
-0.283177
0.124569
-0.56734
-0.613922
-0.465139
-0.338717
0.238006
0.624324
-0.255867
-0.575957
0.444096
-0.268977
-0.619928
0.0942735
0.447458
-0.449263
0.288993
0.090045
0.185421
0.799638
0.53102
-0.920094
0.662303
0.25974
0.461048
0.748953
-0.948531
-0.650139
0.452457
-0.776431
-0.43402
0.164284
-0.98277
-0.698844
-0.0104151
0.745807
0.507317
0.685471
-0.146929
0.756813
0.967642
0.0176796
-0.534954
-0.903835
-0.495898
0.795923
0.3365
-0.346677
0.670016
0.2243
-0.207974
0.167753
0.604744
0.39261
0.256842
0.610812
0.757841
0.770607
0.471708
-0.0050007
-0.884976
-0.19622
-0.132759
0.612324
0.448313
-0.0904572
-0.257797
-0.654725
-0.966596
0.498087
-0.411863
0.350178
0.752194
0.976742
0.690053
-0.540005
0.501389
-0.713905
0.719634
0.916815
-0.45036
0.539674
0.890277
0.565189
-0.834027
0.561835
0.793145
-0.264319
-0.559361
-0.552611
0.71202
0.886529
0.900983
-0.0968517
-0.906769
-0.913586
0.690626
0.856544
-0.789806
0.399846
0.666529
-0.505939
-0.155176
0.73981
-0.630628
0.754927
-0.502546
0.683252
0.943191
-0.884161
-0.160009
0.765547
0.895806
0.907958
-0.57635
0.901593
-0.667815
-0.412465
0.873438
0.62086
-0.945856
0.16976
-0.123406
0.546648
0.0826488
-0.0783887
-0.845567
-0.472831
0.0977899
-0.0987375
-0.5168
0.133211
0.890843
0.58585
-0.804825
0.957334
0.243185
-0.490578
-0.664441
-0.536283
0.63276
0.369571
-0.997795
0.532139
-0.794311
0.719609
0.0106527
-0.589601
-0.772671
-0.793492
0.405298
0.480291
0.627607
-0.364805
0.670769
-0.648388
0.996715
-0.562225
-0.154135
-0.669606
-0.381076
-0.593025
-0.989309
-0.565842
0.92188
-0.55267
-0.536859
0.526846
-0.670687
-0.712426
0.826516
-0.931842
-0.381383
0.658803
-0.462058
-0.049122
-0.0141875
-0.278323
0.308958
-0.935373
0.73174
0.190047
-0.400041
-0.645782
-0.113942
0.443754
-0.643992
-0.00447544
-0.638469
0.1155
-0.0311204
0.0726763
0.829954
0.359737
-0.70471
0.656688
0.0608455
0.909603
0.499345
0.265349
0.480615
-0.157012
0.203514
0.403934
0.468669
0.213997
-0.11009
-0.759766
0.243511
0.43416
-0.754896
-0.817853
-0.540963
0.689967
0.275157
0.655614
-0.612236
0.620423
0.837613
-0.135544
0.120481
0.559114
-0.638291
0.0528449
-0.019461
-0.388837
0.532244
-0.11664
-0.536749
-0.674368
-0.485212
0.807969
0.0748202
-0.722368
-0.781681
0.233631
-0.13265
0.36147
-0.0461557
-0.563972
0.0407617
-0.300144
0.114317
0.201338
0.417466
0.610496
0.165252
0.30283
-0.853068
0.290374
0.792287
0.700771
-0.993164
-0.334448
0.468119
-0.347722
-0.0583483
0.549398
0.262109
-0.515862
0.982229
0.459037
0.0571105
0.939211
0.182693
0.491379
-0.992501
-0.552807
0.671752
0.808624
-0.650824
0.223417
-0.434391
-0.799073
-0.31983
-0.141665
-0.00628865
0.937125
0.867881
0.914385
-0.592519
0.594173
-0.937459
0.468676
0.693149
-0.212296
0.697487
-0.25692
-0.80243
-0.603847
-0.606747
-0.509715
0.871249
-0.691784
0.772328
0.0120039
-0.073943
-0.32872
0.552384
0.740672
0.270557
-0.679224
0.135506
0.98481
0.801531
-0.671
-0.951079
0.76541
-0.33324
-0.511482
-0.555066
-0.563002
0.7728
-0.329006
-0.614555
0.918878
-0.721734
0.947677
0.936941
0.786001
0.994248
-0.127378
0.902304
-0.788733
-0.795474
-0.999308
0.694466
0.0691478
-0.0703723
-0.771504
0.185861
-0.651659
-0.701946
0.673652
-0.439263
0.22262
-0.531411
0.746811
0.856165
0.167265
-0.638022
0.454614
0.523532
-0.127342
0.668904
-0.957671
-0.253657
-0.443025
0.945785
0.361309
0.71549
-0.0448031
0.328382
-0.140346
0.717466
0.277219
0.287894
0.243933
0.167747
0.566377
-0.16327
-0.419848
-0.603893
0.950083
-0.912025
-0.919834
0.770334
0.884519
0.768863
0.635331
0.769633
-0.145542
-0.437408
0.652314
0.783829
-0.623931
-0.217155
0.880036
-0.462162
-0.436912
0.378758
-0.260856
-0.968061
-0.662421
0.352199
-0.737018
0.0826644
-0.522909
0.713522
-0.507098
-0.570822
-0.938563
0.669478
0.27985
-0.467692
-0.821814
0.844017
-0.00329599
0.772995
0.160823
0.756969
-0.789538
-0.0385147
-0.768953
-0.914867
-0.694925
-0.745093
0.607603
-0.930985
-0.56145
0.446031
-0.160788
0.363517
0.243584
0.330104
0.0996734
-0.620411
-0.308427
0.194338
-0.108677
0.0329963
0.65296
0.299556
-0.87376
0.343259
0.622227
0.881168
0.23535
0.569974
0.254948
-0.398237
0.139024
0.92317
-0.898647
0.380322
-0.365645
0.886651
0.997132
0.83673
0.597278
0.420838
-0.373045
-0.00923922
0.579807
-0.916319
0.151841
-0.291166
-0.8506
-0.383324
-0.697869
-0.483603
0.324456
0.871791
-0.477806
0.699778
0.754468
-0.877524
-0.497831
0.0758852
0.425808
0.246612
0.084523
-0.304871
0.515824
-0.00580008
0.367395
-0.397706
0.0277524
-0.579802
0.0288367
-0.893036
0.390251
0.320869
0.176319
0.318278
0.0883338
-0.0570148
-0.806134
0.847436
0.233527
-0.301652
-0.827011
0.736109
0.265101
-0.346557
-0.395571
-0.354361
0.0756857
-0.232204
0.868157
-0.696754
-0.0918062
-0.980269
0.0798472
0.13479
-0.162683
-0.927256
-0.0352903
0.174547
0.101367
-0.985437
-0.964831
-0.19346
-0.0579683
-0.228559
-0.428629
-0.682814
-0.654345
-0.140784
0.119152
0.84983
-0.552508
-0.318463
-0.767937
-0.786152
0.452394
0.747755
-0.878865
-0.674233
0.497779
0.00871826
-0.795646
0.879259
-0.164058
-0.92783
-0.528596
0.547844
0.966747
-0.159046
0.907362
0.803584
-0.430626
-0.244176
-0.470495
-0.347603
-0.922251
-0.431339
0.930031
-0.378425
0.640789
-0.680488
-0.434406
-0.925282
-0.624786
-0.759231
-0.11558
0.877673
-0.496524
0.0444831
-0.0825173
-0.365751
-0.207246
0.941953
0.00953377
-0.0810649
0.918536
0.985538
-0.345502
0.861852
0.752399
0.398363
-0.806537
0.349584
-0.303565
-0.875248
0.709791
-0.556678
-0.708343
0.283153
-0.118299
0.784724
0.097446
0.837592
0.285079
1.01343
0.391258
0.563313
0.143499
-0.849718
0.573646
0.386259
-0.182218
-0.408237
-0.527424
0.190214
0.0492355
-0.756018
0.0637406
-0.178633
-0.775392
-0.00421398
-0.720033
0.493769
0.0357027
0.647214
0.51462
0.455643
0.641724
0.769419
-0.00261772
0.259792
-0.762854
0.689443
-0.176561
1.00312
-0.352705
-0.351733
0.425117
-0.355016
-0.498106
-0.508337
0.226637
0.0919288
-0.663573
-0.6546
-0.564013
-0.259591
-0.0433727
0.00444647
0.955445
-0.479345
0.717646
-0.80562
-0.654818
-0.321791
0.919082
-0.0190382
0.707818
0.807328
-0.833726
0.0651159
0.336032
-0.936511
-0.0423934
0.619441
0.528173
0.455379
0.484333
-0.265418
-0.414195
0.335337
0.986238
0.0980326
-0.294074
0.154857
0.0125512
-0.905553
0.126939
-0.141904
0.798103
0.817812
-0.239036
0.449994
0.194698
-0.255338
0.376663
-0.936868
0.548753
0.597619
0.361953
-0.219094
0.156074
0.396714
0.594897
0.276554
-0.835639
-0.39282
-0.921502
-0.0593798
-0.198214
0.66853
-0.233026
-0.147109
-0.447285
0.37402
0.908965
0.636673
0.0373641
0.981469
0.430156
0.730146
-0.120864
-0.61876
-0.535239
-0.0896832
-0.333178
0.375433
-0.53985
0.0945747
0.815064
-0.401171
0.0376909
0.423718
0.0483133
-0.456257
-0.909151
0.866998
0.326974
-0.563022
0.626408
0.283834
0.0787621
-0.417367
-0.732982
0.628103
-0.778715
0.0111782
-0.89498
0.213682
-0.568564
0.228041
0.555258
-0.0446343
-0.925102
0.033708
-0.693098
0.700416
0.749012
0.959783
0.770621
0.347406
-0.673532
-0.124707
-0.652039
-0.199399
-0.320252
0.960521
-0.198717
0.228661
0.248152
-0.0452538
0.617773
0.227999
0.299686
-0.820283
-0.12294
-0.187711
-0.188668
0.472393
-0.225296
0.451305
-0.315225
-0.787081
0.0244923
0.709332
0.46609
0.649383
-0.224121
0.618047
0.597103
0.977465
0.596278
-0.369011
-0.9225
0.0649035
0.0136905
0.904266
-0.485008
0.526745
-0.129624
0.263208
0.937056
-0.642667
-0.0525797
0.188317
-0.756826
-0.280569
-0.267013
0.138013
0.456152
0.906242
-0.824667
-0.696455
0.547034
0.761088
0.740413
0.189704
0.0775183
-0.59637
-0.838522
0.406046
-0.104464
0.0114418
-0.518212
-0.512047
-0.761228
-0.0350449
-0.0992189
-0.68586
-0.870395
0.477889
-0.309496
-0.040029
-0.668843
0.642474
0.610751
-0.707138
-0.652237
0.108243
-0.760916
-0.935107
-0.528191
0.0917501
0.0790518
-0.704329
-0.78943
0.486273
-0.717008
-0.728217
-0.79286
0.768914
0.949701
-0.717194
-0.32782
-0.564339
-0.601586
0.905322
-0.78656
0.141022
-0.88685
-0.949916
0.217481
-0.688414
0.442373
0.457501
0.775146
0.0499848
-0.176256
0.433771
-0.293189
0.989491
-0.075908
-0.860967
0.783733
-0.561364
0.301203
0.849352
0.173859
-0.447205
0.142406
-0.826592
0.136514
0.147237
0.3598
0.78827
0.988922
-0.55093
0.253433
-0.726575
0.577052
0.842629
-1.00081
0.222418
-0.805978
0.832759
-0.656053
-0.170633
-0.217322
-0.497476
-0.290727
0.342758
-0.253192
0.669511
-0.647744
-0.267736
-0.681663
-0.126614
-0.792913
-0.915582
-0.96577
-0.0769901
0.472994
-0.698119
0.33822
0.359144
-0.12441
-0.195332
0.50164
-0.64394
-0.213146
0.960332
0.520443
-0.189766
0.206236
0.817558
0.142125
0.556065
0.00682986
0.530485
-0.0116817
0.244768
-0.963477
0.69954
0.936157
0.826578
0.156536
0.01473
0.590037
0.193847
-0.524791
-0.99002
-0.663812
0.105698
0.035236
-0.473363
0.741674
-0.445951
0.644874
0.575656
-0.981255
-0.158303
0.524377
-0.799222
-0.371241
-0.604617
-0.586175
0.0911878
-0.638687
0.370736
0.190759
-0.653791
0.139368
0.687671
-0.51825
0.726882
-0.985022
-0.19065
-0.509193
0.939875
0.0972959
-0.257466
-0.764283
-0.853735
-0.402597
-0.779509
0.681594
0.798485
0.0525713
0.00906047
0.0100558
-0.314289
0.0822332
-0.230728
-0.324312
0.963631
-0.299174
-0.890967
0.140035
0.811515
0.326684
0.43734
-0.463839
-0.0646501
-0.545656
-0.540428
0.336514
0.435181
0.166132
-0.896391
-0.595236
0.0476066
-0.745272
-0.375309
0.152698
0.809831
-0.994713
-0.0175942
0.511175
-0.935017
-0.287695
0.927863
-0.84284
0.970639
0.0599065
0.3202
0.899544
0.904055
0.041432
-0.0951036
-0.773954
0.218407
0.22551
-0.168011
-0.561119
-0.135897
-0.787742
-0.903678
-0.960954
-0.657097
0.446002
-0.927509
0.255417
-0.265544
-0.106209
0.098648
-0.43535
0.0669724
-0.75289
0.410474
-0.993444
-0.307705
0.163852
0.562304
0.509094
-0.900441
0.00262082
0.832594
0.604979
-0.630633
-0.0738355
-0.809862
-0.991059
-0.349559
0.513817
-0.0991248
0.498209
-0.838968
0.723912
0.152182
0.562754
0.944646
0.683527
-0.693852
0.0764502
-0.128972
-0.13534
0.553017
0.946131
-0.500422
0.605775
0.283553
-0.15134
-0.0181254
-0.833445
-0.89646
0.7027
-0.356384
0.280218
-0.563114
0.610468
-0.800853
-0.926802
-0.278564
0.560404
0.713644
-0.336049
0.675938
0.921772
0.695557
-0.704947
-0.338181
-0.918856
0.742375
-0.795178
0.337557
0.0905093
-0.42496
-0.894677
0.549082
-0.353154
0.103635
-0.939867
-0.253838
0.705953
-0.178716
-0.101973
0.318839
-0.951095
0.363926
0.838263
-0.223228
-0.289915
0.525759
0.778328
0.218573
0.464448
0.463089
-0.510738
0.457128
0.171912
-0.0792013
0.579428
-0.672934
-0.769112
-0.479121
0.144829
0.278343
0.418742
-0.939028
-0.835917
0.854058
-0.580769
-0.0147274
-0.327386
0.200002
0.629121
-0.97163
-0.294223
-0.106067
0.47134
0.0506385
-0.363634
-0.752728
-0.376495
0.12134
-0.47247
-0.364451
-0.291467
-0.142109
0.126384
0.274946
-0.40608
-0.0817939
0.983602
0.497772
0.524199
-0.925049
0.479114
0.311995
0.0162019
0.049695
0.197869
-0.0270569
0.643004
-0.970874
-0.479858
-0.160356
0.583523
0.0224934
-0.215192
0.759268
-0.759225
-0.788971
-0.852717
0.271002
0.922901
0.920854
-0.0127222
-0.610462
-0.137688
0.2134
-0.457185
0.180067
-0.152075
0.317357
-0.885926
-0.494704
0.514548
0.22608
0.608029
0.251185
0.315316
-0.89414
-0.483035
-0.679517
-0.138588
0.956341
-1.02709
-0.871799
-0.641833
-0.320304
-0.20098
0.680792
0.364458
-0.676425
-0.0490602
0.58418
-0.43896
-0.572537
0.66068
-0.805393
0.253367
-0.955707
0.409407
-0.0668018
-0.615072
0.508181
-0.0277306
0.0507159
0.524353
0.442455
-0.0710257
0.776215
0.941664
-0.353623
0.463506
0.318298
0.0818725
-0.5929
0.439998
0.353895
0.985089
-0.0214837
0.688601
-0.712162
0.463039
-0.0213673
-0.428225
-0.417647
-0.859018
0.0588082
-0.0449895
-0.427469
-0.544886
0.188483
-0.47139
-0.566749
-0.665156
0.458865
0.971364
-0.850002
-0.746141
-0.900475
0.0682149
-0.0147974
0.214143
-0.374118
0.679644
0.967296
0.854576
-0.794555
0.481374
-0.686929
-0.623195
-0.349927
0.637094
0.310373
-0.200459
0.331402
-0.148883
-0.792423
-0.170046
-0.745431
0.912149
-0.264296
-0.919982
-0.714547
-0.614172
0.914565
-0.133548
0.843779
0.033944
-0.366806
0.709612
0.0837478
0.554787
-0.21243
0.0159734
-0.661054
0.224156
-0.690331
-0.138041
0.249291
-0.528417
0.303736
-0.509704
-0.359012
-0.799639
-0.135098
-0.405342
-0.95163
-0.770671
-0.353215
-0.906534
-0.855712
-0.181816
0.549515
-0.000532167
-0.209581
-0.940669
0.380425
-0.493966
0.903959
0.513927
-0.706073
0.114227
-0.0389597
-0.578483
-0.328436
-0.721981
-0.849502
0.358459
0.89147
0.521757
-0