0.0958883
0.795584
0.741658
0.671086
-0.915647
0.0289339
0.54783
0.822585
-0.673083
0.134815
0.0348649
-0.148252
-0.311492
-0.404957
0.189734
-0.00232232
-0.441336
0.436131
0.348526
0.427464
0.640601
0.588877
-0.948534
0.959694
0.26001
0.79017
0.858621
-0.134573
0.717468
0.774848
-0.716632
0.629442
-0.234729
-0.117376
-0.244001
-0.95709
-0.108911
-0.942525
0.567234
0.985331
0.164187
-0.996829
-0.654698
0.0737971
0.75281
-0.951083
0.329674
-0.752103
0.736764
-0.456808
0.19817
0.808684
0.799732
0.578932
-0.426863
-0.509431
-0.0428187
0.44435
0.626897
-0.567704
0.462536
0.288654
-0.258324
-0.859314
-0.625024
0.603185
0.671556
0.473063
0.241934
-0.858703
-0.989133
-0.155783
0.733148
-0.218295
0.990242
0.73158
0.0211464
-0.936342
0.320992
0.734543
-0.0845017
-0.943017
-0.259654
0.101828
0.212585
0.910475
0.0588143
-0.742678
-0.57795
0.577543
-0.505261
-0.734852
-0.874888
0.0971202
0.630649
-0.141849
-0.423097
-0.581774
0.708171
0.0880137
0.595064
-0.936787
-0.358147
-0.854329
-0.221238
-0.110781
-0.130734
0.269447
-0.147483
0.972209
-0.693094
-0.296605
0.435104
-0.618078
0.313963
0.971887
-0.369899
-0.121083
-0.538594
0.465339
0.139847
-0.381655
0.62674
0.29499
-0.0586443
0.544061
-0.495756
-0.548025
-0.412225
0.703686
-1.00131
0.257661
-0.478039
-0.134115
-0.461805
-0.0518771
-0.408387
0.313781
0.316545
-0.230886
-0.621385
-0.216554
-0.421082
-0.101522
-0.94393
-0.020034
-0.379351
0.212695
-0.824804
-0.766877
-0.0214584
-0.815802
0.92546
-0.235061
0.397414
-0.660051
-0.589271
-0.795559
0.339985
0.165103
0.221205
0.148728
-0.0551387
-0.351009
0.441074
-0.563477
-0.17239
0.0700299
-0.601954
-0.750712
0.813198
-0.849047
0.120736
0.839736
0.540548
-0.195244
0.733881
-0.766352
-0.970885
0.815842
-0.322079
-0.487414
0.866391
-0.433808
0.542523
0.518217
0.990399
-0.741644
0.07113
-0.960736
-0.36934
-0.907557
0.895729
0.244009
-0.135874
0.767634
0.540809
0.406919
0.0509282
-0.279233
-0.606717
0.120924
0.156386
-0.353785
0.411539
0.207715
0.587999
-0.512312
-0.15071
-1.04645
-0.251059
-1.07263
0.43187
-0.881158
1.00424
-0.047711
0.353732
-0.224316
-0.898914
-0.0554879
-0.797379
0.833816
0.427384
0.555178
0.137555
0.171466
0.64361
0.698546
0.509922
-0.765666
0.772169
-0.0802169
-0.643136
-0.200207
0.559455
0.090335
-0.200743
-0.790173
-0.786644
0.360016
-1.25166
-0.374622
-0.3023
0.675368
-0.630661
0.917349
0.0579029
0.76105
0.930162
0.775426
0.577306
0.25674
-0.176045
-0.0759379
-0.247753
0.799491
-0.584032
0.923415
0.928434
-0.650432
0.225501
-0.984737
-0.435732
-0.667132
-0.148608
-0.84105
-0.206219
0.606779
-0.179104
0.515669
0.0643761
-0.619305
-0.375328
0.873223
-0.816667
0.693485
0.40257
0.554165
-0.549941
0.214505
0.52639
0.593072
0.192934
-0.7657
0.989453
0.722159
-0.068688
-0.60428
-0.357543
0.58544
-0.183615
-0.0265941
-1.16091
-1.18842
-0.750797
0.355563
0.0771915
0.626475
-0.890053
0.725683
-0.836751
-0.318976
-0.857948
-0.573546
0.905327
0.441583
0.394865
-0.697896
0.436243
-0.18269
0.0034332
-0.787504
-0.322269
-0.996638
0.322331
-0.779325
0.48263
0.446594
0.606134
0.61186
0.516135
0.835216
-0.180456
-0.132334
0.370564
-0.101894
0.698877
-0.567138
-0.067967
0.333116
0.491525
-0.853573
0.425214
0.877969
-0.987944
-0.629875
0.92223
0.81497
-0.190921
-0.176813
-0.689085
-0.0545093
-0.242103
0.864112
0.465669
-0.657119
0.00199242
-0.681612
0.188308
0.0328414
0.0519609
0.836783
0.291477
1.14484
-0.268041
0.400787
-1.10319
0.441675
-0.777367
0.213245
-0.0646263
0.512955
0.534663
0.83213
-0.180156
0.096741
-0.506537
0.39281
0.749242
-0.0617202
0.395882
-0.0499328
0.320803
-0.247058
0.526177
-0.552557
0.932767
-0.0435008
-0.15634
0.302957
0.157059
0.183562
0.437056
-0.489162
0.38188
0.402562
0.522221
-0.212171
0.719486
-0.78751
0.263916
0.918976
0.556053
0.119414
-0.629766
0.17145
-0.0785947
0.34401
-0.385922
0.258802
-0.47546
-0.851657
-0.475306
0.85245
-0.68063
0.82882
-0.576816
0.190514
1.09536
0.233625
0.142217
-0.585037
0.0930543
-1.04281
0.365929
0.185983
-0.80534
-0.621076
-0.828391
0.61137
-0.4067
0.485768
0.176722
-0.361522
-0.342136
-0.616831
0.421573
0.420465
-0.398274
0.796808
-0.9023
-0.134138
0.247936
0.643845
-0.477955
-0.11793
0.248084
0.358195
-0.544465
0.436333
0.594841
-0.982437
0.0123196
-0.496107
0.0705066
0.847076
-0.0378889
-0.798007
-0.635274
-0.464019
-0.22075
-0.495898
0.613709
0.507262
-0.209399
-1.09494
0.658403
-0.221642
0.372964
0.5677
0.726014
0.722878
0.0703759
-0.370237
-0.38615
0.639021
-0.457597
-0.295815
-0.334801
-0.319813
-0.813199
0.0391069
-0.958681
-0.170465
-0.279927
0.147072
0.496816
0.646906
0.378441
0.145609
-0.399334
-0.223595
0.324709
0.849456
-0.0373091
0.691116
-0.234302
-0.93729
-0.824233
-0.243069
-0.895948
-0.780983
0.560137
-0.212591
0.514983
-0.0367418
-1.01591
-0.729862
-0.636603
-0.166789
-0.071496
-0.663892
0.478618
0.0403386
-0.115746
-0.888917
-0.0858029
-0.312961
0.700644
0.205175
0.925918
-0.193223
0.538761
-0.757498
-0.0531217
-0.926409
0.574459
-0.655766
0.733942
-0.187434
-0.783995
-0.517555
-0.334144
-0.86861
0.127572
0.796681
0.910797
0.684727
-0.874987
0.242062
-0.307395
0.678865
-0.937621
0.494991
0.673308
-0.515695
-0.818117
0.927994
-0.672745
0.0326812
0.034953
0.00826974
0.547108
-0.887755
0.673172
0.0702925
0.319085
0.185259
0.683363
0.743373
0.455025
-0.847302
-0.0395365
-0.370536
-0.886628
0.59036
-0.377467
-0.22735
0.856785
0.934657
0.733461
-0.205467
0.376679
0.341683
-0.163954
0.775061
0.988311
0.577317
0.776462
0.0131168
-0.612905
0.203473
0.832006
-0.0182191
-0.935725
-0.839128
-0.967487
0.529169
-0.395242
-0.412845
0.944554
-0.714705
-0.767094
-0.196653
0.367059
0.840357
0.00577761
0.649423
-0.482182
-0.23756
0.52865
-0.701243
-0.897127
-0.105145
-0.740752
0.731069
-0.32642
-0.408043
0.00996404
0.120112
0.0965608
0.366436
-0.862608
0.211195
-0.244258
-0.876858
-0.0205697
0.161134
0.38918
-0.777489
-0.203522
-0.958511
-0.0364131
-0.509451
-0.109438
-0.415712
0.401588
-0.791685
-0.166516
-0.194438
-0.167078
0.215867
0.270577
0.899509
0.690372
-0.808942
-0.401938
-0.602146
-0.66462
0.429995
-0.398824
-0.697117
0.237895
0.517322
-0.757968
0.434874
-1.05086
0.131691
-0.786916
-0.177581
-0.255073
0.166879
-0.0804731
-0.900301
0.253293
-0.87417
0.671678
-0.413231
-0.619912
0.539609
-0.0575842
-0.716295
0.260623
0.0794954
0.132022
-0.527061
-0.616377
-0.786413
0.649128
0.613734
0.480649
-0.409145
0.598212
-0.186715
-0.60191
-0.703256
0.400857
0.194854
-0.833516
0.437536
-0.965233
-0.0345058
0.00850463
-0.534516
-0.409397
-0.555849
-0.331031
-0.692976
-0.902366
-0.824783
-0.625972
0.727819
-0.670716
0.234601
-0.53289
0.528157
-0.0920202
-0.756604
-0.342633
0.776449
-0.123134
0.812488
-0.0231301
0.413828
0.255165
-0.340248
-0.953653
-0.687831
-0.70096
0.73163
-0.383916
0.474877
0.811339
-0.189198
-0.432119
0.76806
0.682242
-0.752078
-0.763401
0.63519
0.513558
0.223046
-0.923441
-0.929805
0.235873
-0.394951
0.87984
0.637146
0.0812523
-0.924309
0.262268
0.286235
0.666668
-0.78425
-0.501876
0.40253
0.335675
0.882281
-0.973158
0.269017
0.464874
0.952301
-0.470123
-0.290575
-0.654617
-0.0419808
-0.125943
-0.355925
-0.13427
-0.356053
0.685669
-0.862623
0.304484
0.379625
0.512284
0.550547
-0.109626
-0.824585
0.173582
0.869925
0.514393
0.336345
0.653156
-0.394198
0.466875
-0.725701
-0.70083
0.133602
0.504151
-0.416018
0.644931
0.369258
-0.234416
-0.518941
-0.0946383
-0.0208694
0.797787
0.21861
-0.609245
-0.659024
-0.868849
0.869292
0.599595
-0.162932
-0.130636
-0.0471776
-0.783595
0.646266
-0.776588
-0.0998646
-0.810795
-0.415172
-0.153561
0.0563942
0.222979
0.491907
0.019057
0.622801
0.17527
0.348925
0.265104
-0.991513
0.459493
0.5153
-0.0729481
0.637387
0.576246
-0.921463
-0.980537
-0.0435539
0.79031
-0.72708
0.453739
0.920004
0.380851
0.607856
-0.0889728
0.72323
-0.196837
-0.631745
-0.854198
-0.465728
-0.990666
-0.42644
0.239389
0.729632
-0.970751
-0.449901
0.69942
0.366343
-0.500051
-0.397511
-0.482233
0.364082
-0.51192
-0.855194
0.907982
-0.411028
0.73318
0.696075
-0.103394
0.0780983
0.0208977
-0.938697
-0.485786
0.267394
0.749751
-0.374678
-0.627529
0.785949
0.653786
0.585142
-0.191045
0.104984
0.328449
-0.936362
0.149334
0.745341
-0.0926884
0.479679
-0.19807
-0.514395
-0.0065216
0.111849
-0.602353
0.0813764
-0.0588006
-0.974211
0.861057
-0.283421
0.18765
-0.0295659
0.749434
0.379607
-0.244953
-0.921423
0.140928
0.834453
-0.593358
-0.487155
0.366278
-0.534725
-0.689072
0.759806
0.374023
-0.150328
-0.521164
0.0544246
-0.600567
0.0336952
-0.167855
0.041033
0.848375
-0.753483
-0.382438
0.833827
0.664899
0.369756
-0.871047
0.723736
0.564091
-0.0103128
0.271724
0.205286
0.0131844
0.0531477
0.149697
0.776011
0.403291
-0.78762
-0.0110389
0.0525569
0.646509
-0.929641
0.967362
-0.699699
0.932783
1.02925
0.551951
0.915711
0.862938
-0.376599
-0.772614
-0.207704
-0.384753
0.471052
0.983358
0.926091
0.816278
-0.747804
-0.487794
0.52831
0.823459
0.208811
0.817418
-0.981545
-0.650138
-0.882758
0.0293748
0.0706276
-0.321193
-0.482811
0.632784
-0.867601
0.454805
-0.337104
-0.706123
-0.476963
-0.564483
-0.0755521
-0.45323
0.679565
-0.737834
0.599254
-0.592663
-0.36093
0.285488
-0.461437
0.262392
-0.780566
-0.780962
-0.409026
-0.0231402
-0.606199
0.759453
-0.0930546
-0.269018
-0.5114
-0.896277
0.28714
0.666827
0.180461
0.0256542
0.376646
0.333439
0.998035
0.222675
-0.1178
0.881125
-0.800233
-0.704366
-0.0829893
-0.0608767
0.330385
-0.433096
-0.00459726
-0.202723
-0.814952
0.508475
0.589385
0.666654
0.466771
-0.450112
-0.0865472
0.894494
-0.694295
0.73437
0.345027
-0.626491
-0.624882
0.901528
-0.959875
0.845034
0.0487412
0.323729
0.722245
0.730524
-0.756863
-0.0932948
-0.463595
0.174025
0.442054
0.0337654
0.87592
0.245601
0.672749
-0.938336
-0.530415
-0.216226
-0.967154
0.651388
-0.806906
-0.248248
-0.955349
0.33223
0.782351
-0.237095
-0.0667401
0.730222
0.547332
-0.309023
-0.60672
-0.381349
0.155598
-0.319928
-0.641404
-0.694107
0.307298
-0.821427
-0.0803995
0.515526
-0.0250474
0.32715
-0.375707
-0.260588
-0.68185
0.416277
0.0292867
-0.642314
-0.00443518
0.309875
-0.723304
0.00755456
-0.175145
-0.33559
0.166833
0.216309
-0.5989
-0.622399
-0.0385375
-0.716013
0.919188
0.241754
-0.815084
-0.920201
0.167318
-0.906447
0.347202
0.59265
-0.298026
0.0824839
0.575511
0.205111
-0.178414
-0.955418
-0.738913
0.307076
0.503163
0.737581
-0.110486
0.260775
0.112345
-0.0364107
0.137893
-0.71347
-0.0721966
-0.229142
-0.241902
0.764973
0.731973
0.0267556
-0.927101
-0.00483097
-0.900031
0.851536
-0.0572899
0.213736
-0.268795
0.0245054
-0.301101
0.257864
0.335786
-0.836483
0.711075
-0.927635
-0.699371
0.408715
-0.843437
0.270997
-0.424898
0.339626
-0.495527
0.519004
0.716131
-0.686013
-0.407819
-0.262392
-0.0668699
0.253278
0.817625
-0.526303
0.268982
-0.418519
-0.497547
0.638856
-0.950879
0.407694
-0.951061
-0.488756
-0.0874873
0.738694
0.414431
-0.895158
0.801883
-0.229259
-0.0525345
0.983847
0.37113
-0.0461787
-0.792473
-0.439381
-0.355193
0.538433
0.812278
-0.92591
0.426384
-0.6444
-0.669453
0.0700896
-0.901724
0.838037
0.978556
-0.655239
-0.126749
-0.296091
-0.585752
0.288539
-0.894657
0.301702
-0.0626991
-0.992883
0.170296
-0.323434
0.391856
0.608017
-0.206914
-0.896785
-0.360051
-0.644272
0.857866
0.324089
0.642489
-0.910622
-0.72667
-0.0498937
0.102729
-0.0156034
0.818157
0.515831
0.255895
0.665549
0.0979546
0.36662
-0.948945
-0.801106
0.149609
0.0298005
0.70326
-0.0917149
-0.392737
-0.685789
0.428604
-0.956361
-0.49055
0.799695
-0.137916
0.71139
1.03657
0.771781
-0.432867
0.177724
-0.71445
0.0469596
0.270099
-0.844541
0.0370355
-0.26879
0.23438
-0.711654
0.737404
-0.210549
-0.875916
-0.474952
0.374592
0.13785
0.335412
0.0604406
-0.593804
-0.32423
-0.943088
0.455445
-0.943042
-0.631413
0.376341
-0.603588
-0.600393
0.516671
-0.814123
0.839113
-0.000744467
0.0413582
-0.220755
0.226406
-0.798838
0.954958
-0.437222
0.654162
-0.0705252
-0.860399
0.461105
-0.973917
0.572843
-0.913962
0.610404
0.567666
0.980147
0.933483
0.749781
-0.461792
0.309657
-0.598693
-0.737162
-0.855293
0.494696
0.604758
-0.375903
-0.892627
-0.361061
0.604126
-0.885807
1.01043
0.921868
0.268777
-0.0874952
-0.497284
0.265403
-0.0918533
-0.393295
0.0695823
0.452426
0.708333
-0.712942
0.455029
-0.906366
-0.527986
-0.977673
0.322104
-0.581408
0.00226256
0.8584
0.87486
-0.247986
-0.568672
-0.432533
0.639147
0.183132
0.841513
-0.532207
0.153149
-0.653225
0.719859
0.301417
-0.264179
-0.529971
0.468217
0.234547
-0.615035
-0.42275
-0.171942
-0.132655
-0.208177
-0.176919
0.786762
0.154179
-0.225044
-0.0326839
0.696597
-0.577333
-0.264445
0.237304
0.0625924
-0.750985
-0.541227
-0.353199
0.262018
0.614244
-0.41523
0.42107
-1.05416
-0.829257
0.291036
0.885393
-0.346288
-0.0913428
0.251608
0.266879
0.378589
-0.121063
0.0661752
-0.236596
-0.0507177
-0.633857
0.832218
-0.671082
0.644454
0.323749
-0.522348
0.303367
0.617347
-0.113695
0.836953
0.298354
-0.0987766
-0.680662
0.550445
-0.499536
0.639846
-0.827421
0.357044
-0.0194562
0.239638
0.755487
0.00870847
0.766306
-0.481066
0.446578
0.589457
-0.145966
-0.00422888
0.367685
-0.484857
0.414448
0.84887
-0.363941
-0.529726
0.534802
-0.193131
-0.310958
-0.157099
0.132549
-0.550618
-0.91734
0.558395
-0.616851
-0.809835
0.28011
-0.35301
-0.293952
0.0197773
0.38805
0.215048
-0.624611
-0.24956
-0.320789
-0.91503
-0.889766
0.284367
0.280137
-0.941231
-0.794333
-0.252719
0.841615
-0.990756
-0.482459
0.419383
-0.796513
-0.881149
0.93382
-0.27162
0.00885248
-0.36352
-0.851907
-0.0477127
-0.481212
-0.260407
-0.7226
0.338468
-0.608691
-0.706872
-0.295767
-0.878646
-0.674455
0.0313367
0.570138
0.242547
-0.892946
-0.204302
-0.611943
0.261106
0.353588
-0.141461
0.953102
-0.32873
-0.213979
0.591183
0.359645
0.156624
-0.569562
-0.314779
0.896837
0.869769
-0.488314
-0.297524
-0.857668
-0.278571
0.0911826
0.594548
0.207536
0.334985
0.548625
-0.340917
0.324072
-0.072981
-0.707251
-0.169008
-0.157569
0.390967
0.777094
-0.844566
0.402445
0.906225
0.895348
0.901462
-0.968278
-0.555104
-0.851977
-0.88298
0.385747
0.353837
0.946314
0.828881
-0.944747
-0.517416
0.480823
0.334631
0.911934
-0.754856
0.192963
0.678913
-0.299853
-0.477845
0.0823612
-0.193256
-0.338902
0.103604
0.86057
-0.341774
0.772254
0.863433
-0.260388
-0.741143
0.155971
0.612346
0.29073
-0.521105
0.840191
-0.500576
-0.896788
0.516171
-0.58167
0.557872
0.441847
-0.828456
-0.983835
0.698535
0.391732
0.777179
0.354998
0.776398
0.144905
-0.235144
0.0296667
0.268132
0.712305
-0.827863
-0.0587376
-0.669503
-0.6116
0.167785
0.826196
-0.588172
-0.702494
-0.343339
0.979529
-0.150702
0.249792
0.749785
0.520778
0.827207
0.87032
-0.889416
0.184559
-0.621727
0.0422398
0.930492
0.0206108
-0.378903
0.768865
-0.495429
-0.0620011
-0.469505
0.445256
-0.585059
0.72602
0.629194
-0.488147
0.729258
0.888363
-0.400901
0.378036
0.0536062
-0.551801
-0.657268
-0.854114
0.295059
-0.614695
0.700669
-0.323363
-0.472335
0.332032
0.985332
0.343626
-0.96523
-0.281598
-0.938707
-0.68756
-0.818655
0.275721
-0.0165187
0.75951
0.901209
0.0808375
-0.151765
0.898756
-0.809884
0.180656
0.176184
0.330858
-0.580417
-0.352634
0.0371602
0.0575534
0.337756
0.00103962
0.140417
-0.556254
0.846984
0.847521
0.0688218
-0.556002
0.669021
0.419364
-0.991925
-0.585665
0.862411
-0.944082
0.39323
0.303575
-0.0557039
0.355846
0.108426
-0.191557
0.000990272
-0.811149
-0.537251
-0.213485
-0.509632
0.414881
-0.498375
0.78994
-0.262898
-0.909454
0.553413
-0.63545
0.301483
-0.864994
-0.744249
0.93971
0.0891622
0.232819
-0.995631
-0.745206
0.355485
0.729835
-0.910827
0.642475
0.356782
0.830028
0.212152
-0.912931
0.290842
-0.678452
0.494839
0.241872
-0.446678
-0.421651
-0.880524
-0.111255
-0.134253
-0.321604
0.982321
-0.736242
0.888635
-0.507504
-0.0446832
-0.599118
-0.952163
0.664295
0.00478578
0.83564
-0.730662
-0.528221
-0.357071
0.366655
-0.40405
0.39342
-0.303476
-0.641098
0.273915
-0.288333
-0.682512
0.470346
-0.0781262
0.273164
-0.277466
0.61544
-0.961583
0.906208
0.240117
0.795004
0.206056
0.461575
-0.815902
-0.315114
-0.378342
-0.79111
0.35774
0.875253
-0.150602
-0.461215
0.122491
-0.794798
0.394796
-0.981064
0.561036
0.618562
-0.332531
0.0338543
-0.582857
0.129418
-0.808231
0.020976
0.425048
-0.501198
-0.74196
-0.324923
-0.545515
0.858857
0.934615
-0.229424
0.126582
-0.0421033
0.731653
-0.855051
-0.106513
0.486004
0.387922
-0.108928
0.794929
0.129923
-0.433008
-0.899581
0.747848
-0.859837
0.554042
-0.0799112
-0.948242
0.0818378
-0.98898
0.72089
-0.0502082
0.676503
-0.876855
-0.150948
0.564424
0.119828
0.748054
-0.961403
0.94357
0.727316
0.904109
0.149921
-0.659939
-0.439054
0.863935
-0.420752
0.570198
-0.875235
-0.175702
-0.490098
0.527893
-0.30027
0.977079
-0.475743
-0.541696
-0.653613
-0.415389
0.238288
-0.340033
-0.9097
-0.677673
0.537503
0.291324
-0.30426
-0.399129
0.224476
0.754355
-0.119044
0.999476
-0.180715
-0.0668906
-0.291914
-0.974268
-0.172315
-0.272753
-0.0762518
-0.378599
-0.60751
0.46425
-0.253626
0.974346
0.810137
0.393865
-0.382075
0.123786
1.0851
-0.0556122
-0.670564
0.687642
-0.674526
0.423623
-0.162641
-0.785854
0.010319
0.409635
-0.0635054
-0.0586675
-0.120675
-0.429527
-0.241496
0.422504
0.40762
0.264253
0.507757
0.051039
0.744803
1.05694
-0.978911
-0.236189
-0.45501
-0.690336
-0.127564
0.9083
-0.500605
0.216642
0.0954129
-0.289132
-0.0463552
0.299916
0.823583
0.449414
-0.848482
-0.103366
-0.687996
-0.193615
0.645668
-0.122147
0.721854
-0.78953
0.487843
-0.835019
0.560211
0.971363
-0.322428
-0.703749
0.492256
0.901601
-0.365672
-0.212246
-0.844748
0.843578
0.825177
0.853824
-0.955302
-0.486705
0.668507
0.224276
-0.433412
0.190276
-0.559153
0.339182
-0.325337
0.952903
-0.320402
-0.372678
-0.0886234
-0.44888
-0.118326
0.679754
-0.394976
0.193828
-0.828142
0.168516
0.198613
0.656202
-0.402903
-0.408946
1.06404
-0.269137
0.0084426
-0.575438
0.495539
-0.857846
-0.23474
0.578497
0.750068
0.5593
-0.646943
0.157538
-0.491227
0.0115222
0.00665049
0.489805
0.260745
-0.621784
0.583447
0.396957
0.391706
-0.151301
-0.611566
-0.340823
-0.214013
0.207814
0.544899
0.905447
0.602955
0.447736
-0.25914
-0.877437
0.369355
0.628039
0.794669
0.96033
0.165728
0.855945
-0.31708
0.421489
-0.990308
0.571773
0.0788279
0.29331
0.841267
0.670528
-0.88053
-0.691064
0.352422
0.236309
-0.767906
-0.166733
-0.173519
-0.568016
0.0843654
0.369104
-0.0902952
-0.555779
-0.557142
-0.686985
-0.506482
-1.02842
-0.151879
-0.700522
-0.330682
0.220265
-0.728319
-0.268965
-0.879189
-0.00171471
0.726964
0.696854
-0.661682
0.779258
-0.445456
0.269263
-0.358959
0.847366
-0.545299
-0.720772
-0.717454
-0.896244
-0.200521
-0.957686
0.200256
-0.622946
-0.00926496
-0.125874
0.608924
0.872162
-0.952
-0.732552
-0.0833473
0.18557
0.936871
0.373539
-0.574115
-0.00288563
-0.0150664
-0.827465
0.195492
0.851138
-0.686721
-0.376377
-0.316501
-0.233899
-0.657812
-0.332148
-0.837302
0.110973
0.545718
-0.943794
0.557666
1.04662
0.347869
-0.203892
0.702198
-0.558523
0.713856
-0.89986
-0.600036
-0.225531
0.107238
0.852003
-0.973255
0.330904
-0.0201668
0.575131
0.817553
0.417081
0.807256
0.154223
-0.0575772
0.559022
0.196655
0.0451819
0.922382
-0.663223
0.101786
0.15821
0.911078
-0.615754
0.0699811
0.10998
-0.427224
0.362911
0.440871
0.784577
0.762317
0.14477
0.299241
0.132747
-0.176146
0.831067
-0.481657
0.785894
0.158976
-0.670326
0.361799
-0.443045
0.955749
0.469253
-0.232516
-0.669404
-0.394919
0.791585
0.825631
-0.229133
0.233608
1.01092
1.10089
0.192828
-0.333549
-0.181776
0.916072
0.31911
-0.293843
-0.753699
0.903447
0.892681
-0.132786
0.0850892
-0.338679
-0.16656
0.864148
-0.564159
0.370843
-0.221772
0.254417
-0.554349
0.510702
0.215959
0.326466
-0.596009
-0.476288
-0.457164
0.848775
-0.168761
1.17484
-0.112396
-0.476073
0.171236
0.864663
0.253453
0.772519
-0.117244
0.482603
0.722384
-0.199669
-0.440931
0.500043
-0.843495
-0.536326
-1.01054
-0.269934
0.407295
-0.330341
-0.101085
0.963013
-0.0661402
-0.768326
0.172076
-0.63634
0.0605919
-0.087876
-0.248531
0.0279818
0.767538
0.330168
-0.155175
-0.851885
-0.959647
-0.486364
0.93699
0.230311
-0.721987
0.909743
-0.183747
0.361067
0.415588
-0.815823
0.92626
-0.355389
0.101359
-0.220553
0.163322
0.66643
0.494683
-1.18141
0.0619115
0.655955
0.477175
0.325722
-1.03543
-1.00874
-0.79764
0.0703525
0.753879
-0.147716
-0.630774
-0.305974
-0.163677
-0.656172
0.0418521
0.100937
-0.647169
0.218563
-0.202958
0.246718
-0.109912
-0.96544
0.52333
-0.213034
0.397238
0.574819
-0.125989
0.0237521
-0.301221
-0.226348
-0.901937
0.81181
0.56752
0.632092
0.617827
0.982681
-0.790102
0.512497
-0.479363
0.00610861
0.417341
0.292697
0.614606
-0.255367
0.106242
0.0676301
-0.356591
-0.66889
-0.15757
-0.911836
1.08274
-0.21374
1.00818
-0.701653
0.219103
-0.224871
-0.293117
-0.822436
-0.783997
0.29593
0.424183
0.563279
0.13536
0.408852
0.15144
-0.0153721
0.267322
0.595952
-0.650826
-0.975673
-0.54717
-0.671827
-0.458406
-0.52201
0.267808
0.389486
0.938408
0.788615
-0.308988
0.268596
-0.661531
0.106124
-0.792049
-0.256578
0.344653
0.00534451
0.970899
-0.66784
1.06813
0.178356
0.21626
-0.283938
0.756209
-0.964316
-0.793922
-0.193096
-0.432798
0.291157
-0.238616
0.989277
0.584084
0.169119
0.200579
-0.329441
0.894515
-0.059016
0.580997
0.674211
-0.275829
-0.182957
0.951229
0.194035
-0.315493
0.731203
0.649826
-0.518053
0.0235349
0.5806
-0.421884
0.252693
0.50803
0.753509
0.504877
-0.561173
0.933984
0.814543
0.535343
0.548371
-0.198072
0.0312265
-0.103893
-0.041164
0.845993
0.341851
0.406443
-0.28093
0.507019
-0.397018
-0.308267
0.708241
0.30095
-0.383744
-0.0735609
0.384771
-0.933361
0.174177
-0.461983
-0.749051
-0.318548
-0.900438
0.136491
0.871968
-0.325725
0.695548
0.720458
0.228768
0.738976
-0.79211
-0.54594
-0.814996
0.531857
-0.638012
0.745378
-0.59557
0.0513393
-0.868687
-0.527166
0.692643
-0.32619
1.02765
-0.758764
-0.226544
0.764349
-0.312105
0.648177
0.412357
-0.213468
0.255915
-0.882841
0.00128031
0.53251
0.568996
0.719755
-0.934208
0.0242994
0.88681
-0.948676
-0.0316113
-0.398586
-0.204466
-0.704422
-0.303447
-0.862862
0.263972
0.100956
0.107196
-0.607582
-0.103131
-0.727055
-0.751702
-0.015876
0.558891
0.583333
0.657417
-0.330366
-0.119572
0.184731
0.310645
0.706252
-0.236151
0.919934
-0.542901
0.992637
0.94511
-0.293651
-0.00467885
0.26866
-0.738265
-0.839751
0.991663
-0.774541
0.793925
-0.92854
-0.970565
-0.0261694
0.553272
0.67401
0.676323
-0.703462
-0.639266
-0.014106
0.796528
0.830273
0.0765707
-0.994918
-0.224317
0.70887
0.773456
0.0218536
-0.405514
0.238113
-0.733378
0.502617
-0.797876
0.894708
0.319832
0.172875
0.843603
0.276861
0.878863
-0.284422
-0.0876305
0.732304
0.23619
-0.51648
-0.90798
0.00667791
-0.793204
0.475358
-0.0335326
0.166494
-0.346413
0.135533
-0.12591
-0.496366
0.0381762
-0.186358
0.767164
-0.914657
-0.543762
-0.660853
-0.254867
-0.684902
-0.179695
-0.545779
0.661364
0.305007
0.575873
0.390002
-0.879111
0.353749
0.0941241
0.75774
-0.976496
0.354658
-0.085712
0.790886
-0.531206
-0.354094
0.0965208
0.854084
-0.0695651
-0.602364
-0.610705
-0.71157
0.637063
0.123151
-0.520427
-0.444303
-0.26085
-0.837161
-0.610693
0.0771643
-0.142634
-0.0838252
0.937365
0.341096
-0.676286
0.346626
0.139169
0.0662137
0.329405
0.762156
0.136263
0.850866
-0.258756
-0.397669
-0.827071
-0.967944
-0.771016
0.23894
0.734483
-0.76782
-0.87914
0.625548
-0.4645
0.548041
0.143148
0.934491
-0.777108
-0.976414
0.914008
0.663595
0.113022
0.058872
-0.367379
0.675498
-0.302728
0.208645
-0.903103
0.0571147
0.316793
-0.897636
0.438749
-0.63771
-0.803259
0.66578
-0.589203
-0.492615
0.625371
0.51779
0.00540328
0.168629
-0.403578
-0.0926043
0.616736
0.67037
-0.214079
0.0874979
-0.901166
-0.247637
0.739842
-0.466473
-0.092493
0.00447083
-0.613509
-0.224965
-0.304478
-0.507397
-0.242625
0.504701
0.521063
0.544011
-0.587003
-0.503759
0.471432
0.881383
-0.927464
-0.969718
-0.00622821
0.712249
-0.824545
0.8565
0.122861
0.459054
-0.25302
0.341682
-0.49462
-0.624906
-0.204829
0.74719
-0.234379
0.509415
0.131644
-0.240293
-0.501551
0.600239
0.38729
0.553243
-0.593878
-0.768371
-0.0885457
0.719059
-0.34626
0.90718
-0.702899
-0.0137695
0.804075
0.207654
-0.967916
-0.525655
0.164531
0.380216
0.0330006
-0.0387748
0.999556
-0.291643
0.742688
0.766894
-0.536745
-0.273084
0.352876
0.471609
0.389206
0.118053
0.970337
-0.790219
0.830897
-0.468437
-0.188766
0.273867
0.931057
-0.327353
0.65105
0.74481
0.447439
0.709826
0.475606
-0.317104
-0.877545
0.432568
0.0716281
0.0780789
-0.416654
-0.0981009
0.864328
0.208683
-0.901916
-0.529112
0.501509
0.712477
0.347151
-0.31312
0.233791
-0.0664059
0.570166
-0.642533
0.811231
-0.143925
-0.963589
0.805459
-0.150624
-0.164509
-0.929481
-0.758599
-0.890876
-0.336469
0.73232
0.6985
-0.542881
0.439035
1.01572
-0.863046
-0.842203
0.904457
-0.095673
-0.606855
0.0875871
-0.662683
-0.262192
-0.200996
0.405695
-0.2112
0.483689
0.466831
0.542513
0.693182
-0.368771
-0.98281
-0.175579
0.295241
0.0632445
-0.234833
0.810281
-0.112895
-0.958769
-0.120957
-0.224547
0.136524
0.155659
0.299938
0.30106
0.0170665
-0.599196
0.565728
-1.09756
-0.347122
-1.06732
-0.93167
-0.0509491
-0.0737596
0.530762
0.408251
-0.169982
0.0489531
-0.951165
-0.846176
-0.630257
-0.382663
0.123757
0.324887
-0.533126
-0.319079
-0.502318
-0.842244
-0.76901
0.458086
0.381528
-0.723614
0.111552
0.481895
0.232331
-0.475197
-1.14049
0.680937
0.594618
-0.910832
0.795153
0.33726
-0.38687
-0.682415
0.278682
0.903478
0.525037
0.837564
-0.483919
0.0725513
0.957771
0.724885
-0.555592
0.0188544
-0.421252
0.615738
0.797562
0.433888
0.423321
0.334192
0.62632
0.412977
0.522362
0.00187966
0.543864
0.428717
0.54262
-0.289772
0.277377
0.141364
0.36116
-0.38506
-0.0419845
-0.146234
-0.601303
-0.717724
0.312984
0.662177
-0.749865
0.90054
0.75269
0.00073875
-0.439803
0.65156
-0.22742
-0.099877
-0.484934
-0.513323
0.431555
0.105532
0.812538
0.419896
0.324525
0.455752
-0.82326
-0.695392
0.270429
0.462853
-0.0710746
0.193668
-0.361315
-0.192296
-0.994788
-0.303171
-0.094038
0.832868
0.130354
0.846514
-0.860492
0.957631
-0.433271
0.183777
0.820614
-0.140331
-1.05108
-0.657477
-0.521796
-0.603655
-0.678596
-0.746357
0.237117
-0.514568
0.0470194
-0.961505
-0.836213
0.792648
-0.514451
-0.380826
-0.883009
-0.543923
0.684638
-0.345527
-0.145175
0.424223
0.755539
-0.261124
0.326551
0.23774
-0.560049
0.194433
-0.925945
-0.653164
-0.936174
0.0690316
0.655569
-0.182051
0.508539
-0.888855
0.837755
0.997274
0.19823
-0.482344
-0.994366
0.862118
-0.885978
-0.827609
-0.841673
-0.821052
-0.122991
0.410626
0.884619
-0.796034
0.0807282
0.0554154
0.238727
0.168232
0.730276
0.650381
-0.251995
-0.610038
0.441649
1.07032
0.219772
-0.82914
-0.608691
0.809616
-1.055
-0.852626
0.756536
0.839648
-0.293639
-0.0464566
0.22497
-0.208084
-0.377081
0.761166
0.748837
-0.206849
-0.295428
0.724222
0.133867
0.511044
-0.173315
0.121189
-0.787653
0.0190285
-0.706176
-0.837596
0.703878
0.180045
0.0251659
-0.273616
-0.046854
-0.947435
0.0967964
0.400869
0.29861
-0.36106
-1.10166
-0.223097
0.13746
-0.659204
0.965579
-0.817802
0.0097806
-0.15679
-0.291721
0.929183
-0.97039
0.797699
0.174209
0.210376
-0.835193
-1.05353
-0.744437
0.733781
0.717642
-0.670798
0.639475
-0.629547
-0.070005
-0.0102607
-0.387569
0.974144
0.46593
0.155858
-1.14582
-0.735993
0.403767
0.119207
0.746753
0.614655
-0.448497
-0.233469
-0.624989
-0.969488
0.996049
-0.0624833
-0.822205
0.301958
0.803803
-0.658217
-0.660412
0.16247
0.112803
-0.251623
0.544587
-0.500944
-0.0886269
-0.469152
0.345733
1.01991
-0.892693
-0.831163
-0.0320097
-0.67603
-0.0503516
-0.594585
-0.543275
-0.599229
-0.864633
0.196459
0.29082
-0.597767
0.471954
-0.367869
-0.342016
-0.247335
0.33656
0.977452
0.902715
-0.440941
0.889695
-0.163898
0.516345
-0.0799684
-0.325777
-0.577431
0.682002
-0.477951
0.243644
-0.570342
-0.0837731
-1.06807
0.322784
-0.682163
0.851823
-0.360256
-0.567416
-0.270854
-0.735068
-0.0614036
0.222709
0.445336
0.863349
0.643555
0.945177
0.755897
-0.684119
0.266194
-0.580987
0.835613
0.222543
0.707523
-0.142187
0.129802
0.26493
-0.92221
0.06244
-0.181975
0.106007
-0.471755
0.194777
-0.775169
0.626504
0.31105
0.937702
0.809985
0.0979826
0.651782
-0.320199
0.894796
-0.972839
0.0477839
0.95533
0.744278
0.569072
0.660744
0.191962
-0.604321
0.820741
0.507608
-0.672651
0.598718
-0.739086
-0.87267
0.0518903
-0.407846
-0.412786
0.574804
0.169206
-0.108919
0.237127
0.477186
0.123695
-0.660839
-0.775109
0.908301
-0.222841
-0.491511
-0.00663085
-0.24772
-0.459065
0.92827
0.800411
-0.946982
-0.367641
0.961393
0.0798058
0.247143
-0.638833
-0.881595
0.491411
0.823932
-0.888549
0.31783
-0.89059
0.0315005
-0.274871
0.224336
-0.384369
0.427654
-0.473969
0.483677
-0.315174
-0.902294
0.292041
0.766243
-0.860495
0.368748
-0.947925
0.423873
0.738741
0.792726
-0.414788
0.520048
0.316566
0.572961
0.908231
0.134905
0.289956
-0.723384
-0.493546
-0.300013
0.292148
0.535727
-0.352031
-0.45846
0.581875
-0.915015
-0.801287
0.105123
0.212863
0.148358
-0.281169
-0.99533
0.450845
0.901279
0.733998
0.477765
0.136195
-0.202519
-0.615215
0.359956
-0.905839
0.258567
-0.133117
-0.626016
0.922968
0.868609
0.471785
-0.456775
0.970427
0.817642
0.252403
0.307301
-0.0777281
-0.71871
-0.93852
0.0917742
-0.253069
0.13692
0.607703
-0.178469
0.847893
-0.769847
-0.270672
0.306806
-0.186231
0.447539
0.232436
-0.762869
-0.0217488
0.69988
0.862625
0.655329
0.967117
0.777302
-0.920021
0.333861
-0.623678
0.588285
-0.982568
0.694198
0.0414994
-0.486346
-0.463574
-0.549145
0.706529
-0.110821
-0.996151
-0.41653
-0.597094
-0.802688
-0.183573
-0.503063
-0.700984
-0.96709
-0.260597
-0.686041
-0.721501
0.133947
-0.186458
-0.693631
-0.405274
-0.74414
0.730167
-0.0591278
-0.955379
0.368717
0.857861
-0.500563
-0.345875
0.379079
0.941444
-0.5898
-0.677019
-0.487611
0.335888
-0.261834
0.109993
-0.115635
-0.219217
-0.472419
0.162572
0.0429895
0.974455
-0.128216
-0.570684
-0.338257
0.919966
0.557153
0.736646
-0.602706
0.78687
0.6994
-0.232544
0.621555
0.293563
-0.548882
0.900563
-0.409077
-0.902933
0.00144279
0.67891
-0.762153
0.17037
-0.509528
-0.739141
-0.538593
0.620461
-0.348432
0.377797
-0.058995
0.931223
0.525451
0.845782
0.471425
0.158751
-0.298783
0.341297
-0.136973
0.540394
-0.470584
0.505386
0.973139
0.796684
0.247791
-0.707216
-0.12667
-0.920078
0.726028
0.658783
0.337848
-0.19893
0.197785
-0.31324
0.770814
0.503997
-0.788643
0.419084
-0.194258
0.703213
0.505657
-0.300818
-0.488673
-0.691612
-0.00646424
-0.161417
0.115934
0.564418
-0.552996
-0.979943
-0.684922
-0.319882
0.781154
0.1409
0.865295
0.640438
-0.16076
0.773804
0.965203
0.947156
0.489134
0.226794
-0.430473
0.204082
-0.752208
-0.830203
0.728678
-0.136649
-0.440249
-0.0441088
0.203853
0.57296
0.237965
0.56345
0.879218
0.409383
0.774117
0.595425
-0.0611601
-0.124471
0.20091
-0.826528
0.610833
-0.596603
0.531289
-0.927426
0.499442
0.762542
0.354067
0.965125
0.288697
-0.353885
0.667199
0.192981
-0.584871
-0.0964342
-0.579883
-0.747106
-0.470123
-0.710834
0.578045
-0.0402359
-0.674499
0.984776
-0.544244
-0.983434
0.306299
0.274675
0.291821
-0.0499872
0.0923318
-0.364755
0.825412
-0.690629
0.295268
0.589928
0.00702775
0.20602
0.0203837
-0.512082
-0.942382
-0.8929
0.290987
-0.638662
-0.974204
0.53853
0.125152
-0.694807
0.417134
-0.479981
0.0396098
0.147701
0.811519
0.342008
-0.461578
0.573848
-0.748255
-0.938336
-0.91968
0.189214
-0.838484
0.581989
-0.513719
0.289934
-0.310253
-0.996
-0.654639
0.876143
0.67793
0.707297
-0.8781
0.797036
0.43761
0.290039
-0.37508
-0.656651
0.323137
0.108168
-0.516269
0.242718
0.821291
-0.958024
0.457655
-0.872631
-0.249794
0.851382
-0.580042
0.227925
-0.360622
-0.383113
0.288474
-0.444632
-0.018025
0.479365
0.00947525
0.533046
0.891273
-0.951282
-0.717264
-0.64056
-0.580779
-0.532328
0.152455
0.582451
-0.22511
-0.55478
0.164113
0.867611
0.811744
-0.637603
-0.195319
0.972012
-0.948394
-0.846306
0.395125
-0.698514
0.847141
-0.75136
-0.739689
-0.825064
-0.468476
-0.261615
-0.109447
-0.199319
0.441768
-0.877243
-0.318099
0.780995
-0.354132
-0.725312
-0.554179
0.625618
-0.196512
-0.662621
0.206659
0.0128703
-0.714815
-0.196225
0.0783652
-0.483546
-0.786404
-0.807199
0.69349
-0.15926
0.0254145
0.149101
-0.787835
0.0669608
-0.290055
0.658689
0.926933
-0.244684
0.523843
0.0214214
-0.0310806
-0.821484
-0.526713
0.083203
-0.349402
-0.117142
0.301984
-0.629184
-0.784447
-1.02794
0.926213
0.328796
0.126574
-0.200081
-0.651536
0.206868
0.134835
-0.895133
-0.180151
0.152743
-0.227494
0.680784
0.400555
-0.676715
0.608594
-0.427839
0.294554
0.514422
0.262683
-0.227713
-0.432043
0.107451
0.398965
-0.742001
0.623444
0.730144
-0.10612
-0.00667564
0.124588
-0.848223
0.676513
0.0876459
-0.806256
-0.532476
0.637145
-0.193706
-0.960728
-0.168458
0.174618
-0.612751
0.81601
0.645824
0.0912753
0.853717
0.831746
-0.25603
0.608169
0.234276
0.805546
0.909094
0.770603
-0.440742
-0.335901
0.71668
0.168318
0.738498
0.600566
-0.602363
0.518446
0.800163
0.448345
-0.851438
0.46273
-0.787129
-0.357351
-0.794494
0.197607
0.857591
-0.545327
-0.273093
-0.370174
-0.225556
-0.463357
0.0464902
-0.0732957
-0.714354
0.214812
0.621426
0.609717
-0.793658
-0.673813
-0.649465
-0.175778
0.939175
0.629787
0.466213
0.18125
0.558161
0.337092
0.942937
-0.141725
0.178906
-0.909708
0.789707
-0.622779
0.7915
-0.974324
-0.42737
0.660569
0.390499
-0.13274
-0.619364
-0.0306388
0.414087
-0.627206
-0.630961
0.431594
-0.714014
-1.2788
0.00172784
-0.340098
-0.432017
-0.688854
0.776258
-0.677693
-0.477698
-0.471874
-0.241746
0.206211
0.706073
-0.296212
-0.887343
0.745762
-0.238511
0.309912
-0.768162
-0.861656
-0.641117
-0.771376
-0.692732
0.277066
0.933377
0.122862
-0.93636
0.589161
0.45667
-0.203497
-0.876512
0.293913
-0.258173
-0.416207
-0.062113
0.690272
0.351208
0.150221
0.730223
-0.99611
0.390049
-0.680072
-0.909135
-0.695742
0.674803
0.370156
0.186348
0.70081
0.397566
0.144559
-0.661886
-0.783829
-0.790166
0.0454653
0.23058
0.275746
-0.0906344
0.577247
-0.627315
0.0545855
-0.5533
0.00365299
0.31654
0.222282
0.682512
-0.586371
0.873936
-0.0949832
-0.919865
0.770198
0.795682
-0.784506
-0.386197
0.0335651
0.783013
0.57174
-0.381682
-0.931466
0.0122902
-0.839604
0.936588
-0.661157
-0.279586
-0.615116
0.391625
-0.062963
0.657052
-0.28018
-0.402932
-0.731112
-0.774408
-0.381327
-0.0879073
-0.20174
0.263239
-0.235564
-0.683632
0.867386
0.755741
-0.994116
0.676063
0.677784
0.819823
-0.949418
0.239129
-0.718919
0.335667
0.812617
-0.555969
0.656402
-0.0436499
-0.81978
-0.297325
-0.224589
-0.0758122
0.976038
-0.988514
0.39998
-0.56617
0.57623
-0.633469
0.118756
0.186449
0.255486
-0.675321
-0.742555
0.398495
0.967752
-0.0466617
-0.451714
-0.680722
-0.4515
0.0664428
-0.342073
0.346119
0.70411
-0.783935
0.510667
-0.734306
-0.980374
-1.0263
-0.775127
-0.900239
-0.387276
0.514026
0.208007
0.684082
-0.277291
-0.800606
0.420635
-0.782017
0.845372
-0.142378
0.677603
-0.159315
-0.76
0.899755
-0.0902818
-0.247481
-0.51007
-0.422898
-0.292185
0.427177
-0.124382
-0.664339
0.535254
-0.0944363
-0.210899
0.543953
-0.184041
0.836626
-0.323075
-0.522697
-0.0594962
0.972886
-0.820984
-0.0292515
-0.073809
-0.69529
-0.104916
-0.633933
0.513961
0.341575
0.0743563
0.227009
-0.483746
-0.1095
0.50496
0.478563
0.168571
-0.754817
-0.0705528
-0.10661
-0.482481
-0.816929
-0.11134
-0.0184352
-0.145194
0.370133
0.688525
-0.313108
-0.422669
-0.105965
-0.334719
-0.0964108
0.126942
0.367092
0.557858
0.757475
-0.133713
-0.556002
0.257504
-0.438129
-0.111193
0.435824
0.12968
-0.841523
0.439694
0.392606
0.18049
-0.897426
-0.589087
-0.97836
-0.768541
-0.745282
0.578193
0.497329
-0.844622
0.715676
0.426757
-0.898074
-0.0774131
0.658575
0.26396
-0.0751341
0.814394
0.0411211
0.718947
-0.487382
-0.791079
-0.861568
0.471968
-0.0612636
-0.261076
0.652767
-0.845798
-0.244943
0.339295
-0.814084
-0.657658
-0.352205
-0.460658
-0.542109
-0.25969
-0.0457574
-0.02942
-0.439738
0.399747
-0.442357
-0.570986
1.02812
-0.0775006
0.838187
-0.140866
-0.305751
0.874765
0.455896
0.838341
0.782897
0.985313
-0.131768
-0.880656
-0.0596902
-0.952132
0.596019
0.592039
-0.209721
0.534102
-0.19996
0.160206
-0.138949
-0.162858
-1.29454
0.525791
-0.235386
0.67052
-0.491179
0.886492
0.136349
0.19993
0.505807
0.903971
-0.4294
0.21489
0.999318
-0.861979
0.372408
-0.250341
-0.538965
0.182411
0.184527
-0.301048
-0.0471423
0.805107
0.738415
0.247731
-1.09775
-0.303751
0.649157
0.221145
-1.07257
-0.273796
0.264807
-0.366108
0.763754
0.138839
0.97612
-0.970737
-0.815971
-0.0653442
0.105838
0.928601
-0.164998
-0.79439
0.415889
0.987847
0.337998
0.00914544
-0.981526
-0.319702
0.209909
-0.325525
0.736643
-0.775844
-0.791587
-0.73375
-0.522318
-0.736018
-0.400533
-0.118853
-0.459012
0.366259
0.0560477
0.295503
0.0726318
-0.610514
-0.0798152
0.0886405
-0.892838
-0.229241
-0.363596
0.0720663
-0.547777
-0.166583
0.747651
-0.738092
-0.298126
0.084288
0.117208
-0.59978
0.54944
0.516971
0.940763
-0.833468
-0.57131
0.187286
-0.727182
-0.871603
0.237204
-0.153312
-0.543812
-0.0775985
-0.276198
0.981794
-0.161696
0.727328
-0.651639
-0.249532
-0.56724
-0.0402186
0.0925184
-0.141855
-0.44122
-0.422903
0.0221778
0.469554
-0.482839
-0.579313
-0.37881
-0.0304625
0.208241
1.01696
0.70364
0.317393
0.227429
0.796887
-0.682731
-0.159545
-0.362536
-0.567919
-0.8793
0.116113
-0.691238
-0.0672598
-0.140492
0.48884
-0.547499
-0.702897
0.0939153
-0.579579
-0.719708
-0.97232
-0.828847
0.408615
0.465961
0.108775
-0.693333
-0.478718
0.50079
-0.584403
0.0746026
0.623924
-0.604442
-0.103008
0.827712
0.659958
0.597824
0.28263
0.8629
-0.754377
0.618725
-0.436671
-0.147862
0.0268422
0.165276
-0.423138
0.408397
0.196687
0.824951
-0.897912
0.730334
-0.481209
0.393322
0.336848
-0.387582
-0.935608
-0.62253
0.92114
-0.382338
0.902661
-0.721523
-0.494934
0.255853
0.876241
0.0861044
0.96486
-0.96474
-0.171831
-0.737395
-0.110859
0.384022
-0.368093
-0.289107
-0.20465
0.287186
-0.750702
-0.323861
0.580106
-0.564342
0.640789
0.433464
-0.728114
-0.711693
0.611426
-0.486846
0.647644
0.386665
0.682979
-0.0515004
0.447731
0.227539
0.176975
-0.766096
0.44252
-0.577219
-0.365928
-0.163452
-0.331578
0.0467482
-0.368695
0.303277
-0.203407
-0.809463
0.249725
-0.260706
0.824906
-0.303685
0.348275
-0.850795
-0.491551
0.659706
-0.301528
0.537736
0.937136
-0.929332
-0.762449
-0.30451
0.0388415
0.532172
0.617015
0.0830404
-0.0628775
-0.898034
0.138038
0.177716
-0.231274
-0.949287
0.367931
-0.443667
0.468087
-0.380721
0.0526348
0.996327
-0.879783
0.937737
-0.635426
0.789537
-0.814105
-0.0994209
-1.00259
0.919475
0.533931
0.0645495
0.953199
-0.761279
-0.939172
0.931583
-0.788088
0.928917
0.483116
0.695642
-0.395239
-0.361592
-0.503801
-0.313757
0.640026
-0.393359
-0.120031
0.504939
-0.89462
0.982387
0.22048
0.510019
-0.919122
0.942835
0.987914
-0.932005
0.791774
-0.480482
-0.857402
0.663344
0.823138
-0.620004
0.996038
-0.873403
0.619621
-0.184343
0.710706
0.152708
0.957865
-0.941162
-0.00319415
-0.603442
-0.439365
0.770584
-0.46391
0.905934
-0.709838
-0.303248
-0.895609
-0.280356
-0.533814
-0.682568
0.631643
-0.257387
-0.350229
0.38474
0.810012
0.656924
-0.661435
-0.026558
0.637553
-0.0764751
-0.298664
0.129714
0.471874
-0.657216
0.786511
0.128952
-0.543501
0.82564
-0.757453
-0.190508
0.858581
0.126031
-0.556037
-0.714913
0.216596
0.579251
0.0272288
-0.176622
0.334513
0.835414
0.601563
0.623024
0.252887
-0.90881
0.560398
0.199233
-0.158561
-0.984507
0.277192
0.363383
0.607429
-0.409166
0.046956
-0.311816
0.171504
0.545963
-0.629897
0.778201
-0.0826173
-0.00612295
0.275287
-0.6764
0.994269
-0.422643
-0.231474
-0.519449
-0.548451
0.875732
0.870609
0.475088
-0.0550354
-0.162996
-0.257588
-0.191094
0.568327
-0.810297
0.172071
0.495463
-0.783868
0.204887
0.966715
-0.40977
0.5698
-0.726501
0.89785
0.482517
0.481457
-0.413322
-0.318413
-0.467063
0.62556
-0.610237
-0.678535
0.881186
0.0449095
-0.970659
0.768014
-0.826961
-0.167176
0.880784
-0.264443
0.879916
-0.381632
0.792217
-0.277304
-0.690303
-0.753087
-0.569831
0.319862
-0.251379
-0.182088
-0.845805
-0.106119
0.068839
0.466662
0.326934
0.304466
-0.931522
-0.782485
0.556099
0.83567
0.704357
0.595533
-0.989199
-0.253968
-0.0585827
-0.336265
0.668948
0.320869
0.488239
-0.76356
-0.77954
-0.171546
-0.440874
-0.878397
0.592744
0.73577
-0.518444
-0.840436
-0.83159
-0.103819
-0.859352
0.779845
0.714984
0.807725
-1.0151
0.43007
0.970568
-0.724247
-0.880641
-0.399078
-1.00553
-0.827475
-0.573922
0.59092
-0.205835
-0.561215
-0.893202
0.841337
0.0142931
0.120876
-0.261634
-1.00543
-0.913065
-0.556282
-0.300313
0.889595
0.74787
-0.464205
-0.298605
0.749323
0.741394
-0.237521
-0.948584
-0.33093
0.866116
-0.481832
-0.893885
0.330515
-0.247325
0.771558
-0.413995
-0.606861
-0.419491
0.500611
0.607729
0.0819433
0.700651
-0.0183082
-0.956938
-0.333698
0.862842
-0.139748
-0.00750336
-0.795801
-0.15498
0.0413961
0.58063
-0.0254742
-0.938767
0.112837
-0.686396
-0.938856
-0.853014
0.299285
-0.390861
0.732755
-0.758647
-0.395044
0.288094
0.70066
-0.312799
-1.17604
-0.830304
-0.84773
0.0788063
0.380101
-0.929764
-0.891751
0.595571
-0.782076
-0.302136
-0.0410744
-0.425571
0.93722
-0.149191
-0.109725
0.842278
-0.544594
-0.0941681
0.0535989
-0.869806
0.801899
0.639652
0.331741
0.714244
0.427886
0.691847
0.645621
-1.14371
-0.484281
0.601528
0.0443408
-0.297634
0.378618
-0.0737563
-0.70261
-1.1056
0.488256
-0.416472
0.300669
0.389498
-0.184665
0.130699
0.628173
-0.571159
-0.0394792
-0.795029
-0.840398
0.320425
0.561073
-0.476736
-0.0546961
0.397683
-0.650517
1.13268
0.219707
-0.562006
0.362924
-0.0504708
-0.686999
0.805139
0.141532
-1.07738
-0.415951
0.168028
-0.506718
-0.371456
-0.849688
-0.537172
0.687639
-0.00414991
-0.0111486
-0.100566
0.188084
0.376169
0.315037
0.0655326
0.119692
0.357609
-0.65755
0.880149
0.100529
1.35827
0.653307
-0.15476
-0.184534
-0.0039624
0.6139
0.566701
0.748482
-0.978266
-0.650157
0.218527
0.0863806
-0.107295
0.366486
0.144626
-0.134006
0.296778
-0.531909
-0.761402
0.581189
0.212058
-0.914799
-1.00056
-0.480137
-0.514741
0.603573
0.560659
-0.527322
-0.640705
-0.83736
0.789646
-0.890643
-1.1987
-0.173029
-0.458009
0.621139
-0.00496471
0.204201
0.38887
0.899724
-0.103842
-0.82651
-0.74164
0.288549
-0.391672
-0.0639099
-0.478463
-0.3252
0.833506
0.270763
0.74411
0.825683
-0.282013
0.246861
0.464348
0.90291
-1.01423
0.115467
0.281576
-0.0597126
0.0585456
0.00564815
0.238979
-0.0818421
-0.090375
0.0767373
-0.306798
-0.764346
-0.247153
-0.447126
0.521949
0.199658
0.897479
0.51461
0.740451
-0.010085
-0.275037
0.574309
-0.199497
0.596558
-0.566308
0.467202
0.177557
0.589815
-0.835862
-0.0378897
0.0636634
0.0153681
-1.21358
-0.204651
0.706808
0.661684
-0.299467
-0.290937
0.00623633
0.115859
0.601394
0.00940474
-0.228674
0.858711
-0.694453
-0.75297
-0.481666
0.695503
0.840309
-0.863492
-0.214048
-0.212054
-0.297048
0.0509136
0.798289
0.279201
0.636041
0.125566
-0.216723
-1.03865
-0.872634
-0.119114
-0.0218642
-0.760068
-0.642082
-0.0197024
-0.348468
0.35425
0.213528
-0.874215
-0.407341
-0.40631
0.283244
0.161716
-0.300827
0.0510553
-0.421336
0.548759
-0.913457
-0.799806
-0.305804
-0.680561
-0.0529665
-0.762681
-0.907373
-0.149617
0.22703
-0.767723
0.539256
-0.664967
-0.300437
0.684522
0.502049
0.647679
-0.966102
0.3227
-0.755738
0.935896
0.941145
-0.785941
0.118613
-0.594002
-0.822849
0.48825
0.814192
0.275198
-0.137617
-0.591556
-0.998108
0.448235
-0.143876
-0.263952
0.615381
0.754462
-0.152204
-0.508198
-0.1071
-0.0640969
0.960559
-0.310749
-0.383784
-0.733208
0.532806
-0.148786
-0.054118
0.991313
0.503775
-0.380564
-0.503391
0.905768
0.00989211
-0.83431
0.39271
0.344633
-0.40673
-0.259821
0.0219756
0.230975
-0.164189
-0.542247
-0.45484
-0.600967
0.8002
0.432745
0.412779
-0.321277
-0.0453573
0.0677811
-0.249174
0.67361
-0.623411
-0.286136
0.396518
0.227988
-0.92261
0.476003
-0.781078
0.103791
0.674331
0.938664
-0.348104
0.724888
-0.199107
0.466651
-0.913434
-0.0715907
-0.713285
-0.297075
-0.269849
-0.903226
0.669394
0.54236
-0.259292
0.129495
0.490788
0.521729
0.544912
0.961962
-0.87193
0.811549
-0.245195
0.191375
-0.110145
0.865517
-0.244467
-0.315163
-0.743294
0.0381876
0.553507
-0.564096
-0.797544
0.470257
0.284461
-0.0797315
-0.0111572
0.812665
0.656988
-0.99359
-0.368147
0.226272
-0.421719
0.574955
0.214399
-0.50282
0.352422
0.283254
-0.805146
0.599686
0.402394
-0.393412
0.143386
0.516051
0.616524
-0.179409
-0.034983
-0.821188
-0.93489
0.166801
0.924945
0.269008
0.457999
-0.854665
0.502888
-0.443102
0.404002
-1.01092
-0.972061
1.02907
-0.465071
0.1414
0.745841
0.461776
0.0738091
0.638116
-0.23443
0.269626
0.161368
0.838384
0.541645
-0.330306
0.489794
-0.0854734
-0.413008
0.963871
-0.0861433
0.841626
-0.0234227
0.710669
-0.0705865
-0.283193
0.187087
0.26689
0.568439
-0.597777
-0.685703
-0.626631
0.35587
0.679317
-0.452908
0.847961
-0.47217
0.0299697
-0.0696522
0.418744
-0.260947
-0.480226
0.227599
-0.269889
0.245639
-0.286269
-0.00615346
-0.359033
-0.0937506
-0.878786
0.0870041
-0.0922241
-0.330008
-0.94898
-0.0590577
-0.937507
-0.609006
0.0958587
-0.518231
0.341603
-0.576948
0.110238
-0.751497
-0.622625
0.157067
-0.548687
0.302363
-0.505977
0.42481
-0.691779
-0.85909
0.182543
0.947
-0.784737
-0.143903
-0.394
-0.487545
0.31983
-0.721349
-0.0290263
-0.384498
0.102362
0.0518584
0.209504
-0.888692
0.529433
-0.567266
0.615074
-0.788345
-0.154496
0.452436
-0.664529
0.827016
0.0714341
-0.302745
0.604918
-0.758415
0.778808
-0.37149
-0.155764
-0.855972
0.515172
-0.528387
0.14956
0.569767
-0.647447
-0.514921
0.163205
-0.804382
0.510312
0.569592
0.753922
0.27585
-0.0950443
-0.630125
0.563308
-0.0809135
0.084716
0.957928
-0.373233
-0.360971
-0.85181
0.0634192
-0.208413
-0.125911
0.633286
-0.0800077
-0.0766897
0.401047
0.738069
-0.795865
-0.342498
0.025552
-0.626394
-0.0145563
-0.981656
0.424352
-0.370547
-0.393582
0.643191
-0.94385
0.641563
-0.859986
0.466514
-0.214747
-0.116674
-0.367396
-0.507431
0.842211
-0.849038
-0.918625
0.818164
-0.284958
0.347243
-0.598141
0.203456
0.140652
-0.362298
0.449653
0.0594605
0.457634
0.405882
0.474636
0.297723
-0.180159
-0.712375
0.809076
-0.475778
0.76044
-0.650525
0.378441
-0.449177
0.233038
0.396935
-0.245865
0.334428
0.428013
-0.892571
-0.514506
-0.792357
-0.265168
-0.320945
0.433597
-0.507036
0.251158
-0.710475
0.0881468
0.330547
-0.221149
0.987537
0.691264
0.727767
-0.911453
0.311521
0.422989
-0.00395293
0.805424
-0.414619
1.08911
1.02199
0.261627
-0.327617
-0.0996631
-0.37192
-0.904142
-0.81832
0.93885
0.641536
-0.037503
0.336915
0.311396
-0.0200868
0.738989
-0.508339
-0.433805
-0.536047
0.493801
-0.0472605
0.946075
-0.503408
-0.92174
0.706513
0.403106
0.269117
0.111648
0.495152
0.883939
-0.0192662
0.429248
-0.366055
0.193209
-0.636609
0.108253
0.29435
-0.878264
-0.489487
-0.707753
0.213237
0.0569961
-0.64183
0.911334
0.018361
-0.95229
0.270854
0.427891
-0.0154506
0.408543
-0.0941986
-0.401998
-0.298554
0.174156
0.897267
-0.0395536
0.782068
0.447304
0.0830151
0.601329
0.0406119
0.803512
-0.088433
0.389374
0.906282
0.172044
0.269134
-0.438659
0.227294
0.962704
-0.342144
0.951196
0.823006
0.846933
-0.0332677
0.368837
-0.812479
0.00588377
0.944816
0.790529
-0.738674
0.519152
-0.21953
0.726302
-0.373634
0.716739
-0.0154074
0.0034008
-0.16419
0.362898
0.913054
0.640768
0.758927
-0.747591
0.883448
-0.066857
-0.873924
-0.306584
0.596197
-0.143156
0.732757
0.0498655
0.0270604
-0.17822
-0.551647
0.433341
-0.810803
0.198722
-0.454404
0.0909459
0.368362
0.846047
0.455124
-0.0197025
-0.747862
0.320756
0.682903
0.536199
0.0200984
0.143014
-0.873156
-0.615533
0.341555
-0.707266
0.508051
0.870649
-0.212063
0.971058
0.894025
-0.191992
0.331364
0.00123572
0.21831
-0.324671
-0.521727
0.776867
-0.205226
-0.894202
-0.584623
0.965048
-0.860634
-0.339895
0.00568852
0.671748
0.22404
-0.289472
0.178326
-0.614879
-0.231459
-0.0256488
-0.469173
-0.169528
0.64238
-0.707194
-0.859429
0.243055
-0.769553
-0.962475
0.925962
0.284378
-0.612284
-0.045015
0.271763
0.041077
-0.316371
-0.40577
-0.652384
-0.528651
0.105067
0.450459
0.512892
-0.113836
-0.312364
-1.01406
-0.746383
0.787604
-0.348652
-0.452188
0.154895
-0.941546
0.254103
-0.317509
-0.928663
0.510852
-0.993581
0.239944
0.957022
-0.0449058
0.508159
0.348077
-0.340633
-0.629285
-0.133126
-0.0624198
0.226208
-0.00974667
0.920099
0.509824
0.859701
-0.343166
0.757354
-0.297859
0.209924
-0.888516
-1.08777
-0.662278
-0.588194
-0.32271
-0.321014
0.838458
0.839366
-0.114655
0.215465
-0.74508
-0.703578
-0.656013
-0.137764
0.748132
-0.489926
-0.504793
-0.305338
0.124537
0.106466
0.917539
0.289945
-0.488638
-0.223889
-0.634142
-0.529408
0.00553607
-0.894336
-0.558252
-0.805174
-1.06331
0.663147
-0.15512
0.768532
0.968233
-0.660511
-0.481337
0.749801
-0.633681
0.669536
-0.309518
0.363237
-0.00903351
0.307202
-0.343444
-0.185943
-0.565489
0.519617
0.307058
-0.630321
0.28571
1.0876
0.468434
0.293191
0.494056
-0.878737
-0.641153
-1.10834
-0.185339
0.746049
-0.421229
0.736006
0.321958
0.750501
-0.00624275
-0.849728
0.0504541
-0.0399879
-0.250847
-0.214393
0.46297
0.0251697
-0.798649
-0.519626
0.200933
0.622782
0.941956
-0.400833
-0.336319
0.299362
0.193594
-0.0416279
0.212884
-0.837419
-0.020336
0.173267
0.0404576
0.904073
-0.514765
-0.0264425
-0.627244
0.700404
0.709153
0.498941
0.439671
0.422708
-0.995059
-0.487367
-0.767812
0.0597288
-0.160787
-0.0239469
-0.0109772
0.0647755
-0.292769
-0.832941
0.333815
0.798963
-0.632212
-1.01361
-0.388516
-0.764708
0.694816
-1.04646
0.0383322
0.42351
-0.782872
-0.0824249
0.0218417
0.359037
-0.879665
-0.603295
0.553539
0.508007
-0.647304
-0.233676
-0.359967
0.631727
0.516335
-0.812136
-0.00196516
0.882482
-0.738075
-0.83202
-0.782256
0.210497
-0.33507
0.388279
-0.534437
0.577712
0.440265
-0.238071
-0.994356
-0.500895
-0.645436
0.565716
-0.799121
0.710822
-0.301229
0.504054
-0.72937
0.641647
-0.845572
0.784664
-0.331187
0.514058
0.155091
-0.264964
-1.01562
-1.11453
0.00424886
-0.371405
0.142451
1.18942
-0.276017
-0.831927
-0.942247
0.0159948
-0.0250537
-0.643904
-0.209468
-0.360354
-0.673764
0.976154
0.906827
0.448308
0.734424
-0.318783
0.644023
0.970721
0.124783
-0.452902
0.309386
0.887795
-0.708277
0.118185
0.45737
0.460125
-0.606409
-0.956206
0.652883
0.944256
-0.261021
-0.760523
-0.0826644
0.000424447
0.474343
-0.03713
0.8038
-0.72513
0.852893
0.280251
-0.8514
0.781261
0.712168
-0.864907
0.661055
-0.824115
-0.745209
0.975118
0.461553
-0.241695
-0.246367
0.643523
0.45456
-0.266783
-0.118304
-0.517686
0.84996
0.438528
0.0481028
-0.339979
0.0268733
-0.673218
0.306048
-0.690645
0.476962
-0.779247
-0.481662
-0.253345
-0.282296
-0.729512
-0.366315
0.0291135
-0.446325
-0.908486
0.738809
-0.166719
-0.672246
0.777515
0.617135
0.890029
0.283348
-0.870997
-0.137652
-0.923374
-0.394888
0.400371
0.237298
0.374174
0.473963
-0.964951
0.319199
-0.090117
0.0314236
0.271079
0.809621
0.374541
-0.636436
0.139004
0.095654
0.757025
-0.886787
0.57292
-0.648964
-0.466941
0.703888
0.394321
-0.927897
-0.173787
-0.485403
-0.994522
0.838704
0.166829
-0.778612
0.425138
-0.521127
0.289079
0.474543
-0.832661
-0.429608
-0.461159
-0.222772
-0.0822074
0.81493
-0.136104
-0.722552
-0.324087
0.0286384
0.042676
0.29369
0.621996
0.855088
0.0133319
-0.928584
0.158203
0.0765392
-0.818012
-0.319307
-1.12189
-0.632159
-0.996192
0.226575
0.111682
0.612411
0.749348
0.728713
-0.418078
0.965033
0.251897
0.64489
0.223445
0.886981
-0.347246
0.125294
0.813882
0.478271
-0.808086
-0.371447
-0.25601
-0.672932
0.641812
-0.274987
0.463675
-0.902051
-0.980978
0.139024
-0.90989
0.129996
0.650513
0.707991
0.618761
-0.0249787
-0.891724
-0.509912
-0.349245
-0.706423
0.445577
-0.671307
0.38786
0.909249
0.412866
-0.625575
0.273355
-0.338944
-0.537249
0.487381
0.481161
-0.67654
0.566312
0.439982
0.934694
-0.117917
0.201659
-0.920624
0.783269
0.439646
-0.311218
0.155547
0.235768
0.437161
-0.505245
-0.63679
-0.0487287
0.495172
-0.514323
-0.220235
0.123998
-0.713169
0.61699
-0.70955
-0.544274
-0.246193
-0.219585
0.478952
-0.101632
0.948476
0.085231
0.906321
0.163041
0.353149
0.290825
-0.484159
-0.265888
0.952181
-0.75208
0.600513
-0.293312
-0.668901
0.0235034
0.395812
0.126146
0.102162
0.758756
-0.728922
0.245167
-0.365526
0.428029
0.220978
-0.373838
-0.588861
-0.0671583
-0.952168
-0.414988
-0.0349247
-0.837669
0.0712536
0.41414
0.650251
0.899884
-0.591846
-0.751771
0.0344979
-0.191166
-0.648824
-0.114025
-0.233904
0.645644
0.0593983
0.879897
-0.443879
0.764243
0.555562
-0.227548
0.751071
0.318696
-0.69188
-0.395518
0.388114
0.615845
-0.207009
0.220353
-0.782935
-0.389763
-0.22868
-0.96912
0.556972
-0.0269893
-0.182473
0.357284
0.930697
-0.0118434
0.842099
-0.718889
0.304799
-0.136533
-0.434405
0.409057
-0.328329
-0.0855876
-0.276533
-0.541408
0.201495
-0.593528
-0.212341
-0.990658
-0.770899
0.830988
0.61441
-0.0946405
0.369136
0.130836
0.0752276
-0.346129
0.598028
0.530376
0.887863
-0.0356576
0.690877
-0.00824244
0.409408
-0.19179
-0.594823
-0.842932
0.705606
-0.775395
0.949852
-0.182239
-0.058555
-0.715924
0.232704
-0.236529
-0.588446
0.510955
-0.880062
-0.525346
0.322917
0.849991
0.147226
0.763152
-0.481372
0.091303
0.0159273
0.818932
0.514369
0.64784
-0.849816
0.194407
-0.734127
-0.256207
0.630927
0.740999
0.260741
-0.768435
0.938121
0.105777
0.498559
0.0755798
-0.339097
0.387584
-0.1949
-0.720533
0.245537
-0.333421
0.587678
-0.0854828
-0.554509
-0.320389
0.0630975
0.21953
-0.751756
-0.100659
-0.632527
0.360518
-0.280451
-0.0156752
0.159905
0.804861
-0.584465
-0.935134
-0.5798
0.245811
0.531799
0.263752
-0.332406
0.958351
-0.368902
-0.316487
0.930983
0.906008
0.373136
0.898423
-0.909674
-0.478404
0.630465
-0.907771
-0.167832
-0.138037
0.966839
-0.636467
-0.414924
0.196899
-0.227458
-0.187233
-0.597878
0.379947
-0.82612
0.927478
0.961711
-0.185755
0.881059
-0.780929
0.0575213
-0.382202
0.0675291
-0.615183
-0.906623
-0.981104
-0.910323
0.484876
0.29759
-0.108144
-0.680448
-0.0231072
0.737584
-0.761204
0.115267
0.977241
-0.918602
-0.612549
-0.955657
-0.536884
-0.592059
-0.970334
0.298875
0.301436
0.65934
-0.609944
0.429948
-0.0822746
-0.0555617
-0.144993
-0.0808747
-0.0730551
-0.785326
0.382721
0.840451
0.821034
-0.275937
-0.102012
0.601297
-0.324488
0.119361
-0.233589
-0.293042
-0.469626
-0.520646
-0.270183
-0.448514
-0.281103
-0.475919
0.292938
0.779794
-0.154131
0.276136
-0.958264
-0.401907
-0.251071
-0.882591
0.56398
0.282123
0.527967
0.543501
0.886402
0.0565501
0.271535
0.814433
-0.0664802
0.554322
-0.527639
0.2992
0.280264
-0.806145
-0.593051
0.710743
-0.996391
0.524092
0.351743
0.330384
0.667824
0.671136
-0.212918
-0.862733
-0.537353
0.00998828
0.0330131
-0.488272
0.497208
0.598164
-0.701207
0.0111782
-0.376936
0.980807
0.877106
0.907097
-0.169167
0.197973
0.0335596
0.112633
-0.368039
-0.734589
0.772593
-0.79171
-0.336586
-0.0754511
-0.411532
0.754526
0.846855
-0.57082
-0.0971131
0.815131
-0.867187
-1.04181
0.86598
0.52229
-0.475479
0.0417458
0.440531
-0.788167
0.44275
0.43864
-0.95209
0.50048
-0.196397
0.0320851
-0.788822
-0.677222
0.116292
-0.377222
-0.450401
0.406273
0.683518
0.965677
-0.362834
-0.0640978
-0.584195
1.10566
-0.604842
-0.295352
0.692095
0.207018
0.407418
0.212049
-0.89218
-0.33446
-0.93953
-0.70985
-0.569854
0.241963
0.480933
0.937644
0.233282
-0.00300489
-0.914444
-0.449492
0.62592
0.647817
-0.536868
-0.0309427
0.900015
-0.371219
0.885915
0.330168
0.63338
0.527273
0.2588
-0.564167
-0.588941
-0.772596
0.478642
-0.682508
-0.0980462
-0.602135
-0.570129
0.473642
-0.0442786
0.78685
0.670936
-0.542721
-0.17312
0.158157
-0.0365699
-0.211686
0.0192124
0.804144
-0.742535
-0.998286
0.706038
0.41306
-0.241238
-0.116251
0.0605456
-0.555588
-0.545021
0.171447
-0.153816
-0.420365
0.614414
0.471431
0.402647
-0.654616
-0.446492
-0.602193
0.857276
0.553813
-0.00416601
-0.609198
-0.312842
0.308849
-0.0433242
-0.350067
-0.407172
-0.0455259
0.787608
0.923773
-0.139798
-0.564964
-0.291702
0.63336
-0.928692
-0.782465
0.452949
-0.387578
0.450047
-1.01015
0.350227
-1.02
-0.139866
-0.956529
0.807704
0.273894
-0.865894
0.309636
-0.376562
0.340439
0.608694
0.288309
0.594875
-0.714532
-0.584196
-0.62889
0.899584
-0.9342
-0.563171
0.595737
-0.225205
0.0321757
-0.944687
0.578206
-0.133392
-0.463764
-0.000348659
-0.0606935
0.84148
0.598126
-0.510053
-0.743562
0.154292
0.650629
0.677651
-0.330867
0.553475
0.00954766
-0.173836
0.393101
0.757997
-0.906813
0.782671
0.195327
-0.0822708
-0.262497
-0.350494
-0.894336
-0.840791
-0.472439
0.238117
0.562453
-0.0389646
-0.869733
0.464715
0.044345
0.574938
-1.02049
0.0329525
-0.717612
-0.46146
0.304372
0.204441
0.473138
0.212636
0.718452
0.0669423
-0.0788731
0.968397
0.219865
0.979378
-0.127845
-0.890816
0.469359
-0.648844
-0.576478
-0.835387
0.95906
-0.472379
0.0827959
0.505923
0.0972837
-0.678837
-0.96677
-0.0330935
0.04712
-0.673895
0.957886
0.714858
0.871165
0.574764
-0.508137
-0.504471
-0.150716
0.935522
-0.653025
0.321045
-0.0270511
-0.436703
0.871544
-0.735942
-0.156577
0.00840728
-0.605435
0.853357
-0.806543
-0.561717
0.597269
-0.390821
0.668124
-0.703203
0.269424
0.636557
0.802761
0.0765842
0.960983
-0.0867578
-0.758204
0.514394
-0.33933
0.218165
0.142064
0.986173
-0.354204
-0.00317508
0.362281
-0.929195
-0.860837
0.158328
0.573758
-0.225187
0.199925
-0.688611
0.544997
-0.796354
-0.0919777
0.811674
0.611579
-0.222272
-1.0793
-0.778459
-0.0213652
-0.739661
-0.778712
-0.748681
-0.989868
0.57945
-0.837877
-0.389602
-0.311474
0.54113
0.833194
-0.369339
0.137938
-0.270077
0.266939
-1.02071
-0.247892
-0.975675
-0.333809
1.0929
0.111977
-0.46552
0.0497837
0.726673
-0.458753
0.242309
0.496579
0.301465
-1.00762
0.415034
-0.215585
-0.703703
0.160759
0.943093
0.817456
-0.524249
-0.222588
-0.936218
-0.329179
0.173229
0.208436
-0.903386
0.55103
-0.656163
0.875244
-0.800553
-0.30934
-0.679515
-0.568023
-0.0579984
-0.960808
-0.789755
-0.780382
-0.268799
-0.79198
-0.595295
-0.484117
0.909652
-0.528845
0.368959
0.580188
-0.55479
0.262329
-0.60154
-0.633632
-0.502994
0.0964423
-0.0638993
-0.423253
0.922081
-0.751211
0.599006
-0.589597
0.579
-0.407389
0.151966
0.865511
-0.143473
-0.354569
0.598312
-0.20465
-0.504835
0.281604
-0.0385761
0.372131
0.261994
0.144158
0.155073
-0.736953
-0.239731
-0.768855
-0.0895329
-0.229622
0.0407408
-0.544626
-0.252062
0.775581
0.745259
0.501756
0.385012
-0.508665
0.178054
0.576936
0.585996
0.161912
0.175236
0.0896279
-0.0826217
0.470424
0.326403
0.37441
0.928854
0.0283832
0.340818
0.976605
-0.351655
0.248598
0.0681197
-0.506305
0.531163
-0.747852
-0.987921
-0.154881
0.857872
0.697722
0.621677
-0.255298
0.689094
-0.00563805
-0.552882
0.804671
-0.117049
0.848101
0.698914
-0.988169
-0.782217
-0.947016
-1.01335
-0.86277
-0.40178
-0.871576
-0.911017
0.702894
-0.785094
-0.999036
0.504856
0.779389
-0.728132
0.850624
0.848378
0.116248
-0.00896421
0.89267
-0.829144
-0.33179
0.791661
0.0705776
-0.083248
0.464532
-0.661541
-0.518454
0.598859
-0.600415
-0.949541
0.697743
-1.01747
-1.01139
-0.089266
-0.585139
-0.932438
-0.200627
-0.0620147
0.669001
-0.310559
0.227467
-0.820598
-0.283602
-0.307952
-0.0131422
0.917228
0.691425
-0.856406
0.419364
0.147308
-0.25852
-0.561697
-0.689422
-0.331697
0.500958
-0.0721786
-0.562378
-0.327718
-0.0636493
-0.909505
-0.0764635
-0.593839
-0.194564
-0.0136929
-0.66807
-0.833136
0.236475
-0.240654
0.752001
0.922343
-0.261231
0.171191
0.173829
-0.6856
-0.257906
0.618182
-0.213883
0.946584
0.734549
0.00776658
0.291834
-0.381871
-0.591597
0.756618
0.370964
0.208198
0.639295
0.831292
-0.853843
-0.24049
0.507857
-0.178552
0.668431
0.115999
0.887137
0.118717
-0.676463
-0.609863
-0.975885
-0.40178
0.148528
-0.821694
0.0182805
0.476008
0.536281
0.44646
-0.239071
-0.0973984
-0.381548
-0.19934
0.449903
-0.0248875
0.214552
-0.856549
0.734555
-0.531709
0.881083
0.638595
0.792005
-0.731114
0.123311
-0.969144
-0.0153708
0.925036
0.879814
0.0604343
0.619879
0.746654
0.173642
-0.00261841
-0.491368
0.195731
0.501451
0.423224
-0.973554
-0.577083
0.845812
0.920487
-0.0388024
0.129265
-0.297835
0.607514
-0.360837
0.998507
-0.638538
0.537427
0.775272
-0.424999
0.455401
0.450101
0.124398
0.162503
-0.214049
-0.895658
0.434198
0.779998
0.398905
-0.352006
0.694421
-0.554552
-0.549909
0.871475
-0.459152
-0.381456
-0.373769
0.248447
0.668517
-0.632713
0.523912
0.923884
0.630804
0.787574
-0.296744
-0.538775
0.762115
-0.513776
-0.661175
0.920638
0.466619
0.332387
-0.0650995
-0.660684
-0.20042
-0.300954
-0.727375
-0.317712
-0.924703
-0.278116
-0.714957
0.677978
-0.12788
-0.905975
0.00214533
-0.00211928
0.944003
-0.225646
-0.701212
-0.145092
-0.294169
0.408877
-0.720661
0.818119
-0.381261
0.928304
0.532064
0.936582
0.285677
-0.110316
-0.635469
0.606015
-0.448287
0.635778
0.607009
-0.676275
0.742693
-0.155536
-0.186438
-0.0235975
0.35233
0.67437
0.780918
0.0537921
-0.89313
0.920876
-0.642367
-0.983677
0.479347
0.397556
-0.840622
-0.845473
0.607599
0.07314
0.691707
0.0585585
0.310768
0.509272
-0.844065
0.389022
0.791854
0.233259
-0.92072
-0.557373
0.652524
-0.270933
0.216065
0.751876
0.621894
-0.129362
-0.693753
0.746811
-0.596524
0.549889
0.467602
0.526739
-0.789431
-0.86253
0.532499
-0.279218
0.338408
-0.494972
-0.863855
0.85781
-0.0233167
0.672482
-0.621162
0.658343
-0.669169
-0.719351
-0.515011
-0.775636
0.213493
0.678153
-0.557749
-0.142055
0.109916
-0.656732
-0.391455
-0.845503
0.200587
-0.403123
0.91227
-0.467406
0.401794
-0.326107
-0.335366
-0.436139
0.993677
0.802438
0.660256
-0.229156
0.89445
-0.639124
0.77805
-0.717778
0.844639
-0.317531
0.988899
-0.918347
0.283508
-0.204206
-0.499823
0.288776
-0.44626
0.563188
-0.89976
-0.234516
-0.0325573
-0.707462
0.44535
-0.772708
-0.518527
0.356045
-0.966117
-0.0225901
-0.461389
-0.247124
0.523334
-0.37544
0.959909
-0.829803
0.323266
0.706104
-0.955586
0.230832
0.251133
-0.246273
0.720442
-0.102002
0.589347
0.660973
0.500882
-0.540838
-0.173821
0.167321
0.0167067
0.157153
-0.057585
-0.315368
0.314016
0.668435
0.189858
0.00623807
-0.045573
0.758667
0.23366
-0.285103
0.87307
0.708566
0.291397
0.166758
0.838981
0.867966
-0.0688131
-0.00576975
0.785882
-0.444925
0.334891
-0.490773
0.112663
-0.987105
0.589623
-0.83225
-0.236865
0.601042
-0.783977
-0.736327
0.483988
-0.375968
0.507925
-0.851382
-0.108862
0.520542
-0.187325
-0.404296
-0.311666
-0.139911
-0.918406
0.214514
0.821984
0.113633
0.943984
0.852872
0.746046
-0.551109
-0.557004
-0.343392
-0.371867
0.557921
0.328941
-0.539578
0.418768
-0.207814
-0.649912
-0.152622
-0.882673
0.935009
-0.466684
0.982323
1.05593
-0.00185328
0.156618
0.252704
0.552378
0.376106
-0.120388
-0.576061
0.961585
-0.0539356
0.446525
-0.435877
-0.593819
0.748504
1.07682
-0.895772
-0.546379
-0.440264
-0.216967
-0.10438
-0.418414
0.0583676
-0.595292
0.700013
-0.904478
-0.351637
0.0142433
0.881696
1.08407
0.858726
-0.547773
0.00799698
-0.403155
0.29516
-0.274245
0.273702
0.32195
0.51014
0.672038
0.820878
0.321829
0.976987
-0.825091
1.034
0.00283119
0.410107
0.925652
-0.0694738
-0.430895
-0.401935
0.674161
-0.0352568
-0.483681
0.0578563
0.76875
-0.468369
-0.671581
0.0271573
0.145482
-0.783445
-0.654913
0.754227
0.5467
-0.0604024
0.0661883
0.971471
-0.134656
0.682085
-0.176376
0.465295
-0.856717
0.1629
-0.170451
-0.881278
0.147601
-0.6057
-0.295143
-0.00117326
0.404345
-0.190803
0.90947
-0.533333
-0.00535079
0.212921
0.759627
0.595175
0.371416
0.533927
0.179902
0.0439827
0.269774
0.553886
-0.447248
0.975936
-0.360897
0.943112
0.556325
-0.318935
0.609732
-0.0749813
0.79122
0.730295
-0.63588
0.376075
-1.12345
-0.920158
-1.03489
0.56525
-0.0743359
-0.79971
0.792762
-0.463297
-0.70573
-0.959
0.899323
0.360316
-0.885892
0.458158
-0.933673
-0.555298
-0.160561
0.919919
0.83542
-0.550823
-0.0374389
0.122618
-0.402982
0.309152
0.338474
-0.202476
0.359016
-0.410091
0.582413
0.117386
0.440586
0.649098
-0.609034
-0.173486
0.916906
-0.608427
0.622364
0.0524924
0.4
0.023627
-0.559777
0.95292
0.369467
0.993068
0.227469
-0.150823
-0.852908
-0.481932
0.914684
-0.159462
0.200524
-0.727672
0.113313
0.923065
-0.230059
0.259028
0.991738
-0.221127
0.450175
-0.0651552
0.624909
-0.464459
-0.625958
-1.1363
-0.812723
-0.831734
-0.499584
-0.676987
-0.515457
0.483046
-0.882871
-0.600601
-0.199535
-0.633742
0.734919
0.426316
-0.156094
-0.522468
1.1281
0.117431
0.663024
0.631528
0.0619195
-0.0383204
0.0652979
-0.237308
0.248542
0.618021
-0.480868
-0.440761
-0.315899
0.176062
0.012494
0.10852
-0.545121
-0.272864
0.575232
-0.0512531
-0.353732
-0.740745
0.883104
-0.57075
-0.333404
0.744165
-0.562714
-0.748452
0.604202
0.32999
0.0119957
1.01012
-0.151052
-0.384225
-0.00581241
0.567424
-0.692309
-0.439091
-0.613938
1.02143
0.615289
-0.0500034
0.821842
0.683659
0.250045
-0.513212
0.620224
0.209505
-0.456202
0.808137
-0.734408
-0.634018
-0.147591
0.792812
-0.470738
-0.924062
0.679099
-0.906196
0.0212937
-0.523914
-0.853596
0.495207
-0.0531102
0.137238
0.772682
-0.743543
0.223674
0.932322
0.959381
0.416185
-1.0499
0.825606
-0.0862866
-0.40691
0.250509
-0.274971
0.682202
-0.738264
-0.327074
-0.439068
0.721836
-0.71389
-0.6193
0.875989
0.535584
-0.647519
0.474547
-0.163059
0.189524
-0.0431702
0.666963
-0.845023
-0.78738
0.728269
0.299533
-0.399399
0.373368
0.0194266
-0.227511
-0.217546
0.883218
-0.612568
0.658001
0.142834
0.532722
-0.826685
-0.942844
0.104562
-0.8606
-0.886414
0.941039
0.377317
-0.961239
-0.682999
0.333903
-0.0189937
-0.918405
-0.0274109
-0.880607
-0.308157
0.96444
0.284041
1.02289
0.951025
-0.8702
0.244671
-0.291425
0.812254
-0.198042
0.00792287
-0.724825
0.506901
0.168028
0.601899
0.570494
0.718258
0.891462
-0.252621
0.0104753
-0.883658
0.683101
-0.734428
-0.577438
-0.198332
-0.426641
0.192551
0.623218
-0.278206
-0.679947
0.550893
-0.659997
-0.00185896
0.706555
-0.0058023
-0.346744
1.03397
-0.0478191
-0.58932
-0.158585
-0.136883
0.27039
-0.456815
-0.775575
0.38451
-0.169894
-0.066761
-0.178656
0.276071
-0.70513
-0.669808
-0.246184
-0.768035
0.595784
0.623184
0.277797
-0.193481
0.461771
-0.732551
-0.60362
0.541862
-0.0761034
0.846294
0.982443
0.980542
-0.940785
0.106366
0.260869
-0.838928
0.962449
0.215507
0.318962
0.561263
-0.806569
-0.262299
0.0834372
-0.908136
0.181143
-0.957975
0.761972
0.303254
-1.01596
-1.02674
-1.03839
0.248623
0.65651
-0.696492
0.247359
0.694225
0.366186
0.521924
0.334843
-0.667215
0.216313
-0.986668
-0.947302
0.385635
-0.851896
-0.407663
0.201029
0.533843
-0.910028
0.130665
0.287688
-0.879811
-0.0358073
0.121804
-0.80373
0.88049
0.637072
-0.949792
-0.0314967
-0.563058
0.244176
-0.720497
0.566816
-0.142828
-0.611337
-0.172586
-0.641343
0.797189
-0.874964
0.896429
-0.0677772
0.878691
-0.677295
-0.0108612
0.0422186
-0.0490084
-0.328357
-0.310688
0.529678
0.232017
-0.978976
-0.272041
0.269457
0.870946
-0.137208
-0.620817
-0.449537
-0.660633
0.701124
0.557293
0.0119047
-0.191553
0.704913
-0.354765
-0.703464
-0.629333
0.640079
-0.616457
-0.17626
-0.629735
0.0814342
-0.853441
-0.527848
0.612981
0.711699
0.719598
-0.35813
0.841305
-0.0490622
-0.974149
-0.24694
0.781929
0.172116
-0.889058
0.880147
-0.401097
0.685415
0.0928728
-0.359145
0.681519
-0.482093
-0.233135
-0.524995
-0.070085
0.409664
-0.909295
0.698398
-0.0477333
-0.870627
-0.601716
0.864376
0.199044
-0.231576
0.543333
0.366503
-0.418176
0.654567
-0.263506
-0.733907
-0.598278
0.103432
-0.743878
0.082373
0.820645
-0.287367
0.460948
0.882797
0.607788
-0.487274
-0.849215
0.814936
-0.460592
0.165522
-0.514281
0.912483
-0.468422
-0.19213
0.843718
-0.791561
0.856531
-0.649396
-0.0145539
0.546974
0.952635
0.332465
0.176309
0.387205
-0.531936
-0.852199
-0.936802
0.84181
-0.51628
-0.197536
0.884437
-0.767145
-0.694768
0.238402
0.223848
0.235719
-0.0183396
0.750105
0.335613
-0.082056
0.802349
-0.163244
-0.996872
0.997861
-0.882437
0.819127
0.264784
0.827911
0.297311
-0.501279
-0.80002
-0.621958
0.11846
-0.261831
-0.377788
-0.909051
0.325587
-0.951375
0.168133
-0.131032
-0.787423
0.774876
-0.40431
0.69897
-0.692713
-0.293049
0.0285326
0.800503
-0.164997
0.895285
0.679886
-0.285492
0.0315495
0.597795
-0.32995
-0.286512
-0.529343
0.697872
-0.958802
0.502662
-0.356881
0.132782
-0.873428
-0.700735
-0.810924
0.419858
0.138292
-0.564504
0.523506
0.121986
-0.199771
-0.0312672
-0.39986
0.924613
0.562161
0.0122513
0.976701
-0.501193
0.393778
-0.351502
-0.642057
0.634127
-0.626081
-0.0948021
-0.0376951
-0.448168
0.368874
-0.160309
-0.138633
0.0537359
-0.141763
-0.723538
-0.455769
0.969999
0.795358
0.355586
-0.714279
0.234801
-0.339141
-0.362771
-0.18823
-0.964166
0.958494
0.104343
0.128246
0.0248599
-0.34104
0.16956
0.998018
-0.660953
0.454211
0.0777174
-0.629666
0.174427
0.800395
-0.0526686
-0.0598631
0.802915
-0.563073
0.184926
0.327927
0.841938
0.897666
0.874568
0.440096
-0.66926
0.324855
0.930873
0.27588
0.571281
-0.322681
-0.225527
0.00814366
-0.198044
0.307718
-0.884321
0.444824
-0.501981
-0.92362
-0.803634
0.372928
-0.754912
-0.968242
-0.0104365
0.845366
0.864539
-0.262039
-0.477482
-0.885644
0.0262267
0.416249
-0.438513
-0.530361
-0.903633
0.333051
0.935345
-0.496973
-0.535233
0.734297
0.703969
-0.642488
0.766362
-0.21376
-0.831238
0.975054
0.650393
-0.20453
-0.40069
-0.696405
0.217415
0.600406
0.316544
-0.498574
0.474533
-0.431075
0.421065
0.0611684
0.571915
0.874245
-0.0552551
-1.11203
-0.630598
-0.249681
-0.840257
-0.0477335
-0.451185
0.849004
-0.96544
-0.350996
-0.559093
-0.590548
0.501105
0.68868
0.873752
-0.603514
0.943788
0.0804721
-0.125667
-0.822764
0.673921
-0.283292
0.185055
0.00775533
0.743541
-0.143402
0.407455
0.72217
0.237472
0.251241
-0.740066
-0.252668
0.142668
-0.483328
-0.326451
0.529199
0.0929262
-0.117873
0.63435
-0.495943
0.647581
-0.541992
-0.025692
-0.196698
-0.273224
0.700589
-0.472957
-0.44368
0.669769
-0.171764
0.520967
-0.55428
-0.855867
-0.616741
-0.639885
0.578569
-0.13886
-0.201237
0.262189
0.742852
0.334546
-0.520443
-0.801901
-0.453853
-0.779999
0.495593
0.776074
-0.697059
0.300491
-0.355763
0.517089
-0.274951
0.753742
0.174608
0.167454
0.401922
0.331534
0.779507
0.841636
0.352875
-0.879406
-0.807218
0.647633
-0.583788
-0.106857
-0.272456
0.721964
0.86885
-0.144769
0.7838
-0.447414
0.392527
0.47779
0.18755
-0.228374
-0.61634
-0.897388
-0.349601
0.226801
0.881965
0.971026
0.857832
0.121629
-0.1588
-0.109137
0.152592
0.515035
-0.543327
-0.647026
-1.08232
-1.06683
-0.230316
0.689639
-0.345764
0.938833
-0.0401184
-0.825994
0.350344
0.739701
-0.595071
-0.913743
0.447975
0.25135
-0.236265
-0.549834
0.932222
-0.628744
-0.335883
-0.488772
-0.987029
-0.855831
1.01842
0.595055
-0.859495
0.325807
-0.0614537
-0.0972509
-0.254127
0.603922
-0.345169
0.721805
-0.945732
0.61008
0.737202
-0.909949
-0.050857
1.04978
0.34584
-0.513807
0.391267
-0.237736
0.481726
0.990565
-0.649687
-0.52068
0.325169
-0.554505
-0.143435
0.137064
0.733873
-0.88164
0.520329
-0.289939
0.0610435
-0.28476
-0.53072
-0.795706
-0.602959
-0.937074
-0.000782167
-0.120636
-0.0505039
0.474491
-0.690721
1.0721
0.0518328
0.232246
-0.193704
0.590294
-0.624327
0.148821
0.766263
0.296297
-0.363919
-0.239477
-0.384566
-0.00428292
-0.438168
-0.295123
-0.357613
-0.231559
-0.127331
0.242982
0.390658
-0.0896913
-0.857714
0.0882221
-0.80524
-0.480928
-0.595095
-0.997505
0.487184
-0.0215238
-0.861361
0.0485834
0.303287
0.41117
-0.631369
-0.212555
0.0637421
0.541419
0.511462
0.628523
-0.983184
0.724313
-0.0118224
0.327591
0.465677
-0.441125
-0.966953
-0.621581
-0.0422297
0.305711
-1.07749
0.63531
-0.253543
0.284771
0.0633086
-0.0992542
-0.0186764
1.03615
0.442804
0.841033
0.46766
-0.562773
0.849158
0.635052
-0.537416
-0.979621
-0.1966
0.381401
-0.293983
-0.233807
0.0560782
0.265499
-0.460901
0.339689
0.798947
0.797489
-0.200844
-0.795362
-0.150798
-0.628396
0.934296
-1.0343
0.127299
0.305397
0.759704
-0.995801
0.132924
0.171242
-0.626361
-0.889822
0.0890911
0.79196
0.831256
-0.842301
0.635855
-0.0238574
0.532171
-0.0354993
0.144376
1.02826
-0.678733
-0.469895
-0.0215177
0.185361
-1.10045
0.298194
0.0915688
0.490136
0.96726
0.359727
-1.05755
-0.25629
0.899688
0.249334
0.493216
-0.288817
0.858188
0.947592
0.196284
0.706459
-0.249604
-0.00954347
-0.534023
0.0100898
-0.441186
0.669731
-0.668452
-0.860382
0.82953
0.766294
-0.366472
-0.895658
0.269574
-1.19716
-0.560254
0.183125
0.497562
0.443814
-1.18288
-1.06487
0.179604
-0.109143
-0.917553
0.595669
0.361735
0.991195
-0.730006
-0.882275
-0.827598
0.322635
-0.291791
-0.331911
-0.22378
-0.952812
-0.499657
0.278434
-0.223067
0.0134779
0.702261
-0.148943
-0.623681
0.349536
-0.554733
0.411494
0.930402
-0.951797
0.444963
0.448849
-0.285903
0.856616
0.562694
0.00597796
0.870364
0.942857
-0.363574
-0.0100538
-0.652461
0.445437
-0.16773
-0.588325
0.458174
0.544403
0.559975
0.343708
0.289814
0.14827
0.457784
-1.01819
-0.353128
-0.531511
0.933226
0.827586
0.419361
0.805238
0.760767
-1.04549
-0.349618
-0.999696
-0.825409
-0.685036
-0.663483
0.147177
-0.106651
0.323141
0.64837
-0.713196
0.0109273
0.425716
-0.158281
0.078152
-0.0268433
-0.423284
0.488233
0.586476
-0.717383
0.248143
-0.743013
-0.698623
0.964756
0.770012
-0.314469
-0.243275
0.333894
0.577399
-0.0282177
-0.295688
0.515785
0.435588
-0.321667
0.925759
-0.985752
0.131413
0.528068
-0.470594
-0.698884
-0.185236
-0.871749
0.747262
-0.0206125
-0.131679
0.299237
0.82202
0.820088
-0.831497
-0.977521
0.333809
-0.389052
0.147306
-0.176517
0.094373
-0.905528
-0.886945
-1.01706
0.861223
0.563311
-0.561461
-0.707031
-0.0840268
-0.928812
-0.908968
-0.43485
-0.606665
-0.75141
0.365768
-0.480943
-0.0456797
-0.537518
0.570645
-0.409358
-1.0937
0.0272522
0.457316
0.80681
0.589252
0.125606
0.283692
0.74568
0.618093
-1.02468
0.031196
-0.976567
0.436109
0.52413
-0.188292
-0.955022
-0.161124
0.950743
0.631083
0.616327
0.9107
0.712888
-0.783904
-0.0971853
0.454894
1.00237
-0.00755372
0.188197
-0.169612
0.663362
-1.27512
0.591063
0.0764988
-0.978345
-1.07142
-0.0320182
-0.680824
-0.189428
0.267523
0.572542
0.392778
0.653776
0.846761
-0.273024
0.905751
0.168773
0.64388
0.237166
0.259066
0.812391
0.485573
-0.0865737
0.743744
-0.26375
-0.660906
0.466696
0.627576
0.421946
0.140641
-1.11502
-0.475787
-0.779472
-0.585115
-0.806998
-0.395501
-0.638172
-0.181077
0.482909
0.989362
-0.0655704
-0.735765
-0.412084
-0.56851
0.55244
0.104345
0.807898
-0.680341
-0.99994
0.411667
0.678652
-0.049633
0.33712
-0.403791
0.369118
-0.0356615
-0.609727
-0.315156
0.209029
0.0409462
0.258787
0.452731
0.236538
-0.13125
-0.207376
0.13555
0.743153
-0.871557
0.431489
0.785791
-0.788939
-0.18135
-0.436425
-0.33225
-0.601564
-0.233382
-0.574464
0.386601
0.372529
0.0175264
0.0788999
0.262097
0.445336
-1.08429
-1.16022
-0.0650444
-0.609021
0.516987
-0.0414941
0.801664
-0.856046
0.491945
-0.870735
0.814127
-0.772709
0.776528
0.653729
0.309484
-0.137252
-0.777991
-0.837394
0.984258
-0.542294
0.449152
-0.482476
-0.139406
0.289422
0.222683
0.815114
0.540999
-0.424519
-0.420181
-0.459477
0.0994339
0.215173
-0.59265
0.959864
1.00589
0.106648
-0.817142
-0.36559
-0.286973
-0.0334296
0.154606
-0.905261
-0.350724
0.74079
0.557731
-0.540502
0.339282
0.54317
-0.439123
0.0880398
-0.00359753
-0.583433
-0.235568
-0.895593
0.850781
0.34508
-0.474753
0.538316
-0.415536
-0.519506
0.328936
-0.171461
0.61893
-0.760415
-0.831923
0.243741
0.460958
0.489363
-0.675015
-0.106455
-0.0709721
0.068944
0.606158
-0.541264
-0.514649
-0.890714
-0.127289
0.010956
-0.795132
-0.352657
-0.0873327
-0.25569
0.699613
0.487507
-0.562851
-0.929413
-0.00301086
-0.0979254
-0.59923
-0.924161
0.592666
-0.720512
0.0316918
0.25905
0.323908
0.372018
0.739641
0.608132
0.190333
-0.987975
-0.499221
0.640365
0.981926
-0.114016
-0.746294
0.575567
-0.288707
-0.913931
-0.706189
0.103669
0.280841
-0.840345
0.945073
-0.0991289
0.865726
0.522967
-0.437722
0.00272887
-0.093277
0.999467
-0.0209798
-0.0343165
-0.488176
0.78689
-0.997848
0.507826
0.695236
0.919493
-0.924068
-0.0126899
0.101945
-0.057694
0.213164
-0.185948
0.379983
-0.776409
0.544548
-0.106406
-0.275633
0.939274
0.520042
0.921867
0.250145
0.64775
-0.0657015
0.491374
-0.129867
-0.751578
-0.187299
-0.273649
-0.662226
0.725799
-0.0297021
0.382814
-0.819562
-0.18737
0.0789622
0.372671
-0.908981
-0.276287
-0.98769
-0.0859574
-0.229786
-0.266398
-0.628952
-0.664694
0.753636
0.67707
-0.760061
-0.155952
0.337433
-0.636264
0.879944
-0.819286
0.232554
0.396344
-0.119484
0.214365
-0.607215
-0.896233
0.790356
0.934736
0.147067
0.857836
-0.762295
-0.404519
-0.539528
0.603361
0.270919
-0.562191
0.253814
0.839296
-0.567461
0.714511
-0.494442
-0.447544
0.181872
-0.499155
0.415037
-0.518841
-0.840349
-0.647737
-0.946154
-0.403439
-0.641791
0.77096
0.0655333
-0.434393
-0.470678
0.618258
-0.356133
-0.218253
-0.787912
-0.490283
0.0751787
0.996878
0.936712
-0.89857
0.635074
-0.935637
0.482538
0.674366
-0.65241
-0.855174
-0.282197
-0.0731675
-0.763159
0.345347
-0.782912
0.693382
-0.208582
0.591051
0.261018
-0.752886
-0.177923
-0.232921
-0.449731
0.58378
-0.494305
-0.514444
0.199183
-0.16062
-0.312159
-0.156306
-0.618884
0.935551
0.85444
0.633777
0.819245
-0.0604936
-0.394972
-0.799972
0.0353311
-0.13128
-0.472903
-0.0892683
0.39006
-0.194691
-0.218862
-0.290761
-0.989526
-0.203793
0.446606
0.594249
-0.266971
-0.738239
0.246971
0.274678
-0.958277
0.325843
-0.448022
-0.386227
0.0700994
-0.520325
0.509947
-0.54546
0.239761
-0.151084
-0.664177
0.10161
0.825253
-0.265567
0.445253
1.01192
0.891341
0.854222
-0.882386
-0.00135037
0.405662
-0.83304
-0.0321772
-0.97591
-0.86212
-0.522995
0.539294
0.206877
-0.615782
-0.860909
0.670795
-0.336305
0.195869
0.084025
0.581731
-0.861893
0.430407
0.106833
0.64816
-0.284471
0.367429
0.9349
0.0321267
0.478162
0.878992
0.226558
0.804702
-0.704333
0.19273
0.393944
0.369153
0.68194
0.24529
0.843553
0.686097
-0.451856
0.552223
-0.437334
0.209724
0.904658
0.366927
-0.220724
0.433706
0.176661
0.0544646
-0.169154
-0.652177
-0.31668
0.525954
-0.552236
-0.577225
0.593499
0.743663
-0.157927
-0.0833524
0.519236
0.940612
-0.786315
-0.674264
0.240556
-0.980334
-0.642929
-0.033197
-0.181154
0.743775
0.775736
0.569991
-0.367612
0.603162
-0.519779
0.335182
-0.198406
-0.216811
-0.224269
1.03618
-0.672632
0.817273
0.705332
0.49522
0.555182
0.0158508
-0.404779
-0.341157
-0.392642
-0.387447
-0.219494
-0.690626
0.985972
0.746665
-0.748941
0.973325
0.989832
0.900015
-0.603894
0.241682
-0.94037
-0.723194
0.444092
-0.198785
0.812651
0.832271
0.918357
-0.0184349
-0.154909
0.379602
0.996899
0.869576
0.164533
0.173236
-0.913617
-0.71316
0.0288229
-0.873054
-0.813862
0.0713692
-0.685811
-0.121489
-0.62034
-0.176084
0.485586
-0.880605
0.816443
0.763665
-0.177194
-0.352939
0.627468
0.476063
0.2718
-0.299498
0.24153
0.862401
-0.515822
-0.656935
1.00167
-0.619618
0.891837
-0.748624
0.0393494
0.745035
0.438759
0.791864
-0.905145
0.114242
0.630651
0.865251
-0.882915
0.100363
0.678791
0.211722
-0.583949
0.839023
0.0443767
0.0262373
-0.711606
-0.124753
0.968985
-0.433378
-0.318617
-0.505627
-0.423865
-0.581285
0.690033
0.717081
0.142911
0.753492
0.484166
-0.1453
0.170394
0.647106
-0.853029
0.960645
0.741521
0.205848
0.428424
0.445745
0.392871
0.72006
0.171001
0.212011
-0.438714
-0.382488
-0.779338
-0.56603
-0.254437
-0.482533
0.50592
-0.49005
0.75344
-0.539573
0.0584354
-0.600001
-0.600827
-0.600316
-0.6
-0.600001
-0.6
-0.6
-0.6
-0.6
-0.6
-0.6
-0.6
-0.6
-0.6
-0.6
-0.6
-0.6
-0.6
-0.6
-0.6
-0.6
-0.6
-0.6
-0.6
-0.6
-0.6
-0.6
-0.6
-0.600001
-0.600827
-0.600287
-0.6
-0.600001
-0.6
-0.6
-0.6
-0.6
-0.6
-0.6
-0.6
-0.6
-0.6
-0.6
-0.6
-0.6
-0.6
-0.6
-0.6
-0.6
-0.6
-0.6
-0.6
-0.6
-0.6
-0.6
-0.6
-0.600102
-0.600829
-0.600263
-0.6
-0.600001
-0.6
-0.6
-0.6
-0.6
-0.6
-0.6
-0.6
-0.6
-0.6
-0.6
-0.6
-0.6
-0.6
-0.6
-0.6
-0.6
-0.6
-0.6
-0.6
-0.6
-0.6
-0.6
-0.6
-0.600262
-0.600826
-0.600184
-0.6
-0.6
-0.6
-0.6
-0.6
-0.6
-0.6
-0.6
-0.6
-0.6
-0.6
-0.6
-0.6
-0.6
-0.6
-0.6
-0.6
-0.6
-0.6
-0.6
-0.6
-0.6
-0.6
-0.6
-0.6
-0.600264
-0.600757
-0.600024
-0.600001
-0.6
-0.6
-0.6
-0.6
-0.6
-0.6
-0.6
-0.6
-0.6
-0.6
-0.6
-0.6
-0.6
-0.6
-0.6
-0.6
-0.6
-0.6
-0.6
-0.6
-0.6
-0.6
-0.6
-0.6
-0.600414
-0.600748
-0.600001
-0.600001
-0.6
-0.6
-0.6
-0.6
-0.6
-0.6
-0.6
-0.6
-0.6
-0.6
-0.6
-0.6
-0.6
-0.6
-0.6
-0.6
-0.6
-0.6
-0.6
-0.6
-0.6
-0.6
-0.6
-0.600001
-0.600535
-0.600746
-0.600001
-0.600001
-0.6
-0.6
-0.6
-0.6
-0.6
-0.6
-0.6
-0.6
-0.6
-0.6
-0.6
-0.6
-0.6
-0.6
-0.6
-0.6
-0.6
-0.6
-0.6
-0.6
-0.6
-0.6
-0.6
-0.600001
-0.600744
-0.600688
-0.600001
-0.600001
-0.6
-0.6
-0.6
-0.6
-0.6
-0.6
-0.6
-0.6
-0.6
-0.6
-0.6
-0.6
-0.6
-0.6
-0.6
-0.6
-0.6
-0.6
-0.6
-0.6
-0.6
-0.6
-0.6
-0.600001
-0.600744
-0.60049
-0.600002
-0.6
-0.6
-0.6
-0.6
-0.6
-0.6
-0.6
-0.6
-0.6
-0.6
-0.6
-0.6
-0.6
-0.6
-0.6
-0.6
-0.6
-0.6
-0.6
-0.6
-0.6
-0.6
-0.6
-0.600001
-0.600022
-0.600752
-0.600265
-0.600003
-0.6
-0.6
-0.6
-0.6
-0.6
-0.6
-0.6
-0.6
-0.6
-0.6
-0.6
-0.6
-0.6
-0.6
-0.6
-0.6
-0.6
-0.6
-0.6
-0.6
-0.6
-0.6
-0.6
-0.600001
-0.600182
-0.600812
-0.600128
-0.600002
-0.6
-0.6
-0.6
-0.6
-0.6
-0.6
-0.6
-0.6
-0.6
-0.6
-0.6
-0.6
-0.6
-0.6
-0.6
-0.6
-0.6
-0.6
-0.6
-0.6
-0.6
-0.6
-0.600001
-0.600001
-0.600335
-0.60081
-0.600004
-0.600001
-0.6
-0.6
-0.6
-0.6
-0.6
-0.6
-0.6
-0.6
-0.6
-0.6
-0.6
-0.6
-0.6
-0.6
-0.6
-0.6
-0.6
-0.6
-0.6
-0.6
-0.6
-0.600001
-0.600001
-0.6
-0.6
-0.6
-0.600001
-0.6
-0.6
-0.6
-0.6
-0.6
-0.6
-0.6
-0.6
-0.6
-0.6
-0.6
-0.6
-0.6
-0.6
-0.6
-0.6
-0.6
-0.6
-0.6
-0.6
-0.6
-0.6
-0.6
-0.6
-0.6
-0.6
-0.6
-0.6
-0.6
-0.6
-0.6
-0.6
-0.6
-0.6
-0.6
-0.6
-0.6
-0.6
-0.6
-0.6
-0.6
-0.6
-0.6
-0.6
-0.6
-0.6
-0.6
-0.6
-0.6
-0.6
-0.6
-0.6
-0.6
-0.6
-0.6
-0.6
-0.6
-0.6
-0.6
-0.6
-0.6
-0.6
-0.6
-0.6
-0.6
-0.6
-0.6
-0.6
-0.6
-0.6
-0.6
-0.6
-0.6
-0.6
-0.6
-0.6
-0.6
-0.6
-0.6
-0.6
-0.6
-0.6
-0.6
-0.6
-0.6
-0.6
-0.6
-0.6
-0.6
-0.6
-0.6
-0.6
-0.6
-0.6
-0.6
-0.6
-0.6
-0.6
-0.6
-0.6
-0.6
-0.6
-0.6
-0.6
-0.6
-0.6
-0.6
-0.6
-0.6
-0.6
-0.6
-0.6
-0.6
-0.6
-0.6
-0.6
-0.6
-0.6
-0.6
-0.6
-0.6
-0.6
-0.6
-0.6
-0.6
-0.6
-0.6
-0.6
-0.6
-0.6
-0.6
-0.6
-0.6
-0.6
-0.6
-0.6
-0.6
-0.6
-0.6
-0.6
-0.6
-0.6
-0.6
-0.6
-0.6
-0.6
-0.6
-0.6
-0.6
-0.6
-0.6
-0.6
-0.6
-0.6
-0.6
-0.6
-0.6
-0.6
-0.6
-0.6
-0.6
-0.6
-0.6
-0.6
-0.6
-0.6
-0.6
-0.6
-0.6
-0.6
-0.6
-0.6
-0.6
-0.6
-0.6
-0.6
-0.6
-0.6
-0.6
-0.6
-0.6
-0.6
-0.6
-0.6
-0.6
-0.6
-0.6
-0.6
-0.6
-0.6
-0.6
-0.6
-0.6
-0.6
-0.6
-0.6
-0.6
-0.6
-0.6
-0.6
-0.6
-0.6
-0.6
-0.6
-0.6
-0.6
-0.6
-0.6
-0.6
-0.6
-0.6
-0.6
-0.6
-0.6
-0.6
-0.6
-0.6
-0.6
-0.6
-0.6
-0.6
-0.6
-0.6
-0.6
-0.6
-0.6
-0.6
-0.6
-0.6
-0.6
-0.6
-0.6
-0.6
-0.6
-0.6
-0.6
-0.6
-0.6
-0.6
-0.6
-0.6
-0.6
-0.6
-0.6
-0.6
-0.6
-0.6
-0.6
-0.6
-0.6
-0.6
-0.6
-0.6
-0.6
-0.6
-0.6
-0.6
-0.6
-0.6
-0.6
-0.6
-0.6
-0.6
-0.6
-0.6
-0.6
-0.6
-0.6
-0.6
-0.6
-0.6
-0.6
-0.6
-0.6
-0.6
-0.6
-0.6
-0.6
-0.6
-0.6
-0.6
-0.6
-0.6
-0.6
-0.6
-0.6
-0.6
-0.6
-0.6
-0.6
-0.6
-0.6
-0.6
-0.6
-0.6
-0.6
-0.6
-0.6
-0.6
-0.6
-0.6
-0.6
-0.6
-0.6
-0.6
-0.6
-0.6
-0.6
-0.6
-0.6
-0.6
-0.6
-0.6
-0.6
-0.6
-0.6
-0.6
-0.6
-0.6
-0.6
-0.6
-0.6
-0.6
-0.6
-0.6
-0.6
-0.6
-0.6
-0.6
-0.6
-0.6
-0.6
-0.6
-0.6
-0.6
-0.6
-0.6
-0.6
-0.6
-0.6
-0.6
-0.6
-0.6
-0.6
-0.6
-0.6
-0.6
-0.6
-0.6
-0.6
-0.6
-0.6
-0.6
-0.6
-0.6
-0.6
-0.6
-0.6
-0.6
-0.6
-0.6
-0.6
-0.6
-0.6
-0.6
-0.6
-0.6
-0.6
-0.6
-0.6
-0.6
-0.6
-0.6
-0.6
-0.6
-0.6
-0.6
-0.6
-0.6
-0.6
-0.6
-0.6
-0.6
-0.6
-0.6
-0.6
-0.6
-0.6
-0.6
-0.6
-0.6
-0.6
-0.6
-0.6
-0.6
-0.6
-0.6
-0.6
-0.6
-0.6
-0.6
-0.6
-0.6
-0.6
-0.6
-0.6
-0.6
-0.6
-0.6
-0.6
-0.6
-0.6
-0.6
-0.6
-0.6
-0.6
-0.6
-0.6
-0.6
-0.6
-0.6
-0.6
-0.6
-0.6
-0.6
-0.6
-0.6
-0.6
-0.6
-0.6
-0.6
-0.6
-0.6
-0.6
-0.6
-0.6
-0.6
-0.6
-0.6
-0.6
-0.6
-0.6
-0.6
-0.6
-0.6
-0.6
-0.6
-0.6
-0.6
-0.6
-0.6
-0.6
-0.6
-0.6
-0.6
-0.6
-0.6
-0.6
-0.6
-0.6
-0.6
-0.6
-0.6
-0.6
-0.6
-0.6
-0.6
-0.6
-0.6
-0.6
-0.6
-0.6
-0.6
-0.6
-0.6
-0.6
-0.6
-0.6
-0.6
-0.6
-0.6
-0.6
-0.6
-0.6
-0.6
-0.6
-0.6
-0.6
-0.6
-0.6
-0.6
-0.6
-0.6
-0.6
-0.6
-0.6
-0.6
-0.6
-0.6
-0.6
-0.6
-0.6
-0.6
-0.6
-0.6
-0.6
-0.6
-0.6
-0.6
-0.6
-0.6
-0.6
-0.6
-0.6
-0.6
-0.6
-0.6
-0.6
-0.6
-0.6
-0.6
-0.6
-0.6
-0.6
-0.6
-0.6
-0.6
-0.6
-0.6
-0.6
-0.6
-0.6
-0.6
-0.6
-0.6
-0.6
-0.6
-0.6
-0.6
-0.6
-0.6
-0.6
-0.6
-0.6
-0.6
-0.6
-0.6
-0.6
-0.6
-0.6
-0.6
-0.6
-0.6
-0.6
-0.6
-0.6
-0.6
-0.6
-0.6
-0.6
-0.6
-0.6
-0.6
-0.6
-0.6
-0.6
-0.6
-0.6
-0.6
-0.6
-0.6
-0.6
-0.6
-0.6
-0.6
-0.6
-0.6
-0.6
-0.6
-0.6
-0.6
-0.6
-0.6
-0.6
-0.6
-0.6
-0.6
-0.6
-0.6
-0.6
-0.6
-0.6
-0.6
-0.6
-0.6
-0.6
-0.6
-0.6
-0.6
-0.6
-0.6
-0.6
-0.6
-0.6
-0.6
-0.6
-0.6
-0.6
-0.6
-0.6
-0.6
-0.6
-0.6
-0.6
-0.6
-0.6
-0.6
-0.6
-0.6
-0.6
-0.6
-0.6
-0.6
-0.6
-0.6
-0.6
-0.6
-0.6
-0.6
-0.6
-0.6
-0.6
-0.6
-0.6
-0.6
-0.6
-0.6
-0.6
-0.6
-0.6
-0.6
-0.6
-0.6
-0.6
-0.6
-0.6
-0.6
-0.6
-0.6
-0.6
-0.6
-0.6
-0.6
-0.6
-0.6
-0.6
-0.6
-0.6
-0.6
-0.6
-0.6
-0.6
-0.6
-0.6
-0.6
-0.6
-0.6
-0.6
-0.6
-0.6
-0.6
-0.6
-0.6
-0.6
-0.6
-0.6
-0.6
-0.6
-0.6
-0.6
-0.6
-0.6
-0.6
-0.6
-0.6
-0.6
-0.6
-0.6
-0.6
-0.6
-0.6
-0.6
-0.6
-0.6
-0.6
-0.6
-0.6
-0.6
-0.6
-0.6
-0.6
-0.6
-0.6
-0.6
-0.6
-0.6
-0.6
-0.6
-0.6
-0.6
-0.6
-0.6
-0.6
-0.6
-0.6
-0.6
-0.6
-0.6
-0.6
-0.6
-0.6
-0.6
-0.6
-0.6
-0.6
-0.6
-0.6
-0.6
-0.6
-0.6
-0.6
-0.6
-0.6
-0.6
-0.6
-0.6
-0.6
-0.6
-0.6
-0.6
-0.6
-0.6
-0.6
-0.6
-0.6
-0.6
-0.6
-0.6
-0.6
-0.6
-0.6
-0.6
-0.6
-0.6
-0.6
-0.6
-0.6
-0.6
-0.6
-0.6
-0.6
-0.6
-0.6
-0.6
-0.6
-0.6
-0.6
-0.6
-0.6
-0.6
-0.6
-0.6
-0.6
-0.6
-0.6
-0.6
-0.6
-0.6
-0.6
-0.6
-0.6
-0.6
-0.6
-0.6
-0.6
-0.6
-0.6
-0.6
-0.6
-0.6
-0.6
-0.6
-0.6
-0.6
-0.6
-0.6
-0.6
-0.6
-0.6
-0.6
-0.6
-0.6
-0.6
-0.6
-0.6
-0.6
-0.6
-0.6
-0.6
-0.6
-0.6
-0.6
-0.6
-0.6
-0.6
-0.6
-0.6
-0.6
-0.6
-0.6
-0.6
-0.6
-0.6
-0.6
-0.6
-0.6
-0.6
-0.6
-0.6
-0.6
-0.6
-0.6
-0.6
-0.6
-0.6
-0.6
-0.6
-0.6
-0.6
-0.6
-0.6
-0.6
-0.6
-0.6
-0.6
-0.6
-0.6
-0.6
-0.6
-0.6
-0.6
-0.6
-0.6
-0.6
-0.6
-0.6
-0.6
-0.6
-0.6
-0.6
-0.6
-0.6
-0.6
-0.6
-0.6
-0.6
-0.6
-0.6
-0.6
-0.6
-0.6
-0.6
-0.6
-0.6
-0.6
-0.6
-0.6
-0.6
-0.6
-0.6
-0.6
-0.6
-0.6
-0.6
-0.6
-0.6
-0.6
-0.6
-0.6
-0.6
-0.6
-0.6
-0.6
-0.6
-0.6
-0.6
-0.6
-0.6
-0.6
-0.6
-0.6
-0.6
-0.6
-0.6
-0.6
-0.6
-0.6
-0.6
-0.6
-0.6
-0.6
-0.6
-0.6
-0.6
-0.6
-0.6
-0.6
-0.6
-0.6
-0.6
-0.6
-0.6
-0.6
-0.6
-0.6
-0.6
-0.6
-0.6
-0.6
-0.6
-0.6
-0.6
-0.6
-0.6
-0.6
-0.6
-0.6
-0.6
-0.6
-0.6
-0.6
-0.6
-0.6
-0.6
-0.6
-0.6
-0.6
-0.6
-0.6
-0.6
-0.6
-0.6
-0.6
-0.6
-0.6
-0.6
-0.6
-0.6
-0.6
-0.6
-0.6
-0.6
-0.6
-0.6
-0.6
-0.6
-0.6
-0.6
-0.6
-0.6
-0.6
-0.6
-0.6
-0.6
-0.6
-0.6
-0.6
-0.6
-0.6
-0.6
-0.6
-0.6
-0.6
-0.6
-0.6
-0.6
-0.6
-0.6
-0.6
-0.6
-0.6
-0.6
-0.6
-0.6
-0.6
-0.6
-0.6
-0.6
-0.6
-0.6
-0.6
-0.6
-0.6
-0.6
-0.6
-0.6
-0.6
-0.6
-0.6
-0.6
-0.6
-0.6
-0.6
-0.6
-0.6
-0.6
-0.6
-0.6
-0.6
-0.6
-0.6
-0.6
-0.6
-0.6
-0.6
-0.6
-0.6
-0.6
-0.6
-0.6
-0.6
-0.6
-0.6
-0.6
-0.6
-0.6
-0.6
-0.6
-0.6
-0.6
-0.6
-0.6
-0.6
-0.6
-0.6
-0.6
-0.6
-0.6
-0.6
-0.6
-0.6
-0.6
-0.6
-0.6
-0.6
-0.6
-0.6
-0.6
-0.6
-0.6
-0.6
-0.6
-0.6
-0.6
-0.6
-0.6
-0.6
-0.6
-0.6
-0.6
-0.6
-0.6
-0.6
-0.6
-0.6
-0.6
-0.6
-0.6
-0.6
-0.6
-0.6
-0.6
-0.6
-0.6
-0.6
-0.6
-0.6
-0.6
-0.6
-0.6
-0.6
-0.6
-0.6
-0.6
-0.6
-0.6
-0.6
-0.6
-0.6
-0.6
-0.6
-0.6
-0.6
-0.6
-0.6
-0.6
-0.6
-0.6
-0.6
-0.6
-0.6
-0.6
-0.6
-0.6
-0.6
-0.6
-0.6
-0.6
-0.6
-0.6
-0.6
-0.6
-0.6
-0.6
-0.6
-0.6
-0.6
-0.6
-0.6
-0.6
-0.6
-0.6
-0.6
-0.6
-0.6
-0.6
-0.6
-0.6
-0.6
-0.6
-0.6
-0.6
-0.6
-0.6
-0.6
-0.6
-0.6
-0.6
-0.6
-0.6
-0.6
-0.6
-0.6
-0.6
-0.6
-0.6
-0.6
-0.6
-0.6
-0.6
-0.6
-0.6
-0.6
-0.6
-0.6
-0.6
-0.6
-0.6
-0.6
-0.6
-0.6
-0.6
-0.6
-0.6
-0.6
-0.6
-0.6
-0.6
-0.6
-0.6
-0.6
-0.6
-0.6
-0.6
-0.6
-0.6
-0.6
-0.6
-0.6
-0.6
-0.6
-0.6
-0.6
-0.6
-0.6
-0.6
-0.6
-0.6
-0.6
-0.6
-0.6
-0.6
-0.6
-0.6
-0.6
-0.6
-0.6
-0.6
-0.6
-0.6
-0.6
-0.6
-0.6
-0.6
-0.6
-0.6
-0.6
-0.6
-0.6
-0.6
-0.6
-0.6
-0.6
-0.6
-0.6
-0.6
-0.6
-0.6
-0.6
-0.6
-0.6
-0.6
-0.6
-0.6
-0.6
-0.6
-0.6
-0.6
-0.6
-0.6
-0.6
-0.6
-0.6
-0.6
-0.6
-0.6
-0.6
-0.6
-0.6
-0.6
-0.6
-0.6
-0.6
-0.6
-0.6
-0.6
-0.6
-0.6
-0.6
-0.6
-0.6
-0.6
-0.6
-0.6
-0.6
-0.6
-0.6
-0.6
-0.6
-0.6
-0.6
-0.6
-0.6
-0.6
-0.6
-0.6
-0.6
-0.6
-0.6
-0.6
-0.6
-0.6
-0.6
-0.6
-0.6
-0.6
-0.6
-0.6
-0.6
-0.6
-0.6
-0.6
-0.6
-0.6
-0.6
-0.6
-0.6
-0.6
-0.6
-0.6
-0.6
-0.6
-0.6
-0.6
-0.6
-0.6
-0.6
-0.6
-0.6
-0.6
-0.6
-0.6
-0.6
-0.6
-0.6
-0.6
-0.6
-0.6
-0.6
-0.6
-0.6
-0.6
-0.6
-0.6
-0.6
-0.6
-0.6
-0.6
-0.6
-0.6
-0.6
-0.6
-0.6
-0.6
-0.6
-0.6
-0.6
-0.6
-0.6
-0.6
-0.6
-0.6
-0.6
-0.6
-0.6
-0.6
-0.6
-0.6
-0.6
-0.6
-0.6
-0.6
-0.6
-0.6
-0.6
-0.6
-0.6
-0.6
-0.6
-0.6
-0.6
-0.6
-0.6
-0.6
-0.6
-0.6
-0.6
-0.6
-0.6
-0.6
-0.6
-0.6
-0.6
-0.6
-0.6
-0.6
-0.6
-0.6
-0.6
-0.6
-0.6
-0.6
-0.6
-0.6
-0.6
-0.6
-0.6
-0.6
-0.6
-0.6
-0.6
-0.6
-0.6
-0.6
-0.6
-0.6
-0.6
-0.6
-0.6
-0.6
-0.6
-0.6
-0.6
-0.6
-0.6
-0.6
-0.6
-0.6
-0.6
-0.6
-0.6
-0.6
-0.6
-0.6
-0.6
-0.6
-0.6
-0.6
-0.6
-0.6
-0.6
-0.6
-0.6
-0.6
-0.6
-0.6
-0.6
-0.6
-0.6
-0.6
-0.6
-0.6
-0.6
-0.6
-0.6
-0.6
-0.6
-0.6
-0.6
-0.6
-0.6
-0.6
-0.6
-0.6
-0.6
-0.6
-0.6
-0.6
-0.6
-0.6
-0.6
-0.6
-0.6
-0.6
-0.6
-0.6
-0.6
-0.6
-0.6
-0.6
-0.6
-0.6
-0.6
-0.6
-0.6
-0.6
-0.6
-0.6
-0.6
-0.6
-0.6
-0.6
-0.6
-0.6
-0.6
-0.6
-0.6
-0.6
-0.6
-0.6
-0.6
-0.6
-0.6
-0.6
-0.6
-0.6
-0.6
-0.6
-0.6
-0.6
-0.6
-0.6
-0.6
-0.6
-0.6
-0.6
-0.6
-0.6
-0.6
-0.6
-0.6
-0.6
-0.6
-0.6
-0.6
-0.6
-0.6
-0.6
-0.6
-0.6
-0.6
-0.6
-0.6
-0.6
-0.6
-0.6
-0.6
-0.6
-0.6
-0.6
-0.6
-0.6
-0.6
-0.6
-0.6
-0.6
-0.6
-0.6
-0.6
-0.6
-0.6
-0.6
-0.6
-0.6
-0.6
-0.6
-0.6
-0.6
-0.6
-0.6
-0.6
-0.6
-0.6
-0.6
-0.6
-0.6
-0.6
-0.6
-0.6
-0.6
-0.6
-0.6
-0.6
-0.6
-0.6
-0.6
-0.6
-0.6
-0.6
-0.6
-0.6
-0.6
-0.6
-0.6
-0.6
-0.6
-0.6
-0.6
-0.6
-0.6
-0.6
-0.6
-0.6
-0.6
-0.6
-0.6
-0.6
-0.6
-0.6
-0.6
-0.6
-0.6
-0.6
-0.6
-0.6
-0.6
-0.6
-0.6
-0.6
-0.6
-0.6
-0.6
-0.6
-0.6
-0.6
-0.6
-0.6
-0.6
-0.6
-0.6
-0.6
-0.6
-0.6
-0.6
-0.6
-0.6
-0.6
-0.6
-0.6
-0.6
-0.6
-0.6
-0.6
-0.6
-0.6
-0.6
-0.6
-0.6
-0.6
-0.6
-0.6
-0.6
-0.6
-0.6
-0.6
-0.6
-0.6
-0.6
-0.6
-0.6
-0.6
-0.6
-0.6
-0.6
-0.6
-0.6
-0.6
-0.6
-0.6
-0.6
-0.6
-0.6
-0.6
-0.6
-0.6
-0.6
-0.6
-0.6
-0.6
-0.6
-0.6
-0.6
-0.6
-0.6
-0.6
-0.6
-0.6
-0.6
-0.6
-0.6
-0.6
-0.6
-0.6
-0.6
-0.6
-0.6
-0.6
-0.6
-0.6
-0.6
-0.6
-0.6
-0.6
-0.6
-0.6
-0.6
-0.6
-0.6
-0.6
-0.6
-0.6
-0.6
-0.6
-0.6
-0.6
-0.6
-0.6
-0.6
-0.6
-0.6
-0.6
-0.6
-0.6
-0.6
-0.6
-0.6
-0.6
-0.6
-0.6
-0.6
-0.6
-0.6
-0.6
-0.6
-0.6
-0.6
-0.6
-0.6
-0.6
-0.6
-0.6
-0.6
-0.6
-0.6
-0.6
-0.6
-0.6
-0.6
-0.6
-0.6
-0.6
-0.6
-0.6
-0.6
-0.6
-0.6
-0.6
-0.6
-0.6
-0.6
-0.6
-0.6
-0.6
-0.6
-0.6
-0.6
-0.6
-0.6
-0.6
-0.6
-0.6
-0.6
-0.6
-0.6
-0.6
-0.6
-0.6
-0.6
-0.6
-0.6
-0.6
-0.6
-0.6
-0.6
-0.6
-0.6
-0.6
-0.6
-0.6
-0.6
-0.6
-0.6
-0.6
-0.6
-0.6
-0.6
-0.6
-0.6
-0.6
-0.6
-0.6
-0.6
-0.6
-0.6
-0.6
-0.6
-0.6
-0.6
-0.6
-0.6
-0.6
-0.6
-0.6
-0.6
-0.6
-0.6
-0.6
-0.6
-0.6
-0.6
-0.6
-0.6
-0.6
-0.6
-0.6
-0.6
-0.6
-0.6
-0.6
-0.6
-0.6
-0.6
-0.6
-0.6
-0.6
-0.6
-0.6
-0.6
-0.6
-0.6
-0.6
-0.6
-0.6
-0.6
-0.6
-0.6
-0.6
-0.6
-0.6
-0.6
-0.6
-0.6
-0.6
-0.6
-0.6
-0.6
-0.6
-0.6
-0.6
-0.6
-0.6
-0.6
-0.6
-0.6
-0.6
-0.6
-0.6
-0.6
-0.6
-0.6
-0.6
-0.6
-0.6
-0.6
-0.6
-0.6
-0.6
-0.6
-0.6
-0.6
-0.6
-0.6
-0.6
-0.6
-0.6
-0.6
-0.6
-0.6
-0.6
-0.6
-0.6
-0.6
-0.6
-0.6
-0.6
-0.6
-0.6
-0.6
-0.6
-0.6
-0.6
-0.6
-0.6
-0.6
-0.6
-0.6
-0.6
-0.6
-0.6
-0.6
-0.6
-0.6
-0.6
-0.6
-0.6
-0.6
-0.6
-0.6
-0.6
-0.6
-0.6
-0.6
-0.6
-0.6
-0.6
-0.6
-0.6
-0.6
-0.6
-0.6
-0.6
-0.6
-0.6
-0.6
-0.6
-0.6
-0.6
-0.6
-0.6
-0.6
-0.6
-0.6
-0.6
-0.6
-0.6
-0.6
-0.6
-0.6
-0.6
-0.6
-0.6
-0.6
-0.6
-0.6
-0.6
-0.6
-0.6
-0.6
-0.6
-0.6
-0.6
-0.6
-0.6
-0.6
-0.6
-0.6
-0.6
-0.6
-0.6
-0.6
-0.6
-0.6
-0.6
-0.6
-0.6
-0.6
-0.6
-0.6
-0.6
-0.6
-0.6
-0.6
-0.6
-0.6
-0.6
-0.6
-0.6
-0.6
-0.6
-0.6
-0.6
-0.6
-0.6
-0.6
-0.6
-0.6
-0.6
-0.6
-0.6
-0.6
-0.6
-0.6
-0.6
-0.6
-0.6
-0.6
-0.6
-0.6
-0.6
-0.6
-0.6
-0.6
-0.6
-0.6
-0.6
-0.6
-0.6
-0.6
-0.6
-0.6
-0.6
-0.6
-0.6
-0.6
-0.6
-0.6
-0.6
-0.6
-0.6
-0.6
-0.6
-0.6
-0.6
-0.6
-0.6
-0.6
-0.6
-0.6
-0.6
-0.6
-0.6
-0.6
-0.6
-0.6
-0.6
-0.6
-0.6
-0.6
-0.6
-0.6
-0.6
-0.6
-0.6
-0.6
-0.6
-0.6
-0.6
-0.6
-0.6
-0.6
-0.6
-0.6
-0.6
-0.6
-0.6
-0.6
-0.6
-0.6
-0.6
-0.6
-0.6
-0.6
-0.6
-0.6
-0.6
-0.6
-0.6
-0.6
-0.6
-0.6
-0.6
-0.6
-0.6
-0.6
-0.6
-0.6
-0.6
-0.6
-0.6
-0.6
-0.6
-0.6
-0.6
-0.6
-0.6
-0.6
-0.6
-0.6
-0.6
-0.6
-0.6
-0.6
-0.6
-0.6
-0.6
-0.6
-0.6
-0.6
-0.6
-0.6
-0.6
-0.6
-0.6
-0.6
-0.6
-0.6
-0.6
-0.6
-0.6
-0.6
-0.6
-0.6
-0.6
-0.6
-0.6
-0.6
-0.6
-0.6
-0.6
-0.6
-0.6
-0.6
-0.6
-0.6
-0.6
-0.6
-0.6
-0.6
-0.6
-0.6
-0.6
-0.6
-0.6
-0.6
-0.6
-0.6
-0.6
-0.6
-0.6
-0.6
-0.6
-0.6
-0.6
-0.6
-0.6
-0.6
-0.6
-0.6
-0.6
-0.6
-0.6
-0.6
-0.6
-0.6
-0.6
-0.6
-0.6
-0.6
-0.6
-0.6
-0.6
-0.6
-0.6
-0.6
-0.6
-0.6
-0.6
-0.6
-0.6
-0.6
-0.6
-0.6
-0.6
-0.6
-0.6
-0.6
-0.6
-0.6
-0.6
-0.6
-0.6
-0.6
-0.6
-0.6
-0.6
-0.6
-0.6
-0.6
-0.6
-0.6
-0.6
-0.6
-0.6
-0.6
-0.6
-0.6
-0.6
-0.6
-0.6
-0.6
-0.6
-0.6
-0.6
-0.6
-0.6
-0.6
-0.6
-0.6
-0.6
-0.6
-0.6
-0.6
-0.6
-0.6
-0.6
-0.6
-0.6
-0.6
-0.6
-0.6
-0.6
-0.6
-0.6
-0.6
-0.6
-0.6
-0.6
-0.6
-0.6
-0.6
-0.6
-0.6
-0.6
-0.6
-0.6
-0.6
-0.6
-0.6
-0.6
-0.6
-0.6
-0.6
-0.6
-0.6
-0.6
-0.6
-0.6
-0.6
-0.6
-0.6
-0.6
-0.6
-0.6
-0.6
-0.6
-0.6
-0.6
-0.6
-0.6
-0.6
-0.6
-0.6
-0.6
-0.6
-0.6
-0.6
-0.6
-0.6
-0.6
-0.6
-0.6
-0.6
-0.6
-0.6
-0.6
-0.6
-0.6
-0.6
-0.6
-0.6
-0.6
-0.6
-0.6
-0.6
-0.6
-0.6
-0.6
-0.6
-0.6
-0.6
-0.6
-0.6
-0.6
-0.6
-0.6
-0.6
-0.6
-0.6
-0.6
-0.6
-0.6
-0.6
-0.6
-0.6
-0.6
-0.6
-0.6
-0.6
-0.6
-0.6
-0.6
-0.6
-0.6
-0.6
-0.6
-0.6
-0.6
-0.6
-0.6
-0.6
-0.6
-0.6
-0.6
-0.6
-0.6
-0.6
-0.6
-0.6
-0.6
-0.6
-0.6
-0.6
-0.6
-0.6
-0.6
-0.6
-0.6
-0.6
-0.6
-0.6
-0.6
-0.6
-0.6
-0.6
-0.6
-0.6
-0.6
-0.6
-0.6
-0.6
-0.6
-0.6
-0.6
-0.6
-0.6
-0.6
-0.6
-0.6
-0.6
-0.6
-0.6
-0.6
-0.6
-0.6
-0.6
-0.6
-0.6
-0.6
-0.6
-0.6
-0.6
-0.6
-0.6
-0.6
-0.6
-0.6
-0.6
-0.6
-0.6
-0.6
-0.6
-0.6
-0.6
-0.6
-0.6
-0.6
-0.6
-0.6
-0.6
-0.6
-0.6
-0.6
-0.6
-0.6
-0.6
-0.6
-0.6
-0.6
-0.6
-0.6
-0.6
-0.6
-0.6
-0.6
-0.6
-0.6
-0.6
-0.6
-0.6
-0.6
-0.6
-0.6
-0.6
-0.6
-0.6
-0.6
-0.6
-0.6
-0.6
-0.6
-0.6
-0.6
-0.6
-0.6
-0.6
-0.6
-0.6
-0.6
-0.6
-0.6
-0.6
-0.6
-0.6
-0.6
-0.6
-0.6
-0.6
-0.6
-0.6
-0.6
-0.6
-0.6
-0.6
-0.6
-0.6
-0.6
-0.6
-0.6
-0.6
-0.6
-0.6
-0.6
-0.6
-0.6
-0.6
-0.6
-0.6
-0.6
-0.6
-0.6
-0.6
-0.6
-0.6
-0.6
-0.6
-0.6
-0.6
-0.6
-0.6
-0.6
-0.6
-0.6
-0.6
-0.6
-0.6
-0.6
-0.6
-0.6
-0.6
-0.6
-0.6
-0.6
-0.6
-0.6
-0.6
-0.6
-0.6
-0.6
-0.6
-0.6
-0.6
-0.6
-0.6
-0.6
-0.6
-0.6
-0.6
-0.6
-0.6
-0.6
-0.6
-0.6
-0.6
-0.6
-0.6
-0.6
-0.6
-0.6
-0.6
-0.6
-0.6
-0.6
-0.6
-0.6
-0.6
-0.6
-0.6
-0.6
-0.6
-0.6
-0.6
-0.6
-0.6
-0.6
-0.6
-0.6
-0.6
-0.6
-0.6
-0.6
-0.6
-0.6
-0.6
-0.6
-0.6
-0.6
-0.6
-0.6
-0.6
-0.6
-0.6
-0.6
-0.6
-0.6
-0.6
-0.6
-0.6
-0.6
-0.6
-0.6
-0.6
-0.6
-0.6
-0.6
-0.6
-0.6
-0.6
-0.6
-0.6
-0.6
-0.6
-0.6
-0.6
-0.6
-0.6
-0.6
-0.6
-0.6
-0.6
-0.6
-0.6
-0.6
-0.6
-0.6
-0.6
-0.6
-0.6
-0.6
-0.6
-0.6
-0.6
-0.6
-0.6
-0.6
-0.6
-0.6
-0.6
-0.6
-0.6
-0.6
-0.6
-0.6
-0.6
-0.6
-0.6
-0.6
-0.6
-0.6
-0.6
-0.6
-0.6
-0.6
-0.6
-0.6
-0.6
-0.6
-0.6
-0.6
-0.6
-0.6
-0.6
-0.6
-0.6
-0.6
-0.6
-0.6
-0.6
-0.6
-0.6
-0.6
-0.6
-0.6
-0.6
-0.6
-0.6
-0.6
-0.6
-0.6
-0.6
-0.6
-0.6
-0.6
-0.6
-0.6
-0.6
-0.6
-0.6
-0.6
-0.6
-0.6
-0.6
-0.6
-0.6
-0.6
-0.6
-0.6
-0.6
-0.6
-0.6
-0.6
-0.6
-0.6
-0.6
-0.6
-0.6
-0.6
-0.6
-0.6
-0.6
-0.6
-0.6
-0.6
-0.6
-0.6
-0.6
-0.6
-0.6
-0.6
-0.6
-0.6
-0.6
-0.6
-0.6
-0.6
-0.6
-0.6
-0.6
-0.6
-0.6
-0.6
-0.6
-0.6
-0.6
-0.6
-0.6
-0.6
-0.6
-0.6
-0.6
-0.6
-0.6
-0.6
-0.6
-0.6
-0.6
-0.6
-0.6
-0.6
-0.6
-0.6
-0.6
-0.6
-0.6
-0.6
-0.6
-0.6
-0.6
-0.6
-0.6
-0.6
-0.6
-0.6
-0.6
-0.6
-0.6
-0.6
-0.6
-0.6
-0.6
-0.6
-0.6
-0.6
-0.6
-0.6
-0.6
-0.6
-0.6
-0.6
-0.6
-0.6
-0.6
-0.6
-0.6
-0.6
-0.6
-0.6
-0.6
-0.6
-0.6
-0.6
-0.6
-0.6
-0.6
-0.6
-0.6
-0.6
-0.6
-0.6
-0.6
-0.6
-0.6
-0.6
-0.6
-0.6
-0.6
-0.6
-0.6
-0.6
-0.6
-0.6
-0.6
-0.6
-0.6
-0.6
-0.6
-0.6
-0.6
-0.6
-0.6
-0.6
-0.6
-0.6
-0.6
-0.6
-0.6
-0.6
-0.6
-0.6
-0.6
-0.6
-0.6
-0.6
-0.6
-0.6
-0.6
-0.6
-0.6
-0.6
-0.6
-0.6
-0.6
-0.6
-0.6
-0.6
-0.6
-0.6
-0.6
-0.6
-0.6
-0.6
-0.6
-0.6
-0.6
-0.6
-0.6
-0.6
-0.6
-0.6
-0.6
-0.6
-0.6
-0.6
-0.6
-0.6
-0.6
-0.6
-0.6
-0.6
-0.6
-0.6
-0.6
-0.6
-0.6
-0.6
-0.6
-0.6
-0.6
-0.6
-0.6
-0.6
-0.6
-0.6
-0.6
-0.6
-0.6
-0.6
-0.6
-0.6
-0.6
-0.6
-0.6
-0.6
-0.6
-0.6
-0.6
-0.6
-0.6
-0.6
-0.6
-0.6
-0.6
-0.6
-0.6
-0.6
-0.6
-0.6
-0.6
-0.6
-0.6
-0.6
-0.6
-0.6
-0.6
-0.6
-0.6
-0.6
-0.6
-0.6
-0.6
-0.6
-0.6
-0.6
-0.6
-0.6
-0.6
-0.6
-0.6
-0.6
-0.6
-0.6
-0.6
-0.6
-0.6
-0.6
-0.6
-0.6
-0.6
-0.6
-0.6
-0.6
-0.6
-0.6
-0.6
-0.6
-0.6
-0.6
-0.6
-0.6
-0.6
-0.6
-0.6
-0.6
-0.6
-0.6
-0.6
-0.6
-0.6
-0.6
-0.6
-0.6
-0.6
-0.6
-0.6
-0.6
-0.6
-0.6
-0.6
-0.6
-0.6
-0.6
-0.6
-0.6
-0.6
-0.6
-0.6
-0.6
-0.6
-0.6
-0.6
-0.6
-0.6
-0.6
-0.6
-0.6
-0.6
-0.6
-0.6
-0.6
-0.6
-0.6
-0.6
-0.6
-0.6
-0.6
-0.6
-0.6
-0.6
-0.6
-0.6
-0.6
-0.6
-0.6
-0.6
-0.6
-0.6
-0.6
-0.6
-0.6
-0.6
-0.6
-0.6
-0.6
-0.6
-0.6
-0.6
-0.6
-0.6
-0.6
-0.6
-0.6
-0.6
-0.6
-0.6
-0.6
-0.6
-0.6
-0.6
-0.6
-0.6
-0.6
-0.6
-0.6
-0.6
-0.6
-0.6
-0.6
-0.6
-0.6
-0.6
-0.6
-0.6
-0.6
-0.6
-0.6
-0.6
-0.6
-0.6
-0.6
-0.6
-0.6
-0.6
-0.6
-0.6
-0.6
-0.6
-0.6
-0.6
-0.6
-0.6
-0.6
-0.6
-0.6
-0.6
-0.6
-0.6
-0.6
-0.6
-0.6
-0.6
-0.6
-0.6
-0.6
-0.6
-0.6
-0.6
-0.6
-0.6
-0.6
-0.6
-0.6
-0.6
-0.6
-0.6
-0.6
-0.6
-0.6
-0.6
-0.6
-0.6
-0.6
-0.6
-0.6
-0.6
-0.6
-0.6
-0.6
-0.6
-0.6
-0.6
-0.6
-0.6
-0.6
-0.6
-0.6
-0.6
-0.6
-0.6
-0.6
-0.6
-0.6
-0.6
-0.6
-0.6
-0.6
-0.6
-0.6
-0.6
-0.6
-0.6
-0.6
-0.6
-0.6
-0.6
-0.6
-0.6
-0.6
-0.6
-0.6
-0.6
-0.6
-0.6
-0.6
-0.6
-0.6
-0.6
-0.6
-0.6
-0.6
-0.6
-0.6
-0.6
-0.6
-0.6
-0.6
-0.6
-0.6
-0.6
-0.6
-0.6
-0.6
-0.6
-0.6
-0.6
-0.6
-0.6
-0.6
-0.6
-0.6
-0.6
-0.6
-0.6
-0.6
-0.6
-0.6
-0.6
-0.6
-0.6
-0.6
-0.6
-0.6
-0.6
-0.6
-0.6
-0.6
-0.6
-0.6
-0.6
-0.6
-0.6
-0.6
-0.6
-0.6
-0.6
-0.6
-0.6
-0.6
-0.6
-0.6
-0.6
-0.6
-0.6
-0.6
-0.6
-0.6
-0.6
-0.6
-0.6
-0.6
-0.6
-0.6
-0.6
-0.6
-0.6
-0.6
-0.6
-0.6
-0.6
-0.6
-0.6
-0.6
-0.6
-0.6
-0.6
-0.6
-0.6
-0.6
-0.6
-0.6
-0.6
-0.6
-0.6
-0.6
-0.6
-0.6
-0.6
-0.6
-0.6
-0.6
-0.6
-0.6
-0.6
-0.6
-0.6
-0.6
-0.6
-0.6
-0.6
-0.6
-0.6
-0.6
-0.6
-0.6
-0.6
-0.6
-0.6
-0.6
-0.6
-0.6
-0.6
-0.6
-0.6
-0.6
-0.6
-0.6
-0.6
-0.6
-0.6
-0.6
-0.6
-0.6
-0.6
-0.6
-0.6
-0.6
-0.6
-0.6
-0.6
-0.6
-0.6
-0.6
-0.6
-0.6
-0.6
-0.6
-0.6
-0.6
-0.6
-0.6
-0.6
-0.6
-0.6
-0.6
-0.6
-0.6
-0.6
-0.6
-0.6
-0.6
-0.6
-0.6
-0.6
-0.6
-0.6
-0.6
-0.6
-0.6
-0.6
-0.6
-0.6
-0.6
-0.6
-0.6
-0.6
-0.6
-0.6
-0.6
-0.6
-0.6
-0.6
-0.6
-0.6
-0.6
-0.6
-0.6
-0.6
-0.6
-0.6
-0.6
-0.6
-0.6
-0.6
-0.6
-0.6
-0.6
-0.6
-0.6
-0.6
-0.6
-0.6
-0.6
-0.6
-0.6
-0.6
-0.6
-0.6
-0.6
-0.6
-0.6
-0.6
-0.6
-0.6
-0.6
-0.6
-0.6
-0.6
-0.6
-0.6
-0.6
-0.6
-0.6
-0.6
-0.6
-0.6
-0.6
-0.6
-0.6
-0.6
-0.6
-0.6
-0.6
-0.6
-0.6
-0.6
-0.6
-0.6
-0.6
-0.6
-0.6
-0.6
-0.6
-0.6
-0.6
-0.6
-0.6
-0.6
-0.6
-0.6
-0.6
-0.6
-0.6
-0.6
-0.6
-0.6
-0.6
-0.6
-0.6
-0.6
-0.6
-0.6
-0.6
-0.6
-0.6
-0.6
-0.6
-0.6
-0.6
-0.6
-0.6
-0.6
-0.6
-0.6
-0.6
-0.6
-0.6
-0.6
-0.6
-0.6
-0.6
-0.6
-0.6
-0.6
-0.6
-0.6
-0.6
-0.6
-0.6
-0.6
-0.6
-0.6
-0.6
-0.6
-0.6
-0.6
-0.6
-0.6
-0.6
-0.6
-0.6
-0.6
-0.6
-0.6
-0.6
-0.6
-0.6
-0.6
-0.6
-0.6
-0.6
-0.6
-0.6
-0.6
-0.6
-0.6
-0.6
-0.6
-0.6
-0.6
-0.6
-0.6
-0.6
-0.6
-0.6
-0.6
-0.6
-0.6
-0.6
-0.6
-0.6
-0.6
-0.6
-0.6
-0.6
-0.6
-0.6
-0.6
-0.6
-0.6
-0.6
-0.6
-0.6
-0.6
-0.6
-0.6
-0.6
-0.6
-0.6
-0.6
-0.6
-0.6
-0.6
-0.6
-0.6
-0.6
-0.6
-0.6
-0.6
-0.6
-0.6
-0.6
-0.6
-0.6
-0.6
-0.6
-0.6
-0.6
-0.6
-0.6
-0.6
-0.6
-0.6
-0.6
-0.6
-0.6
-0.6
-0.6
-0.6
-0.6
-0.6
-0.6
-0.6
-0.6
-0.6
-0.6
-0.6
-0.6
-0.6
-0.6
-0.6
-0.6
-0.6
-0.6
-0.6
-0.6
-0.6
-0.6
-0.6
-0.6
-0.6
-0.6
-0.6
-0.6
-0.6
-0.6
-0.6
-0.6
-0.6
-0.6
-0.6
-0.6
-0.6
-0.6
-0.6
-0.6
-0.6
-0.6
-0.6
-0.6
-0.6
-0.6
-0.6
-0.6
-0.6
-0.6
-0.6
-0.6
-0.6
-0.6
-0.6
-0.6
-0.6
-0.6
-0.6
-0.6
-0.6
-0.6
-0.6
-0.6
-0.6
-0.6
-0.6
-0.6
-0.6
-0.6
-0.6
-0.6
-0.6
-0.6
-0.6
-0.6
-0.6
-0.6
-0.6
-0.6
-0.6
-0.6
-0.6
-0.6
-0.6
-0.6
-0.6
-0.6
-0.6
-0.6
-0.6
-0.6
-0.6
-0.6
-0.6
-0.6
-0.6
-0.6
-0.6
-0.6
-0.6
-0.6
-0.6
-0.6
-0.6
-0.6
-0.6
-0.6
-0.6
-0.6
-0.6
-0.6
-0.6
-0.6
-0.6
-0.6
-0.6
-0.6
-0.6
-0.6
-0.6
-0.6
-0.6
-0.6
-0.6
-0.6
-0.6
-0.6
-0.6
-0.6
-0.6
-0.6
-0.6
-0.6
-0.6
-0.6
-0.6
-0.6
-0.6
-0.6
-0.6
-0.6
-0.6
-0.6
-0.6
-0.6
-0.6
-0.6
-0.6
-0.6
-0.6
-0.6
-0.6
-0.6
-0.6
-0.6
-0.6
-0.6
-0.6
-0.6
-0.6
-0.6
-0.6
-0.6
-0.6
-0.6
-0.6
-0.6
-0.6
-0.6
-0.6
-0.6
-0.6
-0.6
-0.6
-0.6
-0.6
-0.6
-0.6
-0.6
-0.6
-0.6
-0.6
-0.6
-0.6
-0.6
-0.6
-0.6
-0.6
-0.6
-0.6
-0.6
-0.6
-0.6
-0.6
-0.6
-0.6
-0.6
-0.6
-0.6
-0.6
-0.6
-0.6
-0.6
-0.6
-0.6
-0.6
-0.6
-0.6
-0.6
-0.6
-0.6
-0.6
-0.6
-0.6
-0.6
-0.6
-0.6
-0.6
-0.6
-0.6
-0.6
-0.6
-0.6
-0.6
-0.6
-0.6
-0.6
-0.6
-0.6
-0.6
-0.6
-0.6
-0.6
-0.6
-0.6
-0.6
-0.6
-0.6
-0.6
-0.6
-0.6
-0.6
-0.6
-0.6
-0.6
-0.6
-0.6
-0.6
-0.6
-0.6
-0.6
-0.6
-0.6
-0.6
-0.6
-0.6
-0.6
-0.6
-0.6
-0.6
-0.6
-0.6
-0.6
-0.6
-0.6
-0.6
-0.6
-0.6
-0.6
-0.6
-0.6
-0.6
-0.6
-0.6
-0.6
-0.6
-0.6
-0.6
-0.6
-0.6
-0.6
-0.6
-0.6
-0.6
-0.6
-0.6
-0.6
-0.6
-0.6
-0.6
-0.6
-0.6
-0.6
-0.6
-0.6
-0.6
-0.6
-0.6
-0.6
-0.6
-0.6
-0.6
-0.6
-0.6
-0.6
-0.6
-0.6
-0.6
-0.6
-0.6
-0.6
-0.6
-0.6
-0.6
-0.6
-0.6
-0.6
-0.6
-0.6
-0.6
-0.6
-0.6
-0.6
-0.6
-0.6
-0.6
-0.6
-0.6
-0.6
-0.6
-0.6
-0.6
-0.6
-0.6
-0.6
-0.6
-0.6
-0.6
-0.6
-0.6
-0.6
-0.6
-0.6
-0.6
-0.6
-0.6
-0.6
-0.6
-0.6
-0.6
-0.6
-0.6
-0.6
-0.6
-0.6
-0.6
-0.6
-0.6
-0.6
-0.6
-0.6
-0.6
-0.6
-0.6
-0.6
-0.6
-0.6
-0.6
-0.6
-0.6
-0.6
-0.6
-0.6
-0.6
-0.6
-0.6
-0.6
-0.6
-0.6
-0.6
-0.6
-0.6
-0.6
-0.6
-0.6
-0.6
-0.6
-0.6
-0.6
-0.6
-0.6
-0.6
-0.6
-0.6
-0.6
-0.6
-0.6
-0.6
-0.6
-0.6
-0.6
-0.6
-0.6
-0.6
-0.6
-0.6
-0.6
-0.6
-0.6
-0.6
-0.6
-0.6
-0.6
-0.6
-0.6
-0.6
-0.6
-0.6
-0.6
-0.6
-0.6
-0.6
-0.6
-0.6
-0.6
-0.6
-0.6
-0.6
-0.6
-0.6
-0.6
-0.6
-0.6
-0.6
-0.6
-0.6
-0.6
-0.6
-0.6
-0.6
-0.6
-0.6
-0.6
-0.6
-0.6
-0.6
-0.6
-0.6
-0.6
-0.6
-0.6
-0.6
-0.6
-0.6
-0.6
-0.6
-0.6
-0.6
-0.6
-0.6
-0.6
-0.6
-0.6
-0.6
-0.6
-0.6
-0.6
-0.6
-0.6
-0.6
-0.6
-0.6
-0.6
-0.6
-0.6
-0.6
-0.6
-0.6
-0.6
-0.6
-0.6
-0.6
-0.6
-0.6
-0.6
-0.6
-0.6
-0.6
-0.6
-0.6
-0.6
-0.6
-0.6
-0.6
-0.6
-0.6
-0.6
-0.6
-0.6
-0.6
-0.6
-0.6
-0.6
-0.6
-0.6
-0.6
-0.6
-0.6
-0.6
-0.6
-0.6
-0.6
-0.6
-0.6
-0.6
-0.6
-0.6
-0.6
-0.6
-0.6
-0.6
-0.6
-0.6
-0.6
-0.6
-0.6
-0.6
-0.6
-0.6
-0.6
-0.6
-0.6
-0.6
-0.6
-0.6
-0.6
-0.6
-0.6
-0.6
-0.6
-0.6
-0.6
-0.6
-0.6
-0.6
-0.6
-0.6
-0.6
-0.6
-0.6
-0.6
-0.6
-0.6
-0.6
-0.6
-0.6
-0.6
-0.6
-0.6
-0.6
-0.6
-0.6
-0.6
-0.6
-0.6
-0.6
-0.6
-0.6
-0.6
-0.6
-0.6
-0.6
-0.6
-0.6
-0.6
-0.6
-0.6
-0.6
-0.6
-0.6
-0.6
-0.6
-0.6
-0.575971
-0.621452
-0.536502
-0.631473
-0.649278
-0.633884
-0.597986
-0.672352
-0.59301
-0.410589
-0.600071
-0.6
-0.6
-0.6
-0.6
-0.6
-0.590636
-0.525672
-0.584978
