0.0958883
0.795584
0.741658
0.671086
-0.915647
0.0289339
0.54783
0.822585
-0.673083
0.134815
0.0348649
-0.148252
-0.311492
-0.404957
0.189734
-0.00232232
-0.441336
0.436131
0.348526
0.427464
0.640601
0.588877
-0.948534
0.959694
0.26001
0.79017
0.858621
-0.134573
0.717468
0.774848
-0.716632
0.629442
-0.234729
-0.117376
-0.244001
-0.95709
-0.108912
-0.942527
0.567226
0.985354
0.164202
-0.996832
-0.65469
0.0738093
0.752813
-0.951082
0.329676
-0.752103
0.736764
-0.456808
0.19817
0.808684
0.799732
0.578932
-0.426863
-0.509431
-0.0428187
0.44435
0.626897
-0.567704
0.462536
0.288612
-0.258428
-0.859418
-0.625103
0.60262
0.670302
0.471455
0.24009
-0.859924
-0.98944
-0.155817
0.732907
-0.21847
0.990177
0.731635
0.0211545
-0.936342
0.320992
0.734543
-0.0845017
-0.943017
-0.259654
0.101828
0.212585
0.910475
0.0588143
-0.742678
-0.57795
0.577538
-0.50529
-0.734898
-0.874977
0.0981925
0.637768
-0.0470718
-0.326283
-0.506536
0.705054
0.0879518
0.596107
-0.936304
-0.357671
-0.854066
-0.221154
-0.110856
-0.130828
0.269411
-0.147341
0.972263
-0.693094
-0.296605
0.435104
-0.618078
0.313963
0.971896
-0.369886
-0.121084
-0.538587
0.465307
0.139185
-0.375912
0.708248
0.393279
0.0270938
0.565946
-0.521228
-0.546987
-0.401423
0.692248
-1.00428
0.262063
-0.476814
-0.133726
-0.461734
-0.0519579
-0.408333
0.31382
0.316525
-0.230886
-0.621385
-0.216554
-0.421082
-0.101516
-0.943978
-0.0201307
-0.379563
0.19381
-0.856062
-0.691566
0.10767
-0.740448
0.905087
-0.285138
0.351344
-0.696019
-0.624266
-0.900348
0.183566
0.108198
0.220349
0.147597
-0.0609947
-0.351823
0.440874
-0.563514
-0.172403
0.0700299
-0.601954
-0.750712
0.813198
-0.849088
0.120431
0.83914
0.540179
-0.235702
0.69419
-0.711083
-0.893632
0.841871
-0.313913
-0.452053
0.832064
-0.474066
0.426399
0.374873
0.639427
-0.933742
-0.0225435
-0.981544
-0.381936
-0.889847
0.922796
0.243773
-0.135907
0.767634
0.540809
0.406919
0.0537935
-0.270673
-0.596962
0.124284
0.159602
-0.395478
0.367173
0.239538
0.668499
-0.486272
-0.164427
-0.948693
-0.182921
-0.956677
0.457195
-0.939561
0.736716
-0.260543
0.258518
-0.245767
-0.877385
-0.0197909
-0.782637
0.833596
0.427325
0.555178
0.137555
0.171466
0.649221
0.70954
0.518864
-0.75717
0.777649
-0.120067
-0.700669
-0.167284
0.56984
0.121618
-0.0755684
-0.512975
-0.519865
0.517939
-1.14577
-0.419728
-0.450679
0.638969
-0.675097
0.913649
0.0598673
0.762267
0.929574
0.774439
0.576935
0.25674
-0.176044
-0.0759364
-0.245179
0.810152
-0.574038
0.932535
0.932482
-0.69235
0.194661
-0.910427
-0.325418
-0.535842
0.0833201
-0.529874
0.0649516
0.79337
-0.0879064
0.414245
-0.0172405
-0.528847
-0.330212
0.860715
-0.818636
0.683728
0.401902
0.553644
-0.55005
0.214505
0.526392
0.593068
0.192828
-0.766396
0.991755
0.725185
-0.0784962
-0.670737
-0.252705
0.79672
-0.0674602
0.15105
-0.94257
-0.979592
-0.656849
0.398135
0.177415
0.513904
-0.915977
0.906285
-0.684547
-0.202646
-0.797759
-0.581864
0.905281
0.441504
0.394858
-0.697896
0.436243
-0.182704
0.00332665
-0.787674
-0.322048
-0.995713
0.303401
-0.798026
0.694625
0.632405
0.679543
0.597348
0.547247
0.90728
-0.102124
-0.027823
0.415598
-0.163338
0.658866
-0.421796
0.103287
0.449504
0.58125
-0.845331
0.424693
0.877884
-0.98795
-0.629875
0.92223
0.814956
-0.191069
-0.176938
-0.68861
-0.0538423
-0.199551
0.97829
0.680226
-0.591666
-0.112411
-0.777863
0.141602
0.0539418
0.0737117
0.842041
0.276447
1.01045
-0.332197
0.481182
-0.971764
0.596284
-0.677535
0.238303
-0.0681364
0.510963
0.534662
0.83213
-0.180156
0.0967393
-0.506715
0.392588
0.749034
-0.0619621
0.431093
0.106927
0.508623
-0.366529
0.417423
-0.703795
0.853859
-0.106064
-0.201175
0.229355
0.0186012
0.0422585
0.432178
-0.376677
0.523836
0.481243
0.653157
-0.185406
0.715521
-0.791435
0.263916
0.918976
0.556053
0.119414
-0.629987
0.171186
-0.0787191
0.343671
-0.331707
0.443649
-0.368774
-0.899264
-0.560804
0.662407
-0.784343
0.734568
-0.710962
0.0297492
1.03506
0.198275
0.165447
-0.46201
0.212814
-0.958383
0.474318
0.187611
-0.809291
-0.624996
-0.828394
0.61137
-0.4067
0.485768
0.176722
-0.361563
-0.342089
-0.61702
0.471975
0.61164
-0.323638
0.878203
-0.883674
-0.0705621
0.310557
0.621906
-0.617078
-0.282208
0.209147
0.364922
-0.552482
0.485346
0.697948
-0.877725
0.120347
-0.495572
0.0667833
0.843761
-0.0379
-0.79801
-0.635274
-0.464019
-0.22075
-0.495855
0.613758
0.507357
-0.224604
-1.01988
0.740388
-0.13602
0.488072
0.820031
1.00089
0.808406
-0.051626
-0.52529
-0.554818
0.62973
-0.436849
-0.30949
-0.281909
-0.160305
-0.711409
0.0453068
-0.960356
-0.171792
-0.279935
0.147071
0.496816
0.646906
0.378441
0.145686
-0.399319
-0.224239
0.318822
0.922005
0.0824147
0.784641
-0.141166
-0.837506
-0.692607
-0.170153
-0.916336
-0.954345
0.313332
-0.213378
0.650118
0.0270676
-0.891208
-0.593454
-0.600784
-0.160595
-0.070575
-0.665543
0.478618
0.0403386
-0.115746
-0.888917
-0.0858029
-0.31296
0.693204
0.195643
0.932017
-0.108838
0.645815
-0.711556
-0.0435332
-0.922717
0.536509
-0.587189
0.773275
-0.266575
-0.936063
-0.500688
-0.177749
-0.718275
0.276394
0.869403
0.912993
0.686777
-0.877392
0.241126
-0.307396
0.678865
-0.937621
0.494991
0.673308
-0.515796
-0.823982
0.920826
-0.693207
0.0793529
0.143996
0.089767
0.544994
-0.921887
0.614689
0.00235172
0.260254
0.00281524
0.596456
0.884271
0.57779
-0.734651
0.075016
-0.36389
-0.885052
0.592171
-0.378371
-0.227222
0.856785
0.934657
0.733461
-0.205467
0.376653
0.341587
-0.164066
0.774366
0.949731
0.53725
0.861978
0.122159
-0.535466
0.165443
0.765826
-0.108999
-0.962829
-0.881992
-0.897239
0.708635
-0.384463
-0.364425
1.03095
-0.696989
-0.765161
-0.195846
0.367314
0.840367
0.00579655
0.649423
-0.482182
-0.23756
0.528611
-0.701295
-0.897229
-0.106861
-0.786611
0.680566
-0.371107
-0.349606
0.0809137
0.127791
0.126641
0.380502
-0.871643
0.264479
-0.138135
-0.782077
-0.132503
0.171835
0.477176
-0.720216
-0.199
-0.958383
-0.0364071
-0.50948
-0.109442
-0.415712
0.401588
-0.791685
-0.166522
-0.194449
-0.167091
0.214982
0.236806
0.853921
0.641128
-0.849841
-0.362754
-0.590093
-0.585154
0.401477
-0.428531
-0.650337
0.242415
0.457648
-0.882047
0.411019
-0.978102
0.214426
-0.772219
-0.177458
-0.255055
0.166894
-0.0804737
-0.900301
0.253293
-0.87417
0.671678
-0.413231
-0.619905
0.539745
-0.0576843
-0.716694
0.259288
0.0725013
0.163263
-0.535647
-0.645943
-0.877467
0.657884
0.592862
0.450266
-0.511367
0.477075
-0.217314
-0.592535
-0.620519
0.4545
0.194646
-0.833691
0.437462
-0.965233
-0.0345058
0.00850463
-0.534516
-0.409397
-0.555849
-0.331031
-0.692798
-0.902446
-0.824985
-0.626422
0.742649
-0.610122
0.274207
-0.555342
0.529287
-0.0103901
-0.727476
-0.408414
0.683991
-0.176806
0.801236
-0.023351
0.474589
0.335092
-0.326477
-0.953653
-0.687831
-0.70096
0.73163
-0.383916
0.474877
0.811339
-0.189198
-0.432119
0.76806
0.68221
-0.752184
-0.763366
0.649102
0.560313
0.239402
-0.920757
-0.811367
0.357614
-0.300513
0.893885
0.638453
0.077614
-0.924931
0.262025
0.29066
0.739716
-0.758678
-0.501876
0.40253
0.335675
0.882281
-0.973158
0.269017
0.464874
0.952301
-0.470123
-0.290575
-0.654661
-0.0419973
-0.125954
-0.354003
-0.129941
-0.354545
0.685127
-0.817948
0.459029
0.445746
0.524254
0.551905
-0.110672
-0.824823
0.173426
0.869773
0.514242
0.336345
0.653156
-0.394198
0.466875
-0.725701
-0.70083
0.133602
0.504151
-0.416018
0.644931
0.369258
-0.234416
-0.518941
-0.0946383
-0.0208853
0.797549
0.218454
-0.609245
-0.659024
-0.868573
0.870625
0.599648
-0.162945
-0.130631
-0.047175
-0.783595
0.646266
-0.776588
-0.0998646
-0.810795
-0.415172
-0.153561
0.0563942
0.222979
0.491907
0.019057
0.622801
0.17527
0.348925
0.265104
-0.991513
0.459493
0.5153
-0.0729481
0.637387
0.576246
-0.921463
-0.980537
-0.0435539
0.79031
-0.72708
0.453739
0.920004
0.380851
0.607856
-0.0889728
0.72323
-0.196837
-0.631745
-0.854198
-0.465728
-0.990666
-0.42644
0.239389
0.729632
-0.970751
-0.449901
0.69942
0.366343
-0.500052
-0.397521
-0.482326
0.36404
-0.511991
-0.855288
0.907978
-0.411019
0.733191
0.696097
-0.103358
0.0780983
0.0208977
-0.938697
-0.485786
0.267394
0.749751
-0.374678
-0.627529
0.785949
0.653786
0.585142
-0.191045
0.104984
0.328449
-0.936362
0.149256
0.745255
-0.0927265
0.479874
-0.197645
-0.513713
-0.0055191
0.112771
-0.601957
0.0813128
-0.0590161
-0.974276
0.861088
-0.283411
0.187654
-0.0295672
0.749433
0.379606
-0.244953
-0.921423
0.140928
0.834453
-0.593358
-0.487155
0.366278
-0.534725
-0.689072
0.7598
0.374013
-0.150296
-0.52118
0.0566826
-0.619939
0.0158695
-0.19676
-0.00700596
0.794991
-0.785962
-0.395895
0.856914
0.700286
0.378594
-0.870671
0.723794
0.564116
-0.0102922
0.271936
0.205369
0.0131844
0.0531477
0.149697
0.776011
0.403291
-0.787616
-0.0110053
0.0526168
0.646187
-0.930666
0.964354
-0.735829
0.871468
0.955104
0.477326
0.871403
0.886906
-0.288698
-0.706034
-0.120554
-0.311591
0.505041
0.989846
0.926245
0.817133
-0.747393
-0.487425
0.528375
0.82345
0.208811
0.817418
-0.981545
-0.650138
-0.882761
0.0292219
0.0701652
-0.323794
-0.487629
0.581598
-0.980503
0.344724
-0.431294
-0.768279
-0.506654
-0.53742
-0.00530611
-0.377334
0.691221
-0.734603
0.585494
-0.602552
-0.365492
0.271263
-0.472832
0.261157
-0.780729
-0.781044
-0.409026
-0.0231402
-0.606199
0.759454
-0.0930778
-0.269407
-0.514417
-0.901285
0.225893
0.514105
-0.0172217
-0.132832
0.333513
0.234859
0.905231
0.133968
-0.153652
0.873856
-0.845021
-0.76295
-0.125618
-0.0829034
0.321201
-0.442351
-0.0142459
-0.202907
-0.815501
0.508233
0.589385
0.666654
0.466771
-0.450113
-0.0865289
0.897291
-0.685179
0.735167
0.202479
-0.807222
-0.693531
0.953857
-0.962669
0.738179
-0.0682998
0.231061
0.730514
0.727176
-0.70259
-0.0500761
-0.456124
0.191518
0.430631
0.0433877
0.872875
0.246795
0.671364
-0.938752
-0.530418
-0.216226
-0.967154
0.651438
-0.807017
-0.244436
-0.944295
0.363605
0.685266
-0.270079
0.051544
0.824987
0.548402
-0.455443
-0.746065
-0.535018
0.0844157
-0.398431
-0.660535
-0.656119
0.365944
-0.78581
-0.0568928
0.539036
-0.0152152
0.324084
-0.377344
-0.261177
-0.682019
0.416277
0.0292867
-0.642282
-0.00469824
0.308777
-0.700025
0.0453959
-0.16468
-0.29705
0.293298
0.334197
-0.619471
-0.708469
-0.145058
-0.88889
0.78456
0.0651596
-0.878174
-0.881979
0.244137
-0.829332
0.376191
0.619486
-0.284773
0.0801746
0.574292
0.204843
-0.178436
-0.955418
-0.738913
0.307046
0.503161
0.762158
-0.0786298
0.28792
0.161058
0.0493405
0.24187
-0.66811
-0.102072
-0.336239
-0.469103
0.564762
0.61655
-0.0785929
-0.919817
0.0651304
-0.818892
0.913215
-0.0175274
0.241695
-0.254101
0.0231117
-0.301684
0.257628
0.335775
-0.836483
0.711075
-0.927707
-0.680493
0.445027
-0.810398
0.287033
-0.389217
0.411624
-0.383314
0.556568
0.627727
-0.939835
-0.647054
-0.402454
-0.156268
0.220458
0.817845
-0.46184
0.348671
-0.351676
-0.454877
0.670753
-0.937939
0.406772
-0.951657
-0.489017
-0.0874873
0.738694
0.414431
-0.895257
0.820394
-0.20128
-0.042546
0.974805
0.415354
0.042177
-0.735204
-0.449422
-0.612604
0.256097
0.570803
-1.082
0.34868
-0.628618
-0.595451
0.171082
-0.806949
0.876562
1.00107
-0.630696
-0.123448
-0.296076
-0.585664
0.28849
-0.894657
0.301702
-0.0626991
-0.9929
0.170265
-0.323778
0.391211
0.606646
-0.139828
-0.807976
-0.367981
-0.687596
0.619277
0.0233983
0.423616
-1.11852
-0.967249
-0.224099
0.108939
0.0710139
0.938518
0.548148
0.267789
0.676008
0.0991341
0.366864
-0.948533
-0.80109
0.149609
0.0298005
0.70326
-0.0917667
-0.392882
-0.686397
0.42842
-0.955096
-0.428426
0.86019
-0.177802
0.62388
0.890687
0.605644
-0.569313
0.00589624
-0.881746
-0.0708727
0.149979
-0.912018
0.0574549
-0.233315
0.235765
-0.712664
0.73696
-0.210026
-0.875284
-0.47475
0.374592
0.13785
0.335412
0.0601673
-0.593906
-0.324943
-0.942825
0.456188
-0.898484
-0.590199
0.296567
-0.699365
-0.661085
0.545171
-0.789533
0.837732
-0.0510919
0.000398099
-0.33443
0.0512977
-0.919706
0.97663
-0.396867
0.670851
-0.0691914
-0.860167
0.461408
-0.973917
0.572843
-0.913962
0.610404
0.567355
0.980045
0.932737
0.749657
-0.460053
0.312195
-0.550356
-0.714254
-0.836495
0.619444
0.743987
-0.291115
-0.811954
-0.257302
0.669611
-0.952784
0.792617
0.727461
0.209934
-0.0381501
-0.413758
0.35632
-0.0724461
-0.393299
0.0694859
0.45233
0.708333
-0.712942
0.454718
-0.90646
-0.528941
-0.976631
0.332821
-0.564995
0.0078197
0.872482
0.955252
-0.0697532
-0.387044
-0.304006
0.761631
0.293841
0.961199
-0.667859
-0.103863
-0.879588
0.692306
0.409605
-0.14516
-0.449214
0.476558
0.234641
-0.615163
-0.422846
-0.171942
-0.132655
-0.208477
-0.17714
0.799801
0.171713
-0.201132
-0.0130739
0.64512
-0.646214
-0.194805
0.354054
0.145578
-0.66264
-0.477735
-0.269
0.306096
0.507039
-0.583816
0.389563
-0.990508
-0.726088
0.326061
0.909471
-0.34796
-0.0910671
0.251606
0.266879
0.378589
-0.121063
0.0661004
-0.236906
-0.0407481
-0.610594
0.856519
-0.652705
0.569439
0.30325
-0.444294
0.357719
0.671076
-0.0514178
0.851891
0.292234
-0.0458141
-0.697624
0.471976
-0.497858
0.667677
-0.827289
0.352783
-0.0266762
0.207404
0.726079
0.00661214
0.766306
-0.481066
0.446578
0.589457
-0.146115
-0.00469458
0.386789
-0.458678
0.432855
0.786914
-0.315808
-0.475643
0.511737
-0.157796
-0.289343
-0.234851
0.115738
-0.536893
-0.976239
0.492197
-0.728416
-0.892884
0.249363
-0.377477
-0.342439
-0.0333043
0.3373
0.190382
-0.624611
-0.24956
-0.320789
-0.91503
-0.889834
0.284611
0.291397
-0.933779
-0.774133
-0.260617
0.897206
-1.00018
-0.487393
0.409429
-0.868265
-0.969869
0.87942
-0.348891
-0.0672782
-0.451871
-0.91593
-0.103419
-0.516627
-0.30488
-0.759594
0.314749
-0.632139
-0.718286
-0.295767
-0.878646
-0.674455
0.0313367
0.570125
0.244874
-0.883346
-0.19845
-0.599486
0.322492
0.294641
-0.192881
0.835568
-0.442699
-0.383084
0.39216
0.295568
0.142402
-0.600325
-0.35121
0.858092
0.854958
-0.489624
-0.299367
-0.857947
-0.278572
0.091184
0.594548
0.207536
0.334985
0.548625
-0.340917
0.324072
-0.073012
-0.702648
-0.164888
-0.139705
0.400721
0.674125
-1.01047
0.174518
0.68701
0.728499
0.872019
-0.932164
-0.498772
-0.888165
-0.903619
0.379662
0.352079
0.946082
0.828858
-0.944949
-0.517649
0.480739
0.334631
0.911934
-0.754856
0.192963
0.678913
-0.299853
-0.477944
0.0820211
-0.194107
-0.34203
0.0094289
0.68126
-0.544163
0.565706
0.740358
-0.298456
-0.731895
0.205515
0.678569
0.298376
-0.52314
0.839408
-0.500739
-0.896548
0.516466
-0.581614
0.557872
0.441847
-0.828456
-0.983835
0.698535
0.391732
0.777179
0.354998
0.776368
0.144843
-0.235686
0.0286914
0.220974
0.611188
-0.881123
-0.052518
-0.66219
-0.586617
0.253667
0.917522
-0.51274
-0.703692
-0.344055
0.979356
-0.150813
0.249863
0.750071
0.520884
0.827207
0.87032
-0.889416
0.184559
-0.621727
0.0422398
0.930492
0.0206108
-0.378903
0.768865
-0.495476
-0.0620369
-0.469682
0.446142
-0.580438
0.732115
0.639314
-0.476884
0.757027
0.893568
-0.40112
0.377781
0.0534309
-0.551962
-0.657367
-0.854109
0.295079
-0.614695
0.700669
-0.323363
-0.472335
0.332032
0.985332
0.343626
-0.96523
-0.281598
-0.938707
-0.68756
-0.818655
0.275721
-0.0165187
0.759509
0.901199
0.0808331
-0.151762
0.898763
-0.809866
0.180662
0.176184
0.330858
-0.580417
-0.352634
0.0371602
0.0575534
0.337756
0.00103962
0.140417
-0.556254
0.846984
0.847521
0.0688218
-0.556002
0.669021
0.419364
-0.991925
-0.585665
0.862411
-0.944082
0.39323
0.303575
-0.0557039
0.355846
0.108426
-0.191557
0.000990272
-0.811149
-0.537251
-0.213485
-0.509632
0.414881
-0.498375
0.78994
-0.262898
-0.909454
0.553413
-0.63545
0.301483
-0.864994
-0.744249
0.93971
0.0891622
0.232819
-0.995631
-0.745206
0.355485
0.729835
-0.910828
0.642472
0.356759
0.830014
0.212136
-0.912951
0.290891
-0.678372
0.494858
0.241885
-0.446643
-0.421651
-0.880524
-0.111255
-0.134253
-0.321604
0.982321
-0.736242
0.888635
-0.507504
-0.0446832
-0.599118
-0.952163
0.664295
0.00478578
0.835612
-0.730738
-0.528305
-0.357121
0.354226
-0.432643
0.356371
-0.345055
-0.671144
0.265545
-0.288071
-0.682496
0.470238
-0.0782682
0.272984
-0.277659
0.615381
-0.961592
0.906202
0.240117
0.795004
0.206056
0.461575
-0.815902
-0.315114
-0.378342
-0.79111
0.35774
0.875276
-0.150577
-0.461147
0.122519
-0.811005
0.437296
-0.928245
0.604147
0.599973
-0.408046
-0.0196476
-0.583819
0.157016
-0.765261
0.0314983
0.425365
-0.500862
-0.741703
-0.324782
-0.545367
0.858913
0.934615
-0.229424
0.126582
-0.0421033
0.731653
-0.855046
-0.106426
0.486158
0.386446
-0.114304
0.777011
0.146039
-0.354183
-0.821664
0.797371
-0.871766
0.449736
-0.209372
-0.934054
0.155065
-0.925844
0.75079
-0.0494247
0.674834
-0.890219
-0.159798
0.559515
0.119837
0.747995
-0.961403
0.94357
0.727316
0.904109
0.149913
-0.659984
-0.440689
0.847031
-0.461748
0.535646
-0.841383
-0.174228
-0.495976
0.473246
-0.423545
0.847046
-0.615272
-0.658421
-0.707165
-0.529021
0.145593
-0.372027
-0.91214
-0.7057
0.51338
0.279735
-0.294765
-0.399284
0.224476
0.754355
-0.119044
0.999492
-0.180754
-0.070301
-0.317107
-1.01458
-0.235197
-0.329505
-0.107011
-0.440063
-0.72859
0.282426
-0.414225
0.750207
0.585995
0.214088
-0.530029
-0.156501
0.915175
-0.0928348
-0.656439
0.717114
-0.633528
0.46179
-0.144046
-0.786068
0.010319
0.409635
-0.0635054
-0.0563996
-0.114089
-0.461673
-0.333997
0.324412
0.316571
0.233755
0.460361
-0.0463681
0.605965
0.932373
-1.04219
-0.357718
-0.578703
-0.78163
-0.253277
0.733013
-0.65645
0.218701
0.107651
-0.251883
-0.0052537
0.311432
0.822296
0.448669
-0.848486
-0.103366
-0.687996
-0.189194
0.654423
-0.167059
0.62978
-0.819853
0.462381
-0.825257
0.540093
0.870551
-0.405115
-0.76846
0.475272
0.894178
-0.451178
-0.295516
-0.948889
0.715188
0.791449
0.864905
-0.951605
-0.478841
0.693814
0.240792
-0.434506
0.189167
-0.559407
0.339182
-0.325336
0.955113
-0.311672
-0.376859
-0.10583
-0.409223
-0.049939
0.721299
-0.46873
0.0783784
-0.868644
0.130721
0.208259
0.672309
-0.469517
-0.501911
0.892442
-0.4592
-0.0799961
-0.615626
0.485253
-0.864422
-0.218664
0.584464
0.74976
0.559134
-0.646971
0.157538
-0.491227
0.0115191
0.00777638
0.545401
0.326528
-0.542994
0.671669
0.412268
0.295091
-0.197363
-0.622639
-0.33244
-0.125405
0.255974
0.526078
0.910937
0.463991
0.32286
-0.268232
-0.915629
0.378001
0.619611
0.806123
0.961042
0.165345
0.855751
-0.317087
0.421489
-0.990308
0.571786
0.119681
0.377671
0.912829
0.701795
-0.88352
-0.766127
0.255734
0.146625
-0.824957
-0.224416
-0.166533
-0.526888
0.156564
0.448928
-0.0732924
-0.616406
-0.5593
-0.734765
-0.525056
-1.0162
-0.136101
-0.700827
-0.330974
0.220114
-0.728319
-0.268965
-0.879189
-0.00172627
0.766642
0.766389
-0.645657
0.729335
-0.505496
0.229197
-0.484835
0.712523
-0.671763
-0.781711
-0.763894
-0.867941
-0.110064
-0.864281
0.230136
-0.641425
-0.0576264
-0.236885
0.543856
0.882495
-0.926171
-0.721282
-0.0743675
0.185558
0.936871
0.373539
-0.574115
-0.00298989
-0.015202
-0.827895
0.162694
0.81522
-0.746464
-0.393925
-0.45366
-0.311124
-0.740187
-0.386014
-0.91801
0.120794
0.573241
-0.989113
0.467072
1.02062
0.224504
-0.386348
0.584065
-0.538289
0.737122
-0.886348
-0.581937
-0.22553
0.107238
0.852003
-0.973255
0.330767
-0.0203071
0.574463
0.777168
0.395296
0.762495
0.0609143
-0.162835
0.51926
0.0982508
-0.0447438
0.854542
-0.64049
0.112578
0.115632
0.846379
-0.719175
-0.107062
-0.086516
-0.555981
0.309522
0.43953
0.798087
0.780459
0.144784
0.299241
0.132747
-0.176146
0.831062
-0.481705
0.785142
0.116251
-0.692342
0.305723
-0.593788
0.782762
0.383811
-0.258455
-0.685702
-0.337882
0.903306
0.87758
-0.185363
0.283118
0.864814
0.846209
0.0148131
-0.439044
-0.245418
0.898067
0.336948
-0.278431
-0.753699
0.903447
0.892681
-0.132786
0.0850837
-0.338676
-0.167218
0.839619
-0.586954
0.324238
-0.374991
0.0980586
-0.565273
0.563648
0.263939
0.370979
-0.581228
-0.479456
-0.446109
0.859465
-0.292933
0.971024
-0.263401
-0.574038
0.0940667
0.821025
0.268973
0.779046
-0.117254
0.482593
0.722384
-0.199669
-0.440936
0.500188
-0.844296
-0.539731
-1.02039
-0.349366
0.288483
-0.440358
-0.142353
0.914749
-0.0355495
-0.695541
0.232955
-0.576908
-0.0131501
-0.188573
-0.310551
-0.0676269
0.666271
0.247384
-0.216869
-0.900739
-0.951289
-0.478162
0.936977
0.230301
-0.721987
0.909743
-0.183752
0.361179
0.415216
-0.806283
0.919614
-0.409947
-0.0305123
-0.324559
0.154741
0.652942
0.543632
-1.08141
0.146712
0.671659
0.347112
0.270395
-0.962878
-0.964146
-0.855965
0.0285834
0.700054
-0.174317
-0.636915
-0.299984
-0.163682
-0.656172
0.0418521
0.100937
-0.64717
0.21859
-0.203521
0.249406
-0.10549
-1.00237
0.398599
-0.301232
0.343478
0.562273
-0.126025
0.0668638
-0.247707
-0.242124
-0.978341
0.788842
0.605046
0.617332
0.641293
0.973628
-0.813287
0.499425
-0.493409
0.00358517
0.41705
0.292697
0.614606
-0.255367
0.106242
0.0674322
-0.357217
-0.664743
-0.129566
-0.93999
0.940166
-0.332949
0.893895
-0.820325
0.192017
-0.185693
-0.298514
-0.850505
-0.905757
0.215552
0.289065
0.429908
0.13984
0.406368
0.120265
-0.0476051
0.244336
0.591344
-0.652999
-0.975673
-0.54717
-0.671827
-0.458406
-0.522302
0.268037
0.414802
0.985951
0.780851
-0.41968
0.157293
-0.761592
0.0217489
-0.847118
-0.3729
0.249179
-0.152488
0.77422
-0.786855
0.95292
0.11333
0.218868
-0.307736
0.715887
-0.993331
-0.798276
-0.19544
-0.433943
0.291157
-0.238616
0.989277
0.584084
0.169053
0.205899
-0.305316
0.943127
-0.0184074
0.551773
0.609032
-0.372276
-0.288715
0.834201
0.0230953
-0.489432
0.503679
0.4314
-0.638442
-0.0476083
0.53747
-0.41409
0.293532
0.504028
0.750803
0.505076
-0.56116
0.93397
0.814543
0.535343
0.548371
-0.198072
0.0312264
-0.103963
-0.0295011
0.904758
0.40322
0.450491
-0.305718
0.433967
-0.502046
-0.478513
0.576663
0.169515
-0.573186
-0.252755
0.336455
-0.965918
0.15258
-0.459118
-0.682468
-0.274534
-0.900499
0.136448
0.871971
-0.325725
0.695548
0.720458
0.228768
0.738976
-0.79211
-0.54594
-0.815123
0.531398
-0.625265
0.761603
-0.586742
0.0514839
-0.942867
-0.643179
0.619169
-0.382442
0.95599
-0.825266
-0.204249
0.766266
-0.317636
0.648231
0.462019
-0.148252
0.267153
-0.88284
0.0012809
0.53251
0.568996
0.719755
-0.934208
0.0242994
0.88681
-0.948676
-0.0316123
-0.398979
-0.204904
-0.695889
-0.292811
-0.856566
0.217225
0.0480981
0.106477
-0.553954
-0.103717
-0.74644
-0.746898
-0.0177557
0.558511
0.583322
0.661184
-0.270725
-0.0987115
0.184731
0.310645
0.706252
-0.236151
0.919934
-0.542901
0.992637
0.94511
-0.293651
-0.00467885
0.268614
-0.738281
-0.839919
0.993285
-0.778139
0.747248
-0.967867
-0.952616
0.045685
0.592369
0.695954
0.677047
-0.704125
-0.639425
-0.0141181
0.796531
0.830278
0.0765707
-0.994918
-0.224317
0.70887
0.773456
0.0218536
-0.405514
0.238113
-0.733378
0.502617
-0.797876
0.894708
0.319832
0.172875
0.843602
0.27685
0.878858
-0.284418
-0.0876007
0.736172
0.255206
-0.515088
-0.908034
0.00667822
-0.793203
0.475358
-0.0335326
0.166494
-0.346413
0.135533
-0.12591
-0.496366
0.0381762
-0.186358
0.767164
-0.914657
-0.543762
-0.660853
-0.254867
-0.684902
-0.179695
-0.545779
0.661364
0.305007
0.575873
0.390002
-0.879111
0.353749
0.0941241
0.75774
-0.976496
0.354658
-0.085712
0.790886
-0.531206
-0.354094
0.0965208
0.854084
-0.0695651
-0.602364
-0.610705
-0.71157
0.637063
0.123151
-0.520427
-0.444303
-0.26085
-0.837161
-0.610693
0.0771643
-0.142642
-0.0839608
0.937263
0.341094
-0.676292
0.34673
0.139328
0.0662632
0.329437
0.762193
0.136263
0.850866
-0.258756
-0.397669
-0.827071
-0.967944
-0.771016
0.23894
0.734483
-0.76782
-0.87914
0.625548
-0.4645
0.548041
0.143114
0.934422
-0.777172
-0.976485
0.916736
0.669714
0.121141
0.0683972
-0.360401
0.677424
-0.302879
0.208386
-0.903174
0.0571499
0.316846
-0.897621
0.438748
-0.637711
-0.80326
0.66578
-0.589203
-0.492615
0.625371
0.51779
0.00540328
0.168629
-0.403578
-0.0926043
0.616732
0.67031
-0.214035
0.087612
-0.891549
-0.268594
0.715984
-0.502855
-0.160146
-0.070088
-0.666124
-0.235922
-0.242113
-0.410577
-0.218881
0.505389
0.521243
0.544032
-0.587053
-0.503715
0.471449
0.881383
-0.927464
-0.969718
-0.00622821
0.712249
-0.824541
0.85658
0.122955
0.459409
-0.252657
0.341934
-0.529514
-0.699869
-0.299121
0.64512
-0.308344
0.465555
0.122744
-0.182389
-0.387144
0.728334
0.441654
0.566755
-0.59114
-0.747457
-0.0748971
0.72669
-0.346256
0.90717
-0.702899
-0.0137695
0.804075
0.207654
-0.967915
-0.525753
0.164337
0.379685
0.0329277
-0.0685438
0.934524
-0.421202
0.623609
0.643482
-0.6103
-0.266669
0.43838
0.565922
0.454005
0.166641
0.949842
-0.822304
0.773205
-0.543819
-0.232613
0.297588
0.930881
-0.327473
0.65105
0.74481
0.447439
0.70983
0.475626
-0.317735
-0.878685
0.431786
0.0619668
0.0312155
-0.556505
-0.199402
0.856063
0.256621
-0.85553
-0.467951
0.563208
0.733385
0.342711
-0.33206
0.245554
-0.0523107
0.525744
-0.744349
0.75758
-0.14224
-0.964659
0.805025
-0.150624
-0.164509
-0.929481
-0.75852
-0.890712
-0.337207
0.73052
0.696725
-0.571644
0.316213
0.918932
-0.780542
-0.753583
0.895802
-0.0648856
-0.579849
0.169396
-0.599107
-0.174339
-0.0952295
0.491661
-0.217629
0.413055
0.415185
0.511152
0.723615
-0.37083
-0.983598
-0.175582
0.295241
0.0632446
-0.234714
0.810415
-0.113444
-0.960377
-0.121614
-0.254922
0.0430515
0.171693
0.50219
0.332054
0.01396
-0.529001
0.660337
-1.04338
-0.366035
-0.991406
-0.846701
0.0103968
-0.13282
0.481706
0.39851
-0.180452
0.0498377
-0.953371
-0.847017
-0.63045
-0.382663
0.123742
0.324939
-0.533011
-0.319335
-0.504252
-0.855472
-0.821669
0.408364
0.534384
-0.528038
0.163089
0.487301
0.270174
-0.42352
-1.11648
0.639924
0.60943
-0.872301
0.780443
0.322603
-0.401161
-0.670563
0.275816
0.902994
0.523968
0.837469
-0.483961
0.0725521
0.957745
0.724787
-0.555791
0.0182039
-0.423926
0.55995
0.737031
0.437712
0.637006
0.503705
0.659298
0.424225
0.579132
0.0262486
0.510548
0.452476
0.540155
-0.298432
0.243659
0.157921
0.398775
-0.371437
-0.0359488
-0.147409
-0.601934
-0.717841
0.31295
0.662177
-0.749895
0.900425
0.752367
-0.000664278
-0.433582
0.630511
-0.265271
-0.0359756
-0.252943
-0.394163
0.455972
0.0578927
0.824597
0.382387
0.311729
0.513931
-0.800355
-0.766214
0.228228
0.510503
-0.0185685
0.211184
-0.348452
-0.190083
-0.995557
-0.303483
-0.094038
0.832868
0.130324
0.846441
-0.860784
0.95602
-0.412694
0.184112
0.79385
-0.094937
-0.906014
-0.616854
-0.581015
-0.700656
-0.827962
-0.85576
0.189517
-0.478297
0.0670659
-1.03936
-0.871759
0.832209
-0.456715
-0.35816
-0.855604
-0.535774
0.684878
-0.345623
-0.145175
0.424223
0.755535
-0.261146
0.326516
0.237379
-0.511561
0.239605
-0.92854
-0.559495
-0.830169
0.12064
0.494071
-0.376276
0.226084
-1.07632
0.686369
0.975059
0.173843
-0.539199
-0.965576
0.919951
-0.818466
-0.790395
-0.812997
-0.812631
-0.122085
0.410642
0.884619
-0.796034
0.0807282
0.0553867
0.238622
0.167868
0.792096
0.716425
-0.151815
-0.487864
0.564773
1.07308
0.080016
-0.970797
-0.7611
0.687034
-1.06194
-0.802151
0.80085
0.846076
-0.240509
0.0469192
0.31424
-0.162878
-0.351706
0.769668
0.750037
-0.206645
-0.295428
0.724222
0.133867
0.510889
-0.173378
0.120701
-0.722382
0.085991
-0.59594
-0.69481
0.8672
0.265504
0.0974554
-0.298703
-0.0882722
-1.01261
0.00685707
0.387901
0.362945
-0.242949
-1.00658
-0.135239
0.248788
-0.606459
0.979975
-0.817483
0.0105991
-0.156793
-0.291722
0.929183
-0.97039
0.797523
0.174145
0.209763
-0.787325
-0.981787
-0.632794
0.865692
0.85822
-0.575662
0.762801
-0.552773
-0.0682327
-0.10216
-0.495612
0.908765
0.577765
0.283117
-1.03057
-0.638314
0.508095
0.186041
0.763591
0.614266
-0.448106
-0.233538
-0.625056
-0.969488
0.996049
-0.0626597
-0.822189
0.301294
0.830033
-0.626758
-0.570612
0.249163
0.222002
-0.17054
0.668952
-0.358725
-0.0172043
-0.471179
0.285563
0.991707
-0.771737
-0.720563
0.0954374
-0.615092
0.0293313
-0.551223
-0.515789
-0.599677
-0.864352
0.196372
0.290754
-0.597767
0.471954
-0.368039
-0.342137
-0.257524
0.342962
0.992552
0.957394
-0.429874
0.95545
-0.110912
0.607168
-0.00881669
-0.26244
-0.631036
0.611034
-0.485587
0.334966
-0.460377
0.0746395
-1.00265
0.368891
-0.661438
0.882504
-0.35878
-0.566989
-0.270854
-0.735068
-0.0614036
0.222709
0.445294
0.863003
0.635355
0.937921
0.771381
-0.652666
0.264068
-0.516776
0.902493
0.297386
0.751626
-0.127786
0.0280265
0.111719
-0.952813
0.0967432
-0.0721986
0.281056
-0.370227
0.199238
-0.782943
0.617441
0.276813
0.90291
0.807525
0.0979826
0.651782
-0.320199
0.894726
-0.973431
0.0470685
0.949047
0.751179
0.582473
0.635652
0.240634
-0.52373
0.856367
0.540661
-0.720849
0.429973
-0.920804
-0.872715
0.0743303
-0.34324
-0.3108
0.659988
0.150954
-0.138458
0.181941
0.416975
0.0629043
-0.690347
-0.775109
0.908301
-0.222841
-0.491617
-0.00716567
-0.248322
-0.460463
0.933609
0.829548
-0.944737
-0.370216
0.957396
0.0558199
0.214789
-0.766703
-1.01375
0.401611
0.845222
-0.8204
0.318553
-0.853054
0.113887
-0.231334
0.180292
-0.424726
0.399622
-0.502365
0.469771
-0.315174
-0.902294
0.292041
0.766226
-0.860595
0.368356
-0.948913
0.427049
0.754952
0.801608
-0.471178
0.49116
0.239385
0.476619
0.772461
0.00824941
0.259253
-0.738348
-0.533146
-0.337887
0.302613
0.62809
-0.246338
-0.439575
0.582342
-0.914875
-0.801285
0.105101
0.212863
0.148358
-0.281169
-0.99533
0.450837
0.901033
0.733539
0.476974
0.0888325
-0.27578
-0.686938
0.29809
-0.974773
0.190379
-0.229219
-0.700915
0.869658
0.826068
0.440269
-0.452264
0.970744
0.829162
0.356261
0.374798
-0.0776542
-0.718688
-0.938527
0.0917742
-0.253069
0.13692
0.607703
-0.178469
0.847893
-0.769858
-0.270641
0.306617
-0.210575
0.395929
0.166696
-0.797237
-0.0462126
0.664701
0.838984
0.60732
0.935281
0.800097
-0.919538
0.335317
-0.624386
0.588165
-0.906536
0.794202
0.0587259
-0.486346
-0.463574
-0.549145
0.706529
-0.110821
-0.996151
-0.41653
-0.597094
-0.802688
-0.183599
-0.503185
-0.700873
-0.962507
-0.256634
-0.678843
-0.728667
0.128521
-0.184242
-0.685968
-0.379519
-0.698199
0.72842
-0.0598936
-0.955506
0.368651
0.863547
-0.409092
-0.313884
0.379079
0.941444
-0.5898
-0.677019
-0.487611
0.335888
-0.261834
0.109993
-0.115635
-0.219217
-0.472421
0.162541
0.0427966
0.974076
-0.127786
-0.575909
-0.338144
0.921038
0.560745
0.736109
-0.604396
0.786337
0.699117
-0.232628
0.621496
0.29355
-0.548885
0.900563
-0.409077
-0.902933
0.00144279
0.67891
-0.762153
0.17037
-0.509528
-0.739141
-0.538593
0.620461
-0.348432
0.377797
-0.058995
0.931213
0.525308
0.845688
0.471433
0.158815
-0.299195
0.33919
-0.137205
0.540387
-0.470583
0.505387
0.973139
0.796684
0.247791
-0.707216
-0.12667
-0.920078
0.726028
0.658783
0.337848
-0.19893
0.197785
-0.31324
0.770814
0.503997
-0.788643
0.419084
-0.194258
0.703213
0.505657
-0.300818
-0.488673
-0.691612
-0.00646424
-0.161417
0.115934
0.564418
-0.552996
-0.979943
-0.684922
-0.319882
0.781154
0.1409
0.865295
0.640438
-0.16076
0.773804
0.965203
0.947156
0.489134
0.226794
-0.430473
0.204082
-0.752208
-0.830203
0.728678
-0.136649
-0.440249
-0.0441083
0.203853
0.57296
0.237968
0.563455
0.879219
0.409383
0.774117
0.595425
-0.0611601
-0.124471
0.20091
-0.826528
0.610833
-0.596603
0.531289
-0.927426
0.499442
0.762542
0.354067
0.965125
0.288697
-0.353885
0.667198
0.192979
-0.584872
-0.096456
-0.579917
-0.747144
-0.470189
-0.710869
0.578043
-0.0402427
-0.674509
0.984774
-0.544244
-0.983432
0.306298
0.274672
0.291818
-0.049989
0.0923318
-0.364755
0.825412
-0.690629
0.295268
0.589928
0.00702775
0.20602
0.0203837
-0.512084
-0.942385
-0.892902
0.290987
-0.638642
-0.974096
0.540342
0.131192
-0.69213
0.417388
-0.479684
0.0403297
0.148185
0.811898
0.342017
-0.461676
0.573772
-0.748258
-0.938337
-0.91968
0.189214
-0.838484
0.581989
-0.513719
0.289934
-0.310253
-0.995985
-0.654613
0.876152
0.67792
0.707253
-0.87813
0.797182
0.440558
0.301998
-0.36229
-0.640605
0.338593
0.122176
-0.504941
0.254123
0.830176
-0.951785
0.458673
-0.872832
-0.249812
0.851374
-0.580043
0.227925
-0.360622
-0.383113
0.288474
-0.444632
-0.018025
0.479374
0.00950348
0.53306
0.891206
-0.951412
-0.717173
-0.63883
-0.571597
-0.509252
0.178589
0.607543
-0.203053
-0.534618
0.179209
0.87875
0.774854
-0.6525
-0.188193
0.977585
-0.948924
-0.846048
0.400981
-0.694679
0.847139
-0.75136
-0.739689
-0.825064
-0.468476
-0.261626
-0.109453
-0.199349
0.441604
-0.87742
-0.317316
0.78859
-0.336231
-0.704132
-0.528138
0.654171
-0.180269
-0.652764
0.220201
0.0248816
-0.778288
-0.218561
0.098915
-0.465198
-0.76503
-0.786455
0.712248
-0.151705
0.0254211
0.149101
-0.787835
0.0669608
-0.290288
0.657987
0.923233
-0.254041
0.514071
0.0119955
-0.0343776
-0.81693
-0.512509
0.0951807
-0.371623
-0.142504
0.260792
-0.640704
-0.769018
-0.970783
0.942312
0.338131
0.17069
-0.172022
-0.635517
0.219028
0.136663
-0.895259
-0.180207
0.152743
-0.227494
0.680784
0.400047
-0.677968
0.603431
-0.438387
0.287696
0.506794
0.251268
-0.281845
-0.547179
0.0564508
0.42148
-0.661218
0.711349
0.808556
-0.0262033
0.0670154
0.174697
-0.747876
0.755296
0.139165
-0.8003
-0.532645
0.63595
-0.19426
-0.960897
-0.168458
0.174618
-0.612753
0.815638
0.644289
0.0889837
0.848687
0.839951
-0.31066
0.525707
0.156689
0.751547
0.971224
0.865383
-0.3532
-0.218197
0.829463
0.204322
0.758372
0.628657
-0.488458
0.59846
0.858587
0.469016
-0.852843
0.462162
-0.787323
-0.357412
-0.794527
0.197608
0.857587
-0.54539
-0.273678
-0.370394
-0.200712
-0.453668
-0.0156969
-0.0750152
-0.70007
0.299105
0.762551
0.718107
-0.711703
-0.64237
-0.634086
-0.181178
0.863624
0.635342
0.594455
0.265405
0.604053
0.376349
0.944505
-0.142004
0.178739
-0.909762
0.789672
-0.622779
0.791491
-0.974347
-0.426594
0.674592
0.429165
-0.0916522
-0.576143
0.0692057
0.490308
-0.534127
-0.560028
0.461416
-0.700478
-1.25618
0.0234794
-0.349806
-0.500006
-0.704754
0.900905
-0.586717
-0.431189
-0.43275
-0.239801
0.206151
0.706003
-0.296223
-0.887343
0.745762
-0.23852
0.309895
-0.767232
-0.841364
-0.609441
-0.722684
-0.58782
0.393779
0.997129
0.1476
-0.91659
0.589094
0.469994
-0.181532
-0.855422
0.276808
-0.333254
-0.354024
0.0883424
0.7919
0.426375
0.1768
0.730409
-0.996102
0.390036
-0.680076
-0.909135
-0.695742
0.674802
0.370152
0.186409
0.700794
0.397188
0.186185
-0.553142
-0.67289
-0.766644
0.0900711
0.263664
0.311662
-0.0511696
0.625243
-0.572184
0.0500946
-0.59292
0.130083
0.454888
0.318198
0.727535
-0.576891
0.873706
-0.0949725
-0.919868
0.770198
0.795682
-0.784506
-0.386197
0.0335521
0.783034
0.571746
-0.38202
-0.898114
0.115281
-0.762671
0.983665
-0.600906
-0.26045
-0.598912
0.430964
-0.0118532
0.715481
-0.287043
-0.392812
-0.609136
-0.648673
-0.321461
-0.076699
-0.19664
0.263111
-0.235601
-0.683635
0.867386
0.755741
-0.994116
0.676063
0.677704
0.819772
-0.949396
0.238846
-0.69726
0.416791
0.845939
-0.501988
0.714303
0.00680557
-0.761288
-0.217534
-0.13451
-0.0143537
0.971046
-0.939533
0.483048
-0.48948
0.602724
-0.625345
0.123399
0.186172
0.255284
-0.675323
-0.742555
0.398495
0.967752
-0.0466617
-0.451805
-0.680769
-0.451419
0.0659633
-0.340939
0.393543
0.732881
-0.751067
0.574775
-0.644176
-0.889625
-0.963903
-0.769546
-0.881576
-0.429103
0.557519
0.261765
0.700679
-0.269944
-0.792429
0.42559
-0.78227
0.84521
-0.142381
0.677601
-0.159317
-0.76
0.899755
-0.0903733
-0.24743
-0.510072
-0.423436
-0.290995
0.436108
-0.108
-0.64352
0.56622
-0.0727385
-0.196167
0.560206
-0.210266
0.809808
-0.399333
-0.54749
-0.0410586
0.934167
-0.840323
-0.0213963
-0.0720278
-0.695472
-0.104974
-0.633939
0.513959
0.341573
0.0743563
0.227009
-0.483834
-0.109452
0.50491
0.477877
0.169848
-0.74386
-0.0638419
-0.108893
-0.480958
-0.812886
-0.0898575
0.0385557
-0.133463
0.316724
0.617075
-0.333553
-0.395326
-0.170711
-0.404279
-0.0905931
0.126853
0.366962
0.557868
0.757479
-0.133713
-0.556002
0.257504
-0.438129
-0.111215
0.435811
0.129692
-0.841969
0.442953
0.408387
0.188512
-0.894193
-0.581858
-0.964349
-0.718982
-0.674831
0.577538
0.454806
-0.851302
0.793946
0.469199
-0.941074
-0.116384
0.66163
0.268096
-0.0729964
0.814566
0.0411004
0.718945
-0.487382
-0.791079
-0.861568
0.471968
-0.0612633
-0.260892
0.654776
-0.836266
-0.226161
0.3469
-0.806835
-0.648284
-0.321066
-0.39083
-0.520533
-0.294376
-0.0600819
0.00457078
-0.325323
0.456899
-0.420998
-0.560383
1.03411
-0.0743552
0.839666
-0.140643
-0.305775
0.874747
0.455896
0.838341
0.782897
0.985313
-0.131789
-0.880233
-0.0522955
-0.937928
0.614934
0.607483
-0.191223
0.556343
-0.141229
0.226705
-0.14624
-0.177423
-1.26723
0.585081
-0.126956
0.712042
-0.474174
0.900644
0.145273
0.200522
0.505877
0.90411
-0.429416
0.214883
0.999318
-0.861979
0.372408
-0.250341
-0.538971
0.183978
0.191413
-0.286447
-0.0286907
0.821428
0.761888
0.305135
-1.02163
-0.27995
0.629622
0.238493
-1.04121
-0.218862
0.330855
-0.351292
0.771191
0.145862
0.982986
-0.969288
-0.815973
-0.0653671
0.105838
0.928601
-0.164998
-0.79439
0.415889
0.987847
0.337998
0.00914216
-0.978352
-0.297874
0.233395
-0.303992
0.764179
-0.71014
-0.738241
-0.752745
-0.525537
-0.681157
-0.376642
-0.0794162
-0.429367
0.369748
0.0567875
0.296622
0.0794568
-0.6063
-0.0798209
0.0886374
-0.892838
-0.229241
-0.363596
0.0720663
-0.547777
-0.166583
0.747651
-0.738094
-0.298184
0.0841317
0.120486
-0.596291
0.588815
0.570256
0.923032
-0.896345
-0.56823
0.248374
-0.678191
-0.844796
0.242521
-0.154773
-0.543525
-0.0771892
-0.271202
0.987822
-0.16066
0.727328
-0.651639
-0.249532
-0.56724
-0.0402186
0.0925184
-0.141855
-0.44122
-0.422904
0.0221769
0.469397
-0.483011
-0.579385
-0.341271
0.0185355
0.154881
0.967168
0.738789
0.387316
0.317104
0.847568
-0.680021
-0.160097
-0.362103
-0.567554
-0.878992
0.121626
-0.689327
-0.0672598
-0.140492
0.48884
-0.547499
-0.702897
0.0939153
-0.579579
-0.719708
-0.97232
-0.828847
0.408609
0.46594
0.108704
-0.677772
-0.44494
0.445101
-0.594339
0.0894863
0.684249
-0.548056
-0.0764133
0.826373
0.659324
0.597639
0.282525
0.862824
-0.754507
0.618725
-0.436671
-0.147862
0.0268422
0.165276
-0.423138
0.408397
0.196687
0.824951
-0.897912
0.730334
-0.481209
0.393322
0.336848
-0.387582
-0.93561
-0.622531
0.921135
-0.382339
0.910548
-0.682553
-0.491861
0.255844
0.876241
0.0861044
0.964885
-0.964737
-0.171831
-0.737395
-0.110859
0.384022
-0.368093
-0.289107
-0.20465
0.287186
-0.750702
-0.323861
0.580106
-0.564342
0.640789
0.433464
-0.728114
-0.711693
0.611426
-0.486846
0.647644
0.386665
0.682979
-0.0515004
0.447731
0.227539
0.176975
-0.766096
0.44252
-0.577219
-0.365928
-0.163452
-0.331578
0.0467482
-0.368695
0.303277
-0.203407
-0.809463
0.249725
-0.260706
0.824906
-0.303685
0.348275
-0.850795
-0.491553
0.659698
-0.301615
0.537692
0.937073
-0.929416
-0.762437
-0.3045
0.0388427
0.532176
0.617023
0.0830404
-0.0628775
-0.898034
0.138038
0.177716
-0.231274
-0.949287
0.367931
-0.443667
0.468087
-0.380721
0.0526348
0.996327
-0.879783
0.937735
-0.635608
0.789331
-0.814253
-0.0885713
-0.977718
0.951965
0.570232
0.0908781
0.961009
-0.76155
-0.939772
0.931125
-0.78839
0.928782
0.482962
0.695588
-0.39524
-0.361593
-0.503801
-0.313757
0.640026
-0.393359
-0.120031
0.504939
-0.89462
0.982387
0.22048
0.509996
-0.919196
0.94277
0.987947
-0.883512
0.834595
-0.435073
-0.849887
0.615489
0.729563
-0.710822
0.963387
-0.874126
0.617795
-0.1846
0.710773
0.152513
0.957681
-0.941327
-0.00320756
-0.603441
-0.439365
0.770584
-0.46391
0.905934
-0.709838
-0.303247
-0.895671
-0.280365
-0.533879
-0.682908
0.631538
-0.221949
-0.220821
0.564215
0.886214
0.634889
-0.675052
0.0454687
0.744784
0.115473
-0.192361
0.188367
0.489658
-0.656184
0.797167
0.135784
-0.539728
0.825516
-0.757579
-0.190508
0.858581
0.126031
-0.556037
-0.714926
0.216333
0.578809
0.0257614
-0.179231
0.344003
0.920167
0.754605
0.76695
0.328739
-0.8672
0.661282
0.319725
-0.122159
-1.00679
0.129177
0.248214
0.541034
-0.478685
-0.0385145
-0.368388
0.208544
0.566691
-0.630011
0.778201
-0.0826173
-0.00612295
0.275311
-0.67634
0.981692
-0.45359
-0.262824
-0.621114
-0.590066
0.852966
0.892563
0.454962
-0.0642425
-0.182475
-0.394001
-0.457141
0.41303
-0.922562
-0.0298421
0.396157
-0.776503
0.199436
0.964321
-0.345366
0.678194
-0.685607
0.897726
0.482517
0.481457
-0.413322
-0.318271
-0.466978
0.52591
-0.736295
-0.814239
0.668885
-0.0473587
-1.02608
0.754284
-0.937743
-0.343413
0.815696
-0.466482
0.57761
-0.62847
0.732699
-0.323785
-0.638187
-0.658665
-0.543223
0.371327
-0.191597
-0.143243
-0.846351
-0.106327
0.068836
0.466662
0.326935
0.304503
-0.931864
-0.9081
0.428691
0.720147
0.508373
0.474244
-1.06833
-0.384446
-0.244132
-0.457844
0.736544
0.315567
0.365832
-0.852768
-0.776005
-0.211448
-0.359264
-0.85398
0.599892
0.737773
-0.506971
-0.842023
-0.83241
-0.104182
-0.85954
0.779845
0.714966
0.807666
-1.0155
0.384523
0.879675
-0.796676
-0.978774
-0.399133
-1.01366
-0.9062
-0.554279
0.69715
0.00675923
-0.433713
-0.955438
0.808002
0.00654523
0.0315044
-0.278596
-1.04029
-0.933558
-0.548997
-0.302087
0.888784
0.747637
-0.464242
-0.298627
0.749324
0.741348
-0.237573
-0.948811
-0.331301
0.873304
-0.509843
-0.886964
0.497687
-0.18335
0.801096
-0.363674
-0.426831
-0.188737
0.6365
0.58631
0.0551675
0.672113
-0.111425
-0.942429
-0.293249
0.911952
-0.120946
-0.00874479
-0.796263
-0.1553
0.0413156
0.580613
-0.0254742
-0.938819
0.112778
-0.686448
-0.934214
-0.839035
0.289187
-0.331902
0.914643
-0.660459
-0.35349
0.335135
0.865743
-0.193658
-1.12771
-0.770989
-0.81708
-0.0035252
0.290635
-0.938811
-0.796907
0.683808
-0.734811
-0.28888
-0.0394465
-0.425878
0.936934
-0.149191
-0.109725
0.842226
-0.544649
-0.0942614
0.0608061
-0.851106
0.792955
0.690938
0.535539
0.691683
0.321367
0.476263
0.52862
-1.13081
-0.385363
0.781357
0.181149
-0.316013
0.310559
-0.106385
-0.66141
-1.02715
0.543755
-0.38999
0.316167
0.398283
-0.184754
0.130699
0.628173
-0.571165
-0.039746
-0.795313
-0.840915
0.332265
0.582139
-0.457399
0.118382
0.272609
-0.894871
0.759697
-0.0718779
-0.780533
0.225755
-0.186137
-0.888872
0.514578
0.0186545
-1.01156
-0.38357
0.204334
-0.453123
-0.347685
-0.831764
-0.519238
0.687639
-0.00414991
-0.0111486
-0.100566
0.187763
0.375784
0.314492
0.0843092
0.158551
0.413816
-0.583996
0.784858
-0.269577
0.857332
0.300157
-0.381695
-0.329077
-0.156685
0.342486
0.138255
0.381507
-1.03517
-0.551039
0.195159
0.0561326
-0.09901
0.384375
0.162531
-0.134014
0.296778
-0.531909
-0.761402
0.581125
0.211982
-0.915098
-0.979652
-0.442268
-0.449179
0.591168
0.431179
-0.82079
-0.913231
-0.983399
0.865612
-0.804564
-1.15216
-0.229124
-0.638379
0.308033
-0.286607
0.252313
0.506417
0.831862
-0.14887
-0.808725
-0.726498
0.288519
-0.39168
-0.0639099
-0.478463
-0.325273
0.833525
0.270656
0.755079
0.86278
-0.143603
0.370477
0.500454
0.834252
-0.97908
0.221177
0.415737
0.111991
0.145805
-0.0137186
0.214996
-0.250529
-0.319402
0.013677
-0.188221
-0.764708
-0.270223
-0.42923
0.528083
0.199633
0.897472
0.51461
0.740451
-0.0101583
-0.274968
0.57439
-0.199783
0.606885
-0.488219
0.630798
0.230445
0.543096
-0.861706
0.0885389
0.206044
0.179676
-1.1201
-0.202265
0.720584
0.649436
-0.413178
-0.280216
0.0524381
0.103421
0.574673
0.0271756
-0.220679
0.858709
-0.694456
-0.75297
-0.481666
0.695432
0.840335
-0.863424
-0.214555
-0.208437
-0.239105
0.0972167
0.7203
0.200134
0.607486
0.225901
-0.0549734
-0.901054
-0.770866
-0.0916936
0.0615998
-0.692162
-0.618951
-0.0362807
-0.344304
0.291297
0.229084
-0.856766
-0.401517
-0.406311
0.283244
0.161716
-0.300827
0.0510377
-0.421361
0.548687
-0.913957
-0.800784
-0.270479
-0.684278
-0.183931
-0.903018
-0.956895
-0.0661367
0.390336
-0.682488
0.552333
-0.699122
-0.197646
0.793309
0.510555
0.581658
-0.976723
0.26872
-0.740471
0.917297
0.916489
-0.787643
0.118613
-0.594002
-0.822849
0.48825
0.814202
0.275262
-0.13801
-0.593211
-0.998377
0.450254
-0.183828
-0.349178
0.499232
0.739512
-0.204867
-0.656706
-0.224836
-0.215784
0.911866
-0.280699
-0.44832
-0.76392
0.536163
-0.183961
-0.0967903
0.948212
0.46102
-0.401328
-0.503391
0.905768
0.00989211
-0.834309
0.392723
0.344711
-0.406811
-0.260876
0.0474762
0.257524
-0.107018
-0.601643
-0.552897
-0.728707
0.562712
0.205234
0.180957
-0.495843
-0.0236445
0.130574
-0.168325
0.69009
-0.624916
-0.291974
0.367071
0.208133
-0.942424
0.466389
-0.781078
0.103791
0.674331
0.938664
-0.348068
0.724898
-0.199132
0.478142
-0.877137
-0.0347665
-0.692806
-0.17247
-0.225638
-0.853406
0.534444
0.318408
-0.419381
0.101208
0.558919
0.612939
0.586489
0.9285
-0.854643
0.814429
-0.245097
0.191314
-0.11014
0.865517
-0.244467
-0.315163
-0.743294
0.0381876
0.553504
-0.564183
-0.797695
0.57131
0.343549
-0.0667627
-0.0229585
0.89639
0.860573
-0.781159
-0.303003
0.279592
-0.50288
0.465769
0.245588
-0.405727
0.369898
0.284824
-0.78458
0.613041
0.402722
-0.393423
0.143391
0.516051
0.616524
-0.179409
-0.034983
-0.821188
-0.93489
0.166806
0.924915
0.268569
0.451802
-0.9215
0.399473
-0.484688
0.355324
-1.07069
-1.03581
0.929431
-0.582375
0.0410674
0.747617
0.469309
0.0722831
0.638098
-0.219804
0.289358
0.16483
0.838384
0.541645
-0.330306
0.489794
-0.0854734
-0.413008
0.963871
-0.0861433
0.841626
-0.0234227
0.710436
-0.0707877
-0.301899
0.149405
0.278419
0.569694
-0.598675
-0.684467
-0.627772
0.366846
0.693613
-0.450721
0.847927
-0.471955
0.0303088
-0.0685459
0.437047
-0.254549
-0.480226
0.227599
-0.269889
0.245639
-0.286269
-0.00615346
-0.359033
-0.0937506
-0.878786
0.0870041
-0.0922241
-0.330008
-0.948877
-0.0588606
-0.937546
-0.609212
0.095521
-0.517987
0.34666
-0.560249
0.121611
-0.751945
-0.622953
0.156836
-0.548798
0.302356
-0.505972
0.42481
-0.691779
-0.85909
0.182543
0.947
-0.784737
-0.143903
-0.394
-0.487545
0.31983
-0.721349
-0.0290263
-0.384498
0.102362
0.0518576
0.209492
-0.8887
0.529435
-0.567241
0.618189
-0.773014
-0.15328
0.452443
-0.664514
0.827023
0.0714341
-0.302745
0.604918
-0.758415
0.778808
-0.37149
-0.155764
-0.855972
0.515172
-0.528387
0.14956
0.569767
-0.647447
-0.514921
0.163205
-0.804382
0.510312
0.569592
0.753922
0.27585
-0.0950443
-0.630125
0.563308
-0.0809135
0.084716
0.957928
-0.373233
-0.360971
-0.85181
0.0634192
-0.208413
-0.125911
0.633286
-0.0800077
-0.0766897
0.401047
0.738069
-0.795865
-0.342498
0.025552
-0.626394
-0.0145563
-0.981656
0.424352
-0.370547
-0.393582
0.643191
-0.94385
0.641563
-0.859985
0.466525
-0.214736
-0.116674
-0.367396
-0.507431
0.842211
-0.849038
-0.918625
0.818164
-0.284958
0.347243
-0.598141
0.203456
0.140652
-0.362298
0.449653
0.0594605
0.457634
0.405882
0.474626
0.297626
-0.180264
-0.712448
0.81173
-0.469696
0.768372
-0.641578
0.385008
-0.446709
0.233284
0.396991
-0.245856
0.3344
0.428035
-0.892566
-0.514506
-0.792357
-0.265168
-0.320945
0.433597
-0.507036
0.251158
-0.710475
0.0881468
0.330547
-0.221149
0.987537
0.691224
0.727686
-0.911434
0.311734
0.43118
-0.0169401
0.793001
-0.446079
1.01749
0.93422
0.187593
-0.336324
-0.0260938
-0.256455
-0.876269
-0.817614
0.939266
0.641653
-0.0376145
0.336934
0.311408
-0.0200868
0.738989
-0.508339
-0.433805
-0.536047
0.493801
-0.0473423
0.946064
-0.503343
-0.922068
0.704366
0.388753
0.222554
0.0684045
0.443173
0.863323
-0.0643254
0.394011
-0.324213
0.272624
-0.535428
0.133422
0.294849
-0.878013
-0.487723
-0.706816
0.213757
0.057
-0.641839
0.911334
0.018361
-0.95229
0.270854
0.427855
-0.0158949
0.407976
-0.0970499
-0.406508
-0.343896
0.147946
0.830483
-0.121256
0.66489
0.456648
0.118611
0.691249
0.101502
0.773389
-0.0967443
0.32716
0.839736
0.101895
0.200454
-0.5078
0.236983
0.977077
-0.342287
0.951196
0.823006
0.846933
-0.0332496
0.368649
-0.813201
0.0024662
0.939719
0.724927
-0.829214
0.444413
-0.279086
0.718982
-0.401096
0.69213
0.0747344
0.0940822
-0.148716
0.302408
0.863833
0.651757
0.779775
-0.706646
0.91284
-0.0856301
-0.871817
-0.278638
0.595909
-0.143156
0.732757
0.0498655
0.027156
-0.178251
-0.552603
0.429282
-0.832673
0.0423435
-0.599172
0.0418966
0.390196
0.62816
0.259446
-0.130162
-0.738391
0.404874
0.689767
0.670484
0.263219
0.313325
-0.777535
-0.539576
0.343231
-0.768097
0.467001
0.869972
-0.212273
0.971054
0.894025
-0.191992
0.331379
0.0011993
0.217227
-0.329879
-0.530755
0.649605
-0.309817
-0.806134
-0.576283
0.674988
-1.0949
-0.424187
0.0157427
0.649688
0.0473084
-0.236856
0.369995
-0.480491
-0.161927
-0.000102781
-0.498879
-0.217079
0.605301
-0.707555
-0.859816
0.242825
-0.769553
-0.962475
0.925958
0.284283
-0.612591
-0.0501484
0.268185
0.0165456
-0.344249
-0.249853
-0.600647
-0.653099
0.0527919
0.481831
0.432993
-0.290801
-0.540205
-1.03945
-0.657681
0.863232
-0.275864
-0.429588
0.12687
-0.986965
0.240074
-0.317646
-0.928753
0.510829
-0.993581
0.239944
0.95701
-0.0449478
0.508044
0.344312
-0.343262
-0.623341
-0.102892
0.092339
0.306439
-0.0615986
0.906216
0.438404
0.632874
-0.738681
0.5054
-0.286477
0.287596
-0.813215
-1.00683
-0.641943
-0.614265
-0.365939
-0.323957
0.838263
0.839186
-0.114656
0.215465
-0.74508
-0.703591
-0.656047
-0.137907
0.745623
-0.490075
-0.491787
-0.251708
0.329152
0.212345
0.925695
0.180451
-0.666067
-0.597975
-1.08207
-0.694253
0.0252811
-0.81853
-0.482698
-0.728186
-1.03728
0.63108
-0.180609
0.768734
0.968026
-0.660721
-0.481337
0.749801
-0.633681
0.669531
-0.309545
0.363052
-0.00946418
0.308651
-0.327633
-0.164173
-0.414495
0.681431
0.244436
-0.734411
0.0401488
0.700333
0.0977288
0.297089
0.573631
-0.814939
-0.567258
-1.03951
-0.167606
0.7148
-0.445243
0.737914
0.322861
0.750475
-0.00624275
-0.849728
0.0504541
-0.039991
-0.250851
-0.214486
0.46546
0.0291658
-0.79325
-0.457208
0.29699
0.814212
0.875915
-0.498489
-0.631589
-0.143245
-0.234677
-0.134654
0.256026
-0.853237
0.0519338
0.241457
0.0523945
0.87194
-0.538856
-0.0242473
-0.625308
0.700404
0.709153
0.498941
0.439671
0.422703
-0.995069
-0.48748
-0.764051
0.0627537
-0.168662
0.0615526
0.0473778
0.239171
-0.286726
-0.930787
0.0703694
0.417241
-0.888127
-0.971917
-0.359013
-0.824373
0.730056
-0.98072
0.0415733
0.389831
-0.79068
-0.0802081
0.0237962
0.359041
-0.879665
-0.603295
0.553539
0.507995
-0.64731
-0.233785
-0.356105
0.631356
0.526544
-0.716484
0.014971
1.04804
-0.582608
-0.895102
-0.975658
-0.0596888
-0.436321
0.478097
-0.489031
0.59086
0.446567
-0.202336
-0.990812
-0.546712
-0.659507
0.567043
-0.797464
0.710822
-0.301229
0.504054
-0.72937
0.641633
-0.845577
0.784591
-0.341298
0.487856
0.191236
-0.147664
-0.84868
-0.969073
0.23808
-0.326842
-0.0621261
0.854481
-0.392915
-0.779889
-0.927044
0.0329647
-0.0498163
-0.644305
-0.211544
-0.372211
-0.64895
0.982136
0.907551
0.448306
0.734423
-0.318783
0.644023
0.970707
0.124778
-0.45294
0.28367
0.849071
-0.724305
0.184197
0.540636
0.487452
-0.466406
-0.881325
0.59627
0.810557
-0.337455
-0.687256
-0.118847
-0.0329148
0.436586
-0.0334747
0.850332
-0.698016
0.870706
0.271342
-0.850212
0.781267
0.712166
-0.864907
0.661055
-0.824128
-0.745244
0.975155
0.420433
-0.289021
-0.281476
0.628116
0.488867
-0.226278
-0.111509
-0.595684
0.785968
0.257933
0.00621617
-0.293633
0.00521379
-0.743675
0.348643
-0.688683
0.493788
-0.777128
-0.481362
-0.25541
-0.281054
-0.729513
-0.366315
0.0291135
-0.446325
-0.908489
0.738725
-0.166868
-0.702657
0.719518
0.575547
0.880495
0.381856
-0.751677
-0.148621
-1.08026
-0.506341
0.343055
0.147618
0.396578
0.509066
-1.00812
0.336778
-0.138129
-0.0159286
0.244891
0.787171
0.351616
-0.658524
0.137433
0.095654
0.757025
-0.886787
0.572919
-0.649017
-0.466916
0.686747
0.367182
-0.940402
-0.141692
-0.341825
-0.822719
0.925646
0.181505
-0.801506
0.371814
-0.582339
0.383288
0.479317
-0.853671
-0.554675
-0.577677
-0.296035
-0.12079
0.773431
-0.176807
-0.761632
-0.343074
0.0286384
0.042676
0.29369
0.621995
0.85509
0.0133715
-0.93538
0.149598
0.0800434
-0.770991
-0.218865
-1.01515
-0.506091
-1.00607
0.207178
0.188949
0.660735
0.805047
0.763084
-0.530637
0.81934
0.164979
0.599666
0.183609
0.85813
-0.365627
0.107034
0.805038
0.478271
-0.808086
-0.371447
-0.25601
-0.672859
0.641935
-0.275219
0.470993
-0.894005
-0.936473
0.132018
-0.833845
0.0975242
0.597772
0.697416
0.607526
0.0114718
-0.873009
-0.609285
-0.503689
-0.829274
0.417404
-0.670359
0.386309
0.908996
0.412916
-0.625568
0.273355
-0.338944
-0.537249
0.487381
0.481161
-0.676541
0.566306
0.439759
1.00469
-0.0743269
0.197427
-0.966319
0.793305
0.395813
-0.405957
0.0707142
0.243553
0.471009
-0.425409
-0.745646
-0.182214
0.467382
-0.514755
-0.216314
0.1268
-0.713209
0.616998
-0.709533
-0.544274
-0.246193
-0.219585
0.478952
-0.101632
0.948476
0.0852382
0.906302
0.162735
0.344211
0.187353
-0.652573
-0.412251
0.823609
-0.843675
0.539534
-0.322642
-0.630865
0.113969
0.396548
0.125618
0.102428
0.759296
-0.725673
0.249521
-0.364776
0.428029
0.220978
-0.373838
-0.588861
-0.0671583
-0.952168
-0.414988
-0.0349247
-0.837663
0.0712684
0.41414
0.650443
0.860138
-0.672114
-0.795841
0.0366368
-0.191796
-0.650169
-0.115017
-0.133932
0.828468
0.059228
0.87993
-0.443934
0.764178
0.55574
-0.223534
0.752472
0.318696
-0.69188
-0.395518
0.388114
0.615845
-0.207009
0.220353
-0.782935
-0.389763
-0.22868
-0.96912
0.556972
-0.0269918
-0.182594
0.3571
0.92958
-0.012365
0.841661
-0.719403
0.304682
-0.136701
-0.434629
0.408925
-0.328378
-0.0856386
-0.276571
-0.541441
0.201495
-0.593528
-0.212341
-0.990658
-0.770899
0.830988
0.61441
-0.0946405
0.369136
0.130836
0.0752276
-0.346129
0.598028
0.530376
0.887863
-0.0356578
0.690877
-0.00824249
0.409392
-0.191856
-0.594893
-0.842932
0.705606
-0.775395
0.949852
-0.182239
-0.058555
-0.715924
0.232704
-0.236529
-0.588446
0.510955
-0.880062
-0.525346
0.322917
0.849991
0.147226
0.763152
-0.481372
0.091303
0.0159273
0.818932
0.514369
0.64784
-0.849816
0.194407
-0.734127
-0.256207
0.630927
0.740999
0.260741
-0.768435
0.938121
0.105777
0.498559
0.0755798
-0.339097
0.387584
-0.1949
-0.720533
0.245537
-0.333421
0.587678
-0.0854828
-0.554509
-0.320389
0.0630975
0.21953
-0.751756
-0.100659
-0.632527
0.360517
-0.280448
-0.0156732
0.159905
0.804863
-0.584456
-0.935106
-0.579746
0.245887
0.531799
0.263752
-0.332406
0.958351
-0.368902
-0.316487
0.930983
0.906008
0.373136
0.898423
-0.909674
-0.478404
0.630465
-0.907771
-0.167859
-0.138091
0.966789
-0.636498
-0.415107
0.196484
-0.227954
-0.187778
-0.598318
0.379631
-0.826413
0.926937
0.961296
-0.186194
0.880643
-0.781236
0.0574683
-0.382202
0.0675291
-0.615183
-0.906623
-0.981104
-0.910323
0.484876
0.29759
-0.108144
-0.680448
-0.0231072
0.737583
-0.761225
0.115226
0.977175
-0.919017
-0.612493
-0.955839
-0.537615
-0.593464
-0.972197
0.29716
0.30092
0.658758
-0.610826
0.429323
-0.0826195
-0.0556179
-0.145001
-0.080876
-0.0730549
-0.785326
0.382721
0.840451
0.821034
-0.275937
-0.102012
0.601297
-0.324499
0.119357
-0.233655
-0.293151
-0.469826
-0.520654
-0.268161
-0.443363
-0.270757
-0.471614
0.251009
0.696233
-0.131162
0.324931
-0.908496
-0.35382
-0.24105
-0.882683
0.56392
0.282092
0.527967
0.5435
0.886401
0.0565501
0.271535
0.814433
-0.0664802
0.554322
-0.527682
0.299103
0.279954
-0.806371
-0.593107
0.713046
-0.994873
0.572696
0.339843
0.293992
0.599612
0.596263
-0.244588
-0.818291
-0.486556
0.0619523
0.0823095
-0.442762
0.494349
0.597239
-0.701639
0.0111761
-0.376938
0.980807
0.877106
0.907097
-0.169167
0.197971
0.0334084
0.112324
-0.368258
-0.718448
0.789717
-0.768305
-0.308397
-0.0877353
-0.414573
0.766414
0.812499
-0.640771
-0.156323
0.837277
-0.825286
-0.971668
0.958397
0.594521
-0.453757
0.0395805
0.439817
-0.788337
0.442751
0.43864
-0.95209
0.50048
-0.196397
0.0321425
-0.791575
-0.686472
0.106768
-0.382007
-0.43223
0.389915
0.678406
0.977496
-0.331784
-0.062228
-0.666419
0.967961
-0.687488
-0.262354
0.765607
0.274725
0.508394
0.316969
-0.831596
-0.332557
-0.939935
-0.709926
-0.569856
0.241963
0.480933
0.937644
0.23327
-0.00294708
-0.91831
-0.458351
0.617846
0.64898
-0.587358
-0.0954966
0.900412
-0.398115
0.871928
0.300238
0.542999
0.363758
0.129526
-0.607626
-0.571142
-0.720919
0.565271
-0.567745
-0.026811
-0.576662
-0.570285
0.473592
-0.0442876
0.78685
0.670936
-0.542721
-0.173153
0.158228
-0.0368193
-0.211239
0.0273847
0.777007
-0.834684
-1.03659
0.692001
0.394938
-0.253871
-0.162297
-0.00212792
-0.676476
-0.658498
0.0957552
-0.168
-0.388329
0.677098
0.576153
0.479454
-0.620647
-0.446576
-0.602261
0.857265
0.553812
-0.00416601
-0.609198
-0.312851
0.308926
-0.0392505
-0.344209
-0.399255
-0.0896391
0.73091
0.924253
-0.0629275
-0.498235
-0.264479
0.640268
-0.979264
-0.894505
0.40403
-0.457181
0.429746
-0.979141
0.42388
-0.916168
-0.0769958
-0.921023
0.807686
0.273877
-0.865896
0.309635
-0.376562
0.340439
0.608688
0.291312
0.600747
-0.708653
-0.578902
-0.659753
0.909906
-0.857378
-0.482909
0.644389
-0.219844
0.00387121
-1.03514
0.50538
-0.153597
-0.508219
-0.0433008
-0.0205351
0.954762
0.702147
-0.4506
-0.716429
0.154194
0.650575
0.677649
-0.330867
0.553475
0.00954759
-0.173844
0.396075
0.762362
-0.905147
0.784419
0.214505
-0.0314649
-0.20775
-0.30762
-0.856556
-0.821391
-0.54552
0.147984
0.545183
-0.0381787
-0.908664
0.476208
0.163535
0.690159
-0.938456
0.0744246
-0.713717
-0.461617
0.304238
0.204441
0.473138
0.212636
0.718452
0.0669422
-0.0788089
0.968022
0.219336
0.983899
-0.0969289
-0.833576
0.50705
-0.62081
-0.541731
-0.81827
0.880811
-0.528387
0.0929836
0.530705
0.105616
-0.586427
-0.854006
0.041646
0.0834654
-0.667866
0.957105
0.714716
0.871084
0.574784
-0.508137
-0.504471
-0.150716
0.935522
-0.653011
0.320493
-0.0278612
-0.434292
0.914314
-0.688213
-0.119162
0.0443166
-0.590665
0.819476
-0.864754
-0.539958
0.664523
-0.354191
0.744809
-0.58515
0.343648
0.650322
0.807584
0.0782428
0.960289
-0.0865352
-0.757897
0.514649
-0.33933
0.218165
0.142064
0.986173
-0.354204
-0.00399137
0.361154
-0.928491
-0.834761
0.193312
0.615121
-0.178484
0.241769
-0.735646
0.534782
-0.72864
-0.0571097
0.855965
0.700586
-0.141547
-1.06237
-0.77882
-0.0189086
-0.741158
-0.782787
-0.74923
-0.989824
0.57945
-0.837877
-0.389602
-0.311474
0.54113
0.833194
-0.370391
0.136421
-0.270183
0.272568
-0.991929
-0.196276
-0.893548
-0.314978
1.06032
0.146266
-0.473669
0.0957936
0.771593
-0.401043
0.27443
0.503028
0.308232
-1.01282
0.363185
-0.303106
-0.724653
0.160852
0.943091
0.817455
-0.524249
-0.222588
-0.936218
-0.329177
0.172144
0.210876
-0.883025
0.591262
-0.612025
0.915529
-0.787601
-0.365696
-0.708875
-0.557675
-0.0525068
-0.916093
-0.741259
-0.818643
-0.350642
-0.867095
-0.65319
-0.565246
0.811303
-0.589563
0.359695
0.580251
-0.554796
0.262328
-0.60154
-0.633632
-0.502994
0.0963329
-0.0379389
-0.387894
0.959178
-0.712724
0.640491
-0.566644
0.506258
-0.466472
0.177591
0.93456
-0.090777
-0.332477
0.586274
-0.270744
-0.624559
0.108295
-0.212544
0.284736
0.236669
0.144163
0.154349
-0.736797
-0.23975
-0.768855
-0.0895329
-0.229622
0.0407408
-0.544742
-0.232649
0.809848
0.781251
0.55428
0.462189
-0.50186
0.150454
0.639715
0.680578
0.272431
0.205499
0.0891072
-0.0829657
0.380358
0.212507
0.245618
0.846359
0.0333966
0.372434
0.992503
-0.351451
0.248694
0.0681211
-0.506305
0.531163
-0.747852
-0.987921
-0.155226
0.856464
0.727904
0.691484
-0.16901
0.768867
-0.00532749
-0.521271
0.915174
-0.0231626
0.85821
0.598725
-1.05475
-0.803079
-0.947619
-1.00158
-0.81717
-0.37128
-0.840111
-0.889187
0.713544
-0.784879
-0.998921
0.505019
0.779389
-0.728132
0.850624
0.848378
0.115912
-0.00824405
0.939322
-0.777798
-0.263253
0.814522
0.0622115
-0.0187327
0.524865
-0.691885
-0.667674
0.439176
-0.658289
-0.908268
0.77142
-0.963688
-0.95238
-0.0248041
-0.541969
-0.931361
-0.200298
-0.0618907
0.668967
-0.310518
0.227467
-0.820598
-0.283602
-0.307952
-0.0132191
0.928552
0.741698
-0.806018
0.468119
0.122481
-0.291712
-0.600587
-0.75495
-0.481234
0.321763
-0.143438
-0.56823
-0.309417
-0.0187944
-0.870411
-0.0396708
-0.570755
-0.177787
-0.0104463
-0.667989
-0.833123
0.236476
-0.240654
0.752001
0.922343
-0.261231
0.171191
0.173827
-0.685659
-0.23334
0.642861
-0.200242
0.887932
0.658755
-0.0331141
0.256532
-0.498833
-0.664124
0.734565
0.372703
0.217942
0.654843
0.848521
-0.855038
-0.238478
0.524634
-0.16782
0.668451
0.116001
0.887139
0.118717
-0.676463
-0.609863
-0.975885
-0.40178
0.148528
-0.821737
0.0184071
0.4759
0.542612
0.463703
-0.209561
-0.0683312
-0.427576
-0.285634
0.439351
-0.0186384
0.228067
-0.845435
0.743924
-0.517445
0.881147
0.638959
0.804421
-0.715414
0.12603
-0.969141
-0.0153708
0.925036
0.879814
0.0604343
0.619879
0.746654
0.173642
-0.00263369
-0.49139
0.195718
0.501523
0.438218
-0.944043
-0.549838
0.766906
0.862658
-0.0431185
0.141404
-0.284405
0.618163
-0.362099
0.998419
-0.637984
0.537985
0.776268
-0.410653
0.460408
0.450102
0.124398
0.162503
-0.214049
-0.895658
0.434198
0.779998
0.398905
-0.352006
0.694421
-0.554552
-0.549928
0.871112
-0.452705
-0.368775
-0.443008
0.235775
0.669572
-0.624177
0.526025
0.923729
0.630195
0.78722
-0.296831
-0.538789
0.762118
-0.51377
-0.661175
0.920638
0.466619
0.332387
-0.0650995
-0.660684
-0.20042
-0.300954
-0.727375
-0.317712
-0.924703
-0.278116
-0.714957
0.677978
-0.12788
-0.905976
0.00214505
-0.00211883
0.944029
-0.225615
-0.701059
-0.145083
-0.294169
0.408878
-0.720661
0.818119
-0.381261
0.928304
0.532064
0.936582
0.285677
-0.110316
-0.635469
0.606015
-0.448287
0.635778
0.607009
-0.676275
0.742693
-0.155536
-0.186438
-0.0235975
0.35233
0.67437
0.780918
0.0537921
-0.89313
0.920876
-0.642367
-0.983677
0.479347
0.397556
-0.840622
-0.845473
0.607599
0.07314
0.691707
0.0585585
0.310768
0.509272
-0.844065
0.389022
0.791854
0.233259
-0.92072
-0.557373
0.652524
-0.270933
0.216065
0.751876
0.62189
-0.129412
-0.693784
0.746562
-0.596796
0.550002
0.46781
0.526784
-0.789428
-0.862527
0.532499
-0.279218
0.338408
-0.494972
-0.863855
0.85781
-0.0233167
0.672482
-0.621162
0.658343
-0.669169
-0.719351
-0.515011
-0.775636
0.213494
0.678145
-0.557826
-0.142054
0.110076
-0.656504
-0.391241
-0.845592
0.200671
-0.402489
0.912452
-0.46782
0.40132
-0.32642
-0.335486
-0.436175
0.993664
0.802431
0.660251
-0.229156
0.89445
-0.639124
0.77805
-0.717778
0.844639
-0.317531
0.988899
-0.918347
0.28349
-0.204303
-0.499987
0.288765
-0.354136
0.769445
-0.844126
-0.222287
-0.0242619
-0.707431
0.445095
-0.772281
-0.517457
0.357818
-0.965701
-0.0225378
-0.461308
-0.247015
0.523391
-0.375383
0.959931
-0.829803
0.323266
0.706104
-0.955586
0.230832
0.251137
-0.24625
0.720485
-0.102075
0.589312
0.662069
0.684391
-0.325577
-0.112925
0.188017
0.03107
0.163293
-0.0439155
-0.278637
0.352049
0.683958
0.194978
0.0065484
-0.0461804
0.756487
0.231985
-0.285867
0.873058
0.70851
0.291397
0.166758
0.838981
0.867966
-0.0688195
-0.00618541
0.785261
-0.445223
0.322919
-0.494624
0.297725
-0.95874
0.559099
-0.889902
-0.267189
0.594057
-0.790303
-0.761187
0.438178
-0.44223
0.460829
-0.874001
-0.118347
0.49607
-0.195365
-0.398926
-0.305357
-0.140083
-0.918406
0.214514
0.821984
0.113651
0.943923
0.845291
0.729191
-0.567028
-0.642256
-0.370766
-0.326101
0.436845
0.180953
-0.631007
0.393228
-0.344727
-0.792839
-0.244174
-0.972634
0.732638
-0.654344
0.84575
0.99359
-0.033628
0.166644
0.268891
0.564433
0.375784
-0.120388
-0.576061
0.961585
-0.0544954
0.444563
-0.4931
-0.659925
0.674993
0.944974
-0.890578
-0.554045
-0.625636
-0.355208
-0.244843
-0.394338
-0.0234332
-0.697942
0.617462
-1.02338
-0.557388
-0.202418
0.724563
1.00491
0.839414
-0.552485
-0.0100575
-0.40488
0.294486
-0.274247
0.273702
0.32195
0.508826
0.669243
0.749927
0.254634
0.90823
-0.936647
1.01679
-0.106857
0.265302
0.793388
-0.103949
-0.28721
-0.312722
0.658484
-0.0718136
-0.622179
-0.137158
0.5884
-0.640297
-0.779713
-0.0082768
0.125591
-0.799444
-0.657406
0.753256
0.546557
-0.0604019
0.0661901
0.97075
-0.137561
0.65326
-0.22612
0.419817
-0.863246
0.113613
-0.250953
-0.947279
0.178241
-0.496313
-0.08852
0.14903
0.47185
-0.166204
0.788945
-0.699289
-0.0976928
0.0836094
0.651043
0.550854
0.347002
0.526528
0.178128
0.0437959
0.269759
0.553887
-0.447253
0.975859
-0.361474
0.940899
0.565129
-0.354755
0.610707
-0.0556247
0.814047
0.757473
-0.6226
0.469533
-0.979683
-0.83076
-0.965126
0.726154
-0.0911489
-0.8393
0.823095
-0.387861
-0.697608
-1.00136
0.873111
0.358211
-0.886541
0.458037
-0.933675
-0.555298
-0.160572
0.919852
0.834853
-0.546495
-0.0264953
0.0824169
-0.422999
0.374819
0.385047
-0.201671
0.263172
-0.435929
0.580214
0.136224
0.555883
0.76097
-0.567772
-0.298853
0.806661
-0.505295
0.740081
-0.0001314
0.380077
0.0212856
-0.560094
0.952842
0.369467
0.993068
0.227457
-0.150859
-0.853071
-0.474311
0.921305
-0.208477
0.143296
-0.669319
0.0991914
0.778616
-0.452215
0.112073
0.87501
-0.277956
0.548911
0.0270243
0.543677
-0.670863
-0.767519
-1.05169
-0.646275
-0.884754
-0.520686
-0.681544
-0.515633
0.483045
-0.882871
-0.600601
-0.199536
-0.633752
0.735227
0.425959
-0.174619
-0.599466
1.02422
0.175506
0.536665
0.464658
-0.20966
-0.307794
-0.220358
-0.306077
0.253997
0.523364
-0.683864
-0.650636
-0.453362
0.266492
0.153375
0.135908
-0.566601
-0.277408
0.575093
-0.0512521
-0.353732
-0.740745
0.883104
-0.570757
-0.333113
0.743639
-0.583132
-0.800137
0.514286
0.339914
-0.06024
0.831906
-0.441423
-0.616557
-0.193874
0.630226
-0.649637
-0.594041
-0.823827
0.798356
0.486497
0.0541436
0.929061
0.674977
0.231785
-0.517709
0.620188
0.209517
-0.456202
0.808137
-0.734408
-0.634023
-0.147475
0.792238
-0.491552
-0.954155
0.528194
-0.921546
0.0730401
-0.625404
-0.913447
0.433515
0.0618653
0.291472
0.718102
-0.891146
0.10174
0.778931
0.793727
0.540428
-0.92648
0.725321
-0.126864
-0.407328
0.250515
-0.274974
0.682201
-0.738264
-0.327074
-0.439074
0.721827
-0.714552
-0.642122
0.818491
0.412556
-0.643873
0.61111
-0.0964599
0.197015
-0.0559397
0.724779
-0.781253
-0.957832
0.519467
0.225884
-0.454621
0.340231
0.152647
-0.188631
-0.295521
0.849907
-0.612853
0.657973
0.142776
0.532665
-0.826685
-0.942844
0.104556
-0.860512
-0.886883
0.915959
0.335911
-1.02213
-0.6303
0.514006
0.169955
-0.771951
0.0135204
-0.728431
-0.193208
0.787536
0.0418465
0.913415
0.98005
-0.69849
0.375445
-0.331939
0.751908
-0.248024
0.00875821
-0.724736
0.506842
0.167972
0.601899
0.570494
0.718252
0.891621
-0.252776
-0.0144367
-0.923076
0.642997
-0.770369
-0.534879
-0.053391
-0.260206
0.357165
0.807475
-0.165926
-0.768357
0.417371
-0.637738
0.163662
0.914813
-0.0291355
-0.419914
0.972864
-0.0764719
-0.586425
-0.158127
-0.136887
0.27039
-0.456815
-0.775575
0.384508
-0.170172
-0.0677436
-0.192457
0.237057
-0.749989
-0.726416
-0.333003
-0.805341
0.677927
0.797291
0.461296
-0.0749947
0.486757
-0.671608
-0.500267
0.627866
-0.121521
0.787457
0.922813
0.930302
-0.949401
0.10882
0.26118
-0.838901
0.962449
0.215507
0.318962
0.561261
-0.806856
-0.263373
0.078321
-0.928037
0.139637
-1.00738
0.694651
0.231129
-1.08402
-1.09817
-0.944463
0.327036
0.663794
-0.762305
0.14007
0.497476
0.268326
0.545615
0.309087
-0.699901
0.214379
-0.984697
-0.947169
0.385645
-0.851896
-0.407663
0.201029
0.53384
-0.910278
0.13
0.287737
-0.884381
-0.0673639
0.0806811
-0.850039
0.797843
0.535365
-1.05193
-0.0403071
-0.588998
0.196231
-0.79796
0.484803
-0.31277
-0.665675
-0.121628
-0.601398
0.808796
-0.872904
0.896913
-0.0677867
0.878691
-0.677295
-0.0108612
0.0422186
-0.0490088
-0.328414
-0.310563
0.530824
0.235663
-0.981634
-0.294762
0.258589
0.865766
-0.194041
-0.679358
-0.60626
-0.818826
0.622138
0.466838
-0.124221
-0.373915
0.638839
-0.305778
-0.595669
-0.608268
0.640611
-0.616368
-0.176242
-0.629735
0.0814342
-0.853441
-0.527848
0.612981
0.711676
0.719194
-0.357364
0.873196
-0.0185082
-0.948485
-0.249395
0.765315
0.158187
-0.89722
0.780257
-0.59485
0.453313
-0.129985
-0.523323
0.553745
-0.511598
-0.221289
-0.41477
0.00140482
0.409762
-0.909412
0.698374
-0.0477333
-0.870627
-0.601716
0.864376
0.199044
-0.231578
0.543196
0.366762
-0.418914
0.658611
-0.262321
-0.745531
-0.624445
0.0632404
-0.793638
0.0532674
0.644787
-0.475345
0.308756
0.768996
0.55823
-0.495688
-0.850117
0.895678
-0.354605
0.183799
-0.514274
0.912484
-0.468422
-0.19213
0.843718
-0.791561
0.856531
-0.649396
-0.0145723
0.546928
0.952491
0.33231
0.175537
0.38562
-0.529273
-0.850019
-0.935451
0.885913
-0.596462
-0.313934
0.802368
-0.773152
-0.697647
0.237645
0.22386
0.241909
0.0786466
0.784022
0.335615
-0.082056
0.802349
-0.163244
-0.996872
0.997861
-0.882437
0.819127
0.264784
0.827911
0.297287
-0.501296
-0.800076
-0.621789
0.119297
-0.25755
-0.374333
-0.889781
0.381535
-0.917709
0.178421
-0.132452
-0.78807
0.774487
-0.404472
0.699025
-0.692683
-0.293049
0.0285326
0.800503
-0.164997
0.895285
0.679886
-0.285492
0.0315495
0.597795
-0.32995
-0.286512
-0.529343
0.697872
-0.958802
0.502647
-0.357099
0.13264
-0.873421
-0.700675
-0.807565
0.436816
0.139612
-0.564509
0.523512
0.121989
-0.199752
-0.031265
-0.39986
0.924613
0.562161
0.0122513
0.976701
-0.501193
0.393778
-0.351502
-0.642057
0.634127
-0.626081
-0.0948021
-0.0376951
-0.448168
0.368874
-0.160309
-0.138633
0.0537359
-0.141763
-0.723538
-0.455769
0.969999
0.795358
0.355586
-0.714279
0.234801
-0.339141
-0.362771
-0.18823
-0.964166
0.958494
0.104343
0.128246
0.0248599
-0.34104
0.16956
0.998018
-0.660953
0.454211
0.0777174
-0.629666
0.174427
0.80037
-0.0526998
-0.0598822
0.802909
-0.56307
0.184928
0.327963
0.841965
0.897678
0.874587
0.440118
-0.66926
0.324855
0.930873
0.27588
0.571281
-0.322681
-0.225527
0.00814366
-0.198044
0.307718
-0.884321
0.444824
-0.501981
-0.92362
-0.803634
0.372866
-0.754984
-0.968332
-0.0216975
0.819804
0.831544
-0.299317
-0.504648
-0.893547
0.0258592
0.415789
-0.43876
-0.53046
-0.903601
0.333059
0.935345
-0.496973
-0.535233
0.734297
0.703969
-0.642488
0.766362
-0.21376
-0.831238
0.975054
0.650393
-0.20453
-0.400692
-0.696413
0.217438
0.6004
0.289403
-0.507345
0.470482
-0.47104
0.30176
-0.0942333
0.461433
0.856623
0.0170071
-0.998776
-0.60331
-0.249213
-0.84005
-0.0478356
-0.451337
0.849058
-0.965413
-0.350996
-0.559093
-0.590548
0.501105
0.68868
0.873762
-0.603497
0.94379
0.0803619
-0.126187
-0.823285
0.647908
-0.301214
0.195955
-0.0431092
0.684816
-0.200668
0.379339
0.808287
0.443628
0.4371
-0.667042
-0.232594
0.14682
-0.451083
-0.305507
0.540897
0.0928888
-0.117938
0.63435
-0.495943
0.647581
-0.541992
-0.0256817
-0.19673
-0.273565
0.698177
-0.490354
-0.477977
0.667519
-0.244064
0.476617
-0.589541
-0.844678
-0.539787
-0.503814
0.733177
0.0722577
-0.11285
0.324516
0.816646
0.358841
-0.517193
-0.768898
-0.386331
-0.773599
0.4955
0.776074
-0.697059
0.300491
-0.355752
0.517127
-0.275128
0.751034
0.169793
0.186963
0.423426
0.310422
0.686227
0.73019
0.346226
-0.79775
-0.623197
0.821442
-0.43798
0.036995
-0.323801
0.762891
1.00552
-0.0693136
0.780064
-0.41465
0.448588
0.490227
0.187423
-0.228374
-0.61634
-0.897388
-0.349447
0.227188
0.88174
0.967764
0.853485
0.0904669
-0.190389
-0.0842448
0.192922
0.504719
-0.584042
-0.504138
-0.864346
-0.808775
0.0321402
0.837323
-0.348943
1.00495
0.0646901
-0.761549
0.366942
0.734872
-0.59628
-0.914308
0.447779
0.251349
-0.236265
-0.549834
0.932444
-0.628305
-0.336113
-0.494254
-0.972203
-0.892826
0.963989
0.63389
-0.88039
0.276002
-0.0341523
0.157273
0.04434
0.893072
-0.120241
0.870843
-0.936894
0.706234
0.800993
-0.835234
-0.0378399
0.990976
0.307411
-0.514435
0.391006
-0.237787
0.481726
0.99057
-0.649558
-0.520366
0.325344
-0.565118
-0.14473
0.0943583
0.723794
-0.860638
0.413554
-0.35736
0.122335
-0.0631498
-0.358595
-0.71592
-0.555499
-0.919265
-0.0898447
-0.0871586
0.0421562
0.573143
-0.657208
1.0201
0.0366324
0.231887
-0.193726
0.590289
-0.624327
0.148822
0.766129
0.295872
-0.370032
-0.261482
-0.425317
-0.0425081
-0.361087
-0.291074
-0.461797
-0.272918
-0.017343
0.408177
0.459561
-0.132924
-0.866234
-0.0246444
-0.922794
-0.447976
-0.496521
-0.893812
0.539293
-0.0570739
-0.865114
0.0483325
0.303281
0.411168
-0.631369
-0.212556
0.0635588
0.536716
0.497113
0.614799
-0.98119
0.730849
0.106009
0.29978
0.389818
-0.36547
-0.853383
-0.516649
-0.0313102
0.308453
-1.06568
0.502129
-0.397846
0.308137
0.199144
0.0112702
0.0328338
1.0428
0.450316
0.840652
0.467647
-0.562773
0.849158
0.635051
-0.53757
-0.984077
-0.211734
0.397327
-0.232229
-0.177539
0.121941
0.118421
-0.629918
0.341327
0.827182
0.771932
-0.226315
-0.804954
-0.167105
-0.755146
0.862052
-0.979877
0.232026
0.386324
0.807705
-0.959011
0.169528
0.185893
-0.626364
-0.889822
0.0890911
0.79196
0.831148
-0.842416
0.635474
0.0479045
0.635184
0.0335489
0.175097
0.823184
-0.756425
-0.56699
-0.135343
-0.00493501
-1.23427
0.191722
-0.00982503
0.303291
0.941286
0.427798
-0.97918
-0.206488
0.943671
0.282717
0.53339
-0.259356
0.858188
0.947592
0.196284
0.706459
-0.249744
-0.00969899
-0.534409
0.10291
-0.321397
0.804456
-0.627341
-1.00408
0.718811
0.558806
-0.595276
-1.09904
0.128288
-1.18491
-0.649104
0.0728685
0.48738
0.490978
-1.0735
-1.01486
0.20754
-0.0710876
-0.877419
0.625117
0.361735
0.991195
-0.730006
-0.882275
-0.827598
0.322577
-0.292065
-0.233844
-0.100611
-0.84115
-0.471358
0.193905
-0.336856
-0.120322
0.547848
-0.225276
-0.561794
0.445664
-0.627522
0.399933
0.943308
-0.947483
0.531873
0.542489
-0.248672
0.886662
0.592355
0.0308342
0.870362
0.942857
-0.363574
-0.0100538
-0.652461
0.445436
-0.167987
-0.532312
0.555532
0.647443
0.550692
0.343592
0.290969
0.162506
0.467658
-0.917077
-0.220924
-0.487235
0.868676
0.950808
0.452463
0.784584
0.859171
-0.953052
-0.277608
-0.967446
-0.796634
-0.675119
-0.663605
0.147056
-0.106651
0.323141
0.64837
-0.713091
0.0104762
0.431413
-0.139885
0.16617
0.013907
-0.347179
0.552453
0.589039
-0.667778
0.377017
-0.652911
-0.709165
0.901512
0.876011
-0.204025
-0.160153
0.374242
0.62871
-0.00868874
-0.248048
0.546321
0.448167
-0.32185
0.925639
-0.985752
0.131413
0.528068
-0.470505
-0.710229
-0.221744
-0.883013
0.791743
-0.0786877
-0.110997
0.328476
0.892413
0.949397
-0.699961
-0.935949
0.332007
-0.452947
0.231608
-0.0843859
0.170232
-0.897939
-0.85679
-0.999882
0.921314
0.589631
-0.552262
-0.707056
-0.0840268
-0.928812
-0.908968
-0.43485
-0.60662
-0.760371
0.342387
-0.486999
-0.00818822
-0.590127
0.610705
-0.372376
-0.988994
0.196569
0.61089
0.845248
0.545449
0.108133
0.385029
0.828694
0.640765
-1.00301
0.0382421
-0.958911
0.45513
0.495193
-0.224956
-0.957519
-0.161124
0.950743
0.631083
0.616328
0.910635
0.712664
-0.782725
-0.0712626
0.525549
0.985745
0.0177135
0.281161
-0.0463437
0.866784
-1.11894
0.631967
0.0433712
-0.932499
-0.972292
0.00939511
-0.76095
-0.260935
0.238777
0.560879
0.334669
0.588209
0.783597
-0.303672
0.905751
0.168773
0.64388
0.237168
0.258954
0.812494
0.492325
-0.054347
0.83998
-0.18755
-0.587477
0.573599
0.834583
0.666388
0.294766
-1.03336
-0.411956
-0.745377
-0.465117
-0.809995
-0.40182
-0.668299
-0.239675
0.421604
0.943881
-0.0948592
-0.764947
-0.426288
-0.56851
0.55244
0.104345
0.807898
-0.680367
-0.999073
0.415465
0.703312
0.0104892
0.480998
-0.249516
0.581229
0.168509
-0.390252
-0.17449
0.274878
0.104436
0.203754
0.368645
0.15124
-0.144259
-0.19881
0.137667
0.741476
-0.872063
0.431405
0.785797
-0.788939
-0.18135
-0.436425
-0.33225
-0.601564
-0.233382
-0.574388
0.388641
0.406006
0.038299
0.148023
0.392904
0.655534
-0.831563
-0.93481
-0.025761
-0.567864
0.448226
-0.263103
0.635297
-0.924735
0.470225
-0.870905
0.81686
-0.771084
0.776438
0.653712
0.309485
-0.137252
-0.777991
-0.837394
0.984258
-0.542294
0.449152
-0.482469
-0.138963
0.289333
0.240986
0.862862
0.619146
-0.327056
-0.324336
-0.426588
0.111502
0.167334
-0.700965
0.802357
0.942792
0.0770783
-0.825361
-0.365409
-0.285047
-0.0308669
0.155055
-0.905261
-0.350724
0.74079
0.557731
-0.540502
0.339282
0.54317
-0.439123
0.0880398
-0.00357604
-0.583568
-0.235699
-0.845726
0.935588
0.44092
-0.417817
0.545285
-0.374059
-0.474085
0.324008
-0.21168
0.613198
-0.761786
-0.83152
0.244055
0.461014
0.491758
-0.674161
-0.106455
-0.0709721
0.068944
0.606158
-0.541264
-0.514649
-0.890714
-0.127289
0.010956
-0.795132
-0.35266
-0.087406
-0.255827
0.716752
0.52874
-0.542168
-0.925448
0.0150516
-0.0567708
-0.60013
-0.936563
0.591894
-0.720985
0.0316219
0.258961
0.323866
0.372022
0.739641
0.608132
0.190333
-0.987975
-0.499221
0.640365
0.981926
-0.114016
-0.746294
0.575567
-0.288707
-0.913931
-0.706189
0.103669
0.280841
-0.84035
0.945069
-0.0991278
0.865762
0.519538
-0.454714
0.00128291
-0.0932868
0.999473
-0.0209769
-0.0343164
-0.488176
0.78689
-0.997848
0.507826
0.695236
0.919493
-0.924068
-0.0126899
0.101945
-0.057694
0.213164
-0.185948
0.379983
-0.776409
0.544548
-0.106406
-0.275633
0.939274
0.520042
0.921867
0.250145
0.64775
-0.0657015
0.491374
-0.129867
-0.751578
-0.187299
-0.273649
-0.662226
0.725799
-0.0297021
0.382814
-0.819562
-0.18737
0.0789622
0.372671
-0.908981
-0.276287
-0.98769
-0.0859574
-0.229786
-0.266398
-0.628952
-0.664694
0.753636
0.67707
-0.760061
-0.155952
0.337433
-0.636264
0.879944
-0.819286
0.232554
0.396344
-0.119484
0.214365
-0.607215
-0.896233
0.790356
0.934736
0.147067
0.857836
-0.762295
-0.404519
-0.539528
0.603361
0.270919
-0.562191
0.253814
0.839296
-0.567461
0.714511
-0.494442
-0.447544
0.181872
-0.499155
0.415037
-0.518841
-0.840349
-0.647737
-0.946154
-0.403439
-0.641791
0.77096
0.0655333
-0.434393
-0.470678
0.618258
-0.356133
-0.218253
-0.787912
-0.490283
0.0751787
0.996878
0.936712
-0.89857
0.635074
-0.935637
0.482538
0.674366
-0.65241
-0.855174
-0.282197
-0.0731675
-0.763159
0.345347
-0.782912
0.693382
-0.208582
0.591051
0.261018
-0.752886
-0.177923
-0.232921
-0.449731
0.58378
-0.494305
-0.514444
0.199183
-0.16062
-0.312159
-0.156306
-0.618884
0.935551
0.85444
0.633777
0.819245
-0.0604936
-0.394972
-0.799972
0.0353314
-0.13128
-0.472767
-0.0892403
0.390063
-0.194691
-0.218862
-0.290761
-0.989526
-0.203793
0.446606
0.594249
-0.266971
-0.738239
0.246971
0.274678
-0.958277
0.325843
-0.448022
-0.386227
0.0700994
-0.520325
0.509947
-0.54546
0.239761
-0.151084
-0.664177
0.10161
0.825253
-0.265567
0.445431
1.01207
0.891346
0.854223
-0.882386
-0.00135029
0.405662
-0.83304
-0.0321772
-0.97591
-0.86212
-0.522995
0.539294
0.206877
-0.615782
-0.860909
0.670795
-0.336305
0.195869
0.084025
0.581731
-0.861893
0.430407
0.106833
0.64816
-0.284471
0.367429
0.9349
0.0322336
0.478354
0.878998
0.22656
0.804702
-0.704333
0.19273
0.393944
0.369153
0.68194
0.24529
0.843553
0.686097
-0.451856
0.552223
-0.437334
0.209724
0.904658
0.366927
-0.220724
0.433706
0.176661
0.0544645
-0.169154
-0.652177
-0.31668
0.525954
-0.552236
-0.577147
0.593696
0.743669
-0.157926
-0.083352
0.519236
0.940612
-0.786315
-0.674264
0.240556
-0.980334
-0.642929
-0.033197
-0.181154
0.743775
0.775736
0.569991
-0.367612
0.603162
-0.519779
0.335182
-0.198406
-0.216811
-0.224269
1.03618
-0.672632
0.817273
0.705332
0.495278
0.555384
0.0158668
-0.404778
-0.341156
-0.392642
-0.387447
-0.219494
-0.690626
0.985972
0.746665
-0.748941
0.973325
0.989832
0.900015
-0.603894
0.241682
-0.94037
-0.723194
0.444092
-0.198785
0.812651
0.832271
0.918357
-0.0184348
-0.154909
0.379602
0.996899
0.869577
0.164735
0.17329
-0.913617
-0.713159
0.028823
-0.873054
-0.813862
0.0713692
-0.685811
-0.121489
-0.62034
-0.176084
0.485586
-0.880605
0.816443
0.763665
-0.177194
-0.352939
0.627468
0.476063
0.2718
-0.299498
0.24153
0.862401
-0.515822
-0.656935
1.00167
-0.619617
0.89206
-0.748567
0.0393526
0.745036
0.438759
0.791864
-0.905145
0.114242
0.630651
0.865251
-0.882915
0.100363
0.678791
0.211722
-0.583949
0.839023
0.0443767
0.0262373
-0.711606
-0.124753
0.968985
-0.433378
-0.318617
-0.505627
-0.423865
-0.581285
0.690033
0.717082
0.143116
0.753549
0.484167
-0.145299
0.170395
0.647106
-0.853029
0.960645
0.741521
0.205848
0.428424
0.445745
0.392871
0.72006
0.171001
0.212011
-0.438714
-0.382488
-0.779338
-0.56603
-0.254437
-0.482533
0.50592
-0.49005
0.75344
-0.539573
0.0584357
-0.6
-0.600602
-0.600222
-0.6
-0.6
-0.6
-0.6
-0.6
-0.6
-0.6
-0.6
-0.6
-0.6
-0.6
-0.6
-0.6
-0.6
-0.6
-0.6
-0.6
-0.6
-0.6
-0.6
-0.6
-0.6
-0.6
-0.6
-0.6
-0.6
-0.600602
-0.600201
-0.6
-0.6
-0.6
-0.6
-0.6
-0.6
-0.6
-0.6
-0.6
-0.6
-0.6
-0.6
-0.6
-0.6
-0.6
-0.6
-0.6
-0.6
-0.6
-0.6
-0.6
-0.6
-0.6
-0.6
-0.6
-0.600074
-0.600602
-0.600185
-0.6
-0.6
-0.6
-0.6
-0.6
-0.6
-0.6
-0.6
-0.6
-0.6
-0.6
-0.6
-0.6
-0.6
-0.6
-0.6
-0.6
-0.6
-0.6
-0.6
-0.6
-0.6
-0.6
-0.6
-0.6
-0.600185
-0.600601
-0.60013
-0.6
-0.6
-0.6
-0.6
-0.6
-0.6
-0.6
-0.6
-0.6
-0.6
-0.6
-0.6
-0.6
-0.6
-0.6
-0.6
-0.6
-0.6
-0.6
-0.6
-0.6
-0.6
-0.6
-0.6
-0.6
-0.600185
-0.600551
-0.60002
-0.6
-0.6
-0.6
-0.6
-0.6
-0.6
-0.6
-0.6
-0.6
-0.6
-0.6
-0.6
-0.6
-0.6
-0.6
-0.6
-0.6
-0.6
-0.6
-0.6
-0.6
-0.6
-0.6
-0.6
-0.6
-0.600303
-0.600546
-0.6
-0.6
-0.6
-0.6
-0.6
-0.6
-0.6
-0.6
-0.6
-0.6
-0.6
-0.6
-0.6
-0.6
-0.6
-0.6
-0.6
-0.6
-0.6
-0.6
-0.6
-0.6
-0.6
-0.6
-0.6
-0.6
-0.600389
-0.600544
-0.6
-0.6
-0.6
-0.6
-0.6
-0.6
-0.6
-0.6
-0.6
-0.6
-0.6
-0.6
-0.6
-0.6
-0.6
-0.6
-0.6
-0.6
-0.6
-0.6
-0.6
-0.6
-0.6
-0.6
-0.6
-0.6
-0.600544
-0.6005
-0.6
-0.6
-0.6
-0.6
-0.6
-0.6
-0.6
-0.6
-0.6
-0.6
-0.6
-0.6
-0.6
-0.6
-0.6
-0.6
-0.6
-0.6
-0.6
-0.6
-0.6
-0.6
-0.6
-0.6
-0.6
-0.6
-0.600544
-0.600356
-0.6
-0.6
-0.6
-0.6
-0.6
-0.6
-0.6
-0.6
-0.6
-0.6
-0.6
-0.6
-0.6
-0.6
-0.6
-0.6
-0.6
-0.6
-0.6
-0.6
-0.6
-0.6
-0.6
-0.6
-0.6
-0.600018
-0.600549
-0.600185
-0.6
-0.6
-0.6
-0.6
-0.6
-0.6
-0.6
-0.6
-0.6
-0.6
-0.6
-0.6
-0.6
-0.6
-0.6
-0.6
-0.6
-0.6
-0.6
-0.6
-0.6
-0.6
-0.6
-0.6
-0.6
-0.600128
-0.600594
-0.60009
-0.6
-0.6
-0.6
-0.6
-0.6
-0.6
-0.6
-0.6
-0.6
-0.6
-0.6
-0.6
-0.6
-0.6
-0.6
-0.6
-0.6
-0.6
-0.6
-0.6
-0.6
-0.6
-0.6
-0.6
-0.6
-0.600238
-0.600594
-0.6
-0.6
-0.6
-0.6
-0.6
-0.6
-0.6
-0.6
-0.6
-0.6
-0.6
-0.6
-0.6
-0.6
-0.6
-0.6
-0.6
-0.6
-0.6
-0.6
-0.6
-0.6
-0.6
-0.6
-0.6
-0.6
-0.6
-0.6
-0.6
-0.6
-0.6
-0.6
-0.6
-0.6
-0.6
-0.6
-0.6
-0.6
-0.6
-0.6
-0.6
-0.6
-0.6
-0.6
-0.6
-0.6
-0.6
-0.6
-0.6
-0.6
-0.6
-0.6
-0.6
-0.6
-0.6
-0.6
-0.6
-0.6
-0.6
-0.6
-0.6
-0.6
-0.6
-0.6
-0.6
-0.6
-0.6
-0.6
-0.6
-0.6
-0.6
-0.6
-0.6
-0.6
-0.6
-0.6
-0.6
-0.6
-0.6
-0.6
-0.6
-0.6
-0.6
-0.6
-0.6
-0.6
-0.6
-0.6
-0.6
-0.6
-0.6
-0.6
-0.6
-0.6
-0.6
-0.6
-0.6
-0.6
-0.6
-0.6
-0.6
-0.6
-0.6
-0.6
-0.6
-0.6
-0.6
-0.6
-0.6
-0.6
-0.6
-0.6
-0.6
-0.6
-0.6
-0.6
-0.6
-0.6
-0.6
-0.6
-0.6
-0.6
-0.6
-0.6
-0.6
-0.6
-0.6
-0.6
-0.6
-0.6
-0.6
-0.6
-0.6
-0.6
-0.6
-0.6
-0.6
-0.6
-0.6
-0.6
-0.6
-0.6
-0.6
-0.6
-0.6
-0.6
-0.6
-0.6
-0.6
-0.6
-0.6
-0.6
-0.6
-0.6
-0.6
-0.6
-0.6
-0.6
-0.6
-0.6
-0.6
-0.6
-0.6
-0.6
-0.6
-0.6
-0.6
-0.6
-0.6
-0.6
-0.6
-0.6
-0.6
-0.6
-0.6
-0.6
-0.6
-0.6
-0.6
-0.6
-0.6
-0.6
-0.6
-0.6
-0.6
-0.6
-0.6
-0.6
-0.6
-0.6
-0.6
-0.6
-0.6
-0.6
-0.6
-0.6
-0.6
-0.6
-0.6
-0.6
-0.6
-0.6
-0.6
-0.6
-0.6
-0.6
-0.6
-0.6
-0.6
-0.6
-0.6
-0.6
-0.6
-0.6
-0.6
-0.6
-0.6
-0.6
-0.6
-0.6
-0.6
-0.6
-0.6
-0.6
-0.6
-0.6
-0.6
-0.6
-0.6
-0.6
-0.6
-0.6
-0.6
-0.6
-0.6
-0.6
-0.6
-0.6
-0.6
-0.6
-0.6
-0.6
-0.6
-0.6
-0.6
-0.6
-0.6
-0.6
-0.6
-0.6
-0.6
-0.6
-0.6
-0.6
-0.6
-0.6
-0.6
-0.6
-0.6
-0.6
-0.6
-0.6
-0.6
-0.6
-0.6
-0.6
-0.6
-0.6
-0.6
-0.6
-0.6
-0.6
-0.6
-0.6
-0.6
-0.6
-0.6
-0.6
-0.6
-0.6
-0.6
-0.6
-0.6
-0.6
-0.6
-0.6
-0.6
-0.6
-0.6
-0.6
-0.6
-0.6
-0.6
-0.6
-0.6
-0.6
-0.6
-0.6
-0.6
-0.6
-0.6
-0.6
-0.6
-0.6
-0.6
-0.6
-0.6
-0.6
-0.6
-0.6
-0.6
-0.6
-0.6
-0.6
-0.6
-0.6
-0.6
-0.6
-0.6
-0.6
-0.6
-0.6
-0.6
-0.6
-0.6
-0.6
-0.6
-0.6
-0.6
-0.6
-0.6
-0.6
-0.6
-0.6
-0.6
-0.6
-0.6
-0.6
-0.6
-0.6
-0.6
-0.6
-0.6
-0.6
-0.6
-0.6
-0.6
-0.6
-0.6
-0.6
-0.6
-0.6
-0.6
-0.6
-0.6
-0.6
-0.6
-0.6
-0.6
-0.6
-0.6
-0.6
-0.6
-0.6
-0.6
-0.6
-0.6
-0.6
-0.6
-0.6
-0.6
-0.6
-0.6
-0.6
-0.6
-0.6
-0.6
-0.6
-0.6
-0.6
-0.6
-0.6
-0.6
-0.6
-0.6
-0.6
-0.6
-0.6
-0.6
-0.6
-0.6
-0.6
-0.6
-0.6
-0.6
-0.6
-0.6
-0.6
-0.6
-0.6
-0.6
-0.6
-0.6
-0.6
-0.6
-0.6
-0.6
-0.6
-0.6
-0.6
-0.6
-0.6
-0.6
-0.6
-0.6
-0.6
-0.6
-0.6
-0.6
-0.6
-0.6
-0.6
-0.6
-0.6
-0.6
-0.6
-0.6
-0.6
-0.6
-0.6
-0.6
-0.6
-0.6
-0.6
-0.6
-0.6
-0.6
-0.6
-0.6
-0.6
-0.6
-0.6
-0.6
-0.6
-0.6
-0.6
-0.6
-0.6
-0.6
-0.6
-0.6
-0.6
-0.6
-0.6
-0.6
-0.6
-0.6
-0.6
-0.6
-0.6
-0.6
-0.6
-0.6
-0.6
-0.6
-0.6
-0.6
-0.6
-0.6
-0.6
-0.6
-0.6
-0.6
-0.6
-0.6
-0.6
-0.6
-0.6
-0.6
-0.6
-0.6
-0.6
-0.6
-0.6
-0.6
-0.6
-0.6
-0.6
-0.6
-0.6
-0.6
-0.6
-0.6
-0.6
-0.6
-0.6
-0.6
-0.6
-0.6
-0.6
-0.6
-0.6
-0.6
-0.6
-0.6
-0.6
-0.6
-0.6
-0.6
-0.6
-0.6
-0.6
-0.6
-0.6
-0.6
-0.6
-0.6
-0.6
-0.6
-0.6
-0.6
-0.6
-0.6
-0.6
-0.6
-0.6
-0.6
-0.6
-0.6
-0.6
-0.6
-0.6
-0.6
-0.6
-0.6
-0.6
-0.6
-0.6
-0.6
-0.6
-0.6
-0.6
-0.6
-0.6
-0.6
-0.6
-0.6
-0.6
-0.6
-0.6
-0.6
-0.6
-0.6
-0.6
-0.6
-0.6
-0.6
-0.6
-0.6
-0.6
-0.6
-0.6
-0.6
-0.6
-0.6
-0.6
-0.6
-0.6
-0.6
-0.6
-0.6
-0.6
-0.6
-0.6
-0.6
-0.6
-0.6
-0.6
-0.6
-0.6
-0.6
-0.6
-0.6
-0.6
-0.6
-0.6
-0.6
-0.6
-0.6
-0.6
-0.6
-0.6
-0.6
-0.6
-0.6
-0.6
-0.6
-0.6
-0.6
-0.6
-0.6
-0.6
-0.6
-0.6
-0.6
-0.6
-0.6
-0.6
-0.6
-0.6
-0.6
-0.6
-0.6
-0.6
-0.6
-0.6
-0.6
-0.6
-0.6
-0.6
-0.6
-0.6
-0.6
-0.6
-0.6
-0.6
-0.6
-0.6
-0.6
-0.6
-0.6
-0.6
-0.6
-0.6
-0.6
-0.6
-0.6
-0.6
-0.6
-0.6
-0.6
-0.6
-0.6
-0.6
-0.6
-0.6
-0.6
-0.6
-0.6
-0.6
-0.6
-0.6
-0.6
-0.6
-0.6
-0.6
-0.6
-0.6
-0.6
-0.6
-0.6
-0.6
-0.6
-0.6
-0.6
-0.6
-0.6
-0.6
-0.6
-0.6
-0.6
-0.6
-0.6
-0.6
-0.6
-0.6
-0.6
-0.6
-0.6
-0.6
-0.6
-0.6
-0.6
-0.6
-0.6
-0.6
-0.6
-0.6
-0.6
-0.6
-0.6
-0.6
-0.6
-0.6
-0.6
-0.6
-0.6
-0.6
-0.6
-0.6
-0.6
-0.6
-0.6
-0.6
-0.6
-0.6
-0.6
-0.6
-0.6
-0.6
-0.6
-0.6
-0.6
-0.6
-0.6
-0.6
-0.6
-0.6
-0.6
-0.6
-0.6
-0.6
-0.6
-0.6
-0.6
-0.6
-0.6
-0.6
-0.6
-0.6
-0.6
-0.6
-0.6
-0.6
-0.6
-0.6
-0.6
-0.6
-0.6
-0.6
-0.6
-0.6
-0.6
-0.6
-0.6
-0.6
-0.6
-0.6
-0.6
-0.6
-0.6
-0.6
-0.6
-0.6
-0.6
-0.6
-0.6
-0.6
-0.6
-0.6
-0.6
-0.6
-0.6
-0.6
-0.6
-0.6
-0.6
-0.6
-0.6
-0.6
-0.6
-0.6
-0.6
-0.6
-0.6
-0.6
-0.6
-0.6
-0.6
-0.6
-0.6
-0.6
-0.6
-0.6
-0.6
-0.6
-0.6
-0.6
-0.6
-0.6
-0.6
-0.6
-0.6
-0.6
-0.6
-0.6
-0.6
-0.6
-0.6
-0.6
-0.6
-0.6
-0.6
-0.6
-0.6
-0.6
-0.6
-0.6
-0.6
-0.6
-0.6
-0.6
-0.6
-0.6
-0.6
-0.6
-0.6
-0.6
-0.6
-0.6
-0.6
-0.6
-0.6
-0.6
-0.6
-0.6
-0.6
-0.6
-0.6
-0.6
-0.6
-0.6
-0.6
-0.6
-0.6
-0.6
-0.6
-0.6
-0.6
-0.6
-0.6
-0.6
-0.6
-0.6
-0.6
-0.6
-0.6
-0.6
-0.6
-0.6
-0.6
-0.6
-0.6
-0.6
-0.6
-0.6
-0.6
-0.6
-0.6
-0.6
-0.6
-0.6
-0.6
-0.6
-0.6
-0.6
-0.6
-0.6
-0.6
-0.6
-0.6
-0.6
-0.6
-0.6
-0.6
-0.6
-0.6
-0.6
-0.6
-0.6
-0.6
-0.6
-0.6
-0.6
-0.6
-0.6
-0.6
-0.6
-0.6
-0.6
-0.6
-0.6
-0.6
-0.6
-0.6
-0.6
-0.6
-0.6
-0.6
-0.6
-0.6
-0.6
-0.6
-0.6
-0.6
-0.6
-0.6
-0.6
-0.6
-0.6
-0.6
-0.6
-0.6
-0.6
-0.6
-0.6
-0.6
-0.6
-0.6
-0.6
-0.6
-0.6
-0.6
-0.6
-0.6
-0.6
-0.6
-0.6
-0.6
-0.6
-0.6
-0.6
-0.6
-0.6
-0.6
-0.6
-0.6
-0.6
-0.6
-0.6
-0.6
-0.6
-0.6
-0.6
-0.6
-0.6
-0.6
-0.6
-0.6
-0.6
-0.6
-0.6
-0.6
-0.6
-0.6
-0.6
-0.6
-0.6
-0.6
-0.6
-0.6
-0.6
-0.6
-0.6
-0.6
-0.6
-0.6
-0.6
-0.6
-0.6
-0.6
-0.6
-0.6
-0.6
-0.6
-0.6
-0.6
-0.6
-0.6
-0.6
-0.6
-0.6
-0.6
-0.6
-0.6
-0.6
-0.6
-0.6
-0.6
-0.6
-0.6
-0.6
-0.6
-0.6
-0.6
-0.6
-0.6
-0.6
-0.6
-0.6
-0.6
-0.6
-0.6
-0.6
-0.6
-0.6
-0.6
-0.6
-0.6
-0.6
-0.6
-0.6
-0.6
-0.6
-0.6
-0.6
-0.6
-0.6
-0.6
-0.6
-0.6
-0.6
-0.6
-0.6
-0.6
-0.6
-0.6
-0.6
-0.6
-0.6
-0.6
-0.6
-0.6
-0.6
-0.6
-0.6
-0.6
-0.6
-0.6
-0.6
-0.6
-0.6
-0.6
-0.6
-0.6
-0.6
-0.6
-0.6
-0.6
-0.6
-0.6
-0.6
-0.6
-0.6
-0.6
-0.6
-0.6
-0.6
-0.6
-0.6
-0.6
-0.6
-0.6
-0.6
-0.6
-0.6
-0.6
-0.6
-0.6
-0.6
-0.6
-0.6
-0.6
-0.6
-0.6
-0.6
-0.6
-0.6
-0.6
-0.6
-0.6
-0.6
-0.6
-0.6
-0.6
-0.6
-0.6
-0.6
-0.6
-0.6
-0.6
-0.6
-0.6
-0.6
-0.6
-0.6
-0.6
-0.6
-0.6
-0.6
-0.6
-0.6
-0.6
-0.6
-0.6
-0.6
-0.6
-0.6
-0.6
-0.6
-0.6
-0.6
-0.6
-0.6
-0.6
-0.6
-0.6
-0.6
-0.6
-0.6
-0.6
-0.6
-0.6
-0.6
-0.6
-0.6
-0.6
-0.6
-0.6
-0.6
-0.6
-0.6
-0.6
-0.6
-0.6
-0.6
-0.6
-0.6
-0.6
-0.6
-0.6
-0.6
-0.6
-0.6
-0.6
-0.6
-0.6
-0.6
-0.6
-0.6
-0.6
-0.6
-0.6
-0.6
-0.6
-0.6
-0.6
-0.6
-0.6
-0.6
-0.6
-0.6
-0.6
-0.6
-0.6
-0.6
-0.6
-0.6
-0.6
-0.6
-0.6
-0.6
-0.6
-0.6
-0.6
-0.6
-0.6
-0.6
-0.6
-0.6
-0.6
-0.6
-0.6
-0.6
-0.6
-0.6
-0.6
-0.6
-0.6
-0.6
-0.6
-0.6
-0.6
-0.6
-0.6
-0.6
-0.6
-0.6
-0.6
-0.6
-0.6
-0.6
-0.6
-0.6
-0.6
-0.6
-0.6
-0.6
-0.6
-0.6
-0.6
-0.6
-0.6
-0.6
-0.6
-0.6
-0.6
-0.6
-0.6
-0.6
-0.6
-0.6
-0.6
-0.6
-0.6
-0.6
-0.6
-0.6
-0.6
-0.6
-0.6
-0.6
-0.6
-0.6
-0.6
-0.6
-0.6
-0.6
-0.6
-0.6
-0.6
-0.6
-0.6
-0.6
-0.6
-0.6
-0.6
-0.6
-0.6
-0.6
-0.6
-0.6
-0.6
-0.6
-0.6
-0.6
-0.6
-0.6
-0.6
-0.6
-0.6
-0.6
-0.6
-0.6
-0.6
-0.6
-0.6
-0.6
-0.6
-0.6
-0.6
-0.6
-0.6
-0.6
-0.6
-0.6
-0.6
-0.6
-0.6
-0.6
-0.6
-0.6
-0.6
-0.6
-0.6
-0.6
-0.6
-0.6
-0.6
-0.6
-0.6
-0.6
-0.6
-0.6
-0.6
-0.6
-0.6
-0.6
-0.6
-0.6
-0.6
-0.6
-0.6
-0.6
-0.6
-0.6
-0.6
-0.6
-0.6
-0.6
-0.6
-0.6
-0.6
-0.6
-0.6
-0.6
-0.6
-0.6
-0.6
-0.6
-0.6
-0.6
-0.6
-0.6
-0.6
-0.6
-0.6
-0.6
-0.6
-0.6
-0.6
-0.6
-0.6
-0.6
-0.6
-0.6
-0.6
-0.6
-0.6
-0.6
-0.6
-0.6
-0.6
-0.6
-0.6
-0.6
-0.6
-0.6
-0.6
-0.6
-0.6
-0.6
-0.6
-0.6
-0.6
-0.6
-0.6
-0.6
-0.6
-0.6
-0.6
-0.6
-0.6
-0.6
-0.6
-0.6
-0.6
-0.6
-0.6
-0.6
-0.6
-0.6
-0.6
-0.6
-0.6
-0.6
-0.6
-0.6
-0.6
-0.6
-0.6
-0.6
-0.6
-0.6
-0.6
-0.6
-0.6
-0.6
-0.6
-0.6
-0.6
-0.6
-0.6
-0.6
-0.6
-0.6
-0.6
-0.6
-0.6
-0.6
-0.6
-0.6
-0.6
-0.6
-0.6
-0.6
-0.6
-0.6
-0.6
-0.6
-0.6
-0.6
-0.6
-0.6
-0.6
-0.6
-0.6
-0.6
-0.6
-0.6
-0.6
-0.6
-0.6
-0.6
-0.6
-0.6
-0.6
-0.6
-0.6
-0.6
-0.6
-0.6
-0.6
-0.6
-0.6
-0.6
-0.6
-0.6
-0.6
-0.6
-0.6
-0.6
-0.6
-0.6
-0.6
-0.6
-0.6
-0.6
-0.6
-0.6
-0.6
-0.6
-0.6
-0.6
-0.6
-0.6
-0.6
-0.6
-0.6
-0.6
-0.6
-0.6
-0.6
-0.6
-0.6
-0.6
-0.6
-0.6
-0.6
-0.6
-0.6
-0.6
-0.6
-0.6
-0.6
-0.6
-0.6
-0.6
-0.6
-0.6
-0.6
-0.6
-0.6
-0.6
-0.6
-0.6
-0.6
-0.6
-0.6
-0.6
-0.6
-0.6
-0.6
-0.6
-0.6
-0.6
-0.6
-0.6
-0.6
-0.6
-0.6
-0.6
-0.6
-0.6
-0.6
-0.6
-0.6
-0.6
-0.6
-0.6
-0.6
-0.6
-0.6
-0.6
-0.6
-0.6
-0.6
-0.6
-0.6
-0.6
-0.6
-0.6
-0.6
-0.6
-0.6
-0.6
-0.6
-0.6
-0.6
-0.6
-0.6
-0.6
-0.6
-0.6
-0.6
-0.6
-0.6
-0.6
-0.6
-0.6
-0.6
-0.6
-0.6
-0.6
-0.6
-0.6
-0.6
-0.6
-0.6
-0.6
-0.6
-0.6
-0.6
-0.6
-0.6
-0.6
-0.6
-0.6
-0.6
-0.6
-0.6
-0.6
-0.6
-0.6
-0.6
-0.6
-0.6
-0.6
-0.6
-0.6
-0.6
-0.6
-0.6
-0.6
-0.6
-0.6
-0.6
-0.6
-0.6
-0.6
-0.6
-0.6
-0.6
-0.6
-0.6
-0.6
-0.6
-0.6
-0.6
-0.6
-0.6
-0.6
-0.6
-0.6
-0.6
-0.6
-0.6
-0.6
-0.6
-0.6
-0.6
-0.6
-0.6
-0.6
-0.6
-0.6
-0.6
-0.6
-0.6
-0.6
-0.6
-0.6
-0.6
-0.6
-0.6
-0.6
-0.6
-0.6
-0.6
-0.6
-0.6
-0.6
-0.6
-0.6
-0.6
-0.6
-0.6
-0.6
-0.6
-0.6
-0.6
-0.6
-0.6
-0.6
-0.6
-0.6
-0.6
-0.6
-0.6
-0.6
-0.6
-0.6
-0.6
-0.6
-0.6
-0.6
-0.6
-0.6
-0.6
-0.6
-0.6
-0.6
-0.6
-0.6
-0.6
-0.6
-0.6
-0.6
-0.6
-0.6
-0.6
-0.6
-0.6
-0.6
-0.6
-0.6
-0.6
-0.6
-0.6
-0.6
-0.6
-0.6
-0.6
-0.6
-0.6
-0.6
-0.6
-0.6
-0.6
-0.6
-0.6
-0.6
-0.6
-0.6
-0.6
-0.6
-0.6
-0.6
-0.6
-0.6
-0.6
-0.6
-0.6
-0.6
-0.6
-0.6
-0.6
-0.6
-0.6
-0.6
-0.6
-0.6
-0.6
-0.6
-0.6
-0.6
-0.6
-0.6
-0.6
-0.6
-0.6
-0.6
-0.6
-0.6
-0.6
-0.6
-0.6
-0.6
-0.6
-0.6
-0.6
-0.6
-0.6
-0.6
-0.6
-0.6
-0.6
-0.6
-0.6
-0.6
-0.6
-0.6
-0.6
-0.6
-0.6
-0.6
-0.6
-0.6
-0.6
-0.6
-0.6
-0.6
-0.6
-0.6
-0.6
-0.6
-0.6
-0.6
-0.6
-0.6
-0.6
-0.6
-0.6
-0.6
-0.6
-0.6
-0.6
-0.6
-0.6
-0.6
-0.6
-0.6
-0.6
-0.6
-0.6
-0.6
-0.6
-0.6
-0.6
-0.6
-0.6
-0.6
-0.6
-0.6
-0.6
-0.6
-0.6
-0.6
-0.6
-0.6
-0.6
-0.6
-0.6
-0.6
-0.6
-0.6
-0.6
-0.6
-0.6
-0.6
-0.6
-0.6
-0.6
-0.6
-0.6
-0.6
-0.6
-0.6
-0.6
-0.6
-0.6
-0.6
-0.6
-0.6
-0.6
-0.6
-0.6
-0.6
-0.6
-0.6
-0.6
-0.6
-0.6
-0.6
-0.6
-0.6
-0.6
-0.6
-0.6
-0.6
-0.6
-0.6
-0.6
-0.6
-0.6
-0.6
-0.6
-0.6
-0.6
-0.6
-0.6
-0.6
-0.6
-0.6
-0.6
-0.6
-0.6
-0.6
-0.6
-0.6
-0.6
-0.6
-0.6
-0.6
-0.6
-0.6
-0.6
-0.6
-0.6
-0.6
-0.6
-0.6
-0.6
-0.6
-0.6
-0.6
-0.6
-0.6
-0.6
-0.6
-0.6
-0.6
-0.6
-0.6
-0.6
-0.6
-0.6
-0.6
-0.6
-0.6
-0.6
-0.6
-0.6
-0.6
-0.6
-0.6
-0.6
-0.6
-0.6
-0.6
-0.6
-0.6
-0.6
-0.6
-0.6
-0.6
-0.6
-0.6
-0.6
-0.6
-0.6
-0.6
-0.6
-0.6
-0.6
-0.6
-0.6
-0.6
-0.6
-0.6
-0.6
-0.6
-0.6
-0.6
-0.6
-0.6
-0.6
-0.6
-0.6
-0.6
-0.6
-0.6
-0.6
-0.6
-0.6
-0.6
-0.6
-0.6
-0.6
-0.6
-0.6
-0.6
-0.6
-0.6
-0.6
-0.6
-0.6
-0.6
-0.6
-0.6
-0.6
-0.6
-0.6
-0.6
-0.6
-0.6
-0.6
-0.6
-0.6
-0.6
-0.6
-0.6
-0.6
-0.6
-0.6
-0.6
-0.6
-0.6
-0.6
-0.6
-0.6
-0.6
-0.6
-0.6
-0.6
-0.6
-0.6
-0.6
-0.6
-0.6
-0.6
-0.6
-0.6
-0.6
-0.6
-0.6
-0.6
-0.6
-0.6
-0.6
-0.6
-0.6
-0.6
-0.6
-0.6
-0.6
-0.6
-0.6
-0.6
-0.6
-0.6
-0.6
-0.6
-0.6
-0.6
-0.6
-0.6
-0.6
-0.6
-0.6
-0.6
-0.6
-0.6
-0.6
-0.6
-0.6
-0.6
-0.6
-0.6
-0.6
-0.6
-0.6
-0.6
-0.6
-0.6
-0.6
-0.6
-0.6
-0.6
-0.6
-0.6
-0.6
-0.6
-0.6
-0.6
-0.6
-0.6
-0.6
-0.6
-0.6
-0.6
-0.6
-0.6
-0.6
-0.6
-0.6
-0.6
-0.6
-0.6
-0.6
-0.6
-0.6
-0.6
-0.6
-0.6
-0.6
-0.6
-0.6
-0.6
-0.6
-0.6
-0.6
-0.6
-0.6
-0.6
-0.6
-0.6
-0.6
-0.6
-0.6
-0.6
-0.6
-0.6
-0.6
-0.6
-0.6
-0.6
-0.6
-0.6
-0.6
-0.6
-0.6
-0.6
-0.6
-0.6
-0.6
-0.6
-0.6
-0.6
-0.6
-0.6
-0.6
-0.6
-0.6
-0.6
-0.6
-0.6
-0.6
-0.6
-0.6
-0.6
-0.6
-0.6
-0.6
-0.6
-0.6
-0.6
-0.6
-0.6
-0.6
-0.6
-0.6
-0.6
-0.6
-0.6
-0.6
-0.6
-0.6
-0.6
-0.6
-0.6
-0.6
-0.6
-0.6
-0.6
-0.6
-0.6
-0.6
-0.6
-0.6
-0.6
-0.6
-0.6
-0.6
-0.6
-0.6
-0.6
-0.6
-0.6
-0.6
-0.6
-0.6
-0.6
-0.6
-0.6
-0.6
-0.6
-0.6
-0.6
-0.6
-0.6
-0.6
-0.6
-0.6
-0.6
-0.6
-0.6
-0.6
-0.6
-0.6
-0.6
-0.6
-0.6
-0.6
-0.6
-0.6
-0.6
-0.6
-0.6
-0.6
-0.6
-0.6
-0.6
-0.6
-0.6
-0.6
-0.6
-0.6
-0.6
-0.6
-0.6
-0.6
-0.6
-0.6
-0.6
-0.6
-0.6
-0.6
-0.6
-0.6
-0.6
-0.6
-0.6
-0.6
-0.6
-0.6
-0.6
-0.6
-0.6
-0.6
-0.6
-0.6
-0.6
-0.6
-0.6
-0.6
-0.6
-0.6
-0.6
-0.6
-0.6
-0.6
-0.6
-0.6
-0.6
-0.6
-0.6
-0.6
-0.6
-0.6
-0.6
-0.6
-0.6
-0.6
-0.6
-0.6
-0.6
-0.6
-0.6
-0.6
-0.6
-0.6
-0.6
-0.6
-0.6
-0.6
-0.6
-0.6
-0.6
-0.6
-0.6
-0.6
-0.6
-0.6
-0.6
-0.6
-0.6
-0.6
-0.6
-0.6
-0.6
-0.6
-0.6
-0.6
-0.6
-0.6
-0.6
-0.6
-0.6
-0.6
-0.6
-0.6
-0.6
-0.6
-0.6
-0.6
-0.6
-0.6
-0.6
-0.6
-0.6
-0.6
-0.6
-0.6
-0.6
-0.6
-0.6
-0.6
-0.6
-0.6
-0.6
-0.6
-0.6
-0.6
-0.6
-0.6
-0.6
-0.6
-0.6
-0.6
-0.6
-0.6
-0.6
-0.6
-0.6
-0.6
-0.6
-0.6
-0.6
-0.6
-0.6
-0.6
-0.6
-0.6
-0.6
-0.6
-0.6
-0.6
-0.6
-0.6
-0.6
-0.6
-0.6
-0.6
-0.6
-0.6
-0.6
-0.6
-0.6
-0.6
-0.6
-0.6
-0.6
-0.6
-0.6
-0.6
-0.6
-0.6
-0.6
-0.6
-0.6
-0.6
-0.6
-0.6
-0.6
-0.6
-0.6
-0.6
-0.6
-0.6
-0.6
-0.6
-0.6
-0.6
-0.6
-0.6
-0.6
-0.6
-0.6
-0.6
-0.6
-0.6
-0.6
-0.6
-0.6
-0.6
-0.6
-0.6
-0.6
-0.6
-0.6
-0.6
-0.6
-0.6
-0.6
-0.6
-0.6
-0.6
-0.6
-0.6
-0.6
-0.6
-0.6
-0.6
-0.6
-0.6
-0.6
-0.6
-0.6
-0.6
-0.6
-0.6
-0.6
-0.6
-0.6
-0.6
-0.6
-0.6
-0.6
-0.6
-0.6
-0.6
-0.6
-0.6
-0.6
-0.6
-0.6
-0.6
-0.6
-0.6
-0.6
-0.6
-0.6
-0.6
-0.6
-0.6
-0.6
-0.6
-0.6
-0.6
-0.6
-0.6
-0.6
-0.6
-0.6
-0.6
-0.6
-0.6
-0.6
-0.6
-0.6
-0.6
-0.6
-0.6
-0.6
-0.6
-0.6
-0.6
-0.6
-0.6
-0.6
-0.6
-0.6
-0.6
-0.6
-0.6
-0.6
-0.6
-0.6
-0.6
-0.6
-0.6
-0.6
-0.6
-0.6
-0.6
-0.6
-0.6
-0.6
-0.6
-0.6
-0.6
-0.6
-0.6
-0.6
-0.6
-0.6
-0.6
-0.6
-0.6
-0.6
-0.6
-0.6
-0.6
-0.6
-0.6
-0.6
-0.6
-0.6
-0.6
-0.6
-0.6
-0.6
-0.6
-0.6
-0.6
-0.6
-0.6
-0.6
-0.6
-0.6
-0.6
-0.6
-0.6
-0.6
-0.6
-0.6
-0.6
-0.6
-0.6
-0.6
-0.6
-0.6
-0.6
-0.6
-0.6
-0.6
-0.6
-0.6
-0.6
-0.6
-0.6
-0.6
-0.6
-0.6
-0.6
-0.6
-0.6
-0.6
-0.6
-0.6
-0.6
-0.6
-0.6
-0.6
-0.6
-0.6
-0.6
-0.6
-0.6
-0.6
-0.6
-0.6
-0.6
-0.6
-0.6
-0.6
-0.6
-0.6
-0.6
-0.6
-0.6
-0.6
-0.6
-0.6
-0.6
-0.6
-0.6
-0.6
-0.6
-0.6
-0.6
-0.6
-0.6
-0.6
-0.6
-0.6
-0.6
-0.6
-0.6
-0.6
-0.6
-0.6
-0.6
-0.6
-0.6
-0.6
-0.6
-0.6
-0.6
-0.6
-0.6
-0.6
-0.6
-0.6
-0.6
-0.6
-0.6
-0.6
-0.6
-0.6
-0.6
-0.6
-0.6
-0.6
-0.6
-0.6
-0.6
-0.6
-0.6
-0.6
-0.6
-0.6
-0.6
-0.6
-0.6
-0.6
-0.6
-0.6
-0.6
-0.6
-0.6
-0.6
-0.6
-0.6
-0.6
-0.6
-0.6
-0.6
-0.6
-0.6
-0.6
-0.6
-0.6
-0.6
-0.6
-0.6
-0.6
-0.6
-0.6
-0.6
-0.6
-0.6
-0.6
-0.6
-0.6
-0.6
-0.6
-0.6
-0.6
-0.6
-0.6
-0.6
-0.6
-0.6
-0.6
-0.6
-0.6
-0.6
-0.6
-0.6
-0.6
-0.6
-0.6
-0.6
-0.6
-0.6
-0.6
-0.6
-0.6
-0.6
-0.6
-0.6
-0.6
-0.6
-0.6
-0.6
-0.6
-0.6
-0.6
-0.6
-0.6
-0.6
-0.6
-0.6
-0.6
-0.6
-0.6
-0.6
-0.6
-0.6
-0.6
-0.6
-0.6
-0.6
-0.6
-0.6
-0.6
-0.6
-0.6
-0.6
-0.6
-0.6
-0.6
-0.6
-0.6
-0.6
-0.6
-0.6
-0.6
-0.6
-0.6
-0.6
-0.6
-0.6
-0.6
-0.6
-0.6
-0.6
-0.6
-0.6
-0.6
-0.6
-0.6
-0.6
-0.6
-0.6
-0.6
-0.6
-0.6
-0.6
-0.6
-0.6
-0.6
-0.6
-0.6
-0.6
-0.6
-0.6
-0.6
-0.6
-0.6
-0.6
-0.6
-0.6
-0.6
-0.6
-0.6
-0.6
-0.6
-0.6
-0.6
-0.6
-0.6
-0.6
-0.6
-0.6
-0.6
-0.6
-0.6
-0.6
-0.6
-0.6
-0.6
-0.6
-0.6
-0.6
-0.6
-0.6
-0.6
-0.6
-0.6
-0.6
-0.6
-0.6
-0.6
-0.6
-0.6
-0.6
-0.6
-0.6
-0.6
-0.6
-0.6
-0.6
-0.6
-0.6
-0.6
-0.6
-0.6
-0.6
-0.6
-0.6
-0.6
-0.6
-0.6
-0.6
-0.6
-0.6
-0.6
-0.6
-0.6
-0.6
-0.6
-0.6
-0.6
-0.6
-0.6
-0.6
-0.6
-0.6
-0.6
-0.6
-0.6
-0.6
-0.6
-0.6
-0.6
-0.6
-0.6
-0.6
-0.6
-0.6
-0.6
-0.6
-0.6
-0.6
-0.6
-0.6
-0.6
-0.6
-0.6
-0.6
-0.6
-0.6
-0.6
-0.6
-0.6
-0.6
-0.6
-0.6
-0.6
-0.6
-0.6
-0.6
-0.6
-0.6
-0.6
-0.6
-0.6
-0.6
-0.6
-0.6
-0.6
-0.6
-0.6
-0.6
-0.6
-0.6
-0.6
-0.6
-0.6
-0.6
-0.6
-0.6
-0.6
-0.6
-0.6
-0.6
-0.6
-0.6
-0.6
-0.6
-0.6
-0.6
-0.6
-0.6
-0.6
-0.6
-0.6
-0.6
-0.6
-0.6
-0.6
-0.6
-0.6
-0.6
-0.6
-0.6
-0.6
-0.6
-0.6
-0.6
-0.6
-0.6
-0.6
-0.6
-0.6
-0.6
-0.6
-0.6
-0.6
-0.6
-0.6
-0.6
-0.6
-0.6
-0.6
-0.6
-0.6
-0.6
-0.6
-0.6
-0.6
-0.6
-0.6
-0.6
-0.6
-0.6
-0.6
-0.6
-0.6
-0.6
-0.6
-0.6
-0.6
-0.6
-0.6
-0.6
-0.6
-0.6
-0.6
-0.6
-0.6
-0.6
-0.6
-0.6
-0.6
-0.6
-0.6
-0.6
-0.6
-0.6
-0.6
-0.6
-0.6
-0.6
-0.6
-0.6
-0.6
-0.6
-0.6
-0.6
-0.6
-0.6
-0.6
-0.6
-0.6
-0.6
-0.6
-0.6
-0.6
-0.6
-0.6
-0.6
-0.6
-0.6
-0.6
-0.6
-0.6
-0.6
-0.6
-0.6
-0.6
-0.6
-0.6
-0.6
-0.6
-0.6
-0.6
-0.6
-0.6
-0.6
-0.6
-0.6
-0.6
-0.6
-0.6
-0.6
-0.6
-0.6
-0.6
-0.6
-0.6
-0.6
-0.6
-0.6
-0.6
-0.6
-0.6
-0.6
-0.6
-0.6
-0.6
-0.6
-0.6
-0.6
-0.6
-0.6
-0.6
-0.6
-0.6
-0.6
-0.6
-0.6
-0.6
-0.6
-0.6
-0.6
-0.6
-0.6
-0.6
-0.6
-0.6
-0.6
-0.6
-0.6
-0.6
-0.6
-0.6
-0.6
-0.6
-0.6
-0.6
-0.6
-0.6
-0.6
-0.6
-0.6
-0.6
-0.6
-0.6
-0.6
-0.6
-0.6
-0.6
-0.6
-0.6
-0.6
-0.6
-0.6
-0.6
-0.6
-0.6
-0.6
-0.6
-0.6
-0.6
-0.6
-0.6
-0.6
-0.6
-0.6
-0.6
-0.6
-0.6
-0.6
-0.6
-0.6
-0.6
-0.6
-0.6
-0.6
-0.6
-0.6
-0.6
-0.6
-0.6
-0.6
-0.6
-0.6
-0.6
-0.6
-0.6
-0.6
-0.6
-0.6
-0.6
-0.6
-0.6
-0.6
-0.6
-0.6
-0.6
-0.6
-0.6
-0.6
-0.6
-0.6
-0.6
-0.6
-0.6
-0.6
-0.6
-0.6
-0.6
-0.6
-0.6
-0.6
-0.6
-0.6
-0.6
-0.6
-0.6
-0.6
-0.6
-0.6
-0.6
-0.6
-0.6
-0.6
-0.6
-0.6
-0.6
-0.6
-0.6
-0.6
-0.6
-0.6
-0.6
-0.6
-0.6
-0.6
-0.6
-0.6
-0.6
-0.6
-0.6
-0.6
-0.6
-0.6
-0.6
-0.6
-0.6
-0.6
-0.6
-0.6
-0.6
-0.6
-0.6
-0.6
-0.6
-0.6
-0.6
-0.6
-0.6
-0.6
-0.6
-0.6
-0.6
-0.6
-0.6
-0.6
-0.6
-0.6
-0.6
-0.6
-0.6
-0.6
-0.6
-0.6
-0.6
-0.6
-0.6
-0.6
-0.6
-0.6
-0.6
-0.6
-0.6
-0.6
-0.6
-0.6
-0.6
-0.6
-0.6
-0.6
-0.6
-0.6
-0.6
-0.6
-0.6
-0.6
-0.6
-0.6
-0.6
-0.6
-0.6
-0.6
-0.6
-0.6
-0.6
-0.6
-0.6
-0.6
-0.6
-0.6
-0.6
-0.6
-0.6
-0.6
-0.6
-0.6
-0.6
-0.6
-0.6
-0.6
-0.6
-0.6
-0.6
-0.6
-0.6
-0.6
-0.6
-0.6
-0.6
-0.6
-0.6
-0.6
-0.6
-0.6
-0.6
-0.6
-0.6
-0.6
-0.6
-0.6
-0.6
-0.6
-0.6
-0.6
-0.6
-0.6
-0.6
-0.6
-0.6
-0.6
-0.6
-0.6
-0.6
-0.6
-0.6
-0.6
-0.6
-0.6
-0.6
-0.6
-0.6
-0.6
-0.6
-0.6
-0.6
-0.6
-0.6
-0.6
-0.6
-0.6
-0.6
-0.6
-0.6
-0.6
-0.6
-0.6
-0.6
-0.6
-0.6
-0.6
-0.6
-0.6
-0.6
-0.6
-0.6
-0.6
-0.6
-0.6
-0.6
-0.6
-0.6
-0.6
-0.6
-0.6
-0.6
-0.6
-0.6
-0.6
-0.6
-0.6
-0.6
-0.6
-0.6
-0.6
-0.6
-0.6
-0.6
-0.6
-0.6
-0.6
-0.6
-0.6
-0.6
-0.6
-0.6
-0.6
-0.6
-0.6
-0.6
-0.6
-0.6
-0.6
-0.6
-0.6
-0.6
-0.6
-0.6
-0.6
-0.6
-0.6
-0.6
-0.6
-0.6
-0.6
-0.6
-0.6
-0.6
-0.6
-0.6
-0.6
-0.6
-0.6
-0.6
-0.6
-0.6
-0.6
-0.6
-0.6
-0.6
-0.6
-0.6
-0.6
-0.6
-0.6
-0.6
-0.6
-0.6
-0.6
-0.6
-0.6
-0.6
-0.6
-0.6
-0.6
-0.6
-0.6
-0.6
-0.6
-0.6
-0.6
-0.6
-0.6
-0.6
-0.6
-0.6
-0.6
-0.6
-0.6
-0.6
-0.6
-0.6
-0.6
-0.6
-0.6
-0.6
-0.6
-0.6
-0.6
-0.6
-0.6
-0.6
-0.6
-0.6
-0.6
-0.6
-0.6
-0.6
-0.6
-0.6
-0.6
-0.6
-0.6
-0.6
-0.6
-0.6
-0.6
-0.6
-0.6
-0.6
-0.6
-0.6
-0.6
-0.6
-0.6
-0.6
-0.6
-0.6
-0.6
-0.6
-0.6
-0.6
-0.6
-0.6
-0.6
-0.6
-0.6
-0.6
-0.6
-0.6
-0.6
-0.6
-0.6
-0.6
-0.6
-0.6
-0.6
-0.6
-0.6
-0.6
-0.6
-0.6
-0.6
-0.6
-0.6
-0.6
-0.6
-0.6
-0.6
-0.6
-0.6
-0.6
-0.6
-0.6
-0.6
-0.6
-0.6
-0.6
-0.6
-0.6
-0.6
-0.6
-0.6
-0.6
-0.6
-0.6
-0.6
-0.6
-0.6
-0.6
-0.6
-0.6
-0.6
-0.6
-0.6
-0.6
-0.6
-0.6
-0.6
-0.6
-0.6
-0.6
-0.6
-0.6
-0.6
-0.6
-0.6
-0.6
-0.6
-0.6
-0.6
-0.6
-0.6
-0.6
-0.6
-0.6
-0.6
-0.6
-0.6
-0.6
-0.6
-0.6
-0.6
-0.6
-0.6
-0.6
-0.6
-0.6
-0.6
-0.6
-0.6
-0.6
-0.6
-0.6
-0.6
-0.6
-0.6
-0.6
-0.6
-0.6
-0.6
-0.6
-0.6
-0.6
-0.6
-0.6
-0.6
-0.6
-0.6
-0.6
-0.6
-0.6
-0.6
-0.6
-0.6
-0.6
-0.6
-0.6
-0.6
-0.6
-0.6
-0.6
-0.6
-0.6
-0.6
-0.6
-0.6
-0.6
-0.6
-0.6
-0.6
-0.6
-0.6
-0.6
-0.6
-0.6
-0.6
-0.6
-0.6
-0.6
-0.6
-0.6
-0.6
-0.6
-0.6
-0.6
-0.6
-0.6
-0.6
-0.6
-0.6
-0.6
-0.6
-0.6
-0.6
-0.6
-0.6
-0.6
-0.6
-0.6
-0.6
-0.6
-0.6
-0.6
-0.6
-0.6
-0.6
-0.6
-0.6
-0.6
-0.6
-0.6
-0.6
-0.6
-0.6
-0.6
-0.6
-0.6
-0.6
-0.6
-0.6
-0.6
-0.6
-0.6
-0.6
-0.6
-0.6
-0.6
-0.6
-0.6
-0.6
-0.6
-0.6
-0.6
-0.6
-0.6
-0.6
-0.6
-0.6
-0.6
-0.6
-0.6
-0.6
-0.6
-0.6
-0.6
-0.6
-0.6
-0.6
-0.6
-0.6
-0.6
-0.6
-0.6
-0.6
-0.6
-0.6
-0.6
-0.6
-0.6
-0.6
-0.6
-0.6
-0.6
-0.6
-0.6
-0.6
-0.6
-0.6
-0.6
-0.6
-0.6
-0.6
-0.6
-0.6
-0.6
-0.6
-0.6
-0.6
-0.6
-0.6
-0.6
-0.6
-0.6
-0.6
-0.6
-0.6
-0.6
-0.6
-0.6
-0.6
-0.6
-0.6
-0.6
-0.6
-0.6
-0.6
-0.6
-0.6
-0.6
-0.6
-0.6
-0.6
-0.6
-0.6
-0.6
-0.6
-0.6
-0.6
-0.6
-0.6
-0.6
-0.6
-0.6
-0.6
-0.6
-0.6
-0.6
-0.6
-0.6
-0.6
-0.6
-0.6
-0.6
-0.6
-0.6
-0.6
-0.6
-0.6
-0.6
-0.6
-0.6
-0.6
-0.6
-0.6
-0.6
-0.6
-0.6
-0.6
-0.6
-0.6
-0.6
-0.6
-0.6
-0.6
-0.6
-0.6
-0.6
-0.6
-0.6
-0.6
-0.6
-0.6
-0.6
-0.6
-0.6
-0.6
-0.6
-0.6
-0.6
-0.6
-0.6
-0.6
-0.6
-0.6
-0.6
-0.6
-0.6
-0.6
-0.6
-0.6
-0.6
-0.6
-0.6
-0.6
-0.6
-0.6
-0.6
-0.6
-0.6
-0.6
-0.6
-0.6
-0.6
-0.6
-0.6
-0.6
-0.6
-0.6
-0.6
-0.6
-0.6
-0.6
-0.6
-0.6
-0.6
-0.6
-0.6
-0.6
-0.6
-0.6
-0.6
-0.6
-0.6
-0.6
-0.6
-0.6
-0.6
-0.6
-0.6
-0.6
-0.6
-0.6
-0.6
-0.6
-0.6
-0.6
-0.6
-0.6
-0.6
-0.6
-0.6
-0.6
-0.6
-0.6
-0.6
-0.6
-0.6
-0.6
-0.6
-0.6
-0.6
-0.6
-0.6
-0.6
-0.6
-0.6
-0.6
-0.6
-0.6
-0.6
-0.6
-0.6
-0.6
-0.6
-0.6
-0.6
-0.6
-0.6
-0.6
-0.6
-0.6
-0.6
-0.6
-0.6
-0.6
-0.6
-0.6
-0.6
-0.6
-0.6
-0.6
-0.6
-0.6
-0.6
-0.6
-0.6
-0.6
-0.6
-0.6
-0.6
-0.6
-0.6
-0.6
-0.6
-0.6
-0.6
-0.6
-0.6
-0.6
-0.6
-0.6
-0.6
-0.6
-0.6
-0.6
-0.6
-0.6
-0.6
-0.6
-0.6
-0.6
-0.6
-0.6
-0.6
-0.6
-0.6
-0.6
-0.6
-0.6
-0.6
-0.6
-0.6
-0.6
-0.6
-0.6
-0.6
-0.6
-0.6
-0.6
-0.6
-0.6
-0.6
-0.6
-0.6
-0.6
-0.6
-0.6
-0.6
-0.6
-0.6
-0.6
-0.6
-0.6
-0.6
-0.6
-0.6
-0.6
-0.6
-0.6
-0.6
-0.6
-0.6
-0.6
-0.6
-0.6
-0.6
-0.6
-0.6
-0.6
-0.6
-0.6
-0.6
-0.6
-0.6
-0.6
-0.6
-0.6
-0.6
-0.6
-0.6
-0.6
-0.6
-0.6
-0.6
-0.6
-0.6
-0.6
-0.6
-0.6
-0.6
-0.6
-0.6
-0.6
-0.6
-0.6
-0.6
-0.6
-0.6
-0.6
-0.6
-0.6
-0.6
-0.6
-0.6
-0.6
-0.6
-0.6
-0.6
-0.6
-0.6
-0.6
-0.6
-0.6
-0.6
-0.6
-0.6
-0.6
-0.6
-0.6
-0.6
-0.6
-0.6
-0.6
-0.6
-0.6
-0.6
-0.6
-0.6
-0.6
-0.6
-0.6
-0.6
-0.6
-0.6
-0.6
-0.6
-0.6
-0.6
-0.6
-0.6
-0.6
-0.6
-0.6
-0.6
-0.6
-0.6
-0.6
-0.6
-0.6
-0.6
-0.6
-0.6
-0.6
-0.6
-0.6
-0.6
-0.6
-0.6
-0.6
-0.6
-0.6
-0.6
-0.6
-0.6
-0.6
-0.6
-0.6
-0.6
-0.6
-0.6
-0.6
-0.6
-0.6
-0.6
-0.6
-0.6
-0.6
-0.6
-0.6
-0.6
-0.6
-0.6
-0.6
-0.6
-0.6
-0.6
-0.6
-0.6
-0.6
-0.6
-0.6
-0.6
-0.6
-0.6
-0.6
-0.6
-0.6
-0.6
-0.6
-0.6
-0.6
-0.6
-0.6
-0.6
-0.6
-0.6
-0.6
-0.6
-0.6
-0.6
-0.6
-0.6
-0.6
-0.6
-0.6
-0.6
-0.6
-0.6
-0.6
-0.6
-0.6
-0.6
-0.6
-0.6
-0.6
-0.6
-0.6
-0.6
-0.6
-0.6
-0.6
-0.6
-0.6
-0.6
-0.6
-0.6
-0.6
-0.6
-0.6
-0.6
-0.6
-0.6
-0.6
-0.6
-0.6
-0.6
-0.6
-0.6
-0.6
-0.676842
-0.602045
-0.591645
-0.635645
-0.630006
-0.660574
-0.635004
-0.617688
-0.669326
-0.546691
-0.600071
-0.6
-0.6
-0.6
-0.6
-0.6
-0.599037
-0.556549
-0.601394
-0.535702
-0.588406
-0.606294
-0.570825
-0.555921
-0.605935
-0.532164
-0.600018
-0.6
-0.6
-0.6
-0.6
-0.6
-0.604367
